-8.307828102260828018e-04
-2.593535464257001877e-04
1.997995423153042793e-03
-1.840666373027488589e-04
-4.822397022508084774e-04
-2.724860329180955887e-03
1.112098339945077896e-03
4.448376712389290333e-04
9.492016979493200779e-04
-2.815972780808806419e-03
5.651418468914926052e-04
2.916746074333786964e-03
-7.832286064513027668e-04
-4.373347852379083633e-03
2.924062311649322510e-03
1.390989054925739765e-04
-3.433534177020192146e-03
-6.910090334713459015e-03
-9.727809811010956764e-04
1.034618238918483257e-03
-3.903488686773926020e-04
4.216528031975030899e-04
-5.100184353068470955e-04
-3.350279002916067839e-04
-6.057689897716045380e-04
-3.104369970969855785e-04
1.539832446724176407e-03
2.422049408778548241e-03
4.301968438085168600e-04
-9.511677781119942665e-04
-1.071172737283632159e-04
4.881529093836434186e-05
-1.874255249276757240e-03
6.666530680377036333e-05
7.901671779109165072e-05
2.337228070246055722e-04
2.191995008615776896e-04
-1.943899260368198156e-04
5.498523823916912079e-04
-4.264389630407094955e-03
-1.166848698630928993e-03
3.696609754115343094e-03
3.544756327755749226e-04
-5.007672123610973358e-03
3.611424472182989120e-04
-1.794445794075727463e-03
7.048796862363815308e-03
-1.143723056884482503e-04
-9.716933709569275379e-04
9.111190447583794594e-04
1.516388379968702793e-03
6.393695366568863392e-04
-2.672044327482581139e-03
2.027803100645542145e-03
-1.830576729844324291e-05
-2.866119146347045898e-03
2.347795758396387100e-03
-4.215782682877033949e-04
-2.111906651407480240e-03
2.337556652491912246e-04
-4.939384234603494406e-05
-3.694875631481409073e-03
4.274963866919279099e-04
-3.712229081429541111e-04
-5.944828153587877750e-04
-7.798827253282070160e-03
-2.114515518769621849e-03
-6.068371003493666649e-04
3.148340038023889065e-04
-2.016741549596190453e-03
-8.223053300753235817e-04
4.483764991164207458e-03
-1.578616909682750702e-03
-6.118363817222416401e-04
1.392642036080360413e-03
-7.710438687354326248e-03
-4.001446999609470367e-03
-7.503798697143793106e-04
5.507561145350337029e-04
-2.300053136423230171e-03
7.844174397177994251e-04
4.014706239104270935e-03
2.862725174054503441e-03
2.835639053955674171e-03
-8.032423211261630058e-04
-2.183616859838366508e-03
-4.733234818559139967e-04
7.101439405232667923e-04
-3.469710063654929399e-04
2.233703155070543289e-03
6.882199668325483799e-04
1.887881546281278133e-03
-7.413913263007998466e-04
-2.068973146378993988e-03
-1.161013380624353886e-03
-4.388137313071638346e-04
5.439927190309390426e-05
-1.136993872933089733e-03
-3.944767639040946960e-03
-1.485468121245503426e-03
3.898124909028410912e-03
3.551349742338061333e-03
5.802899133414030075e-03
3.290385007858276367e-03
-3.721757326275110245e-03
-5.034042056649923325e-03
1.127803581766784191e-03
9.284878033213317394e-04
-3.203758038580417633e-03
-8.678157464601099491e-04
1.492504728958010674e-03
2.999203279614448547e-03
5.101924296468496323e-03
6.432203372241929173e-05
1.615159912034869194e-03
7.305574399651959538e-05
-2.408658387139439583e-03
9.225240210071206093e-04
8.705385262146592140e-04
-7.562156533822417259e-04
-5.466749280458316207e-05
-1.674427767284214497e-03
-6.332991179078817368e-04
-4.526954609900712967e-03
5.353737506084144115e-04
-8.096454665064811707e-03
5.390430451370775700e-04
1.820634584873914719e-03
5.703511415049433708e-04
5.350966239348053932e-05
-1.028666272759437561e-03
3.643379313871264458e-04
-1.312048640102148056e-03
-5.915320944041013718e-03
-4.406619118526577950e-04
1.422538043698295951e-04
2.439936622977256775e-03
-5.664781783707439899e-04
-8.935434161685407162e-04
-5.914876819588243961e-04
2.035973448073491454e-04
-2.311574760824441910e-03
2.140239521395415068e-04
-9.866526670521125197e-05
2.428518637316301465e-04
3.197162644937634468e-03
4.606735601555556059e-04
-6.859398563392460346e-04
-4.801413742825388908e-04
1.670299207034986466e-05
1.388039207085967064e-03
2.390987210674211383e-04
-2.783615840598940849e-03
6.066766218282282352e-04
4.850679833907634020e-04
1.197685196530073881e-05
-2.295783953741192818e-03
5.266724154353141785e-03
1.932229846715927124e-03
-6.690197624266147614e-03
-1.050483435392379761e-03
7.116911583580076694e-04
4.044368863105773926e-03
3.137379884719848633e-03
3.145817900076508522e-03
-1.079289795598015189e-04
-1.634184038266539574e-03
-4.320518346503376961e-04
-2.783207455649971962e-04
6.168342079035937786e-04
-1.737652055453509092e-04
7.980617810972034931e-04
-6.465974147431552410e-04
2.307076938450336456e-03
2.504737640265375376e-04
1.605629950063303113e-04
-1.856278628110885620e-03
-3.570565255358815193e-03
4.333646211307495832e-04
1.030680723488330841e-03
4.554447077680379152e-04
9.287978755310177803e-04
-1.718657673336565495e-03
5.496350349858403206e-04
-5.819842408527620137e-05
-3.268280997872352600e-04
3.454677644185721874e-04
5.803459789603948593e-04
1.833281829021871090e-03
3.026512684300541878e-03
5.680667236447334290e-03
-8.709950488992035389e-04
6.807123427279293537e-04
3.723171830642968416e-04
7.809171220287680626e-04
4.525861004367470741e-04
2.612239040900021791e-04
-5.485214060172438622e-04
-1.440339372493326664e-03
1.372096361592411995e-03
-2.657666045706719160e-04
1.571778324432671070e-03
1.157286351372022182e-05
2.311630378244444728e-04
2.131008077412843704e-03
2.838025393430143595e-04
5.541032878682017326e-04
-3.310951171442866325e-03
-5.251403898000717163e-03
4.888369236141443253e-03
5.578848067671060562e-04
-8.565073367208242416e-04
-3.401488298550248146e-03
-5.138092208653688431e-03
-2.488622441887855530e-03
-2.913262927904725075e-03
-2.882168337237089872e-04
-7.854945724830031395e-04
-4.257773689460009336e-04
3.809920453932136297e-04
1.126597356051206589e-02
1.879334100522100925e-03
1.541628735139966011e-04
-6.374393706209957600e-05
1.480554230511188507e-03
-2.558212261646986008e-03
-1.503919251263141632e-03
-5.467947339639067650e-04
-4.786632023751735687e-03
9.450963116250932217e-04
-8.803696255199611187e-05
2.254800638183951378e-03
1.147491857409477234e-03
-7.240768172778189182e-05
1.520607038401067257e-03
-4.221334238536655903e-04
1.276736875297501683e-04
-9.334215428680181503e-04
5.747010436607524753e-05
2.263421774841845036e-04
-1.566034392453730106e-03
-1.093394705094397068e-03
-4.359443264547735453e-04
-5.327042526914738119e-05
-1.509796245954930782e-03
1.143384841270744801e-03
2.613711403682827950e-03
3.300292650237679482e-03
1.456669066101312637e-03
-3.677458735182881355e-04
3.104534698650240898e-04
-1.418296131305396557e-03
-2.099941339110955596e-04
-1.724591944366693497e-03
1.097547588869929314e-03
-3.238780191168189049e-03
