1.136233913712203503e-03
-1.882619690150022507e-03
7.423463393934071064e-04
4.171884502284228802e-04
-2.839897060766816139e-03
-2.631391864269971848e-03
-7.184622227214276791e-04
6.159198819659650326e-04
-1.791278365999460220e-03
-3.339295508340001106e-04
2.270594704896211624e-03
1.342325413133949041e-04
-1.844195998273789883e-03
-4.430549743119627237e-04
9.610078996047377586e-04
2.835787599906325340e-03
2.508058445528149605e-03
1.076207263395190239e-03
-3.906601574271917343e-03
-9.358874522149562836e-04
2.659607271198183298e-04
-3.030054736882448196e-03
-1.803402788937091827e-03
-5.671067629009485245e-04
3.425949020311236382e-03
-1.215376658365130424e-03
5.835432093590497971e-04
5.505267181433737278e-04
-3.442621557042002678e-03
2.338310451932557044e-07
3.079867456108331680e-03
-1.206094864755868912e-03
-1.276385737583041191e-03
-4.093718249350786209e-03
1.192143652588129044e-03
-8.493179921060800552e-04
4.895707126706838608e-03
-1.642264542169868946e-03
-2.112922258675098419e-03
-3.805248066782951355e-03
-2.053634496405720711e-03
1.941039372468367219e-04
4.077811317984014750e-04
-1.333188149146735668e-03
-1.880869502201676369e-03
-5.657087545841932297e-03
2.770689570752438158e-05
-3.096990054473280907e-03
-2.869378309696912766e-03
4.118877463042736053e-03
-1.983528025448322296e-03
-2.374559408053755760e-03
-3.837081836536526680e-03
-1.846364350058138371e-03
-4.490483086556196213e-03
-1.992019591853022575e-03
-1.576299255248159170e-04
5.799288046546280384e-04
8.726720698177814484e-04
3.655442735180258751e-03
-2.903087763115763664e-03
4.692338872700929642e-03
-3.890938358381390572e-03
2.395738702034577727e-04
3.591022395994514227e-04
-1.640459173358976841e-03
3.341806586831808090e-05
-7.512668380513787270e-04
-6.971702678129076958e-04
2.974365779664367437e-04
4.225462325848639011e-04
-4.222540301270782948e-04
1.632214756682515144e-03
-1.071082777343690395e-03
1.301291398704051971e-03
1.884897472336888313e-03
-3.912411630153656006e-03
2.005219575949013233e-04
-2.753200475126504898e-03
-1.376018044538795948e-03
-4.723525780718773603e-04
-1.065571908839046955e-03
5.597589770331978798e-04
-6.306160939857363701e-04
-1.997744664549827576e-03
-1.154508208855986595e-03
-2.544735325500369072e-03
2.735512796789407730e-03
-4.671914502978324890e-03
-2.656004391610622406e-03
1.416555256582796574e-03
-5.183478933759033680e-04
2.562861656770110130e-03
-3.728591836988925934e-04
5.416041822172701359e-04
2.295124810189008713e-03
-3.192525400663726032e-05
-9.369618055643513799e-05
6.789820326957851648e-05
8.449854794889688492e-04
-2.095361473038792610e-03
-5.105202086269855499e-03
-1.430433127097785473e-03
5.400476977229118347e-03
-7.930194842629134655e-04
7.202079286798834801e-04
-2.632895484566688538e-03
2.082168124616146088e-03
9.189569973386824131e-04
3.834139788523316383e-04
9.241314837709069252e-04
3.713218611665070057e-04
2.857116516679525375e-03
-1.340775866992771626e-03
-2.045108885795343667e-05
9.725031559355556965e-04
1.438686507754027843e-03
-1.516322518000379205e-04
-1.779529382474720478e-03
1.407912699505686760e-03
1.093989820219576359e-03
-1.857907482190057635e-04
-1.526628388091921806e-03
-5.549158435314893723e-03
1.850855769589543343e-03
1.037330133840441704e-03
8.157984702847898006e-04
-6.921280873939394951e-04
3.427857882343232632e-04
-1.150352647528052330e-03
-2.457326510921120644e-03
6.790765328332781792e-04
6.764771533198654652e-04
1.649100449867546558e-03
-2.659564604982733727e-03
-1.796562457457184792e-03
-3.661851515062153339e-04
1.222281134687364101e-03
-1.174697768874466419e-03
-7.564435945823788643e-04
-2.336234087124466896e-03
-2.015648642554879189e-03
-8.629874791949987411e-04
-3.683361574076116085e-04
1.085979514755308628e-03
2.224252792075276375e-03
-1.674392144195735455e-03
6.278853397816419601e-04
-4.533932078629732132e-03
-4.732323286589235067e-04
1.024875091388821602e-03
-9.563168277963995934e-04
-2.306672249687835574e-04
-1.152527634985744953e-03
-9.340633405372500420e-04
-3.854871261864900589e-03
1.182018779218196869e-03
-6.278645596466958523e-04
-6.640068022534251213e-04
-5.600966978818178177e-04
-2.100508427247405052e-03
-1.235832576639950275e-03
-6.933088880032300949e-04
-6.061358144506812096e-04
-6.711663445457816124e-04
5.266131483949720860e-04
1.663014991208910942e-03
-1.043951604515314102e-03
-3.072416409850120544e-03
-6.445347680710256100e-04
-7.202124106697738171e-04
-1.587497681612148881e-04
-7.946334662847220898e-04
1.039459952153265476e-03
5.920242620049975812e-05
-6.088071968406438828e-04
-1.680920715443789959e-03
1.080322777852416039e-03
5.497992970049381256e-04
6.852587684988975525e-04
-4.444200021680444479e-04
6.905612535774707794e-04
-2.228697267128154635e-04
-2.837549429386854172e-03
2.177661517634987831e-03
2.212518593296408653e-03
4.124824190512299538e-04
1.223135855980217457e-03
-1.150437165051698685e-03
-4.283072892576456070e-03
-5.113472579978406429e-04
1.494447467848658562e-03
-2.722101635299623013e-04
-3.357812238391488791e-04
2.401155419647693634e-03
2.754217712208628654e-04
3.820934798568487167e-04
-1.188028953038156033e-03
-1.647000462980940938e-04
1.928734127432107925e-03
-4.619823303073644638e-04
-1.080568064935505390e-03
2.627903304528445005e-04
-1.670039491727948189e-03
1.102203270420432091e-03
4.001166205853223801e-03
-1.949774799868464470e-03
1.302260626107454300e-02
2.238731598481535912e-03
-1.594330416992306709e-03
-5.146531038917601109e-04
-5.326618440449237823e-03
5.066842422820627689e-04
7.178514497354626656e-04
-2.486950543243438005e-04
-4.582037217915058136e-03
2.781586372293531895e-04
6.385981105268001556e-04
8.899094536900520325e-04
4.373086558189243078e-04
-1.852927613072097301e-03
-6.984143692534416914e-05
2.284808397234883159e-05
1.235644915141165257e-03
-5.680749309249222279e-04
-4.056313075125217438e-03
-5.030086031183600426e-04
-1.241928257513791323e-04
-3.393085207790136337e-04
3.724623704329133034e-03
6.692048162221908569e-03
-1.288062339881435037e-04
2.538309199735522270e-04
-2.219218760728836060e-03
1.206111395731568336e-03
5.393078899942338467e-04
-8.256958244601264596e-05
-6.361380219459533691e-04
3.242729464545845985e-03
-9.079239098355174065e-04
-1.676765154115855694e-03
8.263427298516035080e-04
2.638900885358452797e-03
-4.334650933742523193e-03
1.739898929372429848e-03
-1.256060670129954815e-03
1.101903850212693214e-03
-3.808120382018387318e-04
-1.579365879297256470e-02
-3.872724482789635658e-04
1.919900416396558285e-03
9.386448655277490616e-04
1.333665451966226101e-03
-3.654319152701646090e-04
3.647498553618788719e-03
3.216450568288564682e-03
