3.670006617903709412e-02
-8.404461294412612915e-02
8.916742354631423950e-02
9.161350317299365997e-03
1.030319556593894958e-01
-2.679136954247951508e-02
-4.996329080313444138e-04
-1.103582754731178284e-01
5.293818656355142593e-03
-4.520619660615921021e-02
-2.770326286554336548e-02
1.231968170031905174e-03
3.068558312952518463e-02
6.446714978665113449e-03
1.102928817272186279e-01
4.365905374288558960e-02
2.799634821712970734e-02
-3.684864565730094910e-02
-2.640002407133579254e-02
-7.055191695690155029e-02
2.107386477291584015e-02
7.592726498842239380e-02
-3.753081336617469788e-02
-5.592742934823036194e-02
-4.867489915341138840e-03
4.060177132487297058e-02
-6.149735301733016968e-02
8.038679510354995728e-02
-2.852757647633552551e-02
-5.313345044851303101e-02
-2.222456224262714386e-02
1.846949011087417603e-02
3.279056400060653687e-02
2.296552993357181549e-02
-6.598227471113204956e-02
-1.621541939675807953e-02
-2.810375392436981201e-02
-1.132980957627296448e-01
-3.435244411230087280e-02
1.536454306915402412e-03
-9.581689722836017609e-03
-6.952011585235595703e-02
3.744517639279365540e-02
-1.650336757302284241e-02
4.133822768926620483e-02
-3.267277777194976807e-02
-2.684873156249523163e-02
4.663976281881332397e-02
4.299288243055343628e-02
-1.061565876007080078e-01
-6.172799691557884216e-02
-1.057375222444534302e-01
-8.468902111053466797e-02
-5.096486210823059082e-02
-5.683812126517295837e-02
8.662869222462177277e-03
1.183734312653541565e-01
-7.302192598581314087e-02
2.298622019588947296e-02
7.086318917572498322e-03
4.278665781021118164e-02
-9.856662154197692871e-02
-4.655645415186882019e-02
6.464385241270065308e-02
