-1.436900311091449112e-05
5.093167419545352459e-04
-1.281578151974827051e-04
-2.759066228463780135e-05
-5.749122647102922201e-05
-1.424936577677726746e-03
5.654709457303397357e-05
-1.350270904367789626e-04
7.683725561946630478e-04
1.415352598996832967e-04
-7.362682663369923830e-05
8.498728129779919982e-05
3.259854565840214491e-05
-1.049787097144871950e-04
-3.221585211576893926e-05
6.357463280437514186e-05
7.343801553361117840e-04
5.399959991336800158e-05
-2.342729712836444378e-04
-4.114920375286601484e-05
-2.502198331058025360e-03
-5.645103010465390980e-05
4.926372639602050185e-06
2.645652566570788622e-04
8.716962474863976240e-05
1.980606321012601256e-04
2.982986734423320740e-05
-1.957260683411732316e-04
-3.248818393331021070e-05
1.457697799196466804e-04
-2.044714165094774216e-06
-1.189067770610563457e-04
3.967741577071137726e-05
-7.186484290286898613e-04
6.061113672330975533e-04
4.307842391426675022e-05
-1.712355151539668441e-04
-2.174141845898702741e-04
-1.725208421703428030e-04
-2.367282868362963200e-04
-1.494292053394019604e-03
6.188434781506657600e-06
2.126202889485284686e-04
9.144786745309829712e-04
-8.315462036989629269e-05
-7.436661690007895231e-05
-7.039649062789976597e-05
-3.329866158310323954e-04
1.540824887342751026e-04
-1.121984823839738965e-04
1.245969615411013365e-04
-5.672752740792930126e-04
-9.453200618736445904e-05
8.205970516428351402e-05
3.813904477283358574e-04
9.492674871580675244e-05
-1.096301857614889741e-04
1.910445571411401033e-04
5.055853980593383312e-04
2.725633676163852215e-04
2.106653264490887523e-04
6.628529808949679136e-05
6.787689198972657323e-05
3.241880622226744890e-04
-1.534465409349650145e-04
1.277740084333345294e-04
-3.852352892863564193e-05
-9.898441203404217958e-05
2.993759117089211941e-04
-1.144780326285399497e-04
1.513647148385643959e-04
4.658579709939658642e-04
9.156079272543138359e-07
1.111880847020074725e-04
-1.988591975532472134e-05
2.427993167657405138e-04
-9.721714013721793890e-05
1.426648814231157303e-04
1.767994835972785950e-04
1.921428629430010915e-04
1.273965899599716067e-04
8.519881703250575811e-06
1.941640803124755621e-04
-1.346453937003389001e-04
4.882577923126518726e-05
1.066685654222965240e-04
-1.456231402698904276e-04
-1.970246667042374611e-04
5.658352506543451454e-07
3.137207240797579288e-04
-9.517482794763054699e-06
2.866536087822169065e-04
-6.843879236839711666e-05
1.233724760822951794e-03
1.866312668425962329e-04
4.344715125625953078e-05
-1.835327420849353075e-04
5.278447497403249145e-05
-1.032605068758130074e-03
-3.786096058320254087e-04
-3.009382635354995728e-05
3.124325303360819817e-03
-2.601127489469945431e-04
-3.945322896470315754e-05
-5.944820441072806716e-05
5.223136977292597294e-04
-1.481328072259202600e-04
-1.316797570325434208e-04
2.695452712941914797e-04
-1.437017781427130103e-04
-9.664231038186699152e-05
-1.021361240418627858e-04
1.070839585736393929e-03
9.926409984473139048e-05
-1.454639947041869164e-03
-3.856079420074820518e-04
3.276347124483436346e-04
3.291177272330969572e-04
-5.833988780068466440e-06
2.294800506206229329e-04
1.208391404361464083e-04
1.013837681966833770e-04
6.324588321149349213e-04
-2.066234010271728039e-04
-2.550861099734902382e-04
2.210576167271938175e-05
2.063730789814144373e-06
-2.358276105951517820e-04
1.573147019371390343e-04
2.717286115512251854e-04
-1.533167232992127538e-04
-2.144203026546165347e-04
-2.337958576390519738e-04
-1.832409470807760954e-04
-2.456565425745793618e-06
2.081573620671406388e-04
6.406446482287719846e-05
1.919423812068998814e-04
-1.344708143733441830e-04
3.818109165877103806e-03
-2.640896476805210114e-03
-4.916994384984718636e-06
2.100086749123875052e-05
-2.955534728243947029e-05
3.100158937741070986e-04
2.629995287861675024e-04
1.833536807680502534e-04
2.219729649368673563e-04
-1.258637930732220411e-04
-1.370880490867421031e-04
3.244019171688705683e-04
-1.539751072414219379e-03
5.761767533840611577e-05
2.575136704763281159e-06
-3.801726852543652058e-04
5.580007564276456833e-04
-4.077366975252516568e-05
1.728855277178809047e-04
3.691938472911715508e-04
-1.022384385578334332e-03
-1.141004249802790582e-04
-3.277557334513403475e-05
6.507711077574640512e-05
-1.489787973696365952e-04
-1.319741480983793736e-03
1.047511523211142048e-05
-6.689370638923719525e-05
3.699071385199204087e-05
1.202628045575693250e-04
-2.558916457928717136e-04
6.846882752142846584e-05
1.491856237407773733e-04
-3.274146001785993576e-04
2.425191996735520661e-05
4.704663660959340632e-05
-2.259203902212902904e-04
-3.473791423402872169e-07
1.267640764126554132e-04
-3.484175249468535185e-04
2.307694728642672999e-07
4.959453690389636904e-06
4.028135153930634260e-04
-8.565531607018783689e-05
1.229360987053951249e-05
-1.655990636209025979e-04
-5.802560281154001132e-06
-2.299395273439586163e-04
-1.181266852654516697e-04
-4.047213224112056196e-05
1.036436588037759066e-04
1.614203756616916507e-05
-9.806740854401141405e-05
-1.058954876498319209e-04
-1.505680484115146101e-05
1.982877583941444755e-04
-1.929753925651311874e-04
-8.970796479843556881e-04
-2.361633232794702053e-04
1.296791106142336503e-05
-5.474716454045847058e-05
-1.523725572042167187e-03
1.026229583658277988e-03
-9.903129102895036340e-05
-8.611525117885321379e-06
-3.989241959061473608e-04
1.217657845700159669e-04
9.760942775756120682e-04
3.284425183665007353e-04
4.184864883427508175e-05
1.487390272814081982e-05
-1.222726859850808978e-04
-5.871213943464681506e-05
4.416859155753627419e-05
7.295423711184412241e-05
8.645271736895665526e-05
-6.158508040243759751e-05
-4.266728356014937162e-04
2.284853107994422317e-04
1.046576071530580521e-04
3.469152215984649956e-05
-3.249164146836847067e-04
-1.162133630714379251e-04
5.422508911578916013e-05
2.089513873215764761e-04
-1.036946923704817891e-04
-3.620762727223336697e-04
6.078443766455166042e-05
-1.526226114947348833e-04
-8.010307647055014968e-05
-1.648408797336742282e-04
-8.750311826588585973e-05
-2.156886475859209895e-04
-3.690802259370684624e-04
7.431701524183154106e-04
2.802083618007600307e-04
1.156911486759781837e-03
1.199489779537543654e-04
4.532656384981237352e-05
2.165578916901722550e-04
3.532743139658123255e-04
1.984550908673554659e-04
-1.973639300558716059e-04
-3.262823156546801329e-05
5.632559259538538754e-05
-7.816975266905501485e-05
1.977402862394228578e-04
-3.374401057953946292e-05
8.212852117139846087e-05
1.425357186235487461e-04
1.970920566236600280e-04
1.733739918563514948e-04
7.147940923459827900e-04
-3.406731775612570345e-05
1.037053225445561111e-04
2.410295128356665373e-04
5.631955718854442239e-05
