3.343070857226848602e-04
-4.382745246402919292e-04
-3.446438931860029697e-04
-8.098374382825568318e-05
-2.075030788546428084e-04
-1.170879550045356154e-04
-6.336678052321076393e-04
2.683276252355426550e-04
-4.016048478661105037e-05
-2.676466010598232970e-06
2.747144899331033230e-04
7.586729043396189809e-05
-6.172520807012915611e-05
3.287219442427158356e-04
2.633429539855569601e-05
-1.519149009254761040e-05
1.458473561797291040e-04
7.861451013013720512e-05
-5.577164120040833950e-04
-1.372331753373146057e-04
4.294436366762965918e-04
1.271358458325266838e-03
-1.951818412635475397e-04
-3.787403111346065998e-04
-6.567840464413166046e-04
2.118893171427771449e-04
-1.514141913503408432e-03
-1.281480188481509686e-03
-5.678272282239049673e-05
1.304423931287601590e-04
2.581271983217447996e-04
1.181914354674518108e-03
7.277064141817390919e-04
1.896592293633148074e-04
2.365066902711987495e-04
-3.417316065679187886e-06
7.596021168865263462e-04
-7.334248221013695002e-05
3.184809465892612934e-04
-9.057218558155000210e-04
2.803973620757460594e-04
8.366954716620966792e-05
1.881405478343367577e-04
8.895854989532381296e-05
6.787751335650682449e-04
-6.085308268666267395e-05
7.550211739726364613e-04
-5.681289476342499256e-04
1.130495002144016325e-04
-4.359516024123877287e-04
4.666847817134112120e-04
-4.321865271776914597e-04
4.817339358851313591e-04
-2.849903830792754889e-04
4.083253443241119385e-04
2.983517333632335067e-05
1.193542175315087661e-05
-4.320515727158635855e-04
-1.165515626780688763e-03
5.828621215187013149e-05
9.405465243617072701e-05
-6.180259515531361103e-05
4.311690863687545061e-04
3.350635597598738968e-05
8.716719457879662514e-04
-2.002906549023464322e-04
7.570047273475211114e-06
4.087727575097233057e-04
-4.826277727261185646e-04
3.252530295867472887e-04
-7.066604302963241935e-05
5.296029485180042684e-06
1.498577767051756382e-04
5.560007411986589432e-04
-1.728247298160567880e-04
-1.123807305702939630e-04
1.168179078376851976e-04
-1.568587904330343008e-04
-1.032774525810964406e-04
4.357995348982512951e-04
-3.249058208893984556e-04
9.357294766232371330e-04
-3.379886911716312170e-04
4.269607306923717260e-04
-4.373076953925192356e-04
3.630114224506542087e-05
-7.520809303969144821e-04
5.795822289655916393e-05
3.385463205631822348e-04
3.298687806818634272e-04
6.848994526080787182e-04
-6.081247647671261802e-06
-1.397848827764391899e-04
-1.050561433658003807e-03
7.919261115603148937e-04
-6.481120944954454899e-04
-3.257403022871585563e-06
5.206741116126067936e-05
9.396178647875785828e-04
3.600829586503095925e-05
-2.157403214368969202e-04
-6.995480362093076110e-05
-4.430135595612227917e-04
2.298621693626046181e-04
2.989573986269533634e-04
-2.505751908756792545e-04
2.617623067635577172e-05
4.265063907951116562e-04
-1.782092876965180039e-04
3.777911770157516003e-04
-2.834201441146433353e-04
6.247902638278901577e-04
4.369768430478870869e-04
-2.548208867665380239e-04
-4.366926732473075390e-04
1.610833453014492989e-03
-2.730447704379912466e-05
1.123814581660553813e-04
1.069316422217525542e-04
4.654045915231108665e-04
-5.479812898556701839e-06
-7.973049068823456764e-04
8.542194264009594917e-04
-5.439078813651576638e-05
1.608419697731733322e-04
-8.285172516480088234e-04
7.201837142929434776e-04
-2.804546511470107362e-06
-2.416028146399185061e-04
-1.317419373663142323e-04
-1.881472533568739891e-03
6.368886097334325314e-04
1.310739200562238693e-03
3.450963122304528952e-04
-2.460705291014164686e-04
-1.359794841846451163e-04
3.550187684595584869e-04
-2.996269322466105223e-04
-2.604326000437140465e-04
4.954040050506591797e-04
1.226555788889527321e-03
-1.238682161783799529e-04
1.424095680704340339e-04
8.326552233484108001e-06
1.074899453669786453e-03
1.023786080622812733e-05
-3.258612923673354089e-05
3.807483299169689417e-04
1.097110507544130087e-04
5.345640820451080799e-04
4.885785165242850780e-04
-1.876093447208404541e-04
-1.507719425717368722e-04
9.834647644311189651e-04
4.731513035949319601e-04
6.551666592713445425e-05
3.300455864518880844e-05
-4.041008651256561279e-04
-7.493091979995369911e-04
-6.112150003900751472e-05
1.374882529489696026e-03
-1.047954312525689602e-03
-5.128102566231973469e-05
6.740553653798997402e-04
-6.968196976231411099e-05
1.442938228137791157e-04
4.339522274676710367e-05
1.800488535081967711e-04
5.827168351970613003e-04
-1.787411893019452691e-04
6.943841435713693500e-05
-9.289432200603187084e-04
3.242279490223154426e-05
-9.590788249624893069e-05
1.357295201160013676e-03
1.246024912688881159e-04
3.264056576881557703e-04
7.504617678932845592e-04
-3.524045459926128387e-04
3.512810217216610909e-03
-5.020474418415687978e-06
1.964359107660129666e-04
-6.830906932009384036e-05
2.104327431879937649e-04
-1.719393767416477203e-04
-3.514056515996344388e-05
1.296784030273556709e-04
3.850713837891817093e-04
-3.525683423504233360e-04
1.901737996377050877e-04
-1.382756512612104416e-03
-4.107207932975143194e-04
2.084636071231216192e-04
4.848813405260443687e-04
-4.458124749362468719e-04
-1.281695440411567688e-04
1.437210012227296829e-04
-1.937682245625182986e-04
-5.608126521110534668e-04
3.421352885197848082e-04
3.227050183340907097e-04
7.877974421717226505e-04
1.317808055318892002e-03
-1.095334009733051062e-04
4.950060974806547165e-04
6.587677053175866604e-04
-1.738261635182425380e-04
-5.511385388672351837e-04
-3.814086085185408592e-04
9.018871351145207882e-04
1.119189546443521976e-03
4.714127499028109014e-05
-5.899011375731788576e-05
-9.857017721515148878e-05
-4.672442446462810040e-05
-4.107072309125214815e-04
5.243340274319052696e-05
1.047150799422524869e-04
-3.335046858410350978e-05
7.459347252734005451e-04
-1.722890301607549191e-04
-1.077521665138192475e-04
7.950127474032342434e-04
-3.943486954085528851e-04
5.358485504984855652e-04
-9.593768045306205750e-04
1.964556722668930888e-04
4.887447576038539410e-04
1.845816150307655334e-04
-3.778838436119258404e-05
-5.008306470699608326e-04
-5.353733286028727889e-05
2.951702044811099768e-04
-3.856144030578434467e-04
-6.049188959877938032e-05
-3.546025545801967382e-04
-6.432255613617599010e-04
-5.008151638321578503e-04
-2.011540200328454375e-04
3.239909128751605749e-04
6.309925811365246773e-04
-9.953900007531046867e-05
9.277159697376191616e-04
1.257952972082421184e-04
5.347947007976472378e-04
1.487141125835478306e-04
1.386566436849534512e-04
-3.614590677898377180e-04
-6.634078454226255417e-05
8.243835764005780220e-04
-9.499381412751972675e-04
-9.601279743947088718e-04
9.032977395690977573e-04
1.304329372942447662e-03
-1.246467290911823511e-04
-7.431347330566495657e-05
