-3.095344407483935356e-03
-1.818814198486506939e-04
1.050063292495906353e-03
3.853302041534334421e-04
-2.049114089459180832e-03
-3.139826294500380754e-04
-2.181781455874443054e-03
6.251059239730238914e-04
9.860654972726479173e-05
4.171771288383752108e-04
-6.095321732573211193e-04
7.257002289406955242e-04
-4.543690476566553116e-03
2.101006684824824333e-03
6.267410935834050179e-04
-6.393746007233858109e-04
1.544826372992247343e-04
1.772972522303462029e-03
-1.695578830549493432e-04
-9.878997225314378738e-04
6.960646132938563824e-04
-1.244347658939659595e-03
3.400682180654257536e-04
-1.784067368134856224e-03
-1.314579159952700138e-03
5.257204757072031498e-04
2.447210950776934624e-03
-1.260485587408766150e-04
-1.322256634011864662e-03
1.087798736989498138e-04
-5.149655044078826904e-04
-1.352967519778758287e-04
9.897554991766810417e-04
4.239981062710285187e-04
3.934489563107490540e-03
1.981231616809964180e-04
-1.296739792451262474e-04
-2.069231559289619327e-04
-2.891367475967854261e-04
-1.381890178890898824e-04
4.118828801438212395e-04
1.681810244917869568e-03
4.474183369893580675e-04
-7.583181723020970821e-04
9.235618053935468197e-04
1.357532572001218796e-03
3.247390035539865494e-03
3.151954151690006256e-04
1.347018405795097351e-04
-1.952126876858528703e-05
-1.121681649237871170e-03
2.523847389966249466e-03
3.128186101093888283e-03
-1.211079070344567299e-03
-5.184898036532104015e-04
-3.339259186759591103e-03
-3.543188795447349548e-04
-2.052532072411850095e-04
-2.573297591879963875e-03
-4.436237213667482138e-04
-1.650393096497282386e-04
7.843094645068049431e-04
-2.739115385338664055e-03
1.018461538478732109e-03
-2.551435609348118305e-04
-1.168670831248164177e-03
-1.874907175078988075e-03
9.939796291291713715e-04
2.501368988305330276e-03
-1.034831162542104721e-03
-1.327487756498157978e-03
-7.490755524486303329e-03
-1.645725802518427372e-03
4.467363934963941574e-03
3.635714238043874502e-04
-7.924528908915817738e-04
-1.010035630315542221e-03
-3.835849929600954056e-04
-2.216802822658792138e-04
-1.256743795238435268e-03
7.416301523335278034e-04
7.739110878901556134e-05
6.997053045779466629e-03
-6.587215466424822807e-04
-3.512756957206875086e-04
-1.785246306098997593e-03
-6.122332997620105743e-04
-2.211990213254466653e-04
-4.853248246945440769e-04
9.742167894728481770e-04
3.011025255545973778e-04
1.456882600905373693e-04
-9.225195390172302723e-05
-5.002791527658700943e-03
3.194245509803295135e-03
4.846806696150451899e-04
1.952040474861860275e-03
-8.784138481132686138e-04
-9.260831284336745739e-04
-6.985266809351742268e-04
4.566410789266228676e-04
8.338662446476519108e-04
1.774226548150181770e-03
-6.576906307600438595e-04
-3.069316735491156578e-03
-5.210925824940204620e-03
2.340123901376500726e-04
7.117490749806165695e-04
-7.151908939704298973e-04
-3.292350564152002335e-03
2.670561079867184162e-04
4.900047555565834045e-03
4.166597034782171249e-03
6.830324127804487944e-05
-2.120438264682888985e-03
1.069624326191842556e-03
-4.274484701454639435e-03
6.375720840878784657e-04
-2.489780541509389877e-03
-4.126704006921499968e-04
-3.928210644517093897e-04
1.015863817883655429e-04
5.078808753751218319e-04
-5.122827715240418911e-04
8.554444648325443268e-04
-1.896532601676881313e-03
2.625915476528462023e-05
1.108300755731761456e-03
7.635554648004472256e-04
-1.641160924918949604e-04
1.481786486692726612e-03
4.099016659893095493e-04
-6.509278318844735622e-04
-2.121361612807959318e-04
2.986129256896674633e-04
-3.521783510223031044e-04
1.823315978981554508e-03
-1.535652205348014832e-03
-9.564913343638181686e-04
-8.261608309112489223e-04
4.077009798493236303e-04
8.345909882336854935e-04
9.704501135274767876e-04
-4.722675366792827845e-04
1.201679115183651447e-03
2.605801913887262344e-03
-6.909084622748196125e-04
-1.528262859210371971e-03
4.119891091249883175e-04
1.784516643965616822e-05
5.049460101872682571e-03
-3.913443943019956350e-04
-5.126280710101127625e-03
-1.500174985267221928e-03
2.490343060344457626e-03
3.659038047771900892e-04
-5.946157034486532211e-04
-8.773082867264747620e-03
-1.177620026282966137e-03
-9.073047898709774017e-03
-1.117150112986564636e-02
-7.381501927739009261e-05
2.505698357708752155e-04
-9.603716316632926464e-04
8.631447562947869301e-04
-9.506403584964573383e-04
-1.225191866979002953e-03
-1.659746631048619747e-03
-4.650842747651040554e-04
8.975197561085224152e-04
-6.810419727116823196e-04
-1.055035972967743874e-03
1.308312785113230348e-04
1.690933131612837315e-03
1.701578003121539950e-05
8.767051622271537781e-04
-3.160599735565483570e-04
-2.558209933340549469e-03
2.002255641855299473e-04
1.742170192301273346e-03
1.601109543116763234e-04
6.050567753845825791e-05
-1.219417783431708813e-03
-2.381556900218129158e-03
1.333943509962409735e-04
3.192631993442773819e-04
2.749500330537557602e-03
-1.672867620072793216e-05
1.178277423605322838e-03
-5.318752955645322800e-04
6.175427115522325039e-04
-1.442639622837305069e-04
7.544726249761879444e-04
1.782358391210436821e-03
-3.988991957157850266e-04
-1.830774359405040741e-03
1.153308781795203686e-03
-5.477438098751008511e-04
4.053663869854062796e-04
-2.040858846157789230e-03
-6.995141156949102879e-04
6.495030247606337070e-04
2.998626732733100653e-04
1.341353869065642357e-03
2.329451264813542366e-03
-4.074003954883664846e-04
1.075321852113120258e-04
-3.336200723424553871e-03
-1.867402112111449242e-03
-1.214868825627490878e-05
1.778382924385368824e-03
-1.121649984270334244e-03
4.173330031335353851e-03
-1.092874095775187016e-03
-1.187248388305306435e-03
-2.829184522852301598e-03
3.010798245668411255e-03
-7.347771315835416317e-05
-3.948956145904958248e-04
-5.018155206926167011e-04
1.650073536438867450e-04
1.037670532241463661e-03
1.252338639460504055e-03
-2.429144456982612610e-03
4.519945476204156876e-03
-2.067501336568966508e-04
-9.880487341433763504e-04
7.682009891141206026e-05
-1.835808390751481056e-03
-8.109113696264103055e-05
-5.625622579827904701e-04
1.201549544930458069e-03
-2.431094413623213768e-03
1.032039406709372997e-03
-2.374450705246999860e-04
3.753019555006176233e-04
2.149973624909762293e-05
-4.731909139081835747e-04
1.193612581118941307e-03
1.680938148638233542e-04
1.808845554478466511e-04
2.685076324269175529e-03
-1.348492456600070000e-03
-1.422399305738508701e-03
-1.727873110212385654e-03
3.292864130344241858e-05
-1.283644349314272404e-03
2.308379858732223511e-03
9.086672798730432987e-04
-1.867007464170455933e-03
1.062970608472824097e-03
1.551452325657010078e-03
-1.165130757726728916e-03
-1.078413682989776134e-03
-1.757404883392155170e-03
4.519665380939841270e-04
