5.862365942448377609e-04
6.362514104694128036e-04
-3.270669258199632168e-04
9.073259425349533558e-04
-1.749145303620025516e-04
-2.119507371389772743e-05
1.627606921829283237e-03
1.791592076187953353e-04
1.734820893034338951e-03
2.676596050150692463e-04
9.598170872777700424e-04
9.588081593392416835e-05
-5.258145756670273840e-05
1.148519222624599934e-03
-7.803813787177205086e-04
-1.197882229462265968e-04
-2.247591764898970723e-04
3.269518492743372917e-03
4.009527910966426134e-04
-5.492136115208268166e-04
-1.014068606309592724e-03
8.218349539674818516e-04
-4.167445586062967777e-04
-7.179503445513546467e-04
-1.711814547888934612e-03
-1.906175748445093632e-03
7.764070178382098675e-04
8.209648658521473408e-04
1.691677316557615995e-04
-3.171450807712972164e-04
-4.989867447875440121e-04
2.768353151623159647e-04
1.209757407195866108e-03
5.811257506138645113e-05
2.319647319382056594e-04
-1.453268214390845969e-05
5.301897181198000908e-04
1.025101519189774990e-04
-1.276274677366018295e-03
1.244439161382615566e-03
-4.543409741017967463e-04
1.941039459779858589e-03
2.558566047810018063e-04
5.992521323605615180e-07
-7.356575806625187397e-04
2.162534219678491354e-04
4.395126365125179291e-03
4.013872530777007341e-04
8.424673578701913357e-04
-4.395510186441242695e-04
-6.799682159908115864e-05
7.419298635795712471e-04
-6.158651667647063732e-04
-1.551520661450922489e-03
-9.132367267739027739e-05
-1.875489717349410057e-03
-1.558172516524791718e-04
5.130558274686336517e-04
-1.612552441656589508e-03
-1.142986511695198715e-04
-9.658475755713880062e-05
3.263432590756565332e-04
-7.517901249229907990e-04
-1.414171769283711910e-03
-1.873045039246790111e-05
6.550709949806332588e-04
1.600029063411056995e-04
8.009127341210842133e-04
7.735451217740774155e-04
9.003722807392477989e-04
-8.534286171197891235e-04
5.421470385044813156e-03
-1.426945556886494160e-03
3.804460167884826660e-03
2.676250878721475601e-04
-1.137875253334641457e-03
-3.674381179735064507e-03
4.863421199843287468e-04
7.793800614308565855e-05
-5.586145562119781971e-04
-1.294800749747082591e-04
1.570820994675159454e-02
2.619797014631330967e-04
2.151772379875183105e-03
8.029676973819732666e-04
-1.105324365198612213e-03
1.235548988915979862e-04
2.467780723236501217e-04
5.887087900191545486e-05
-1.072982486221008003e-04
4.481495416257530451e-04
-2.684710780158638954e-04
2.263640271848998964e-05
-1.088915974833071232e-03
3.360288683325052261e-04
-2.661293838173151016e-04
7.413679268211126328e-04
-5.674277781508862972e-04
-1.396769657731056213e-03
-4.971614107489585876e-04
2.039957034867256880e-04
7.591368048451840878e-04
2.317518927156925201e-03
-6.677213124930858612e-03
-2.580513944849371910e-03
-4.647018853574991226e-03
-1.486419205320999026e-04
5.196363781578838825e-04
-8.506679441779851913e-04
-6.244566175155341625e-04
2.255634404718875885e-03
9.468237985856831074e-04
3.033812157809734344e-03
-2.017554361373186111e-03
8.329006959684193134e-04
-2.909763716161251068e-04
-8.820368093438446522e-04
-2.498473622836172581e-04
-2.656551310792565346e-03
-1.421077759005129337e-03
-1.042385702021420002e-03
-3.605093806982040405e-04
-2.527447941247373819e-04
-1.628548721782863140e-03
9.442518930882215500e-04
-3.160779888276010752e-04
7.500536157749593258e-04
-7.131867459975183010e-04
4.355933924671262503e-04
7.145183917600661516e-05
-5.913776694796979427e-04
-7.545974222011864185e-04
-1.974517945200204849e-03
-3.003689635079354048e-04
-5.589542561210691929e-04
-2.032478805631399155e-04
1.700904336757957935e-03
3.981276822742074728e-04
-1.783182378858327866e-04
3.138365282211452723e-04
6.497398862848058343e-05
-2.564407885074615479e-03
2.770699793472886086e-03
1.949984653037972748e-05
5.830416921526193619e-04
1.088050194084644318e-03
7.929310086183249950e-04
9.943409822881221771e-04
3.023518729605711997e-05
-6.504249176941812038e-04
-7.318348070839419961e-05
5.577773554250597954e-04
3.281294775661081076e-04
4.961084341630339622e-04
-1.987084979191422462e-04
2.255629951832816005e-04
1.183644562843255699e-04
-4.400562960654497147e-03
-7.062397198751568794e-04
-6.149091292172670364e-03
4.263517330400645733e-04
-3.069944214075803757e-04
1.224753330461680889e-03
5.758587503805756569e-04
3.604740835726261139e-03
1.988498494029045105e-03
-1.635830500163137913e-03
-5.979030393064022064e-04
4.112559254281222820e-04
-2.890004252549260855e-04
5.256252479739487171e-04
9.742786642163991928e-05
-4.429247055668383837e-04
5.480248364619910717e-04
8.955063531175255775e-04
3.594838781282305717e-04
-5.867635481990873814e-04
-2.742158947512507439e-03
4.711045767180621624e-04
5.215632263571023941e-04
-1.766757850418798625e-05
-3.580041811801493168e-04
-4.252038488630205393e-04
-1.061795279383659363e-03
1.833102433010935783e-04
-5.246837972663342953e-04
1.247018575668334961e-03
-4.123440885450690985e-05
1.396546955220401287e-03
8.636741549707949162e-04
4.621189727913588285e-04
-4.585823917295783758e-04
3.263514663558453321e-04
4.794664855580776930e-04
-6.031381199136376381e-04
-6.849206401966512203e-04
2.961454629257787019e-05
-4.586914437822997570e-04
1.060756738297641277e-03
1.039628521539270878e-03
1.825778861530125141e-03
7.713897502981126308e-04
9.859655983746051788e-04
-7.442408823408186436e-04
1.274864072911441326e-03
6.479416333604604006e-05
-7.970037404447793961e-05
7.377448127954266965e-06
9.199036139762029052e-05
9.015221148729324341e-04
2.040195744484663010e-03
-2.057969570159912109e-03
2.634979609865695238e-04
-3.989368211477994919e-03
-4.422235302627086639e-03
-8.004782139323651791e-04
5.836608354002237320e-03
8.082969884526391979e-07
-1.068006269633769989e-03
2.997425908688455820e-04
1.516311080195009708e-03
-6.268827128224074841e-04
7.463465444743633270e-04
-4.886575625278055668e-04
7.591939065605401993e-04
1.817766897147521377e-04
-3.360329719725996256e-04
-2.049421309493482113e-04
-1.020958996377885342e-03
8.302255882881581783e-04
-4.606401198543608189e-04
5.968317273072898388e-04
-1.010764157399535179e-03
-1.062852461473084986e-04
1.036561588989570737e-04
4.100653168279677629e-04
-3.918937582056969404e-04
-3.890648949891328812e-04
-1.823133789002895355e-04
2.310587791725993156e-03
-7.723064481979236007e-05
2.481203526258468628e-03
-1.632415114727336913e-05
1.712965749902650714e-04
-4.605922847986221313e-03
9.754849015735089779e-04
-1.259734621271491051e-03
8.975472301244735718e-04
3.746310831047594547e-04
6.711448077112436295e-05
1.206586020998656750e-03
1.384353265166282654e-03
-8.159872959367930889e-04
5.139067070558667183e-05
-7.274611270986497402e-04
4.645367735065519810e-04
