-2.337061741854995489e-04
6.641257787123322487e-04
2.183626929763704538e-04
2.344540087506175041e-03
4.987097054254263639e-05
3.120539477095007896e-04
9.318750016973353922e-06
4.309339565224945545e-04
2.704870530578773469e-05
-2.553928934503346682e-04
2.924006548710167408e-04
-1.418142113834619522e-03
1.282714802073314786e-04
-6.170100823510438204e-05
-4.483625161810778081e-05
3.259964287281036377e-04
1.194604556076228619e-04
-1.448589027859270573e-04
6.521362956846132874e-05
-2.820687368512153625e-04
2.318605693290010095e-04
-5.624098703265190125e-04
-3.998895408585667610e-04
-3.256138588767498732e-04
2.340409846510738134e-04
2.041254811047110707e-05
-3.044473996851593256e-04
1.439046609448269010e-04
-6.658977363258600235e-04
4.088206915184855461e-04
2.623003092594444752e-04
-2.657930890563875437e-04
-6.326108123175799847e-04
9.038514690473675728e-05
6.277139618759974837e-05
1.099232467822730541e-03
3.475013072602450848e-04
-1.743066677590832114e-04
-2.551627694629132748e-04
2.723536454141139984e-04
-2.510051708668470383e-04
-2.394895564066246152e-04
2.283439098391681910e-04
2.150260261259973049e-04
-2.228866796940565109e-04
-1.420232438249513507e-04
-6.401509162969887257e-04
3.782246203627437353e-04
1.264431921299546957e-04
4.088432615390047431e-05
1.037035908666439354e-04
-6.272718310356140137e-04
1.728019997244700789e-04
-3.234331961721181870e-04
1.457587204640731215e-04
-1.907983241835609078e-04
-1.886314363218843937e-03
1.542141944810282439e-05
-3.136540472041815519e-04
-2.274904691148549318e-04
3.825418825726956129e-04
-3.358393150847405195e-04
4.344233893789350986e-04
1.904518830997403711e-05
9.078500443138182163e-04
-7.195367288659326732e-07
4.627008165698498487e-04
-1.474052551202476025e-04
8.960781269706785679e-04
-1.988708245335146785e-04
-2.712686364247929305e-05
7.549379370175302029e-05
3.699519083966151811e-06
2.120315766660496593e-04
1.275688642635941505e-03
-1.471227733418345451e-04
-1.415048172930255532e-04
1.325476478086784482e-04
-3.525707870721817017e-04
1.126070783357135952e-04
-6.689075962640345097e-05
-2.659182937350124121e-04
2.886222500819712877e-05
-2.812033344525843859e-04
1.316153793595731258e-04
-3.412308433325961232e-05
-8.722215716261416674e-05
1.352892490103840828e-03
-2.511212660465389490e-04
2.231961989309638739e-04
-3.969180979765951633e-04
-1.086100601241923869e-04
3.786374873016029596e-04
1.032464933814480901e-04
-2.540102286729961634e-04
1.682087604422122240e-04
-1.531619491288438439e-04
-2.670492540346458554e-05
2.684677601791918278e-04
2.859592495951801538e-05
4.406204971019178629e-04
-3.856629482470452785e-04
-1.713560486678034067e-04
-6.408749031834304333e-04
-3.541535988915711641e-04
4.938650090480223298e-05
-5.865473067387938499e-04
-2.502848394215106964e-03
1.118535365094430745e-04
-2.632980758789926767e-04
4.070641007274389267e-04
-1.968766591744497418e-04
-1.789870439097285271e-03
-3.812598588410764933e-04
5.654176129610277712e-05
-8.486724254908040166e-06
9.529219823889434338e-05
9.575696312822401524e-04
1.455352612538263202e-04
-1.944167888723313808e-04
-1.184973552881274372e-05
-3.568795509636402130e-04
1.125255294027738273e-04
-2.478931273799389601e-04
1.037937836372293532e-04
1.976318017113953829e-04
-4.582496185321360826e-04
2.121125871781259775e-04
1.334803964709863067e-04
-8.331195567734539509e-05
3.188092669006437063e-04
8.200298179872334003e-05
-2.781122748274356127e-04
3.111006808467209339e-04
2.953784714918583632e-04
8.298241300508379936e-04
-1.817660449887625873e-05
-2.234311541542410851e-03
4.601779801305383444e-05
-6.232484884094446898e-05
-1.116325729526579380e-04
-8.154749957611784339e-05
1.581123651703819633e-04
-4.695740644820034504e-04
-4.541466187220066786e-04
3.388995537534356117e-04
-1.772857358446344733e-04
1.123711408581584692e-04
-3.737237420864403248e-04
-6.393647636286914349e-04
4.325576010160148144e-04
2.334939781576395035e-04
5.079115508124232292e-04
-1.439412153558805585e-04
-3.929700236767530441e-03
1.368170778732746840e-04
-1.084701943909749389e-04
-4.077767371200025082e-04
4.733358218800276518e-04
2.911799674620851874e-05
1.145826026913709939e-04
-4.391873517306521535e-05
-3.721492248587310314e-04
-6.628123228438198566e-04
-7.776409038342535496e-04
8.322225767187774181e-04
-1.110419543692842126e-04
4.168079613009467721e-05
4.692108486779034138e-04
7.912667206255719066e-05
1.041341456584632397e-04
2.799074864014983177e-04
4.860814806306734681e-05
1.058866764651611447e-04
1.969798177015036345e-04
2.229478559456765652e-05
-2.101287973346188664e-04
-1.755845005391165614e-04
-1.170906689367257059e-04
3.322235425002872944e-04
-9.592594142304733396e-05
8.731012349016964436e-05
6.025355105521157384e-05
-5.327524268068373203e-04
-2.895814541261643171e-04
-2.524240117054432631e-04
1.523173705209046602e-04
2.202470495831221342e-04
-8.380008512176573277e-05
1.199443868244998157e-04
-1.064331037923693657e-03
7.226677553262561560e-05
3.206244145985692739e-04
5.020601747673936188e-06
1.937195920618250966e-04
1.354939071461558342e-03
9.315625648014247417e-04
-2.763187221717089415e-04
-4.288999116397462785e-05
4.493843007367104292e-04
2.040013641817495227e-04
-4.602936387527734041e-04
3.053427790291607380e-04
2.868892806873191148e-05
-4.436578819877468050e-05
5.751320277340710163e-04
2.020768442889675498e-05
-1.618592505110427737e-04
1.099802320823073387e-04
-2.816175983753055334e-04
5.261739133857190609e-04
-3.759631072171032429e-04
-8.525372250005602837e-04
4.527143391896970570e-05
-3.426442708587273955e-05
3.878442803397774696e-04
-6.881000008434057236e-04
1.817618322093039751e-04
4.079880309291183949e-04
3.530459707690170035e-06
1.538443757453933358e-04
-6.066965870559215546e-04
6.936631980352103710e-04
-1.296815898967906833e-04
1.982332323677837849e-04
8.154144779837224633e-06
2.948188630398362875e-04
9.574044088367372751e-05
-4.172164772171527147e-04
3.723706322489306331e-05
2.889198549382854253e-05
3.019444644451141357e-03
7.748497591819614172e-05
3.746477595996111631e-04
4.370672104414552450e-04
-2.943043546110857278e-05
3.465802874416112900e-04
-2.222423972852993757e-05
6.775021029170602560e-05
-2.001700631808489561e-04
9.441294823773205280e-04
-1.431643904652446508e-04
3.306225698906928301e-04
-1.294995890930294991e-04
9.094508714042603970e-04
4.947374109178781509e-04
-2.290084375999867916e-04
-3.717191066243685782e-05
6.968912202864885330e-04
7.567115826532244682e-04
-1.036106841638684273e-03
-1.632412662729620934e-03
4.481838259380310774e-04
1.035036402754485607e-04
1.686117029748857021e-04
1.084886316675692797e-04
