5.329010891728103161e-04 -6.128108361735939980e-04 1.407012436538934708e-02 -2.168811112642288208e-02 1.512704603374004364e-02 2.244369499385356903e-02 5.764308152720332146e-04
-5.471703130751848221e-03 -3.688005730509757996e-03 -3.046524524688720703e-02 8.862427622079849243e-02 -1.587905362248420715e-02 -9.645095560699701309e-04 2.193908952176570892e-02
2.840336598455905914e-02 -4.915262106806039810e-03 -7.623295485973358154e-02 1.001460105180740356e-01 -3.629684448242187500e-02 -2.461927384138107300e-02 8.252994157373905182e-04
-2.686681412160396576e-02 5.395716056227684021e-03 8.605124801397323608e-02 -1.304350644350051880e-01 -1.238796021789312363e-02 3.800812736153602600e-02 2.418171381577849388e-03
-2.407375723123550415e-02 1.590251177549362183e-02 8.805248886346817017e-02 -1.283154785633087158e-01 -1.951558515429496765e-03 4.417059198021888733e-02 1.279595424421131611e-03
1.922732219099998474e-02 -1.688938029110431671e-02 -3.457081317901611328e-02 5.625139176845550537e-02 -6.387521978467702866e-03 -2.595442347228527069e-02 -9.264765307307243347e-03
1.814794912934303284e-02 -1.800896832719445229e-03 -2.454615011811256409e-02 7.500533759593963623e-02 4.547353833913803101e-03 -6.944772321730852127e-03 3.864687634631991386e-03
-2.150158863514661789e-03 7.648433558642864227e-03 1.140385586768388748e-02 8.733919821679592133e-03 3.610463754739612341e-04 -1.228982023894786835e-02 6.951566785573959351e-03
-2.027062000706791878e-03 -3.952964395284652710e-02 -3.152451291680335999e-02 -2.159935608506202698e-02 -2.842662157490849495e-03 -2.510897256433963776e-02 5.563523154705762863e-03
2.538331784307956696e-02 1.216675527393817902e-02 -2.000945992767810822e-02 -9.300809353590011597e-03 3.167715622112154961e-03 -2.966176834888756275e-04 -8.646037313155829906e-04
5.806269496679306030e-02 7.105863094329833984e-02 4.015865270048379898e-03 -7.952122390270233154e-02 -4.290009383112192154e-03 4.670903459191322327e-02 -2.591607160866260529e-02
1.382312830537557602e-02 4.590179771184921265e-02 1.938886567950248718e-02 -1.465891748666763306e-01 -5.752122774720191956e-02 3.664630278944969177e-02 -1.553109567612409592e-02
9.581831283867359161e-03 1.384487841278314590e-02 5.450340453535318375e-03 2.901930361986160278e-02 -6.874320097267627716e-03 -2.969062887132167816e-02 -1.275704149156808853e-02
1.309404801577329636e-02 -1.614281348884105682e-02 -3.336128592491149902e-02 7.011398673057556152e-02 4.344730824232101440e-02 -1.795577257871627808e-02 -4.253898281604051590e-03
3.622930380515754223e-04 -2.327921614050865173e-02 -6.465934962034225464e-02 -4.586638882756233215e-02 -3.941448777914047241e-02 -2.929971553385257721e-02 1.781841740012168884e-03
5.567280575633049011e-03 3.222995623946189880e-02 3.374171629548072815e-02 3.402522951364517212e-02 3.975372761487960815e-02 2.960323542356491089e-02 1.241772621870040894e-02
-9.307711385190486908e-03 1.423018705099821091e-02 1.027268394827842712e-01 1.788742542266845703e-01 1.405252814292907715e-01 3.225200250744819641e-02 5.249549867585301399e-04
-1.995629444718360901e-02 -3.908937051892280579e-02 -1.213649064302444458e-01 -1.585147976875305176e-01 -1.367952376604080200e-01 -6.512919068336486816e-02 -3.388683835510164499e-04
-5.184668581932783127e-03 -3.422718122601509094e-02 -2.629420347511768341e-02 -1.999154314398765564e-02 -1.237250771373510361e-02 1.466118148528039455e-03 3.097651991993188858e-03
1.292646769434213638e-02 5.495375022292137146e-02 6.808595359325408936e-02 4.081855341792106628e-02 3.667616099119186401e-02 3.162351995706558228e-02 -1.454453333280980587e-03
-1.560485688969492912e-03 2.107439562678337097e-02 1.521819038316607475e-03 -1.293636299669742584e-02 -1.507613807916641235e-02 -1.655344478785991669e-02 -5.286665633320808411e-03
-6.834070663899183273e-03 -1.547291968017816544e-02 9.358253329992294312e-03 1.242453418672084808e-02 1.040316745638847351e-02 2.621350064873695374e-02 3.166109323501586914e-03
1.053774822503328323e-02 -1.413109898567199707e-02 -2.121818624436855316e-02 5.550233274698257446e-02 6.906130909919738770e-02 1.875095069408416748e-02 -5.432042235042899847e-05
1.464006025344133377e-02 3.570782765746116638e-02 2.086245268583297729e-02 -9.652003645896911621e-02 -1.558051407337188721e-01 -1.055157110095024109e-01 -2.203886769711971283e-02
-1.771733351051807404e-02 -3.919250145554542542e-02 -3.793095238506793976e-03 9.484794735908508301e-02 1.468635350465774536e-01 9.981825202703475952e-02 1.252484507858753204e-02
-1.749935909174382687e-03 4.248138051480054855e-03 1.909218356013298035e-02 -5.299366265535354614e-02 -7.576241344213485718e-02 -2.191113866865634918e-02 -1.355415955185890198e-02
-5.908889230340719223e-03 -4.115435294806957245e-03 -3.060774179175496101e-03 7.188105955719947815e-03 8.411953225731849670e-03 -2.207521349191665649e-03 2.156193368136882782e-02
-3.078438574448227882e-03 -1.622687466442584991e-02 1.672415062785148621e-02 3.023799695074558258e-02 2.854991331696510315e-02 1.767759397625923157e-02 -7.472880650311708450e-03
-2.518163993954658508e-02 -3.494067490100860596e-02 -3.564849495887756348e-02 -3.343395143747329712e-02 -1.776492595672607422e-02 -9.677801281213760376e-03 -8.571681566536426544e-03
-2.498508431017398834e-02 -3.196050971746444702e-02 -4.887118563055992126e-02 -6.601188331842422485e-02 -3.336585685610771179e-02 -2.379173226654529572e-02 -2.433640323579311371e-02
-2.268164418637752533e-02 -2.296828664839267731e-02 -4.281903058290481567e-02 -6.053302809596061707e-02 -4.313635453581809998e-02 -9.248387068510055542e-03 -2.678715158253908157e-03
-2.481187507510185242e-02 -4.799128323793411255e-02 -7.602015882730484009e-02 -7.345698773860931396e-02 -8.973595499992370605e-02 -5.988753214478492737e-02 -2.659661881625652313e-02
-3.277517389506101608e-03 -2.248570136725902557e-02 -6.174971163272857666e-02 -6.155884265899658203e-02 -4.845208302140235901e-02 -3.398594260215759277e-02 -1.630458235740661621e-02
-2.486739121377468109e-02 -1.643189974129199982e-02 -3.928772732615470886e-02 -4.735089093446731567e-02 -2.382224798202514648e-02 -2.565405704081058502e-02 -1.261080987751483917e-02
-2.027235180139541626e-02 -3.765800222754478455e-02 -3.320214524865150452e-02 -2.960262820124626160e-02 -2.807541750371456146e-02 -2.360402420163154602e-02 -6.101603619754314423e-03
1.561044063419103622e-02 3.233375400304794312e-02 -3.002160228788852692e-04 -1.937086461111903191e-03 -1.296328846365213394e-02 -7.815098389983177185e-03 2.112450264394283295e-02
-1.231306605041027069e-02 -1.028088759630918503e-02 -2.599970251321792603e-02 -1.403592713177204132e-02 1.358077209442853928e-02 1.140455622225999832e-02 1.129246200434863567e-03
-3.808829560875892639e-02 -6.144006550312042236e-02 5.126437544822692871e-02 8.366714417934417725e-02 5.218972265720367432e-02 -3.411541134119033813e-02 -1.936164312064647675e-02
-4.694794770330190659e-03 8.936707675457000732e-02 6.759591400623321533e-02 2.526444569230079651e-02 -5.695983394980430603e-02 -2.586310543119907379e-02 1.772709190845489502e-02
1.844728924334049225e-02 3.297905251383781433e-02 -1.667353510856628418e-02 -1.039063706994056702e-01 -4.845444485545158386e-02 2.824870683252811432e-02 3.181752935051918030e-02
-2.321243472397327423e-02 -6.226675212383270264e-02 -4.197206348180770874e-02 9.597467258572578430e-03 -3.137851017527282238e-04 -1.103551592677831650e-02 3.600780619308352470e-03
-1.006050780415534973e-02 -1.258102897554636002e-02 -4.572921432554721832e-03 8.629565127193927765e-03 5.750879645347595215e-02 3.668374149128794670e-03 -5.817048717290163040e-03
1.902119838632643223e-03 2.716859104111790657e-03 2.320883236825466156e-02 5.764361843466758728e-02 2.890411764383316040e-02 1.724462024867534637e-02 6.118602585047483444e-03
1.391649711877107620e-02 8.984645828604698181e-03 6.472747772932052612e-02 6.488906592130661011e-02 5.711482092738151550e-02 6.919581443071365356e-03 -1.065650768578052521e-02
-8.063424378633499146e-03 1.570573449134826660e-02 -3.549203276634216309e-02 4.433832690119743347e-02 1.612709090113639832e-02 2.838762290775775909e-02 1.344020757824182510e-02
1.365599129348993301e-02 1.654643565416336060e-02 -1.132754758000373840e-01 -6.341049075126647949e-02 -8.374440670013427734e-02 4.462519660592079163e-02 4.801811650395393372e-02
4.166889563202857971e-02 1.829186268150806427e-02 -4.233978688716888428e-02 -1.436514705419540405e-01 -2.463215589523315430e-02 8.322465233504772186e-03 2.371836826205253601e-02
1.509757619351148605e-02 7.883770391345024109e-03 -2.737342938780784607e-02 3.157944884151220322e-03 4.914109595119953156e-04 -2.108524926006793976e-02 6.631126627326011658e-03
-1.578888110816478729e-02 1.235379488207399845e-03 1.306907739490270615e-02 -1.371966861188411713e-02 -4.453357681632041931e-02 -1.055295951664447784e-02 -1.787816174328327179e-02
-1.017765421420335770e-02 1.156441634520888329e-03 1.378885749727487564e-02 1.492402888834476471e-02 -1.986777409911155701e-02 1.262003462761640549e-02 4.348947666585445404e-03
1.865907758474349976e-02 8.813492022454738617e-03 -1.072142925113439560e-02 -1.780646108090877533e-02 -8.653233759105205536e-03 8.705410175025463104e-03 1.280134823173284531e-02
1.339660864323377609e-02 -2.938254177570343018e-02 -2.406036481261253357e-02 -1.345656812191009521e-02 -2.154267131118103862e-04 -1.478349510580301285e-02 -1.715233922004699707e-02
-2.599492855370044708e-02 -3.759722411632537842e-02 6.614547967910766602e-02 5.489990487694740295e-02 -3.452510386705398560e-02 -1.365442946553230286e-02 1.731532625854015350e-02
-1.369127444922924042e-02 -1.905257068574428558e-02 7.183323055505752563e-02 7.171245664358139038e-02 -1.571035832166671753e-01 -2.280695363879203796e-02 1.806624419987201691e-02
8.892393670976161957e-03 -9.271260350942611694e-04 7.671292405575513840e-03 1.048655528575181961e-02 2.224404551088809967e-02 -2.503017522394657135e-02 -1.748624257743358612e-02
6.508924067020416260e-03 -3.237945027649402618e-03 -2.206275053322315216e-02 7.935469970107078552e-03 1.451581437140703201e-02 -7.796175312250852585e-03 -1.928911544382572174e-03
-9.542088955640792847e-03 -2.220948040485382080e-02 -1.533585321158170700e-02 2.180673182010650635e-02 5.688944365829229355e-03 -1.559439208358526230e-02 5.397798959165811539e-03
4.299474880099296570e-02 1.422832626849412918e-02 -1.676458306610584259e-02 8.144191466271877289e-03 2.684780582785606384e-02 1.898301579058170319e-02 1.673810742795467377e-02
5.249242298305034637e-03 3.807615116238594055e-02 -9.598859585821628571e-03 -8.505751937627792358e-02 -5.434141680598258972e-02 7.389290630817413330e-02 4.382483661174774170e-02
-2.817488973960280418e-03 -1.801718398928642273e-02 1.171728689223527908e-02 6.011480465531349182e-02 -2.409159578382968903e-02 -1.459804922342300415e-01 -6.028105318546295166e-02
1.287882309406995773e-02 4.624511301517486572e-02 -5.587538704276084900e-02 -7.845793664455413818e-02 3.142717853188514709e-02 7.033681124448776245e-02 3.539969772100448608e-02
6.338471546769142151e-03 2.613599039614200592e-02 2.867689542472362518e-02 2.900083921849727631e-02 -2.460434846580028534e-02 -4.237737134099006653e-02 9.119668975472450256e-03
-3.098174743354320526e-02 -1.659122295677661896e-02 2.123263105750083923e-02 3.670594841241836548e-02 2.526286244392395020e-02 -7.230830844491720200e-03 1.784565672278404236e-02
1.334172394126653671e-02 5.188028793781995773e-03 -1.058112177997827530e-02 -2.533540129661560059e-03 3.393600462004542351e-03 -1.591436564922332764e-02 -3.574382048100233078e-03
2.399727888405323029e-02 -3.315150272101163864e-03 -3.853886201977729797e-02 -3.019484505057334900e-02 -2.994264662265777588e-02 -2.259784191846847534e-02 -9.110130369663238525e-03
2.978867664933204651e-02 5.721739679574966431e-02 3.672908525913953781e-03 -5.307839810848236084e-02 2.153159864246845245e-02 1.545930095016956329e-02 9.836714016273617744e-04
8.807945996522903442e-03 7.530327141284942627e-02 -3.359872149303555489e-03 1.070386823266744614e-02 8.449909836053848267e-02 1.793136447668075562e-02 -2.424520067870616913e-02
1.969429664313793182e-02 -5.731699638999998569e-04 -5.470797047019004822e-02 3.409123793244361877e-02 2.625215798616409302e-02 -2.894453331828117371e-02 2.619304880499839783e-02
-2.571369521319866180e-02 1.856499584391713142e-03 -1.381820347160100937e-02 -2.050121780484914780e-03 -3.677732078358530998e-03 -1.305262465029954910e-02 -7.169554010033607483e-03
3.107326477766036987e-02 -5.983670707792043686e-04 -2.547653764486312866e-02 -5.602597445249557495e-02 -4.340611398220062256e-02 1.224282290786504745e-02 -2.048031659796833992e-03
2.380750514566898346e-02 -4.122859612107276917e-02 -3.247251361608505249e-02 1.685317978262901306e-02 -1.984220370650291443e-02 -3.821181831881403923e-03 6.221591960638761520e-03
4.649852216243743896e-02 3.343926742672920227e-02 2.510685846209526062e-02 -1.215229183435440063e-02 1.571387052536010742e-02 3.572570905089378357e-02 1.260727923363447189e-02
-1.442838367074728012e-02 -1.392771117389202118e-02 -1.019761990755796432e-02 2.786964364349842072e-02 -4.989418759942054749e-02 -7.588171400129795074e-03 -5.216717347502708435e-02
2.770979329943656921e-02 3.614970482885837555e-03 1.531211845576763153e-02 4.344562441110610962e-02 3.481569513678550720e-02 6.136576086282730103e-02 3.453863039612770081e-02
-1.449083909392356873e-02 -7.223121076822280884e-02 -3.476385772228240967e-02 6.567921489477157593e-03 -6.522850692272186279e-02 -1.800991594791412354e-03 -1.048297900706529617e-02
-6.497384048998355865e-03 -3.882933035492897034e-02 5.581706296652555466e-03 9.338934719562530518e-02 -2.206508535891771317e-03 -1.638754643499851227e-02 -2.176125906407833099e-02
2.888112701475620270e-02 -3.572597727179527283e-02 -2.725509181618690491e-02 2.817720733582973480e-02 4.704916849732398987e-02 -2.424280531704425812e-02 -3.553424403071403503e-02
1.028080191463232040e-02 1.019148528575897217e-02 5.334489513188600540e-03 -4.385565407574176788e-03 1.025391859002411366e-03 3.025315934792160988e-03 1.465881895273923874e-02
7.654261309653520584e-03 3.824078291654586792e-02 6.165494397282600403e-02 7.452582567930221558e-02 2.251666411757469177e-02 2.035043947398662567e-02 7.951008155941963196e-03
-4.556127823889255524e-03 7.352280616760253906e-02 1.495062708854675293e-01 1.266583651304244995e-01 9.679590910673141479e-02 1.105411536991596222e-02 1.423802040517330170e-02
-1.466294471174478531e-02 -2.614515274763107300e-02 7.909514755010604858e-02 7.706189900636672974e-02 1.171106379479169846e-02 3.101999126374721527e-02 -1.726958667859435081e-03
-1.816792995668947697e-03 -6.212231889367103577e-02 -1.454964429140090942e-01 -1.581098884344100952e-01 -4.375996068120002747e-02 -2.047328464686870575e-02 -6.822438910603523254e-03
6.795469671487808228e-03 -4.189268499612808228e-02 -7.868128269910812378e-02 -7.753775268793106079e-02 -5.442253872752189636e-02 -1.652525551617145538e-02 -1.209936197847127914e-02
-4.445703234523534775e-03 -1.567478105425834656e-02 4.747472703456878662e-03 1.423919014632701874e-02 -9.507356211543083191e-03 -1.107780355960130692e-02 4.255159758031368256e-03
6.045538000762462616e-03 8.093421347439289093e-03 7.811788935214281082e-03 -2.656926773488521576e-02 -8.944915607571601868e-03 1.527677662670612335e-02 -2.626992296427488327e-03
5.573312751948833466e-03 2.527791634202003479e-02 2.110275067389011383e-02 -6.821288168430328369e-02 1.663926616311073303e-02 -6.495201494544744492e-03 -1.231541857123374939e-02
6.366461515426635742e-03 -7.621123804710805416e-04 -4.540475085377693176e-02 8.117660135030746460e-02 -2.331207506358623505e-02 -3.054922632873058319e-02 1.863031531684100628e-03
-9.746802039444446564e-03 -2.042253687977790833e-02 -4.826873540878295898e-02 1.891805082559585571e-01 -5.270275846123695374e-02 -3.769968077540397644e-02 4.078691825270652771e-03
-2.008268050849437714e-02 3.356298804283142090e-02 5.417635291814804077e-02 -9.529537707567214966e-02 9.843727201223373413e-02 5.147497355937957764e-02 -4.008186981081962585e-03
2.132743829861283302e-03 2.906521782279014587e-02 2.325472608208656311e-02 -1.435938477516174316e-01 4.176262393593788147e-02 2.463663369417190552e-02 1.530857104808092117e-02
1.903199707157909870e-03 -2.458387613296508789e-02 -2.060309424996376038e-02 3.159613534808158875e-02 -1.661887764930725098e-02 -1.236793119460344315e-02 -5.692266277037560940e-04
-6.735584232956171036e-03 -4.651318595279008150e-04 -1.125095598399639130e-02 -6.085924804210662842e-02 6.132845208048820496e-02 -2.067000977694988251e-02 -1.722354628145694733e-02
6.783801596611738205e-03 -9.028277359902858734e-03 -2.330106683075428009e-02 5.486673675477504730e-03 -9.624796919524669647e-03 -2.848217636346817017e-02 9.379215771332383156e-04
1.368920900858938694e-03 2.118294825777411461e-03 -1.192365540191531181e-03 9.111703187227249146e-02 -9.360159933567047119e-02 1.685810089111328125e-02 1.965940929949283600e-03
-8.439316414296627045e-03 -3.047653939574956894e-03 4.167029634118080139e-03 -3.632782772183418274e-02 3.441944345831871033e-02 4.898370057344436646e-02 -1.054748333990573883e-02
1.970581477507948875e-03 3.810055553913116455e-02 -2.372096106410026550e-02 -3.606802597641944885e-02 5.286850035190582275e-02 1.562366494908928871e-03 1.093399524688720703e-02
-2.541536232456564903e-03 -1.747180009260773659e-03 -1.643252617213875055e-04 5.515764653682708740e-02 -4.641350358724594116e-02 4.972321446985006332e-03 6.638060323894023895e-03
-1.517267711460590363e-02 -8.484318968839943409e-04 5.727676325477659702e-04 1.904187537729740143e-02 -5.627826228737831116e-02 2.024896442890167236e-02 -1.251459214836359024e-02
1.222405023872852325e-02 -2.949282352346926928e-04 -7.825443521142005920e-03 -1.896991953253746033e-02 1.955529674887657166e-02 2.705535292625427246e-02 -2.657101303339004517e-02
-8.576191961765289307e-03 -2.668789587914943695e-03 2.293921262025833130e-02 -4.673293791711330414e-03 -3.575562266632914543e-03 4.301622137427330017e-02 -9.706899523735046387e-03
1.125469524413347244e-02 -2.175291441380977631e-02 1.451526861637830734e-02 -1.970285736024379730e-02 -4.010836407542228699e-02 -4.383346065878868103e-03 9.918202646076679230e-03
6.081791594624519348e-02 -1.416137814521789551e-02 -2.155763283371925354e-02 -3.792933188378810883e-03 -6.794742308557033539e-03 4.266909882426261902e-02 -4.432939738035202026e-02
1.320790965110063553e-02 1.143874600529670715e-03 2.545992657542228699e-02 -1.571924984455108643e-02 6.374218314886093140e-02 4.121512547135353088e-02 -3.924912586808204651e-02
-2.401298098266124725e-02 -1.272122096270322800e-02 2.931301668286323547e-02 -4.273997992277145386e-02 -2.699794434010982513e-02 2.395151369273662567e-02 2.040947601199150085e-02
1.067138370126485825e-02 4.387274850159883499e-03 6.520562339574098587e-03 -5.868699401617050171e-03 -2.347602881491184235e-02 9.306094609200954437e-03 1.217537932097911835e-02
-7.898173294961452484e-03 -9.910537861287593842e-03 2.298568375408649445e-02 -1.090733893215656281e-02 -2.150503732264041901e-02 3.519213991239666939e-03 3.065152093768119812e-03
-3.453883575275540352e-03 6.644467357546091080e-03 7.157886866480112076e-03 -2.659363485872745514e-02 -1.638763025403022766e-02 2.285708114504814148e-02 1.132497563958168030e-02
-1.421199180185794830e-02 -1.149364560842514038e-02 5.188272520899772644e-02 -3.009118512272834778e-02 -2.978904359042644501e-02 4.077790677547454834e-02 2.644806355237960815e-02
-4.060569405555725098e-02 3.831420792266726494e-03 1.515334993600845337e-01 -3.752088919281959534e-02 -1.046705693006515503e-01 7.104045711457729340e-03 4.300077259540557861e-02
-3.701931610703468323e-02 -1.928636431694030762e-02 1.394051462411880493e-01 -2.518668398261070251e-02 -8.608521521091461182e-02 2.765061706304550171e-02 2.655104175209999084e-02
-5.662752781063318253e-03 -1.429559849202632904e-02 5.921444296836853027e-02 -1.298210117965936661e-02 -3.276553377509117126e-02 8.273147046566009521e-03 1.655223779380321503e-02
-8.286213851533830166e-04 -1.639020256698131561e-02 -1.720992662012577057e-02 -1.724370382726192474e-02 -7.065548095852136612e-03 -8.286591619253158569e-03 2.660439349710941315e-03
5.880990065634250641e-03 -2.674718946218490601e-02 -3.679074812680482864e-03 1.079866755753755569e-02 3.077812492847442627e-02 5.812947172671556473e-03 1.527390442788600922e-03
-1.040594466030597687e-02 -1.266688294708728790e-02 -8.433453738689422607e-03 2.013707160949707031e-02 1.834530965425074100e-03 -1.084716431796550751e-02 -1.358665525913238525e-02
-7.597664743661880493e-02 1.381158176809549332e-02 3.251527994871139526e-02 -1.565327681601047516e-02 -2.317131031304597855e-03 3.468803688883781433e-02 -2.083200030028820038e-02
-1.282968521118164062e-01 2.995678037405014038e-02 9.558732807636260986e-02 -5.014273151755332947e-02 -8.149973303079605103e-02 9.714411199092864990e-02 -1.808046922087669373e-02
-8.176728338003158569e-02 3.013124130666255951e-02 5.617378652095794678e-02 -1.203518128022551537e-03 -4.155627265572547913e-02 5.844368413090705872e-02 -2.135495841503143311e-02
-1.913988217711448669e-02 2.640229091048240662e-02 -1.772635802626609802e-02 1.642469200305640697e-03 1.842632703483104706e-02 8.561597205698490143e-03 -9.289483423344790936e-04
1.817666739225387573e-02 2.787189185619354248e-02 -5.830463487654924393e-03 6.368434987962245941e-03 6.487119011580944061e-03 -1.961711980402469635e-02 -3.505097702145576477e-03
1.475771889090538025e-03 -1.826300472021102905e-02 -1.447208225727081299e-03 2.177620306611061096e-02 -1.440305449068546295e-02 -2.159283123910427094e-02 1.096813124604523182e-03
-3.270959854125976562e-02 -3.147794678807258606e-02 -3.900081850588321686e-03 -1.250732503831386566e-02 -1.462461240589618683e-02 -2.546628378331661224e-02 -1.300815027207136154e-02
2.664782572537660599e-03 -1.884747482836246490e-02 9.202217310667037964e-02 -8.149298280477523804e-02 5.680193752050399780e-02 1.497917436063289642e-02 -1.047561876475811005e-02
-1.937675289809703827e-02 -8.617191633675247431e-05 1.621609777212142944e-01 -1.275579929351806641e-01 5.028332769870758057e-02 3.885782137513160706e-02 -1.522544212639331818e-02
-2.589152939617633820e-02 -1.473858579993247986e-02 9.773407131433486938e-02 -8.655744791030883789e-02 1.757252402603626251e-02 1.158509030938148499e-02 -1.217034552246332169e-02
4.605619236826896667e-03 -3.433967754244804382e-02 1.736364676617085934e-03 9.238021448254585266e-03 -1.488276198506355286e-02 -2.020301856100559235e-02 -1.913915388286113739e-02
2.577154198661446571e-03 -1.506135798990726471e-02 1.180398557335138321e-02 8.434542454779148102e-03 -1.801263540983200073e-02 -1.204998511821031570e-02 -1.676987158134579659e-04
-3.892984008416533470e-03 1.085223816335201263e-02 2.806788869202136993e-02 4.475060105323791504e-02 4.025485739111900330e-02 7.888405583798885345e-03 -3.103631315752863884e-03
5.686192307621240616e-03 -3.382151713594794273e-03 3.193918615579605103e-02 6.332988291978836060e-02 4.703032225370407104e-02 2.253323420882225037e-02 1.395940966904163361e-02
-1.094330847263336182e-02 -1.470513641834259033e-02 -4.148001968860626221e-02 -9.594986587762832642e-02 -1.019900813698768616e-01 -4.791692271828651428e-02 -1.369987800717353821e-02
-3.933246989618055522e-05 -1.716418564319610596e-02 -1.074318364262580872e-01 -1.706141978502273560e-01 -1.300403624773025513e-01 -7.240419089794158936e-02 -2.904610335826873779e-02
6.220642942935228348e-03 7.705892436206340790e-03 1.002495177090167999e-02 3.167756646871566772e-02 8.025885559618473053e-03 -7.004784885793924332e-03 6.936180405318737030e-03
-1.350344903767108917e-02 2.233877778053283691e-02 6.123282760381698608e-02 5.578786134719848633e-02 4.014125838875770569e-02 2.301055379211902618e-02 5.134805571287870407e-03
1.661492045968770981e-03 4.049139562994241714e-03 1.447522826492786407e-02 3.849652409553527832e-02 2.950081042945384979e-02 2.354769222438335419e-02 1.341047137975692749e-02
7.668961305171251297e-03 1.250712946057319641e-02 -2.100357785820960999e-02 -1.899619586765766144e-02 1.247693877667188644e-02 4.646789282560348511e-03 -7.324211299419403076e-03
5.039744079113006592e-03 1.197129860520362854e-02 -1.061020698398351669e-02 -6.721055135130882263e-03 1.511953584849834442e-02 2.121749892830848694e-02 2.122652530670166016e-02
8.768714964389801025e-03 -1.521867467090487480e-03 -3.585135564208030701e-02 9.662357717752456665e-02 -3.528671711683273315e-02 -2.105974854202941060e-04 1.418296433985233307e-02
7.676934357732534409e-03 -2.338762581348419189e-02 -6.404075771570205688e-02 2.145785242319107056e-01 -1.068740263581275940e-01 -3.560603782534599304e-02 6.384567357599735260e-03
4.376032389700412750e-03 -4.587781429290771484e-02 -4.594933986663818359e-02 2.081019282341003418e-01 -9.409112483263015747e-02 -1.309895887970924377e-02 1.220637653023004532e-02
5.832963623106479645e-03 1.775371609255671501e-03 -2.365942113101482391e-02 5.744792893528938293e-02 -4.736963659524917603e-02 7.628834340721368790e-03 8.622528985142707825e-03
6.320208776742219925e-03 2.025091275572776794e-02 -9.938085451722145081e-03 -3.325343877077102661e-02 -1.248543267138302326e-03 1.487910374999046326e-02 7.837537676095962524e-03
-6.959111895412206650e-03 -1.520247384905815125e-02 -7.610325235873460770e-03 -3.993490710854530334e-02 -4.994072765111923218e-02 -2.564936131238937378e-02 -1.743020676076412201e-02
3.250693669542670250e-03 -3.190335258841514587e-02 -5.114259943366050720e-02 -5.815109610557556152e-02 -4.692721739411354065e-02 -4.083036258816719055e-02 -2.391418628394603729e-02
-2.214915119111537933e-02 -7.370991259813308716e-02 -6.981134414672851562e-02 -4.857500642538070679e-02 -5.526376143097877502e-02 -3.381051123142242432e-02 -2.464879862964153290e-02
-2.667832002043724060e-02 -5.534708127379417419e-02 -8.591173589229583740e-02 -1.010390147566795349e-01 -1.012661904096603394e-01 -2.155376039445400238e-02 -3.964396659284830093e-03
1.391470525413751602e-02 -5.247095227241516113e-02 -1.090589538216590881e-01 -1.075623035430908203e-01 -8.532153815031051636e-02 -2.416586689651012421e-02 -7.089404854923486710e-03
-2.416273206472396851e-02 -4.121623933315277100e-02 -5.423327162861824036e-02 -7.291437685489654541e-02 -7.696134597063064575e-02 -4.773925989866256714e-02 -3.077600896358489990e-02
-1.642487477511167526e-03 -1.393042039126157761e-02 -3.101963922381401062e-02 -4.590664431452751160e-02 -1.650841534137725830e-02 -5.004527512937784195e-03 1.382069196552038193e-03
-1.216818392276763916e-02 -1.366011798381805420e-03 3.927383106201887131e-03 2.062665298581123352e-02 5.490545183420181274e-03 1.244124211370944977e-02 -6.248358171433210373e-03
-1.654713763855397701e-03 1.195713132619857788e-02 4.109899513423442841e-03 4.573589190840721130e-03 5.318783689290285110e-03 -9.529354982078075409e-03 -1.879082620143890381e-02
-1.361307571642100811e-03 5.635483190417289734e-03 -7.594996690750122070e-02 3.908817842602729797e-02 1.840483769774436951e-02 -2.250266633927822113e-02 -2.420944161713123322e-02
1.577962748706340790e-02 -3.974021878093481064e-03 -2.021695971488952637e-01 5.534508079290390015e-02 5.417745560407638550e-02 -1.194297429174184799e-02 -1.603524573147296906e-02
1.398458704352378845e-02 1.345792226493358612e-02 -4.729917272925376892e-02 9.845127351582050323e-03 1.619335822761058807e-02 -1.136390585452318192e-02 -1.361382100731134415e-02
-1.459857262670993805e-02 -2.951731672510504723e-03 3.885405510663986206e-02 2.211066707968711853e-02 -9.538890793919563293e-03 -1.103511452674865723e-02 -3.933152765966951847e-04
-1.513619790785014629e-03 -9.099248796701431274e-03 1.265520323067903519e-02 9.034481830894947052e-03 5.399837624281644821e-03 1.685366779565811157e-02 3.290040884166955948e-03
-1.274110842496156693e-02 -2.114648930728435516e-02 1.082019507884979248e-02 2.113828808069229126e-02 9.880815632641315460e-04 -4.454894736409187317e-02 -1.318196300417184830e-02
1.063485862687230110e-03 -2.465461613610386848e-03 -2.073009125888347626e-02 2.272276021540164948e-02 -2.583987265825271606e-02 -2.075128816068172455e-02 1.044986955821514130e-02
1.564585417509078979e-02 -6.644402444362640381e-02 -4.297692328691482544e-02 2.263732254505157471e-02 1.037280447781085968e-02 -9.438876807689666748e-02 -1.650525256991386414e-02
3.840813878923654556e-03 1.317223347723484039e-02 3.237454593181610107e-02 8.923567831516265869e-02 8.607642352581024170e-02 2.040901035070419312e-02 -4.489596188068389893e-02
2.250165492296218872e-02 3.873301669955253601e-02 3.387784585356712341e-02 -2.490336820483207703e-02 3.732040151953697205e-02 1.649336330592632294e-02 -4.877531155943870544e-02
-9.173393482342362404e-04 -1.530059240758419037e-02 -1.643976755440235138e-02 3.427064046263694763e-02 -5.704473005607724190e-04 -1.974916458129882812e-02 5.702680791728198528e-04
-1.122828572988510132e-02 2.245640009641647339e-02 2.019225805997848511e-02 3.786416351795196533e-02 3.471947461366653442e-02 -3.905904665589332581e-02 -2.458460256457328796e-02
-3.227398730814456940e-03 -1.160686835646629333e-02 -1.543256454169750214e-02 -1.727969385683536530e-02 -1.499221567064523697e-02 -1.581108756363391876e-02 -5.129152443259954453e-03
-1.361522171646356583e-02 -1.975899189710617065e-02 -3.322895243763923645e-02 -5.422341078519821167e-02 -4.770055785775184631e-02 -3.283739835023880005e-02 -1.840854249894618988e-02
-1.587115414440631866e-02 -3.625918552279472351e-02 -5.986718460917472839e-02 -8.341030776500701904e-02 -7.817278057336807251e-02 -5.285315960645675659e-02 -1.865258440375328064e-02
-1.913590542972087860e-02 -6.104227527976036072e-02 -8.445291966199874878e-02 -1.000338569283485413e-01 -1.034050062298774719e-01 -5.971211194992065430e-02 -1.986462250351905823e-02
-1.412465609610080719e-02 -3.896664083003997803e-02 -7.552339881658554077e-02 -9.527664631605148315e-02 -8.463424444198608398e-02 -6.161933392286300659e-02 -2.990292385220527649e-02
-1.000019907951354980e-02 -1.677834801375865936e-02 -4.654483124613761902e-02 -7.225476205348968506e-02 -5.407303199172019958e-02 -4.448746144771575928e-02 -1.919857412576675415e-02
-4.009653814136981964e-03 -8.381660096347332001e-03 -2.017264068126678467e-02 -2.463561110198497772e-02 -2.133584022521972656e-02 -1.540985517203807831e-02 -1.012873649597167969e-02
-3.875079099088907242e-03 -1.774865202605724335e-02 -4.134806618094444275e-02 -1.504819747060537338e-02 -3.392695635557174683e-02 -2.113942429423332214e-02 -7.732016965746879578e-03
-1.612622477114200592e-02 -5.036698654294013977e-02 -7.160117477178573608e-02 -6.097068637609481812e-02 -8.288466930389404297e-02 -3.433778509497642517e-02 -7.183666341006755829e-03
-3.237226977944374084e-02 -8.134569227695465088e-02 -5.958595499396324158e-02 -7.627126574516296387e-02 -7.997736334800720215e-02 -8.020547777414321899e-02 -1.603162847459316254e-02
-2.719341218471527100e-02 -7.463505864143371582e-02 -7.102671265602111816e-02 -1.082098260521888733e-01 -7.696117460727691650e-02 -1.034537926316261292e-01 -2.931762114167213440e-02
-1.834923401474952698e-02 -4.853576794266700745e-02 -6.534352153539657593e-02 -6.296414881944656372e-02 -5.374217033386230469e-02 -5.700089037418365479e-02 -1.889809407293796539e-02
-1.141108386218547821e-02 -2.957627922296524048e-02 -4.713903740048408508e-02 -4.217865690588951111e-02 -3.600371628999710083e-02 -3.456085547804832458e-02 -5.950544029474258423e-03
-5.533085204660892487e-03 -7.263768929988145828e-03 -2.955535985529422760e-02 -1.403657998889684677e-02 -3.646202757954597473e-02 -5.090998858213424683e-02 -1.452432759106159210e-02
6.022766977548599243e-02 6.818468868732452393e-02 8.881421387195587158e-02 6.234709918498992920e-02 4.051138088107109070e-02 5.777746811509132385e-02 3.131278231739997864e-02
6.033682078123092651e-02 8.109889179468154907e-02 7.020964473485946655e-02 7.344464212656021118e-02 5.271950364112854004e-02 7.089342921972274780e-02 6.227948889136314392e-02
5.857506394386291504e-02 9.215054661035537720e-02 6.075945496559143066e-02 7.737904787063598633e-02 5.633053556084632874e-02 7.274875044822692871e-02 5.528575554490089417e-02
9.081622958183288574e-02 1.159040629863739014e-01 9.437592327594757080e-02 8.251814544200897217e-02 7.415758073329925537e-02 1.194557547569274902e-01 8.620989322662353516e-02
8.025879412889480591e-02 1.052058488130569458e-01 8.054702728986740112e-02 8.475170284509658813e-02 6.176967546343803406e-02 5.488267913460731506e-02 5.455454066395759583e-02
3.070641122758388519e-02 7.158583402633666992e-02 7.892715185880661011e-02 8.995364606380462646e-02 8.542031794786453247e-02 1.023162528872489929e-01 6.534437090158462524e-02
3.208357840776443481e-02 3.530216217041015625e-02 6.239012628793716431e-02 8.587642014026641846e-02 5.426852405071258545e-02 6.881394237279891968e-02 4.782880470156669617e-02
1.047518569976091385e-02 4.673885554075241089e-02 9.295070543885231018e-03 5.476900842040777206e-03 1.605047285556793213e-02 -1.957152038812637329e-02 -1.342629641294479370e-02
2.360212057828903198e-02 2.243655547499656677e-02 1.133148837834596634e-02 -4.747912753373384476e-03 6.578114815056324005e-03 -3.286885842680931091e-02 -5.143114365637302399e-03
-8.380824699997901917e-03 -3.690925240516662598e-02 1.156647801399230957e-01 -2.953494526445865631e-02 -5.749892070889472961e-02 2.650320995599031448e-03 1.145451422780752182e-02
-2.957455068826675415e-02 -4.873914644122123718e-02 4.609620943665504456e-02 1.157514657825231552e-02 -3.350857272744178772e-02 -1.782996766269207001e-02 1.708315126597881317e-02
1.131792832165956497e-02 3.859405638650059700e-03 -5.789171438664197922e-03 2.261713705956935883e-02 4.621857032179832458e-02 -3.578963503241539001e-02 -3.162994980812072754e-02
-8.711034315638244152e-04 2.963037788867950439e-02 2.673067897558212280e-02 -5.131232552230358124e-03 1.256648451089859009e-03 -3.778988867998123169e-02 -2.946880087256431580e-02
-4.339052364230155945e-03 -3.381786122918128967e-02 1.830619876272976398e-03 2.155874483287334442e-02 1.481422130018472672e-02 1.467810198664665222e-02 6.121853366494178772e-03
1.687229052186012268e-02 -2.242564409971237183e-02 4.039949551224708557e-02 5.876589566469192505e-02 1.528941001743078232e-02 -4.135048389434814453e-02 1.875624991953372955e-03
-2.410616911947727203e-02 1.420339290052652359e-02 6.201930716633796692e-02 4.738505929708480835e-02 3.282146155834197998e-02 -3.801936050876975060e-03 -1.556569430977106094e-02
1.022429019212722778e-02 8.330003172159194946e-02 9.405483305454254150e-02 -2.684998884797096252e-02 -2.176658948883414268e-03 7.270829752087593079e-03 1.443232782185077667e-02
3.011569380760192871e-02 6.294609606266021729e-02 5.557836964726448059e-02 -5.717970058321952820e-02 -7.417939603328704834e-02 -3.708297386765480042e-02 1.975314691662788391e-02
-6.774348672479391098e-03 5.741576850414276123e-02 5.913442000746726990e-02 -7.246597856283187866e-02 -6.250509619712829590e-02 -8.973335498012602329e-04 3.160561621189117432e-02
-2.671337686479091644e-02 -3.797056153416633606e-02 -4.008408263325691223e-02 -3.939081355929374695e-02 -2.797950059175491333e-02 -4.646989703178405762e-02 -2.010117843747138977e-02
1.189782656729221344e-02 -2.667488157749176025e-02 -2.938154712319374084e-02 -1.329967193305492401e-02 -2.697268500924110413e-03 -2.068482153117656708e-02 -2.031068131327629089e-02
1.779147796332836151e-02 1.763710938394069672e-02 2.948220819234848022e-02 3.178085014224052429e-02 -7.712937891483306885e-03 4.352691583335399628e-03 1.017902418971061707e-02
-8.942583575844764709e-03 -1.347332261502742767e-02 -5.338650941848754883e-02 -8.985701203346252441e-02 -4.162849485874176025e-02 6.808284670114517212e-03 6.499770825030282140e-05
-9.850982576608657837e-03 -6.023975461721420288e-02 -4.858329519629478455e-02 2.807470038533210754e-03 -2.705905213952064514e-02 -8.735080249607563019e-03 -3.464708570390939713e-03
-2.085228264331817627e-02 3.206520900130271912e-02 1.515047252178192139e-01 1.712458282709121704e-01 9.765993058681488037e-02 -2.608823031187057495e-02 -4.092950746417045593e-02
2.256189100444316864e-02 5.045784264802932739e-02 6.003784388303756714e-02 8.335791528224945068e-02 7.558907964266836643e-04 -3.634376823902130127e-02 8.105257526040077209e-03
1.786093227565288544e-02 -2.407919056713581085e-02 -5.222299695014953613e-02 -6.394127011299133301e-02 -5.124972015619277954e-02 1.350578479468822479e-02 1.130336709320545197e-02
-1.786945573985576630e-02 -1.425960380584001541e-02 -1.765127293765544891e-02 -3.017204627394676208e-02 -6.203532684594392776e-04 -2.389051718637347221e-03 -6.886166054755449295e-03
-1.255769003182649612e-02 -1.661399938166141510e-02 -6.976938806474208832e-03 -9.080294519662857056e-03 -5.441126879304647446e-03 -2.645176276564598083e-02 -1.977949403226375580e-02
-3.018469084054231644e-03 7.951896637678146362e-03 4.175127297639846802e-02 3.464981168508529663e-02 -2.021211013197898865e-02 -1.333586126565933228e-02 9.066572529263794422e-04
-2.589057944715023041e-02 3.709022700786590576e-02 1.186695620417594910e-01 9.349446743726730347e-02 -1.859894581139087677e-02 -4.619667306542396545e-02 -5.429904442280530930e-03
-1.968442089855670929e-02 7.525952905416488647e-02 1.573412567377090454e-01 1.039842218160629272e-01 -1.789316721260547638e-02 -9.638376533985137939e-02 -2.626373432576656342e-02
-2.136313170194625854e-02 1.626444049179553986e-02 9.936793893575668335e-02 9.831903874874114990e-02 -3.509701788425445557e-02 -5.846323445439338684e-02 -2.469424530863761902e-02
-7.101462222635746002e-03 -9.289511479437351227e-03 7.275680545717477798e-03 2.599412761628627777e-02 -2.702600881457328796e-02 -2.021905779838562012e-02 -2.017335221171379089e-02
-3.747826442122459412e-03 -9.444456547498703003e-03 -3.926344215869903564e-03 -2.154992194846272469e-03 5.755056045018136501e-04 5.461091175675392151e-03 -5.206071306020021439e-03
5.882801953703165054e-03 2.374154515564441681e-02 2.881784178316593170e-02 3.053934685885906219e-02 2.834030613303184509e-02 2.186493016779422760e-02 8.320435881614685059e-03
2.614044398069381714e-02 5.796100944280624390e-02 7.848561555147171021e-02 7.724925875663757324e-02 6.054527312517166138e-02 2.348006702959537506e-02 1.054842863231897354e-02
2.030895464122295380e-02 9.065403789281845093e-02 1.395559161901473999e-01 1.292889714241027832e-01 8.560781180858612061e-02 4.142118617892265320e-02 1.280794665217399597e-02
4.096879810094833374e-02 1.010412573814392090e-01 1.712377518415451050e-01 1.819240599870681763e-01 1.159153953194618225e-01 5.973448604345321655e-02 2.319177426397800446e-02
3.060478344559669495e-02 8.715978264808654785e-02 1.305885612964630127e-01 1.431468129158020020e-01 1.021776869893074036e-01 4.523893073201179504e-02 1.335199456661939621e-02
1.744209602475166321e-02 5.406112596392631531e-02 8.647815883159637451e-02 9.240309894084930420e-02 7.771638780832290649e-02 4.448962211608886719e-02 1.026698201894760132e-02
4.863147623836994171e-03 1.838531345129013062e-02 3.107582218945026398e-02 3.534079715609550476e-02 3.069047071039676666e-02 3.045397438108921051e-02 1.898399740457534790e-02
7.186613976955413818e-03 -6.387798115611076355e-03 -4.856270551681518555e-02 -3.089123219251632690e-02 5.907464306801557541e-03 -5.373491905629634857e-03 -2.711853757500648499e-02
-1.793216913938522339e-02 -6.575125735253095627e-03 -2.229581587016582489e-02 -1.105863717384636402e-03 -1.441763620823621750e-02 1.835790649056434631e-02 -1.210741419345140457e-02
3.994907252490520477e-03 2.235116250813007355e-02 -6.447196751832962036e-02 -1.232224479317665100e-01 -8.072009682655334473e-02 9.306908585131168365e-03 -1.673822663724422455e-02
4.673961922526359558e-02 4.517538100481033325e-02 -2.343160304008051753e-04 -7.983773946762084961e-02 -3.131471946835517883e-02 2.169606834650039673e-02 -4.634915292263031006e-02
2.444942109286785126e-02 3.978270664811134338e-02 4.173772037029266357e-02 3.073153831064701080e-02 -2.216527797281742096e-02 4.618581850081682205e-03 -1.586018479429185390e-03
-1.189483422785997391e-02 -1.347601972520351410e-02 2.785689383745193481e-02 2.869017980992794037e-02 -1.833063364028930664e-02 -1.204555202275514603e-02 -3.197180479764938354e-02
1.172016956843435764e-03 1.940988749265670776e-02 8.745733648538589478e-03 -4.444187879562377930e-02 3.200674802064895630e-02 6.099538132548332214e-02 9.639319032430648804e-04
2.653321251273155212e-03 -7.659444119781255722e-03 2.664539217948913574e-02 2.165545336902141571e-02 -1.207426376640796661e-02 -1.874548569321632385e-02 1.405656337738037109e-02
-1.206536497920751572e-02 -2.865203283727169037e-02 2.048480883240699768e-02 -6.280208006501197815e-03 -1.636924222111701965e-02 -9.228430688381195068e-03 2.113895257934927940e-03
-2.115031145513057709e-02 5.315785482525825500e-02 -8.891052566468715668e-03 -4.375730082392692566e-02 6.323958933353424072e-02 -1.213821768760681152e-02 -7.257030904293060303e-02
-3.303295746445655823e-02 5.000055581331253052e-02 8.921314030885696411e-03 -5.242276564240455627e-02 6.896250694990158081e-02 8.423359133303165436e-03 -5.532253161072731018e-02
-2.837754786014556885e-02 -2.009047754108905792e-02 3.311422467231750488e-02 8.442145772278308868e-03 5.619133822619915009e-03 1.171631366014480591e-02 1.787421852350234985e-02
-9.317124262452125549e-03 -3.287434950470924377e-02 3.292431309819221497e-02 2.593338675796985626e-02 -3.768495842814445496e-02 -4.033271223306655884e-02 1.286981720477342606e-02
1.946177566424012184e-03 -9.593984112143516541e-03 4.028925206512212753e-03 2.079624496400356293e-02 -7.437944412231445312e-03 1.021897792816162109e-02 2.669968269765377045e-02
1.092518400400876999e-02 2.780804783105850220e-02 1.974352821707725525e-02 -3.898724168539047241e-02 -4.471230506896972656e-02 -7.452866993844509125e-03 2.067645080387592316e-02
-1.293897256255149841e-02 -1.443334948271512985e-02 4.581359401345252991e-02 7.635220140218734741e-02 4.086803272366523743e-02 -3.019639290869235992e-03 -3.892896324396133423e-02
-8.434546180069446564e-03 -8.224807679653167725e-02 -1.077621355652809143e-01 4.663194343447685242e-02 1.288305819034576416e-01 8.085973560810089111e-02 2.675626613199710846e-02
4.193526878952980042e-02 5.679048597812652588e-02 -4.749014228582382202e-02 -2.300499379634857178e-01 -1.987957805395126343e-01 8.764539379626512527e-04 3.279686719179153442e-02
-1.457607466727495193e-02 2.808278799057006836e-02 7.706420123577117920e-02 9.457218647003173828e-02 -7.866617292165756226e-03 -9.296489506959915161e-02 -4.625168070197105408e-02
-6.999912206083536148e-03 -4.443594813346862793e-02 2.373093273490667343e-03 5.508851632475852966e-02 8.345200866460800171e-02 2.214559726417064667e-02 -1.447598636150360107e-02
3.267916617915034294e-03 -1.883922144770622253e-03 -2.359486371278762817e-02 -2.927345782518386841e-02 1.190863829106092453e-02 3.729936107993125916e-02 1.255203410983085632e-02
-1.396360620856285095e-02 1.792042888700962067e-02 4.566080495715141296e-02 -2.382251666858792305e-03 -3.648292645812034607e-02 1.726596616208553314e-02 1.591336913406848907e-02
2.963690832257270813e-02 1.818818598985671997e-02 3.045796602964401245e-02 1.996961981058120728e-02 -5.982554517686367035e-03 -1.190959941595792770e-02 2.563068084418773651e-02
-1.650855690240859985e-02 1.867025345563888550e-02 1.145743858069181442e-02 -3.220278024673461914e-02 -1.360504142940044403e-02 8.494195528328418732e-03 9.023732505738735199e-03
-2.839822694659233093e-02 3.585887700319290161e-02 -2.103716321289539337e-02 -1.026128791272640228e-02 -4.942012205719947815e-02 2.198498137295246124e-02 -2.071986347436904907e-02
-3.141570836305618286e-02 -1.003867574036121368e-02 -7.591460645198822021e-02 -6.276818364858627319e-02 -2.541808038949966431e-02 4.041519016027450562e-02 -3.844254883006215096e-03
-1.262134406715631485e-02 -4.402428865432739258e-03 -5.187879502773284912e-02 3.335371986031532288e-02 -9.700380265712738037e-03 3.717233194038271904e-03 -2.372598741203546524e-03
4.104317631572484970e-03 -2.465501602273434401e-04 -1.142540574073791504e-02 3.426062688231468201e-02 1.916566491127014160e-02 3.736295923590660095e-02 2.995210513472557068e-02
-1.687297038733959198e-02 1.772950403392314911e-02 -2.217736467719078064e-02 -6.929156184196472168e-02 4.335502907633781433e-02 3.112820535898208618e-02 -3.201687708497047424e-02
-4.138144850730895996e-02 -3.654175437986850739e-03 3.529162704944610596e-02 -4.643651098012924194e-02 9.722711518406867981e-03 8.398965001106262207e-03 -1.483009196817874908e-02
-3.783561289310455322e-02 -1.469656825065612793e-03 -2.695110253989696503e-02 9.674377739429473877e-02 -3.687848523259162903e-02 1.259424956515431404e-03 7.174168713390827179e-03
5.524137988686561584e-03 4.535219818353652954e-02 -3.355032950639724731e-02 1.053535379469394684e-02 2.854990959167480469e-02 -2.056097425520420074e-02 1.379722234560176730e-04
1.923669246025383472e-03 9.692516177892684937e-03 -9.377332404255867004e-03 6.187934800982475281e-02 -2.276531420648097992e-02 -8.941776119172573090e-03 2.024514786899089813e-02
-2.215472050011157990e-02 -3.174880892038345337e-02 3.864442557096481323e-02 8.342674374580383301e-02 -6.758047640323638916e-02 -2.139644511044025421e-02 -5.763333756476640701e-03
-1.784584601409733295e-03 2.281269617378711700e-02 -3.115619067102670670e-03 -2.163399383425712585e-02 -4.813150968402624130e-03 1.335972221568226814e-03 -5.078104790300130844e-03
-1.852354593575000763e-02 -1.276701036840677261e-02 -4.493563994765281677e-02 -3.367449715733528137e-02 -2.534745633602142334e-02 -4.448989778757095337e-02 -2.307919599115848541e-02
-2.426894754171371460e-02 -1.591384224593639374e-02 3.421301487833261490e-03 -3.667804179713129997e-03 -1.673689670860767365e-02 -1.798973791301250458e-02 -2.168739959597587585e-02
-6.806441396474838257e-02 -4.005651175975799561e-02 1.004865467548370361e-01 1.587966829538345337e-01 9.406190365552902222e-02 1.380169112235307693e-02 -1.469330582767724991e-02
-5.226674303412437439e-02 -4.873359203338623047e-02 6.046022474765777588e-02 1.631996929645538330e-01 1.317514628171920776e-01 -4.353523720055818558e-03 -2.479966916143894196e-02
-2.057716622948646545e-02 -4.238959029316902161e-02 1.152463629841804504e-02 1.125019639730453491e-01 8.220957964658737183e-02 -1.327720237895846367e-03 -1.087275799363851547e-02
-2.820855937898159027e-02 -2.952257730066776276e-02 1.215260854223743081e-04 4.158527776598930359e-02 -1.275498536415398121e-03 -6.396926194429397583e-02 -4.657168686389923096e-02
9.573016315698623657e-03 -4.621313419193029404e-03 -4.544045403599739075e-02 -4.594044387340545654e-02 -3.094282001256942749e-02 -4.154729843139648438e-02 -2.911679819226264954e-02
6.016979925334453583e-03 -2.048941794782876968e-03 2.591179311275482178e-02 -8.595939725637435913e-03 -7.416209671646356583e-03 1.651844475418329239e-03 -5.176981721888296306e-05
-1.306097023189067841e-02 -2.364748902618885040e-02 1.364664640277624130e-03 1.291164197027683258e-02 8.950118906795978546e-03 9.629491716623306274e-03 8.280760608613491058e-03
-4.583127330988645554e-03 7.226252462714910507e-03 9.263757616281509399e-03 -3.852612897753715515e-02 -3.648812649771571159e-03 3.277599811553955078e-02 -2.671076683327555656e-03
1.492841541767120361e-02 6.909778714179992676e-02 -2.309100478887557983e-01 7.039334625005722046e-02 7.143713068217039108e-03 2.613819763064384460e-02 9.288741275668144226e-03
-7.059067953377962112e-03 -7.089451886713504791e-03 2.870026417076587677e-02 -3.841159120202064514e-02 1.696818880736827850e-02 1.530557405203580856e-02 -1.687299087643623352e-02
3.144326619803905487e-03 -2.619301341474056244e-02 2.312760055065155029e-02 2.586303092539310455e-02 2.455116249620914459e-02 2.818112820386886597e-02 8.444824256002902985e-03
-4.554801154881715775e-03 2.435803879052400589e-03 -2.220806293189525604e-02 1.455903705209493637e-02 -8.925989270210266113e-03 1.761508174240589142e-02 -7.088147569447755814e-03
-2.404778264462947845e-03 4.283922258764505386e-03 -3.040996612980961800e-03 -1.126651000231504440e-02 1.924473419785499573e-02 -3.125177323818206787e-02 -4.287664312869310379e-03
-7.613454014062881470e-03 3.080550394952297211e-02 6.579264998435974121e-03 2.518247812986373901e-02 2.231536060571670532e-02 -2.044527232646942139e-02 -1.689061149954795837e-02
6.991099100559949875e-03 -9.523909538984298706e-03 2.564960345625877380e-02 6.838955730199813843e-02 9.851042926311492920e-02 2.599337697029113770e-02 1.753904856741428375e-03
-1.115314569324254990e-02 -3.783551603555679321e-02 -6.744994223117828369e-02 -1.006811335682868958e-01 2.533251345157623291e-01 -4.521512612700462341e-02 1.063213031738996506e-02
-2.134737931191921234e-02 -1.392945181578397751e-02 -4.306917637586593628e-02 -3.555883839726448059e-02 4.283498600125312805e-02 6.058477330952882767e-03 9.175562299787998199e-03
3.106311196461319923e-03 4.584186151623725891e-02 -2.406001277267932892e-02 -5.096818879246711731e-02 -3.981374949216842651e-02 -2.246366115286946297e-03 1.546702161431312561e-02
-1.020209211856126785e-02 -1.839131489396095276e-02 -1.627167314291000366e-02 -1.523093413561582565e-02 -8.080218918621540070e-03 -3.569943457841873169e-02 -1.580028980970382690e-02
9.454435203224420547e-04 -3.541765268892049789e-03 2.321146614849567413e-02 9.038455784320831299e-03 4.658899269998073578e-03 1.565609872341156006e-02 -7.335796835832297802e-04
1.080973166972398758e-02 -9.173634462058544159e-04 1.935911178588867188e-02 2.787813358008861542e-02 1.928449422121047974e-02 3.114967979490756989e-02 2.355074882507324219e-02
-1.296230009756982327e-03 2.368044108152389526e-03 -2.202994422987103462e-03 -4.337748760008253157e-05 -5.292440578341484070e-02 -1.701430534012615681e-03 3.005812875926494598e-02
1.004164014011621475e-02 -4.150405153632164001e-02 1.155104115605354309e-02 7.536016404628753662e-02 -1.297321468591690063e-01 -5.202431231737136841e-02 2.973217703402042389e-02
-4.430195549502968788e-04 -3.284993022680282593e-02 1.322563551366329193e-02 1.084375306963920593e-01 -7.616829872131347656e-02 -5.041063949465751648e-02 8.884048089385032654e-03
6.860272027552127838e-03 -8.608935400843620300e-03 -1.575528061948716640e-03 4.760649055242538452e-02 -1.051193289458751678e-02 -5.651640705764293671e-03 2.888424694538116455e-02
2.019293047487735748e-02 -3.375224769115447998e-03 1.848846115171909332e-02 1.125935371965169907e-02 1.261759363114833832e-02 2.665911987423896790e-02 -3.896247362717986107e-03
3.742842376232147217e-02 6.162345781922340393e-02 4.853346571326255798e-02 9.385571628808975220e-02 6.228532642126083374e-02 6.273914128541946411e-02 4.295678436756134033e-02
6.524313986301422119e-02 6.446195393800735474e-02 8.629010617733001709e-02 1.165006980299949646e-01 9.880154579877853394e-02 7.487127929925918579e-02 4.678341746330261230e-02
4.593623057007789612e-02 5.408424139022827148e-02 6.176329404115676880e-02 1.290031969547271729e-01 9.796849638223648071e-02 9.070376306772232056e-02 4.665656760334968567e-02
6.674488633871078491e-02 1.161479949951171875e-01 1.131095662713050842e-01 1.730050444602966309e-01 1.406247019767761230e-01 8.932214230298995972e-02 6.567867845296859741e-02
1.753583364188671112e-02 4.319370165467262268e-02 8.736419677734375000e-02 1.469793766736984253e-01 1.112144142389297485e-01 7.144357264041900635e-02 5.324953421950340271e-02
3.815720230340957642e-02 4.255396872758865356e-02 6.559612601995468140e-02 1.274460405111312866e-01 8.250981569290161133e-02 7.608811557292938232e-02 5.159042030572891235e-02
1.581124030053615570e-02 2.019519172608852386e-02 2.507407031953334808e-02 6.958318501710891724e-02 6.589888036251068115e-02 6.106452271342277527e-02 4.443628713488578796e-02
-4.016248974949121475e-03 3.459785366430878639e-03 6.016844417899847031e-03 -1.831229776144027710e-02 1.160876452922821045e-02 2.354318043217062950e-03 -6.092297189752571285e-05
-1.005660649389028549e-02 -1.634664833545684814e-02 -1.132687646895647049e-02 3.039357811212539673e-02 4.127622395753860474e-02 -4.228593781590461731e-03 4.044285975396633148e-03
8.380808867514133453e-04 2.788642793893814087e-02 1.588424667716026306e-02 1.930691115558147430e-02 -1.815607771277427673e-02 -7.919906638562679291e-03 -8.941817097365856171e-03
-4.893676377832889557e-03 4.980565235018730164e-02 -1.747668832540512085e-01 1.348691135644912720e-01 1.638711430132389069e-02 8.736071176826953888e-03 2.263438142836093903e-02
-2.272825501859188080e-02 6.781089585274457932e-03 7.767464849166572094e-04 -2.876146137714385986e-02 -2.839758805930614471e-02 -9.860035032033920288e-03 -6.567514967173337936e-03
4.563032649457454681e-03 -2.274454105645418167e-03 1.449939422309398651e-02 3.370424360036849976e-02 1.688062772154808044e-02 -1.206945721060037613e-02 6.912948098033666611e-03
-5.938610993325710297e-03 2.296639047563076019e-02 -1.228140667080879211e-02 -1.814616261981427670e-03 2.488555386662483215e-03 7.476090919226408005e-03 2.647447632625699043e-03
-1.195492967963218689e-02 1.123947650194168091e-02 8.449114393442869186e-04 3.747108578681945801e-02 -1.733099576085805893e-03 1.811688882298767567e-03 -4.359845072031021118e-03
2.537567925173789263e-04 1.374034956097602844e-02 2.617522515356540680e-02 2.462956868112087250e-02 1.438599545508623123e-03 -1.986107602715492249e-02 -1.159651018679141998e-02
-4.335666075348854065e-03 1.461636973544955254e-03 2.951502986252307892e-02 -3.479365631937980652e-02 -1.069324836134910583e-02 -3.080043196678161621e-02 3.581559984013438225e-03
1.305566052906215191e-03 -1.674252748489379883e-02 5.209740623831748962e-02 -1.276919245719909668e-01 3.313346207141876221e-02 -6.977988872677087784e-03 -4.668020643293857574e-03
-1.182164531201124191e-02 -8.317474857904016972e-04 9.414371103048324585e-02 -1.896325647830963135e-01 7.046942412853240967e-02 -3.794849617406725883e-04 -2.139917202293872833e-02
1.324486266821622849e-02 4.398133605718612671e-03 1.855062320828437805e-02 -1.369176525622606277e-02 -1.609806349733844399e-04 -1.612709369510412216e-03 1.991847064346075058e-03
6.541474722325801849e-04 9.176906198263168335e-03 5.570911336690187454e-03 2.812878228724002838e-02 -1.712729036808013916e-02 6.297437474131584167e-03 1.527205202728509903e-02
6.748566403985023499e-03 -5.384459625929594040e-03 -1.803853549063205719e-02 -2.047087065875530243e-02 -3.733010590076446533e-02 -2.466910518705844879e-02 -1.467776834033429623e-03
1.105777639895677567e-02 -1.281429454684257507e-02 -1.202010922133922577e-02 4.487676080316305161e-03 -3.345490247011184692e-02 -3.133925423026084900e-02 -1.815270865336060524e-03
-1.763085648417472839e-02 9.671150473877787590e-04 -1.010256446897983551e-02 -1.968784444034099579e-02 2.948414767161011696e-03 2.770132618024945259e-03 7.001765538007020950e-03
-9.460747241973876953e-03 2.311204187572002411e-02 -2.177593298256397247e-02 -8.205606043338775635e-02 -2.248648181557655334e-02 -1.522729452699422836e-02 3.296482143923640251e-03
-7.276597898453474045e-03 -9.327676380053162575e-04 -3.314957395195960999e-02 -3.456083685159683228e-02 -2.246588096022605896e-02 -2.834123186767101288e-02 -4.135920200496912003e-03
1.033763494342565536e-02 -6.053073797374963760e-03 -3.829855471849441528e-02 -3.898158669471740723e-02 -5.163642391562461853e-02 -4.348043352365493774e-02 -1.366387587040662766e-02
7.435259874910116196e-03 -1.142749283462762833e-02 -4.225586075335741043e-03 -1.504447497427463531e-02 -1.816305331885814667e-02 -2.658648230135440826e-02 -1.996598951518535614e-02
-1.009539002552628517e-03 2.134992182254791260e-02 -2.815154381096363068e-03 -2.488594874739646912e-02 3.451420227065682411e-03 1.901167910546064377e-03 -1.013127900660037994e-02
-4.371111746877431870e-03 4.138202406466007233e-03 -1.365842856466770172e-02 7.526095956563949585e-03 8.416679687798023224e-03 -2.948826737701892853e-02 -1.251075183972716331e-03
-7.434673025272786617e-04 2.726273611187934875e-02 3.044663369655609131e-02 2.115862071514129639e-02 1.989786699414253235e-02 3.076044842600822449e-02 -1.655282452702522278e-02
-9.367244318127632141e-03 -4.561065696179866791e-03 -1.138861756771802902e-02 6.115932390093803406e-02 -8.476634323596954346e-02 9.348309598863124847e-03 -1.141887810081243515e-02
-3.985962830483913422e-03 2.445883862674236298e-02 2.962199039757251740e-03 9.355984628200531006e-03 2.059786021709442139e-02 1.206924021244049072e-02 -1.418306957930326462e-02
1.348481420427560806e-02 1.369566842913627625e-02 2.036395668983459473e-02 2.833947353065013885e-02 1.577078364789485931e-02 -1.387856341898441315e-02 -8.396662771701812744e-03
-2.198490314185619354e-03 4.741670563817024231e-03 -1.581710390746593475e-02 -9.824986569583415985e-03 -1.104102120734751225e-03 -2.075252123177051544e-02 -1.228590216487646103e-02
1.698566041886806488e-02 4.495186731219291687e-03 -2.395474724471569061e-02 -1.600642316043376923e-02 -7.651187945157289505e-03 -1.562922447919845581e-02 2.934339921921491623e-03
1.223244355060160160e-03 2.354181930422782898e-02 1.979928463697433472e-02 -1.953071355819702148e-02 -4.475185275077819824e-02 -2.764738537371158600e-02 6.522600073367357254e-03
-7.892169058322906494e-03 1.884021423757076263e-02 3.550596768036484718e-03 -6.513106822967529297e-02 5.488628894090652466e-02 6.065227836370468140e-02 -3.278658841736614704e-04
2.515108324587345123e-02 5.099836271256208420e-03 -1.019506230950355530e-01 -1.456659436225891113e-01 1.541499197483062744e-01 1.036698464304208755e-02 -3.608346730470657349e-02
1.749831810593605042e-02 1.395991817116737366e-02 -6.991279125213623047e-02 -2.369191311299800873e-02 1.214045062661170959e-01 1.218114234507083893e-02 -2.225036732852458954e-02
-2.657749457284808159e-03 -4.728734493255615234e-03 3.277627378702163696e-02 4.289473593235015869e-02 1.637546718120574951e-02 1.516338903456926346e-02 -1.626321673393249512e-02
-1.056304899975657463e-03 -8.405265398323535919e-03 7.774512283504009247e-03 2.893994562327861786e-03 -4.076316952705383301e-03 -1.116201560944318771e-02 4.431898240000009537e-03
8.069872856140136719e-03 -1.701749302446842194e-02 -3.084515780210494995e-02 1.721133105456829071e-02 2.641305793076753616e-03 2.777498960494995117e-02 1.886751153506338596e-03
7.250810042023658752e-03 -1.299828570336103439e-02 1.764609664678573608e-02 1.556061487644910812e-02 4.756053443998098373e-03 7.355357054620981216e-03 7.737358100712299347e-03
-4.265088215470314026e-02 -5.625713150948286057e-03 -4.094992950558662415e-02 -3.692032396793365479e-02 1.894105412065982819e-02 8.024299517273902893e-03 -3.935027495026588440e-02
2.005376480519771576e-02 4.829067736864089966e-02 -1.157995872199535370e-02 -3.650825098156929016e-02 1.147183254361152649e-01 -5.104232113808393478e-03 -2.944034151732921600e-02
2.268435060977935791e-02 7.021645456552505493e-02 2.663272991776466370e-02 -1.249049976468086243e-02 5.755274742841720581e-02 9.197978652082383633e-04 1.485107932239770889e-03
-3.197198733687400818e-02 -3.625224903225898743e-02 -8.956320583820343018e-03 -1.499316003173589706e-02 6.131141912192106247e-03 2.763616479933261871e-02 6.204881705343723297e-03
-9.907665662467479706e-03 -8.058798499405384064e-03 -1.850142329931259155e-02 -4.435974359512329102e-02 9.177916683256626129e-03 5.466131959110498428e-03 -1.385858189314603806e-02
-1.321745850145816803e-02 -9.866080246865749359e-03 -1.558090373873710632e-02 7.701507303863763809e-03 -6.301133427768945694e-03 5.468000657856464386e-03 7.725148927420377731e-03
4.874209407716989517e-03 -1.534130051732063293e-02 -2.250048331916332245e-02 8.876141160726547241e-03 -1.927411369979381561e-02 8.264435455203056335e-03 1.128774415701627731e-02
7.430754136294126511e-03 -1.113672181963920593e-02 1.958172209560871124e-02 2.270814403891563416e-02 2.293224446475505829e-02 7.913204841315746307e-03 3.397667035460472107e-02
-1.933814398944377899e-02 -7.899062708020210266e-03 8.213376998901367188e-02 -1.357113718986511230e-01 1.120491698384284973e-01 2.315249061211943626e-03 3.358850488439202309e-03
9.891916997730731964e-03 -1.793661620467901230e-03 1.145169232040643692e-02 3.895442187786102295e-02 2.542130462825298309e-02 6.140193901956081390e-03 2.350541017949581146e-02
-7.630396168678998947e-03 -5.644702818244695663e-03 -2.031907252967357635e-02 1.686365157365798950e-02 7.045001257210969925e-03 -8.946917019784450531e-03 4.763463977724313736e-03
4.416296724230051041e-03 -6.372798699885606766e-03 -9.254768490791320801e-03 -2.136190980672836304e-02 -1.527670677751302719e-02 1.595202018506824970e-03 2.025113441050052643e-03
-3.332536667585372925e-03 2.222580276429653168e-02 1.772233843803405762e-02 -1.896976493299007416e-02 -3.124048747122287750e-02 9.103723801672458649e-03 1.395087316632270813e-02
-3.750265575945377350e-03 4.442758392542600632e-03 1.922826841473579407e-02 3.611505404114723206e-02 5.319772660732269287e-02 5.734746158123016357e-02 6.115147378295660019e-03
-4.259008914232254028e-03 -2.390639670193195343e-02 -1.736006885766983032e-02 -1.966551318764686584e-02 -3.452143445611000061e-02 -6.428175419569015503e-02 -2.901477925479412079e-02
1.735283434391021729e-02 1.896898145787417889e-03 -6.565936654806137085e-02 -9.516461193561553955e-02 -1.312910318374633789e-01 -9.392796456813812256e-02 -1.448749750852584839e-02
1.993203908205032349e-02 1.369261275976896286e-02 4.472984373569488525e-02 7.741053402423858643e-02 1.326401382684707642e-01 1.229196116328239441e-01 2.623957954347133636e-02
-8.903426118195056915e-03 8.809252642095088959e-03 7.734170556068420410e-02 5.664327368140220642e-02 3.210785239934921265e-02 5.916015803813934326e-02 1.776799932122230530e-02
-1.179297268390655518e-02 -6.166691891849040985e-03 -2.472252584993839264e-02 -6.578738242387771606e-02 -7.203247398138046265e-02 -3.022402897477149963e-02 -1.526090409606695175e-02
-1.527590490877628326e-02 -2.671794220805168152e-02 -2.141759544610977173e-02 -1.304931659251451492e-02 -2.423541387543082237e-03 -3.459515981376171112e-03 -1.191477198153734207e-02
-1.665742322802543640e-02 -3.477384895086288452e-02 -5.802865326404571533e-02 -4.951327294111251831e-02 -5.339574068784713745e-02 -1.719705760478973389e-02 8.290765807032585144e-03
-5.537739023566246033e-03 -2.766380831599235535e-02 -1.033598333597183228e-01 -1.318390220403671265e-01 -7.820568978786468506e-02 -1.030784472823143005e-02 -1.181575376540422440e-02
2.220886573195457458e-02 -5.196486599743366241e-03 -5.033070594072341919e-02 -3.969438001513481140e-02 -1.148761808872222900e-02 5.088250618427991867e-03 8.459771983325481415e-03
1.117517985403537750e-02 7.518724352121353149e-02 1.189885735511779785e-01 1.261498332023620605e-01 7.107638567686080933e-02 1.440730877220630646e-02 -4.769293591380119324e-03
1.482160482555627823e-02 4.096408188343048096e-02 9.666016697883605957e-02 1.130457818508148193e-01 6.045254692435264587e-02 4.858110565692186356e-03 -1.536872587166726589e-03
1.121759880334138870e-02 4.569126758724451065e-03 2.077426388859748840e-02 4.495263844728469849e-02 1.619891822338104248e-02 -4.449296742677688599e-03 9.328145533800125122e-03
-5.098246503621339798e-03 8.332003839313983917e-03 1.498719491064548492e-02 -1.918138377368450165e-02 -3.523615747690200806e-02 -1.666334457695484161e-02 -6.090492941439151764e-03
6.484451005235314369e-04 -1.099748723208904266e-02 -4.481317475438117981e-03 -2.760327234864234924e-02 -4.920174181461334229e-02 -2.939526923000812531e-02 7.783809676766395569e-03
-5.342803895473480225e-03 -9.320772951468825340e-04 3.807126544415950775e-03 5.127717554569244385e-02 8.244800567626953125e-02 5.939575657248497009e-02 5.874618515372276306e-02
3.632081672549247742e-02 5.951405316591262817e-02 8.219633251428604126e-03 -1.119247972965240479e-01 -1.536975353956222534e-01 -1.047096252441406250e-01 -2.356094494462013245e-02
-2.952370420098304749e-02 -3.472134843468666077e-02 3.148390352725982666e-02 1.359775513410568237e-01 2.039048522710800171e-01 1.129794195294380188e-01 2.010848186910152435e-02
1.159554719924926758e-02 9.171202778816223145e-03 -8.834686130285263062e-03 -7.000393420457839966e-02 -1.132185086607933044e-01 -2.959512174129486084e-02 -9.557833895087242126e-03
9.927095845341682434e-03 2.272926270961761475e-02 6.368501344695687294e-04 -3.972966596484184265e-02 -5.917952209711074829e-02 -3.462850674986839294e-02 1.254342123866081238e-02
-3.675694391131401062e-02 -5.068402364850044250e-02 -3.169507905840873718e-02 -5.302021279931068420e-02 -3.394532203674316406e-02 -2.475623786449432373e-02 -3.586734458804130554e-02
-5.144860967993736267e-02 -5.985953658819198608e-02 -5.875585600733757019e-02 -8.253810554742813110e-02 -6.107242405414581299e-02 -4.113257676362991333e-02 -4.894968867301940918e-02
-3.910416737198829651e-02 -4.851384088397026062e-02 -5.434936285018920898e-02 -7.247804105281829834e-02 -4.255369678139686584e-02 -4.154276847839355469e-02 -5.604772269725799561e-02
-7.271352410316467285e-02 -6.018524989485740662e-02 -4.326507076621055603e-02 -7.207458466291427612e-02 -4.593876004219055176e-02 -6.345631927251815796e-02 -5.364908650517463684e-02
-2.019983343780040741e-02 -3.536939248442649841e-02 -3.658400848507881165e-02 -5.971309915184974670e-02 -3.743174299597740173e-02 -3.365500643849372864e-02 -3.170488774776458740e-02
-3.328409790992736816e-02 -3.343933075666427612e-02 -2.291445434093475342e-02 -5.575299263000488281e-02 -2.163294516503810883e-02 -3.477619588375091553e-02 -3.845138102769851685e-02
-2.390536479651927948e-02 -2.152817696332931519e-02 -1.515910867601633072e-02 -3.595620021224021912e-02 -3.234947845339775085e-02 -3.106200695037841797e-02 -2.090062759816646576e-02
-3.384590614587068558e-03 -3.792586270719766617e-03 1.489528734236955643e-02 -2.638086676597595215e-03 1.268850360065698624e-02 1.134354155510663986e-02 5.469378549605607986e-03
1.184089574962854385e-02 -1.287172635784372687e-04 5.129651632159948349e-03 -2.815575152635574341e-02 4.836404696106910706e-02 9.888376109302043915e-03 -3.166871378198266029e-03
5.969420075416564941e-03 3.014110215008258820e-02 4.551794379949569702e-03 -1.577866673469543457e-01 7.466926425695419312e-02 1.569652557373046875e-02 -1.155877579003572464e-02
-1.647306606173515320e-02 4.132455959916114807e-02 5.082470178604125977e-02 -2.329439818859100342e-01 1.397280842065811157e-01 3.763611242175102234e-02 9.396003559231758118e-03
-1.530373236164450645e-03 1.400916837155818939e-02 1.613814942538738251e-02 -1.018280833959579468e-01 6.245100498199462891e-02 2.132206410169601440e-02 5.936942528933286667e-03
5.628591403365135193e-03 -9.111609309911727905e-03 -3.629703307524323463e-03 -1.230185758322477341e-02 5.325610283762216568e-03 -9.406435303390026093e-03 -2.825855510309338570e-03
2.927499823272228241e-03 7.301869802176952362e-03 1.569268293678760529e-02 -2.108758315443992615e-03 1.090103574097156525e-02 2.185642486438155174e-03 -4.539795219898223877e-03
7.556519005447626114e-03 1.003016252070665359e-02 -1.394922193139791489e-02 6.588092539459466934e-03 1.554020494222640991e-02 -1.248279307037591934e-02 8.747640997171401978e-03
2.522063441574573517e-02 -6.599272135645151138e-03 -2.836797386407852173e-02 -1.945319958031177521e-02 2.667616493999958038e-02 -2.251970209181308746e-02 -2.935713715851306915e-02
9.204069152474403381e-03 -3.397743031382560730e-02 -8.165905624628067017e-02 9.758871048688888550e-02 1.491782721132040024e-02 -5.498089641332626343e-02 4.219342023134231567e-03
5.186961963772773743e-03 -4.174636304378509521e-02 8.171031950041651726e-04 6.421257555484771729e-02 3.700994700193405151e-02 -4.778137430548667908e-02 3.359466418623924255e-02
-3.060879651457071304e-03 -1.896237954497337341e-02 3.770320117473602295e-02 -1.525932550430297852e-02 3.248145431280136108e-02 -3.730106726288795471e-02 -1.600126549601554871e-02
2.206411398947238922e-02 1.524076703935861588e-02 2.791616320610046387e-02 -6.267244368791580200e-02 -5.006546899676322937e-02 1.288910675793886185e-02 -2.683597244322299957e-02
3.751434152945876122e-03 3.015529178082942963e-02 2.618462778627872467e-02 -1.798029430210590363e-02 -2.953323535621166229e-03 2.935772761702537537e-02 1.823010854423046112e-02
-1.195565145462751389e-02 5.174207035452127457e-03 8.835661225020885468e-03 -2.506576105952262878e-02 -3.948296234011650085e-02 3.922333009541034698e-03 5.133148282766342163e-03
-7.770537398755550385e-03 2.098166011273860931e-02 1.536022685468196869e-02 1.301210722886025906e-04 -1.525928545743227005e-02 1.745900604873895645e-03 1.922261156141757965e-02
6.588146788999438286e-04 -1.381306163966655731e-02 1.953112077899277210e-03 -4.837208893150091171e-03 -4.223072528839111328e-02 -3.045977279543876648e-02 -3.561432473361492157e-03
-3.217605873942375183e-03 1.493842428317293525e-04 -3.643133118748664856e-02 -6.129816174507141113e-03 -1.148531911894679070e-03 -2.058368735015392303e-02 -1.353646162897348404e-02
4.808818548917770386e-02 4.485653713345527649e-03 -1.229935958981513977e-01 -4.710560664534568787e-02 7.047774270176887512e-03 2.265097806230187416e-03 1.333315111696720123e-02
1.776267215609550476e-02 2.000905759632587433e-02 -2.862715348601341248e-02 -7.995514571666717529e-02 -2.393567003309726715e-02 2.124331332743167877e-02 2.285102568566799164e-02
9.610991925001144409e-03 2.436180599033832550e-02 4.156089201569557190e-02 8.797892369329929352e-03 3.426975756883621216e-02 4.540185257792472839e-02 1.419173553586006165e-02
-2.324208850041031837e-03 1.048607937991619110e-02 2.834535390138626099e-02 -4.600112885236740112e-02 2.364415489137172699e-02 -1.308753713965415955e-02 -2.580922283232212067e-02
-1.504350081086158752e-02 5.272726994007825851e-03 -9.987124940380454063e-04 -1.076497696340084076e-02 3.257174510508775711e-03 -8.972239680588245392e-03 1.989830983802676201e-03
9.588487446308135986e-04 2.339254366233944893e-03 -1.247342582792043686e-02 6.500218808650970459e-02 1.859745010733604431e-02 -1.174703333526849747e-02 1.419521216303110123e-02
-2.075657434761524200e-02 2.550045028328895569e-02 9.470664709806442261e-02 -1.894398331642150879e-01 7.811009883880615234e-02 3.293662145733833313e-02 9.148856042884290218e-04
2.491920068860054016e-02 -3.168680518865585327e-02 -6.596814095973968506e-02 1.050353050231933594e-01 -8.992215991020202637e-02 -4.309530183672904968e-02 4.076103121042251587e-02
-9.211986325681209564e-03 4.804531112313270569e-02 6.892720609903335571e-02 -1.179098039865493774e-01 3.785023093223571777e-02 3.156022354960441589e-02 -7.551503367722034454e-03
1.864206977188587189e-02 -2.480142749845981598e-03 2.028844691812992096e-02 -2.438758499920368195e-02 3.690150752663612366e-02 5.594816524535417557e-03 -3.420490026473999023e-02
-1.237127929925918579e-02 -1.926089025801047683e-04 3.641763003543019295e-03 6.637706421315670013e-03 -6.601701956242322922e-03 1.560815609991550446e-02 -1.866539241746068001e-03
-3.197808517143130302e-03 1.301020663231611252e-02 1.569754630327224731e-02 1.430797297507524490e-02 9.674632921814918518e-03 1.349345967173576355e-02 -4.697803873568773270e-03
1.017431449145078659e-02 4.962766543030738831e-02 1.683527603745460510e-02 -1.193909347057342529e-01 -5.123653262853622437e-02 3.929495066404342651e-02 5.574210663326084614e-04
2.684305422008037567e-02 9.576281160116195679e-02 -4.469730332493782043e-02 -2.778035998344421387e-01 -8.024077117443084717e-02 8.561606705188751221e-02 9.019311517477035522e-03
2.743699960410594940e-02 4.583669826388359070e-02 -3.233708441257476807e-02 -1.443472653627395630e-01 -1.844150200486183167e-02 6.420645862817764282e-02 1.754829101264476776e-02
-1.184425037354230881e-02 6.817940622568130493e-03 5.016782786697149277e-03 -3.398189693689346313e-02 -1.326377410441637039e-02 1.662841811776161194e-02 1.021163421683013439e-03
-8.560487069189548492e-03 -8.585760951973497868e-04 1.825588406063616276e-04 -1.572485081851482391e-02 -1.378184650093317032e-02 9.613981819711625576e-04 -1.118395943194627762e-02
-1.118600647896528244e-02 1.930085825733840466e-03 -4.785442724823951721e-03 1.009428687393665314e-02 1.982955448329448700e-02 -5.527084576897323132e-04 6.036299280822277069e-03
1.600233837962150574e-02 3.465163055807352066e-03 1.386345364153385162e-03 -1.685153879225254059e-02 -1.477681100368499756e-02 1.243253983557224274e-02 1.228809729218482971e-02
3.911796491593122482e-03 3.752228990197181702e-02 2.390978112816810608e-02 -4.732299968600273132e-02 -1.789793372154235840e-02 2.810451760888099670e-02 3.052413277328014374e-02
3.647691011428833008e-02 -7.369449734687805176e-02 -6.406594067811965942e-03 1.117709875106811523e-01 -2.371403621509671211e-03 -8.339179307222366333e-02 6.466979626566171646e-03
4.354019463062286377e-02 -8.848209679126739502e-02 -3.720516711473464966e-02 6.880684196949005127e-02 2.605307660996913910e-02 -3.988026455044746399e-02 2.439316175878047943e-02
1.039589475840330124e-02 4.088992998003959656e-02 1.209876965731382370e-02 -5.934300273656845093e-02 1.106053218245506287e-02 3.487467393279075623e-02 1.311418320983648300e-02
-2.510822378098964691e-03 8.459537290036678314e-03 2.393869496881961823e-02 -4.756385087966918945e-02 -1.759187877178192139e-02 1.791138201951980591e-03 -6.145671068225055933e-05
-6.653989665210247040e-03 -1.179447211325168610e-02 -1.916230842471122742e-02 2.462459495291113853e-03 3.174071665853261948e-03 1.929478719830513000e-02 2.164500020444393158e-02
-1.110148988664150238e-02 -8.705864660441875458e-03 -1.156563157564960420e-04 -1.827568002045154572e-02 -7.930446299724280834e-04 5.178120918571949005e-03 -2.248988859355449677e-02
-1.103216502815485001e-02 3.733643889427185059e-02 -1.658798544667661190e-03 -8.389764465391635895e-03 -5.164369475096464157e-03 -9.187970310449600220e-03 -1.608617231249809265e-02
2.438822761178016663e-02 2.277516759932041168e-02 1.578647084534168243e-02 6.347821559756994247e-03 -9.864378720521926880e-02 -1.252438873052597046e-02 5.432334542274475098e-02
-2.290362119674682617e-02 -2.677556127309799194e-02 2.778939343988895416e-02 -3.281418234109878540e-02 -6.046490371227264404e-02 -8.555058739148080349e-04 -4.854237195104360580e-03
6.851849611848592758e-03 1.196839660406112671e-02 -3.108504228293895721e-02 -2.498944103717803955e-02 -1.115025137551128864e-03 -1.199756376445293427e-02 -5.548550561070442200e-02
-2.527731237933039665e-03 1.545529928989708424e-03 3.307045623660087585e-02 1.779199019074440002e-02 3.895102813839912415e-02 -1.454178802669048309e-02 -4.169869795441627502e-02
5.673036212101578712e-04 -1.809437572956085205e-02 -1.559640187770128250e-02 1.488178153522312641e-03 -1.124753803014755249e-02 -4.824568051844835281e-03 1.403830945491790771e-02
1.011340133845806122e-02 2.102299034595489502e-02 2.405783161520957947e-02 4.558977857232093811e-02 4.749701544642448425e-02 2.841256558895111084e-02 2.559117507189512253e-03
5.495802033692598343e-03 4.905055835843086243e-02 9.248390793800354004e-02 1.072991341352462769e-01 2.846627496182918549e-02 -3.896040096879005432e-02 -2.552461437880992889e-02
2.601114846765995026e-02 2.204970270395278931e-02 -7.868517935276031494e-02 -1.728222817182540894e-01 -1.776736080646514893e-01 -9.161866456270217896e-02 -5.654459819197654724e-03
-1.364691928029060364e-02 -7.106958329677581787e-02 -9.545174241065979004e-02 -7.571731507778167725e-02 -2.733024209737777710e-02 1.565935090184211731e-02 8.025474846363067627e-03
-1.480579376220703125e-02 -2.946106344461441040e-02 3.988032788038253784e-02 7.883132994174957275e-02 9.000559151172637939e-02 4.286850616335868835e-02 1.232518814504146576e-02
4.393045790493488312e-03 3.108420781791210175e-02 4.203743860125541687e-02 2.535437466576695442e-03 1.922922953963279724e-02 2.693273685872554779e-02 2.057948708534240723e-02
-1.095661893486976624e-02 1.242920174263417721e-03 -2.188911102712154388e-02 -3.593253344297409058e-02 -2.281809411942958832e-02 2.605977701023221016e-03 -1.395415607839822769e-02
-1.280035730451345444e-02 2.992060594260692596e-02 3.162509202957153320e-02 2.522323094308376312e-02 -1.590288802981376648e-02 -3.806055174209177494e-04 -1.277361623942852020e-02
3.822705184575170279e-05 2.506455220282077789e-02 -4.981287941336631775e-02 9.960040450096130371e-03 3.446154668927192688e-02 3.215527534484863281e-02 4.584974609315395355e-03
8.626921102404594421e-03 5.731136188842356205e-04 -9.356735646724700928e-02 2.663960307836532593e-02 1.263007801026105881e-02 4.654220864176750183e-02 -6.312577053904533386e-03
-2.179189398884773254e-02 1.351742353290319443e-02 6.906617432832717896e-02 -4.934895783662796021e-03 -6.508462131023406982e-02 4.549502860754728317e-03 3.305852785706520081e-02
-2.554353699088096619e-02 -4.790948238223791122e-03 6.719234585762023926e-02 -3.633107757195830345e-03 -4.385185986757278442e-02 1.109790429472923279e-02 3.334010764956474304e-02
2.879691775888204575e-03 -2.152665518224239349e-03 -2.276635169982910156e-02 -4.063685238361358643e-02 8.923701010644435883e-03 1.187179517000913620e-02 -6.828251760452985764e-03
1.754534617066383362e-02 8.928422816097736359e-03 -3.006425127387046814e-02 -2.791886683553457260e-03 4.958019033074378967e-02 2.105355449020862579e-02 6.851845420897006989e-03
7.194001227617263794e-03 2.799605019390583038e-02 2.972774580121040344e-02 3.890775144100189209e-03 3.096316382288932800e-02 7.527481764554977417e-02 5.541206151247024536e-02
-3.646621480584144592e-02 -6.518150866031646729e-02 -8.017531782388687134e-02 -4.904450476169586182e-02 -9.913036599755287170e-03 1.060910616070032120e-02 1.002530753612518311e-02
-3.766512963920831680e-03 -2.871480397880077362e-02 -1.257822960615158081e-01 -7.085716724395751953e-02 -8.584175258874893188e-03 2.295961417257785797e-02 5.420655384659767151e-02
-1.044858992099761963e-02 -7.569789886474609375e-02 -6.646752357482910156e-02 -6.388141959905624390e-02 -4.536580294370651245e-02 -8.919069543480873108e-03 2.635475248098373413e-02
-1.941021066159009933e-03 -2.092576213181018829e-02 -1.887474395334720612e-02 6.222261115908622742e-03 7.260958198457956314e-03 4.170322790741920471e-02 5.362065881490707397e-02
9.450591169297695160e-03 9.979755617678165436e-03 1.529240515083074570e-02 -8.297638967633247375e-03 3.005416318774223328e-02 1.476064883172512054e-02 3.170831501483917236e-02
-6.799253635108470917e-03 -1.193848717957735062e-02 -3.694102633744478226e-03 1.873384229838848114e-02 6.477264221757650375e-03 -9.813996963202953339e-03 -1.144370622932910919e-02
-1.036675367504358292e-02 -2.072619646787643433e-02 -1.385816466063261032e-02 8.987789973616600037e-03 1.142524881288409233e-03 -1.528974529355764389e-02 -6.234454922378063202e-03
-3.018731996417045593e-02 -5.640292167663574219e-02 -6.065865606069564819e-02 -3.017214871942996979e-02 2.365458756685256958e-02 8.163456805050373077e-03 -1.983360154554247856e-03
-1.815938763320446014e-02 -1.131261587142944336e-01 -1.185059323906898499e-01 5.179512128233909607e-02 1.136033162474632263e-01 6.199328973889350891e-02 1.629629731178283691e-02
-1.383151859045028687e-02 -1.120652407407760620e-01 -4.296145960688591003e-02 1.033646985888481140e-01 1.386713087558746338e-01 6.399521976709365845e-02 -2.823353279381990433e-04
4.022618290036916733e-03 -7.377639878541231155e-03 1.077015791088342667e-02 3.936341404914855957e-02 7.406499236822128296e-02 2.013168483972549438e-02 -2.563582360744476318e-02
2.025057561695575714e-02 1.060346513986587524e-02 -2.260787412524223328e-03 1.167768891900777817e-02 7.419066969305276871e-03 -1.888354076072573662e-03 9.103809861699119210e-05
-2.660806104540824890e-02 -2.951157279312610626e-02 3.117483854293823242e-02 3.717481857165694237e-03 -2.275860309600830078e-02 5.915897432714700699e-03 8.929493837058544159e-03
-3.496213583275675774e-03 -1.465576980262994766e-02 3.415649384260177612e-02 -1.958214491605758667e-02 1.132526900619268417e-02 2.102019079029560089e-02 6.530021782964468002e-03
4.703143984079360962e-02 3.282598406076431274e-02 2.623802237212657928e-02 -6.686307024210691452e-03 6.239340081810951233e-02 2.776112034916877747e-02 -5.778980255126953125e-02
6.244570482522249222e-03 -5.182890594005584717e-02 -2.774211205542087555e-02 -5.809617787599563599e-02 -3.950280696153640747e-02 1.823844388127326965e-02 2.319743670523166656e-02
-5.414380691945552826e-03 2.539189532399177551e-03 5.502898711711168289e-03 3.395606763660907745e-03 4.195907339453697205e-02 4.850275069475173950e-02 -1.752680726349353790e-02
-4.162669181823730469e-03 4.337002988904714584e-03 2.471522241830825806e-02 -2.729288488626480103e-02 -1.081557478755712509e-02 3.138088434934616089e-02 1.978904381394386292e-02
-9.902928024530410767e-03 1.044716965407133102e-02 -2.406570687890052795e-02 -6.963784992694854736e-02 -2.149505540728569031e-02 -2.518391236662864685e-02 2.364170504733920097e-03
-3.625721205025911331e-03 7.521233055740594864e-03 1.557235699146986008e-02 -2.988654188811779022e-02 1.481974218040704727e-02 -4.065677989274263382e-03 8.397513011004775763e-05
2.350807376205921173e-02 -1.682977937161922455e-02 -3.800697624683380127e-02 4.833624884486198425e-02 5.467267241328954697e-03 -1.654347777366638184e-02 -1.427612174302339554e-02
-5.016920622438192368e-03 -2.637820132076740265e-02 -7.264535129070281982e-02 1.111045479774475098e-01 -3.777445817831903696e-04 -5.719342455267906189e-02 -2.310523018240928650e-02
-1.432152837514877319e-02 1.185005810111761093e-02 6.067530065774917603e-02 -7.798080891370773315e-02 2.756833471357822418e-02 2.557148225605487823e-02 2.067842707037925720e-02
-3.034087363630533218e-03 1.048408169299364090e-02 8.948013931512832642e-02 -1.451733410358428955e-01 3.708600997924804688e-02 5.543797090649604797e-02 1.225301623344421387e-02
5.178476683795452118e-03 2.374082989990711212e-02 -2.990428172051906586e-02 8.063435554504394531e-02 -1.551385596394538879e-02 -2.424773760139942169e-02 -6.038552150130271912e-03
6.024136673659086227e-04 -2.236976660788059235e-02 -3.746575862169265747e-02 7.483037561178207397e-02 1.559592410922050476e-02 -2.237810567021369934e-02 -1.283988589420914650e-03
-9.040555916726589203e-03 -1.271637715399265289e-02 1.726217754185199738e-02 -1.715464144945144653e-02 -1.577787473797798157e-02 2.771540312096476555e-03 -1.882296614348888397e-02
-2.098117489367723465e-03 1.275961473584175110e-02 1.762517914175987244e-02 -3.253664076328277588e-02 -1.961033232510089874e-02 1.625169813632965088e-02 -1.594184152781963348e-02
7.181688677519559860e-03 -3.726180642843246460e-02 -2.213555388152599335e-03 -1.291238889098167419e-02 -5.366667360067367554e-02 -2.074926160275936127e-02 -7.674900349229574203e-03
-2.262349426746368408e-02 -5.403445684351027012e-04 1.253165391972288489e-04 -5.147004872560501099e-02 1.044375356286764145e-02 -6.019521038979291916e-03 3.085816837847232819e-02
4.301355779170989990e-02 9.263340383768081665e-02 2.783529832959175110e-02 -1.281493455171585083e-01 8.738130331039428711e-02 9.047934412956237793e-02 2.407951280474662781e-02
1.849963329732418060e-02 1.439208537340164185e-02 7.147776428610086441e-03 -8.047817274928092957e-03 4.159973561763763428e-02 5.157991871237754822e-02 -1.061645336449146271e-02
9.150814148597419262e-04 -1.031069643795490265e-02 2.908329293131828308e-02 -4.025505390018224716e-03 -7.399154826998710632e-03 -1.831233315169811249e-02 -3.143407031893730164e-02
-5.872698035091161728e-03 -1.758748665452003479e-02 -2.555129490792751312e-02 -6.513050943613052368e-02 -5.402354523539543152e-02 -3.041164577007293701e-02 -2.051272615790367126e-02
2.186305448412895203e-02 3.906619548797607422e-02 3.473328799009323120e-02 3.641017898917198181e-02 4.602280259132385254e-02 1.179035566747188568e-02 2.142974641174077988e-03
-1.677491702139377594e-03 1.260478980839252472e-02 5.563915520906448364e-02 1.418686509132385254e-01 1.335056722164154053e-01 7.084372639656066895e-02 3.461708128452301025e-02
-8.792106993496417999e-03 -8.215190470218658447e-02 -1.279196888208389282e-01 -1.702521145343780518e-01 -1.326003968715667725e-01 -5.924270302057266235e-02 -2.005104906857013702e-02
-1.889899722300469875e-03 -7.312107365578413010e-03 -1.240004901774227619e-03 -3.730634052772074938e-04 -1.351969130337238312e-02 -2.165245823562145233e-02 -1.004477217793464661e-02
1.228087209165096283e-02 1.872293278574943542e-02 4.864224046468734741e-02 7.142099738121032715e-02 4.696458205580711365e-02 9.338201023638248444e-03 1.898253522813320160e-02
2.396307419985532761e-03 -2.138846181333065033e-02 -7.414216175675392151e-03 -1.890912279486656189e-02 -1.494681928306818008e-02 -1.406023860909044743e-03 -4.399278666824102402e-03
5.251623224467039108e-03 1.203160453587770462e-02 2.311539137735962868e-03 3.092873841524124146e-02 4.151413962244987488e-02 -3.047031583264470100e-03 1.395226642489433289e-02
3.357470501214265823e-03 -1.850802078843116760e-02 -3.828746080398559570e-02 2.015748433768749237e-02 9.663264453411102295e-02 3.329405561089515686e-02 -2.572749368846416473e-02
-2.364154532551765442e-02 2.170621231198310852e-02 2.785146236419677734e-02 -1.193802133202552795e-01 -1.406755149364471436e-01 -5.462318658828735352e-02 1.899771858006715775e-03
3.546996414661407471e-02 -3.818073496222496033e-02 -7.660838216543197632e-02 1.178037896752357483e-01 1.782208234071731567e-01 7.290389388799667358e-02 3.104021539911627769e-03
-1.416388060897588730e-02 3.712977841496467590e-02 9.487050585448741913e-03 -2.851307950913906097e-02 -5.989506095647811890e-02 -7.636108994483947754e-02 6.681403145194053650e-03
2.390759997069835663e-02 7.047266699373722076e-03 -3.698716405779123306e-03 2.703299513086676598e-03 1.196122169494628906e-02 3.278496116399765015e-02 -2.419011481106281281e-02
-2.268411451950669289e-03 5.581180565059185028e-03 -1.301545184105634689e-02 -8.297767490148544312e-04 2.122087404131889343e-02 2.079375647008419037e-02 1.773180998861789703e-02
2.374202758073806763e-02 1.919360458850860596e-02 5.119191110134124756e-02 6.412784010171890259e-02 4.306949302554130554e-02 3.152016177773475647e-02 2.326195314526557922e-02
1.495404914021492004e-02 4.262009635567665100e-02 7.545403391122817993e-02 9.559530764818191528e-02 6.486838310956954956e-02 5.663279443979263306e-02 4.939406737685203552e-02
4.688345640897750854e-02 7.910184562206268311e-02 9.976620972156524658e-02 1.103823035955429077e-01 1.084403619170188904e-01 8.005829900503158569e-02 3.651111572980880737e-02
4.812189191579818726e-02 9.057697653770446777e-02 1.275725662708282471e-01 1.524635106325149536e-01 1.438278555870056152e-01 1.041529625654220581e-01 6.588245928287506104e-02
3.404857590794563293e-02 9.859424084424972534e-02 1.226734668016433716e-01 1.153085082769393921e-01 8.387794345617294312e-02 7.186220586299896240e-02 4.821702465415000916e-02
3.411022201180458069e-02 6.006282195448875427e-02 8.640243858098983765e-02 9.254720807075500488e-02 8.148053288459777832e-02 6.643939018249511719e-02 2.600221149623394012e-02
1.227974332869052887e-02 3.300263360142707825e-02 5.754179880023002625e-02 7.064244151115417480e-02 4.995603859424591064e-02 3.792070597410202026e-02 2.791312709450721741e-02
4.975299816578626633e-03 1.908566616475582123e-02 3.327098116278648376e-02 -3.192786127328872681e-02 -2.828675881028175354e-02 9.675192646682262421e-03 -1.262991223484277725e-02
1.590240187942981720e-02 2.145890891551971436e-02 8.437005802989006042e-03 -2.534842863678932190e-02 -1.028006523847579956e-02 5.937831476330757141e-02 4.668170586228370667e-02
-5.053809657692909241e-02 -7.884783297777175903e-02 -4.748845938593149185e-03 1.149034351110458374e-01 4.740655794739723206e-02 -7.216655462980270386e-02 -2.006180211901664734e-02
2.086842246353626251e-02 1.058545894920825958e-02 6.759065389633178711e-02 7.900847122073173523e-03 -6.457520276308059692e-02 -3.683595359325408936e-02 -2.027107402682304382e-02
2.693506143987178802e-02 6.274994462728500366e-02 -2.796875312924385071e-02 -1.161396056413650513e-01 -5.449166055768728256e-03 5.692229792475700378e-02 4.476205911487340927e-03
-1.139472587965428829e-04 -3.152317926287651062e-02 -2.119262702763080597e-02 5.003842338919639587e-02 4.757082089781761169e-02 9.579070610925555229e-04 -5.656484980136156082e-03
4.205419681966304779e-03 1.003787480294704437e-02 2.676782011985778809e-02 2.482457458972930908e-02 -5.322478711605072021e-02 -1.303153578191995621e-02 -1.097790990024805069e-02
7.878474891185760498e-03 1.120609883219003677e-02 3.166180104017257690e-02 2.516175806522369385e-02 3.013093769550323486e-02 5.943535827100276947e-03 -7.960554212331771851e-03
-2.402996830642223358e-02 -1.937019266188144684e-02 2.462888695299625397e-02 5.468166247010231018e-02 4.313929378986358643e-02 -7.465178146958351135e-03 -2.845570212230086327e-03
-2.759868977591395378e-03 -4.382947832345962524e-02 -2.985084801912307739e-02 -4.796439781785011292e-02 1.220051664859056473e-02 3.269587084650993347e-02 1.813453249633312225e-02
2.658959850668907166e-02 3.818157128989696503e-03 -9.471628069877624512e-02 -1.046737432479858398e-01 -5.043498799204826355e-02 6.350334733724594116e-02 2.142544463276863098e-02
-3.012060374021530151e-02 3.216883540153503418e-02 -3.687798976898193359e-02 -1.191622093319892883e-01 -6.512995809316635132e-02 3.441737592220306396e-02 -3.297147527337074280e-02
-5.990424659103155136e-03 -1.166976243257522583e-02 6.618864834308624268e-03 -1.411737967282533646e-02 1.042865496128797531e-02 -6.125162472017109394e-04 -1.789353974163532257e-02
1.143086119554936886e-03 -1.857695169746875763e-02 1.969846524298191071e-02 -3.690902376547455788e-03 3.707720607053488493e-04 1.520972698926925659e-02 3.539825975894927979e-02
2.322200313210487366e-02 2.938887290656566620e-02 4.473396984394639730e-04 7.809278555214405060e-03 1.493501942604780197e-03 3.259402932599186897e-03 3.631981322541832924e-03
-1.044129137881100178e-03 1.567081175744533539e-02 5.853154696524143219e-03 -1.159387454390525818e-02 1.379073783755302429e-02 3.338104113936424255e-02 -5.189369432628154755e-03
-2.191516396123915911e-04 -1.003050990402698517e-02 -2.402856014668941498e-02 -2.036913996562361717e-03 1.688311621546745300e-02 2.356627397239208221e-02 3.894578199833631516e-03
-3.053442109376192093e-03 1.072819996625185013e-02 4.336044564843177795e-02 3.479827940464019775e-02 -9.523662179708480835e-02 -1.159909367561340332e-02 -6.736672949045896530e-03
-4.940829426050186157e-02 -5.812441930174827576e-02 5.283747240900993347e-02 7.192665338516235352e-02 -1.477051824331283569e-01 1.003739889711141586e-02 8.800050243735313416e-03
-2.121941745281219482e-02 -3.769315406680107117e-02 -5.013518035411834717e-03 2.893728949129581451e-02 2.992846770212054253e-03 1.601931639015674591e-02 5.029511172324419022e-03
9.796472266316413879e-03 1.086067035794258118e-02 7.354407105594873428e-03 2.906705019995570183e-03 2.945634722709655762e-02 -8.721377700567245483e-03 -1.940059289336204529e-02
-1.756385527551174164e-02 -2.221267297863960266e-02 -1.617075316607952118e-02 1.041143387556076050e-02 -1.595014147460460663e-02 -1.807908341288566589e-02 -1.419678051024675369e-02
-2.228779904544353485e-02 -7.877236232161521912e-03 2.509462414309382439e-03 1.170370914041996002e-02 -2.364334464073181152e-02 -1.608812436461448669e-02 1.654892042279243469e-02
2.126601524651050568e-02 2.301401086151599884e-02 -1.711153052747249603e-02 -1.855836994946002960e-02 1.637845672667026520e-02 2.868240140378475189e-02 1.734451390802860260e-02
-1.414785720407962799e-02 -2.222826518118381500e-02 2.103278599679470062e-02 4.931720718741416931e-02 -6.360089778900146484e-02 -7.252727448940277100e-02 2.325045317411422729e-02
5.030477792024612427e-02 6.862925738096237183e-02 1.662993244826793671e-02 -8.671384304761886597e-02 -3.605042770504951477e-02 6.187773495912551880e-02 3.675630688667297363e-02
-9.455851279199123383e-03 -3.515359014272689819e-02 -3.093908913433551788e-02 1.833949983119964600e-02 3.289949521422386169e-02 -1.259517390280961990e-02 -3.337088972330093384e-02
3.181928768754005432e-02 1.736789382994174957e-02 5.085337907075881958e-03 -8.505234494805335999e-03 -3.858044371008872986e-02 -6.220645736902952194e-03 -1.695852167904376984e-02
-1.886555179953575134e-02 -4.056473262608051300e-03 4.625170677900314331e-02 2.757551334798336029e-02 -2.161807939410209656e-02 -6.187654566019773483e-03 2.047722227871417999e-02
-4.001624416559934616e-03 7.647590339183807373e-02 2.768492326140403748e-02 -8.621851354837417603e-02 6.037842249497771263e-04 2.756966464221477509e-02 2.167880162596702576e-02
2.238871902227401733e-02 5.183408036828041077e-02 -2.336347661912441254e-02 7.992873899638652802e-03 2.305104769766330719e-02 -1.067441608756780624e-02 -1.226697862148284912e-02
3.218188881874084473e-02 4.157119430601596832e-03 -4.361297935247421265e-02 -3.840362653136253357e-02 1.566268387250602245e-03 -3.385176882147789001e-02 2.914753369987010956e-02
1.784361712634563446e-02 1.932146988110616803e-04 -4.608270525932312012e-02 -7.643169164657592773e-02 -3.536717593669891357e-02 -4.227550234645605087e-03 -3.710815310478210449e-02
-8.542842231690883636e-03 1.315345242619514465e-02 5.007452145218849182e-02 -3.267603367567062378e-02 -3.346984460949897766e-02 1.319479104131460190e-02 1.589388027787208557e-02
-3.359154332429170609e-03 8.924333378672599792e-03 -1.078299526125192642e-02 7.426224183291196823e-03 2.552265301346778870e-02 -5.818208679556846619e-02 -1.762651279568672180e-02
1.928737945854663849e-02 8.663574233651161194e-03 4.312340170145034790e-03 -5.021609365940093994e-02 -6.044155452400445938e-03 -3.666908666491508484e-02 2.450653584674000740e-03
-1.869265176355838776e-02 -2.978991251438856125e-03 4.401852842420339584e-03 1.279883872484788299e-04 -5.532938987016677856e-02 -2.949909307062625885e-02 2.215489000082015991e-02
1.964599266648292542e-02 -5.237448029220104218e-03 1.858939044177532196e-02 -1.606791652739048004e-02 2.441412396728992462e-02 -1.180320698767900467e-02 4.763258993625640869e-02
-2.645957656204700470e-02 -7.271567732095718384e-02 -9.279229561798274517e-04 4.745959118008613586e-02 -4.339384287595748901e-02 -5.620642751455307007e-02 2.904808335006237030e-02
-6.251449137926101685e-02 -1.875506713986396790e-02 -3.348471224308013916e-02 -2.169200219213962555e-02 -4.963877145200967789e-03 -8.004771173000335693e-02 -5.330616608262062073e-03
2.495792135596275330e-02 2.455155365169048309e-02 3.144408389925956726e-02 8.131025359034538269e-03 -8.764791302382946014e-03 2.497963607311248779e-02 7.079975306987762451e-02
-5.304966587573289871e-03 2.562863007187843323e-02 1.391995046287775040e-02 1.371708232909440994e-02 -7.336713373661041260e-03 1.728548295795917511e-02 4.451802000403404236e-02
-1.289643347263336182e-02 -3.194363554939627647e-03 1.221918035298585892e-02 -2.498600631952285767e-02 7.023909594863653183e-03 2.161434665322303772e-02 -1.779960584826767445e-03
2.138777635991573334e-03 1.036158204078674316e-02 6.276623904705047607e-02 4.678763449192047119e-02 1.879663951694965363e-02 7.955898181535303593e-04 1.911928318440914154e-02
-1.767254993319511414e-02 6.541665643453598022e-02 1.604122817516326904e-01 1.590817570686340332e-01 8.245417475700378418e-02 1.194256730377674103e-02 -2.159847132861614227e-02
2.315808553248643875e-03 1.975010335445404053e-02 5.029915273189544678e-02 1.056441813707351685e-01 4.045706242322921753e-02 2.602145774289965630e-03 7.520797662436962128e-03
-2.774048224091529846e-02 -5.205131694674491882e-02 -1.328612565994262695e-01 -1.715160310268402100e-01 -9.984803944826126099e-02 2.397067286074161530e-02 2.486121840775012970e-02
-3.474954888224601746e-02 -4.427179321646690369e-02 -7.292146235704421997e-02 -9.052898734807968140e-02 -8.054711669683456421e-02 -2.404000051319599152e-02 8.763407357037067413e-03
-5.168906413018703461e-03 -3.109531709924340248e-03 -1.284867804497480392e-02 -1.580895856022834778e-02 -3.396671381779015064e-04 -5.463218316435813904e-03 -2.093197405338287354e-02
-5.430974997580051422e-04 1.008757576346397400e-02 -2.802863018587231636e-04 -4.370163753628730774e-02 4.246706143021583557e-02 8.293901570141315460e-03 4.893307574093341827e-03
-8.232513442635536194e-03 2.865888923406600952e-02 1.155244093388319016e-02 -8.213094621896743774e-02 1.956903003156185150e-02 1.636306568980216980e-02 2.927042078226804733e-03
2.286218339577317238e-03 -2.824858948588371277e-02 -2.254756167531013489e-02 9.578263014554977417e-02 -6.246776878833770752e-02 -4.110113903880119324e-02 -2.827965468168258667e-02
-2.430964075028896332e-02 -2.277285605669021606e-02 -1.709163375198841095e-02 1.645486056804656982e-01 -7.182148844003677368e-02 -3.862548619508743286e-02 -9.899827651679515839e-03
5.479637067764997482e-03 1.437008846551179886e-02 6.224270164966583252e-02 -1.519590765237808228e-01 7.934205979108810425e-02 3.356122970581054688e-02 -1.405976153910160065e-02
-9.015310555696487427e-03 2.259686589241027832e-02 2.337016537785530090e-02 -9.284771978855133057e-02 6.254583597183227539e-02 4.029228538274765015e-02 -2.385946922004222870e-03
-5.551094189286231995e-03 -3.390074521303176880e-02 -1.761888898909091949e-02 2.807329781353473663e-02 -2.070076391100883484e-02 -2.250878512859344482e-02 -1.588483527302742004e-02
1.523217651993036270e-02 2.322625927627086639e-02 -5.493370350450277328e-03 -2.389122545719146729e-02 4.188847169280052185e-02 1.705348864197731018e-02 -9.455029852688312531e-03
6.490420084446668625e-03 1.087656617164611816e-02 2.755454625003039837e-04 -2.989879809319972992e-02 2.118843374773859978e-03 3.108988516032695770e-02 9.519143961369991302e-03
5.822172854095697403e-03 7.274292875081300735e-03 1.433746982365846634e-02 2.933346666395664215e-02 -1.088304370641708374e-01 2.184085734188556671e-02 1.383253838866949081e-02
3.760968893766403198e-02 2.192929014563560486e-02 -5.546578764915466309e-02 -2.279765345156192780e-02 3.945226967334747314e-02 -2.915220335125923157e-02 3.271972527727484703e-03
-4.667588043957948685e-03 -2.680039266124367714e-03 -7.703216397203505039e-04 -8.058707416057586670e-02 5.825496837496757507e-02 -1.074339170008897781e-02 -3.458430245518684387e-02
3.455833997577428818e-03 -4.761329386383295059e-03 2.828054502606391907e-02 3.656170144677162170e-02 -4.512311145663261414e-02 1.143473479896783829e-02 7.363345474004745483e-03
4.386747255921363831e-03 -1.525338646024465561e-02 -5.616965354420244694e-04 3.388533741235733032e-02 1.710234768688678741e-02 -3.298699157312512398e-03 3.732902184128761292e-02
-2.116901986300945282e-02 -2.474919892847537994e-02 3.233464434742927551e-03 -3.707879805006086826e-04 5.753859411925077438e-03 -3.991904109716415405e-02 2.108107291860505939e-04
8.353885263204574585e-03 -1.199283078312873840e-02 1.054427120834589005e-02 -1.327329315245151520e-02 -6.466677784919738770e-02 -3.632875904440879822e-02 1.320397015661001205e-02
-1.850257068872451782e-02 1.390080526471138000e-02 8.536321111023426056e-03 -2.283472567796707153e-02 -1.717059989459812641e-03 -8.800330688245594501e-04 -1.874293386936187744e-02
2.062839269638061523e-02 -3.057552967220544815e-03 -9.417721070349216461e-03 2.785996161401271820e-02 5.005239322781562805e-02 6.543819606304168701e-02 -2.473365142941474915e-02
1.893679052591323853e-02 1.622825860977172852e-02 -3.416918963193893433e-02 6.705799698829650879e-02 1.810129848308861256e-03 4.240868985652923584e-02 -1.987181790173053741e-02
1.313618104904890060e-02 2.014244161546230316e-02 2.153856214135885239e-03 -8.241115137934684753e-03 -3.278177976608276367e-02 3.640014678239822388e-03 3.701784880831837654e-03
5.210000090301036835e-03 -9.302784688770771027e-03 -4.217672161757946014e-03 -1.904268749058246613e-02 7.411561440676450729e-03 -9.292527101933956146e-03 -1.164506934583187103e-02
-2.326660556718707085e-03 8.766011334955692291e-03 -2.505972981452941895e-02 -1.756977289915084839e-02 9.354374371469020844e-03 -5.076713860034942627e-03 -1.447462011128664017e-02
-1.108330208808183670e-02 -2.754920162260532379e-03 1.095913536846637726e-02 -1.479223836213350296e-02 9.409343823790550232e-03 5.214080214500427246e-03 -7.099854294210672379e-03
-3.075018711388111115e-02 -2.761607291176915169e-03 9.961730986833572388e-02 -3.011619485914707184e-02 -6.583102047443389893e-02 3.126605600118637085e-02 2.809828519821166992e-02
-3.824631869792938232e-02 -2.948212251067161560e-02 1.425962895154953003e-01 -3.691346384584903717e-03 -9.253145754337310791e-02 3.102639317512512207e-02 4.380846768617630005e-02
-2.388552017509937286e-02 -3.446785360574722290e-02 7.129186391830444336e-02 1.923414133489131927e-02 -6.086941808462142944e-02 -2.368010021746158600e-02 1.805025897920131683e-02
-1.358392182737588882e-02 -1.117462106049060822e-02 3.523635491728782654e-02 -1.236726436764001846e-02 -3.604785352945327759e-02 -5.778212798759341240e-04 -6.876260507851839066e-03
-7.569096982479095459e-03 2.101411856710910797e-02 2.623203443363308907e-03 -7.506441324949264526e-03 -1.196988578885793686e-02 2.313894033432006836e-02 3.746776143088936806e-03
