5.751838325522840023e-04
2.388368011452257633e-04
-2.285076916450634599e-04
1.639798574615269899e-04
-2.281367080286145210e-03
-1.080901856767013669e-04
-3.716289997100830078e-03
1.367154036415740848e-04
9.548959787935018539e-04
2.019766019657254219e-03
3.196096280589699745e-03
1.368438242934644222e-04
4.618964449036866426e-04
3.817956894636154175e-03
-2.332229865714907646e-03
4.246965108904987574e-04
4.157036077231168747e-03
-1.221511920448392630e-04
-1.608410151675343513e-03
9.225003304891288280e-05
1.814599527278915048e-04
2.087655942887067795e-03
-3.066658275201916695e-03
-2.488811966031789780e-03
-7.873531430959701538e-04
-1.169256356661207974e-04
-3.081535454839468002e-03
-6.539716268889605999e-04
1.510748639702796936e-03
-1.407094183377921581e-03
-1.904211239889264107e-03
2.984821563586592674e-03
-6.963025080040097237e-04
-8.967188186943531036e-04
-1.089140423573553562e-03
1.059711794368922710e-03
8.814257453195750713e-04
5.265101790428161621e-04
-5.454138154163956642e-04
1.558717573061585426e-03
-1.280221273191273212e-03
1.789896981790661812e-03
7.236791425384581089e-04
-3.235103096812963486e-03
-6.510384264402091503e-05
3.158620325848460197e-03
9.867731714621186256e-04
1.377168460749089718e-03
9.037018753588199615e-04
-1.275568502023816109e-03
1.979195280000567436e-03
3.333351342007517815e-03
3.328897757455706596e-03
-3.589183557778596878e-03
8.656940190121531487e-04
-5.569763598032295704e-04
5.377158056944608688e-03
-1.317067304626107216e-03
-3.214663302060216665e-04
6.146733649075031281e-04
6.872732192277908325e-04
1.010311301797628403e-03
-3.866966872010380030e-04
9.342809207737445831e-04
-8.204883197322487831e-04
-1.746228554111439735e-05
-5.824044812470674515e-03
-3.747844020836055279e-04
-1.197336023324169219e-04
2.255855593830347061e-03
-1.095941872335970402e-03
2.580118598416447639e-03
-2.623991575092077255e-03
-1.261511119082570076e-03
-4.397630691528320312e-04
-3.414159582462161779e-04
8.376809768378734589e-03
2.515057800337672234e-03
4.467631224542856216e-03
-1.435395330190658569e-03
1.587524893693625927e-03
4.025371279567480087e-03
3.667448647320270538e-03
2.966126659885048866e-03
-5.888679879717528820e-04
3.602404147386550903e-03
1.032357919029891491e-03
-8.126625907607376575e-04
-1.005464931949973106e-03
1.557898125611245632e-03
-1.484371954575181007e-03
-4.932529191137291491e-05
2.140441210940480232e-03
4.590621392708271742e-04
-1.081902883015573025e-03
-1.923339790664613247e-03
8.172264788299798965e-04
-8.830172591842710972e-04
-7.862514466978609562e-04
1.687046140432357788e-03
1.714153564535081387e-03
3.098497865721583366e-03
1.636368571780622005e-03
-6.006645344314165413e-05
-2.066876186290755868e-04
4.094703763257712126e-04
-1.130429154727607965e-04
-2.037950762314721942e-04
2.080939011648297310e-03
-9.257156634703278542e-04
4.060685751028358936e-04
2.435749396681785583e-03
3.686337266117334366e-03
7.362032774835824966e-04
2.051663119345903397e-03
-1.519937650300562382e-04
1.251010340638458729e-03
-8.977194665931165218e-04
-2.811431419104337692e-03
2.943795407190918922e-04
-6.139111355878412724e-04
-1.390067860484123230e-03
-2.049062604783102870e-04
-2.927464665845036507e-03
9.288630099035799503e-04
5.220444872975349426e-04
3.095130377914756536e-04
-3.232082817703485489e-03
-9.362009004689753056e-04
-3.553906863089650869e-04
-1.603082404471933842e-03
-5.296063609421253204e-04
-1.728687901049852371e-03
1.895949098980054259e-04
-1.964918010344263166e-05
5.268170571071095765e-05
-3.551346482709050179e-03
-2.235374879091978073e-03
-1.552084460854530334e-03
3.976644366048276424e-04
-9.632531437091529369e-04
-1.896387664601206779e-03
1.661626156419515610e-03
4.248439508955925703e-04
1.189074013382196426e-03
-2.646776847541332245e-03
-8.729625260457396507e-04
-1.132305827923119068e-03
-2.516282256692647934e-04
-5.395361804403364658e-04
-2.145271049812436104e-03
-7.419048342853784561e-04
1.857480732724070549e-03
-2.693109563551843166e-04
-1.232271315529942513e-04
1.254796516150236130e-04
-2.957565477117896080e-03
-1.269447850063443184e-03
-4.457074683159589767e-03
-2.343941712751984596e-03
2.449202293064445257e-04
-2.178420079872012138e-03
3.498749574646353722e-03
1.262799836695194244e-03
3.021073760464787483e-03
8.372326847165822983e-04
-2.261182060465216637e-03
5.464170244522392750e-04
-6.329510943032801151e-04
-2.318441169336438179e-03
3.618807240854948759e-04
-1.732308184728026390e-03
4.168406012468039989e-04
8.580640424042940140e-04
-1.903806114569306374e-03
-4.575505445245653391e-04
1.953402999788522720e-03
-3.518307348713278770e-03
2.605274785310029984e-04
3.150347853079438210e-03
2.077556448057293892e-03
8.095965022221207619e-04
5.336735739547293633e-06
-5.785023677162826061e-04
1.804974628612399101e-03
-8.542003342881798744e-04
-3.589679487049579620e-03
8.868043660186231136e-04
3.064125776290893555e-03
2.263222122564911842e-03
-5.996717372909188271e-04
4.664716776460409164e-03
2.072992210742086172e-04
-4.658516263589262962e-04
2.487798046786338091e-04
-2.172372303903102875e-03
5.451075412565842271e-05
1.897231792099773884e-03
5.638291593641042709e-03
-1.100528053939342499e-03
-3.066753037273883820e-03
1.012392691336572170e-03
-1.366329845041036606e-03
-4.845051153097301722e-04
9.063409524969756603e-04
1.613763626664876938e-03
-2.519736008252948523e-04
3.034096334886271507e-05
-1.296890113735571504e-04
2.300864085555076599e-03
2.233681268990039825e-03
-1.153912628069519997e-03
1.778831705451011658e-03
1.285388832911849022e-03
-3.663591342046856880e-03
-2.622126834467053413e-03
7.124916883185505867e-04
-2.442388795316219330e-03
-1.892716856673359871e-03
1.698805019259452820e-03
7.248263573274016380e-04
-1.189533388242125511e-03
6.284589762799441814e-04
6.891009979881346226e-04
-1.586004218552261591e-04
-9.006487089209258556e-04
4.345554916653782129e-04
-8.247980731539428234e-04
-4.098747391253709793e-03
-1.601405383553355932e-04
-2.025194226007442921e-05
3.134160360787063837e-04
2.183922799304127693e-03
2.866578288376331329e-04
5.842901882715523243e-04
-1.142500841524451971e-04
1.360300928354263306e-03
7.520896033383905888e-04
-6.839781417511403561e-04
-1.938547706231474876e-03
2.935960073955357075e-04
-2.072490751743316650e-03
-4.369743983261287212e-04
4.661822458729147911e-04
-2.905168570578098297e-03
-2.340985665796324611e-04
-1.414345460943877697e-03
-9.158959728665649891e-04
6.535170250572264194e-04
-2.315574238309636712e-04
-1.423968933522701263e-03
1.063463278114795685e-03
-1.919502392411231995e-03
-2.691436093300580978e-03
-1.713682315312325954e-03
-6.576897430932149291e-05
