6.000879220664501190e-04
1.374767743982374668e-04
9.651611326262354851e-04
-4.736495320685207844e-04
-1.188762602396309376e-03
-2.671288093551993370e-03
-5.355988105293363333e-05
-2.580354048404842615e-04
6.019036300131119788e-05
-6.526930374093353748e-04
1.541598932817578316e-03
2.052216295851394534e-04
3.766602603718638420e-04
4.919022321701049805e-04
-6.804305594414472580e-04
-2.034416866081301123e-05
1.839878619648516178e-03
1.494883908890187740e-04
1.807081280276179314e-03
-1.626513840164989233e-04
-6.742505938746035099e-04
-5.399745714385062456e-05
-1.071526901796460152e-03
2.821098023559898138e-04
8.708197128726169467e-06
-4.015278827864676714e-04
7.454270380549132824e-04
4.760441515827551484e-05
2.543393056839704514e-04
-2.301380154676735401e-04
7.639465184183791280e-05
8.558262197766453028e-05
-7.308284402824938297e-04
-1.954171108081936836e-03
2.467898302711546421e-04
1.950702135218307376e-04
-1.121369656175374985e-03
-9.067096834769472480e-05
8.507535676471889019e-05
-3.574353177100419998e-04
4.165159189142286777e-04
1.429717871360480785e-03
1.185946050100028515e-03
3.982412163168191910e-04
-8.111143833957612514e-04
4.227206518407911062e-04
6.417223485186696053e-04
-1.388473610859364271e-04
-1.525464758742600679e-04
-1.963295071618631482e-04
2.936132077593356371e-04
-1.049456535838544369e-03
-8.202219032682478428e-04
8.748797117732465267e-04
-7.616920629516243935e-04
1.611689804121851921e-03
4.823198541998863220e-04
-3.424102615099400282e-04
-5.166018381714820862e-04
3.760412801057100296e-04
1.551448367536067963e-04
-3.453409008216112852e-04
4.395002615638077259e-04
3.807093307841569185e-04
8.672526455484330654e-04
2.471841580700129271e-04
4.191879415884613991e-04
-5.815628101117908955e-04
-1.225419808179140091e-03
-1.259303302504122257e-03
3.629508428275585175e-04
4.123939143028110266e-04
-2.606451453175395727e-04
-1.052855732268653810e-04
-3.845981264021247625e-04
-4.243671137373894453e-04
-2.482875424902886152e-04
9.411896462552249432e-04
-1.281819095311220735e-05
-1.274264184758067131e-03
7.228368194773793221e-04
5.662130424752831459e-04
1.064175230567343533e-04
1.074540996341966093e-04
-3.232852322980761528e-04
-9.352398774353787303e-05
6.399080739356577396e-04
-3.819823905359953642e-04
1.181125408038496971e-04
9.771083714440464973e-04
-1.169937662780284882e-03
4.676092357840389013e-04
-5.034293862991034985e-04
-1.096956693800166249e-04
-5.615648115053772926e-04
3.885339829139411449e-04
-1.790549256838858128e-03
1.384264673106372356e-03
6.608571857213973999e-04
8.541751303710043430e-04
3.117170999757945538e-04
4.471866996027529240e-04
2.975445240736007690e-04
-4.883750807493925095e-04
-4.570570890791714191e-04
4.503444069996476173e-04
-1.068258279701694846e-04
7.336069829761981964e-04
-1.659566332818940282e-04
-2.657859877217561007e-04
-9.230287105310708284e-05
2.164982579415664077e-04
1.458483515307307243e-03
-4.789964878000319004e-04
9.874156676232814789e-04
-4.678165132645517588e-04
1.609114842722192407e-04
4.896223545074462891e-04
-7.510674768127501011e-04
-4.550720332190394402e-04
-1.050697290338575840e-03
-1.795251009752973914e-04
1.984654663829132915e-04
-5.988274933770298958e-04
-1.266539096832275391e-03
2.924447180703282356e-04
8.829422877170145512e-04
1.345153083093464375e-03
-9.755855717230588198e-05
-2.186208294006064534e-04
3.167267132084816694e-04
5.152473022462800145e-05
-1.122821355238556862e-03
9.576529264450073242e-04
3.947690420318394899e-04
-2.340366336284205317e-04
-4.402814083732664585e-04
8.487367304041981697e-04
1.438615261577069759e-03
-1.093624043278396130e-03
-3.866061451844871044e-04
1.247225329279899597e-03
6.964801741560222581e-06
-6.329995812848210335e-04
-2.675606810953468084e-04
7.355349371209740639e-04
2.047481393674388528e-04
-5.821678205393254757e-04
-4.143459373153746128e-04
-1.244516315637156367e-04
-1.693553203949704766e-04
4.189602914266288280e-04
3.282180405221879482e-04
4.647707391995936632e-04
1.206986024044454098e-03
7.298495620489120483e-04
-1.553771900944411755e-03
-3.326031146571040154e-04
4.688122426159679890e-04
-1.935370237333700061e-04
-2.885747817344963551e-04
-5.066732992418110371e-04
-7.156821084208786488e-04
-8.887115400284528732e-04
1.121110399253666401e-04
-3.545396612025797367e-04
-9.301447425968945026e-04
-2.021876280196011066e-04
1.157368998974561691e-03
-3.849507193081080914e-04
5.194874829612672329e-04
-8.932612836360931396e-04
-9.371513733640313148e-04
-1.200270489789545536e-03
2.288415562361478806e-04
-2.980089047923684120e-04
7.860949262976646423e-04
-5.211019306443631649e-04
-1.583617558935657144e-04
-1.848071697168052197e-04
9.834565571509301662e-05
2.220594760728999972e-04
1.276754192076623440e-04
6.184894300531595945e-05
7.441468187607824802e-04
4.584414418786764145e-04
5.945966222498100251e-06
8.859597437549382448e-05
6.727474974468350410e-04
-3.859943535644561052e-04
-5.080610862933099270e-04
-3.982051275670528412e-04
1.521037193015217781e-03
2.003232366405427456e-04
3.759248938877135515e-04
8.855516789481043816e-04
-8.141103899106383324e-04
-1.201559090986847878e-03
-1.114018843509256840e-03
-5.569449276663362980e-04
5.949346232227981091e-04
1.493162562837824225e-04
-7.605880964547395706e-04
-5.254230345599353313e-04
-9.181036148220300674e-05
8.471537730656564236e-04
-1.275771064683794975e-04
1.740570587571710348e-04
-2.374216215685009956e-03
-2.318561746506020427e-04
9.721995447762310505e-04
3.039166331291198730e-04
1.639735564822331071e-04
-7.992226164788007736e-04
-4.566182542475871742e-05
-1.785258064046502113e-04
-2.866023860406130552e-04
4.607170558301731944e-05
-3.339686372783035040e-04
-1.642347342567518353e-04
2.323744847672060132e-04
-2.270662371302023530e-04
-1.231637550517916679e-03
2.038321923464536667e-03
-1.048716134391725063e-03
6.572926649823784828e-04
2.688412205316126347e-04
8.685254215379245579e-06
-1.385464100167155266e-03
-4.531426238827407360e-04
4.103981482330709696e-04
3.260578378103673458e-04
7.477554026991128922e-04
1.054193417076021433e-04
-2.057870296994224191e-04
-5.090782651677727699e-04
3.355263906996697187e-04
-1.008055289275944233e-03
4.058741324115544558e-04
9.458624845137819648e-05
9.230170981027185917e-04
-1.638324465602636337e-05
-8.508984465152025223e-04
7.607721490785479546e-04
1.480418723076581955e-03
2.963073493447154760e-04
-1.148803043179214001e-03
-1.031065359711647034e-03
-5.492260679602622986e-04
3.429149219300597906e-04
3.005396283697336912e-04
-1.198018435388803482e-03
-7.524415268562734127e-04
-1.459323102608323097e-04
1.034328131936490536e-03
-1.430939184501767159e-03
