-8.030987228266894817e-04
2.021609689109027386e-04
-6.154530565254390240e-04
-5.627300124615430832e-04
-1.065506716258823872e-03
5.010280292481184006e-04
2.578067142167128623e-05
-5.355112371034920216e-04
1.053625252097845078e-03
-4.187437007203698158e-04
5.039540119469165802e-04
-4.990854649804532528e-04
3.431789809837937355e-04
-3.094119892921298742e-04
-6.594483420485630631e-05
-5.164941539987921715e-04
5.682945266016758978e-05
-2.351538714719936252e-04
-1.923142117448151112e-03
6.030854419805109501e-04
-2.179655944928526878e-03
1.155034478870220482e-04
-1.004347723210230470e-04
-1.561554498039186001e-03
-9.936314309015870094e-04
9.263734682463109493e-05
8.719518664292991161e-04
-3.063085023313760757e-04
-1.679543493082746863e-04
-2.158112620236352086e-04
2.534293162170797586e-04
1.890452040242962539e-06
2.602922613732516766e-04
6.739940145052969456e-04
-2.485320146661251783e-04
1.275160815566778183e-03
-1.753681863192468882e-04
5.313410656526684761e-04
-5.453853518702089787e-04
-3.267256834078580141e-04
5.910782419960014522e-05
1.072292099706828594e-03
-1.303618191741406918e-03
-7.434010622091591358e-04
-2.574625250417739153e-04
-4.206169105600565672e-04
1.241259542439365759e-05
-8.277947017631959170e-06
3.381724818609654903e-04
1.101584290154278278e-03
-4.628556198440492153e-04
7.182075059972703457e-04
1.509042573161423206e-03
-1.408698037266731262e-03
2.042101259576156735e-04
-5.664715426973998547e-04
-4.306432383600622416e-04
1.754116965457797050e-03
5.931318155489861965e-04
5.142498994246125221e-04
5.760998465120792389e-04
-2.087785862386226654e-03
2.384516410529613495e-04
9.408358600921928883e-04
9.351551852887496352e-05
2.399923250777646899e-04
1.458167214877903461e-03
7.966401171870529652e-04
-4.462875949684530497e-04
7.125453557819128036e-04
1.185468048788607121e-03
-1.221221406012773514e-03
-2.258473541587591171e-04
-6.899407890159636736e-05
-9.764539427123963833e-04
1.435415935702621937e-03
1.232686219736933708e-03
4.980009398423135281e-04
3.120504698017612100e-05
-1.576462964294478297e-04
-7.228183676488697529e-04
-1.294055837206542492e-04
2.222417388111352921e-04
-1.113314283429645002e-04
-4.445670929271727800e-04
2.471806074026972055e-04
-1.533409158582799137e-05
-2.318489830940961838e-03
5.595469847321510315e-04
7.687699398957192898e-04
-1.379678840748965740e-03
4.959999350830912590e-04
2.623809632495976985e-05
-1.236659125424921513e-03
-1.813185190258082002e-05
-2.422457873763050884e-05
-6.626553367823362350e-04
7.664400618523359299e-04
2.089905756292864680e-04
4.607973096426576376e-04
-6.320471875369548798e-04
-7.854299619793891907e-04
-1.439898274838924408e-03
-1.164773129858076572e-03
-1.241090823896229267e-03
-1.340110087767243385e-03
-1.556960341986268759e-04
4.278776177670806646e-04
-8.959372062236070633e-04
7.035817252472043037e-04
6.527203950099647045e-04
-9.376155503559857607e-05
2.718823961913585663e-04
1.307711121626198292e-03
1.246630563400685787e-03
-2.570467768236994743e-04
-1.611135121493134648e-05
6.428268970921635628e-04
7.586710271425545216e-04
-8.051513577811419964e-05
-3.076017019338905811e-04
1.518715638667345047e-03
-9.150800178758800030e-04
1.042493502609431744e-03
-1.056059190887026489e-04
5.988042685203254223e-04
2.879006206057965755e-05
-1.460315106669440866e-04
7.106783450581133366e-04
-2.749823324847966433e-04
4.424149228725582361e-04
-7.519403588958084583e-04
-8.189213695004582405e-04
-1.322204363532364368e-03
2.036056714132428169e-03
-1.081184716895222664e-03
2.809762663673609495e-04
7.719378918409347534e-04
-1.126137212850153446e-03
-2.001053217099979520e-04
2.951553906314074993e-04
1.298030605539679527e-03
-5.303845391608774662e-04
-4.377794102765619755e-04
4.545264819171279669e-04
-1.719577558105811477e-04
1.047213445417582989e-03
-1.051281811669468880e-03
6.338321836665272713e-04
-1.311281812377274036e-04
-6.459150463342666626e-04
-1.007359023788012564e-04
2.102400903822854161e-04
-1.111699966713786125e-04
-1.120714354328811169e-03
-2.219419111497700214e-04
-1.886851969175040722e-04
7.855783915147185326e-04
-6.052973913028836250e-05
-4.393539566081017256e-04
4.330082156229764223e-04
-1.930403988808393478e-03
1.548282685689628124e-03
4.476445028558373451e-04
1.320722978562116623e-03
1.688578864559531212e-03
-1.333579071797430515e-03
-2.492015773896127939e-04
3.020063159056007862e-04
6.905187619850039482e-04
-1.296892005484551191e-04
5.051272455602884293e-04
-6.667146808467805386e-04
1.598430026206187904e-05
5.501194755197502673e-05
9.092487744055688381e-05
-4.864384536631405354e-04
-3.807683242484927177e-04
5.276903975754976273e-04
-4.041704814881086349e-04
9.083371842280030251e-04
7.462804205715656281e-06
-1.559985539643093944e-04
8.749509579502046108e-04
-4.853034042753279209e-04
4.759832227136939764e-04
5.085525335744023323e-04
1.769830123521387577e-04
-2.954745141323655844e-04
9.297949873143807054e-05
-4.003331123385578394e-04
9.181086206808686256e-04
4.361811152193695307e-04
2.170549239963293076e-03
-2.515816886443644762e-04
-5.202087340876460075e-04
1.122249741456471384e-04
9.413028019480407238e-04
-1.478047397540649399e-05
1.261019147932529449e-03
1.111056371883023530e-05
3.067754441872239113e-04
-7.421583286486566067e-04
-3.415875253267586231e-04
1.288497587665915489e-03
-8.114031516015529633e-04
-2.212314429925754666e-04
-2.530119672883301973e-04
-2.876939484849572182e-03
-2.363740204600617290e-04
4.888680414296686649e-04
4.052395815961062908e-04
-9.889246430248022079e-04
-1.726212562061846256e-03
1.030750863719731569e-04
-8.380601648241281509e-04
-7.535649929195642471e-04
-1.964269758900627494e-04
-8.540977723896503448e-04
2.194795670220628381e-04
1.397153711877763271e-03
4.905320020043291152e-05
6.454621325246989727e-05
-1.786309876479208469e-04
4.319868749007582664e-04
-1.687127951299771667e-04
1.561804820084944367e-04
1.114262151531875134e-03
2.565114991739392281e-04
-1.973123755306005478e-03
-1.046731194946914911e-04
3.483486361801624298e-04
-1.014998764730989933e-03
-1.057597924955189228e-03
1.860351621871814132e-04
-5.446117938845418394e-05
-7.320384611375629902e-05
5.773308657808229327e-05
-1.954342005774378777e-04
-3.397834079805761576e-04
-1.377838780172169209e-04
7.654260843992233276e-04
6.403560837497934699e-05
2.776975452434271574e-05
-6.621445063501596451e-04
5.222559557296335697e-04
6.067737194825895131e-05
8.794526802375912666e-04
2.211069368058815598e-04
-9.565310756443068385e-05
-1.061177114024758339e-03
-6.321894470602273941e-04
-6.389464251697063446e-04
-1.843794016167521477e-03
1.269304077140986919e-03
1.053447020240128040e-03
