4.795074346475303173e-04
-1.517909578979015350e-03
1.073653576895594597e-03
2.368414308875799179e-03
-3.518780067679472268e-05
-1.732084550894796848e-03
1.796834681044856552e-06
3.093449049629271030e-04
1.597539085196331143e-04
7.207272574305534363e-05
2.804986143019050360e-04
6.497073918581008911e-04
2.180422656238079071e-03
8.032391779124736786e-04
-1.084460891433991492e-04
2.807565324474126101e-04
-5.365238394006155431e-05
-6.437222327804192901e-05
2.006910945056006312e-04
-9.465352632105350494e-04
3.879955329466611147e-04
-1.891813008114695549e-03
5.350508727133274078e-04
1.440049381926655769e-03
9.999986505135893822e-04
-9.562878985889256001e-04
-1.716362196020781994e-03
2.934154123067855835e-03
-3.331255866214632988e-04
3.028222454304341227e-05
3.439901629462838173e-04
1.040635630488395691e-03
-5.081270355731248856e-04
2.801754162646830082e-04
-7.096215267665684223e-04
5.768737755715847015e-04
1.151977921836078167e-03
8.157601405400782824e-05
-1.830900902859866619e-03
-1.467867696192115545e-04
8.727224776521325111e-04
3.028778701263945550e-05
-6.528425146825611591e-04
9.146190714091062546e-04
4.207202291581779718e-04
2.332904696231707931e-04
3.013823006767779589e-04
1.854263595305383205e-03
-1.130500459112226963e-03
2.849425072781741619e-04
4.915761019219644368e-05
-1.316247973591089249e-03
1.686425996012985706e-03
-6.089178496040403843e-04
8.898455416783690453e-04
4.016499151475727558e-04
-9.755520150065422058e-04
-9.301970567321404815e-05
-9.333810303360223770e-04
2.773673331830650568e-04
5.539970152312889695e-05
-2.714565198402851820e-04
-1.829364628065377474e-04
1.096901251003146172e-03
-7.215949008241295815e-04
-1.439566840417683125e-04
-3.486223577056080103e-04
3.073792438954114914e-03
8.685116190463304520e-04
3.623448428697884083e-04
1.782472245395183563e-04
5.741149070672690868e-04
-1.243134960532188416e-03
-1.291486434638500214e-03
-5.989974015392363071e-04
3.837084223050624132e-04
5.428981385193765163e-04
-1.196728437207639217e-03
-7.677229586988687515e-05
-5.075453082099556923e-04
2.172597218304872513e-03
5.528843030333518982e-04
-9.427753684576600790e-05
6.372411153279244900e-04
-1.399786910042166710e-03
1.918264606501907110e-04
1.901371579151600599e-04
2.866154070943593979e-03
-9.121129987761378288e-04
-1.295996364206075668e-03
-4.029036499559879303e-04
4.690457717515528202e-04
-8.232977706938982010e-04
-2.024627610808238387e-04
-1.279139542020857334e-04
-2.127297222614288330e-03
-7.216480444185435772e-04
-4.252355720382183790e-04
6.403035367839038372e-04
3.368903126101940870e-04
-1.037915353663265705e-04
1.534712064312770963e-04
-5.701680202037096024e-04
-1.137007959187030792e-03
3.449114738032221794e-04
1.312976004555821419e-03
1.445765723474323750e-03
7.445038645528256893e-04
-1.092606340534985065e-03
-3.758702951017767191e-05
-3.899065195582807064e-04
1.053527579642832279e-03
1.946675009094178677e-03
6.413556984625756741e-04
-1.324670884059742093e-04
-5.784059758298099041e-04
5.034676287323236465e-04
-1.646757940761744976e-03
-2.419225638732314110e-03
7.359016453847289085e-04
-6.850646459497511387e-04
3.398079890757799149e-03
7.258893456310033798e-04
3.360111440997570753e-05
-4.918843624182045460e-04
-1.631164806894958019e-03
-3.673105675261467695e-05
6.683436222374439240e-04
-1.081285648979246616e-03
1.328027519775787368e-05
3.710417367983609438e-04
-4.616194346453994513e-04
8.786503167357295752e-05
-1.125738606788218021e-03
-1.108797616325318813e-03
-2.026434667641296983e-04
2.801616676151752472e-03
-1.282563607674092054e-04
-7.535002660006284714e-04
2.715649083256721497e-03
-1.122199581004679203e-03
1.568194478750228882e-03
-8.590062498115003109e-04
-1.036205678246915340e-03
-2.129555214196443558e-03
1.590739557286724448e-04
-4.143764672335237265e-04
1.540138182463124394e-04
-3.826209576800465584e-04
1.138340681791305542e-03
2.828997385222464800e-04
1.564426056575030088e-04
-3.881983575411140919e-04
-8.630494266981258988e-05
1.136081176809966564e-03
-7.943609962239861488e-04
1.771506649674847722e-04
-1.112981699407100677e-03
6.324134883470833302e-04
2.609248505905270576e-03
-1.703185444057453424e-05
3.308342638774774969e-05
1.403289847075939178e-03
3.739807580132037401e-04
1.082156202755868435e-03
-1.968502328963950276e-04
-1.534186187200248241e-03
-5.920627736486494541e-04
2.080036501865833998e-04
1.723440364003181458e-04
-3.420153734623454511e-05
-8.819421964290086180e-06
3.024341713171452284e-04
-2.224019495770335197e-03
-5.010641325497999787e-05
1.571622095070779324e-03
-3.576921008061617613e-04
-1.079305191524326801e-03
2.964365994557738304e-03
-5.679474634234793484e-05
-4.711388901341706514e-04
3.558601893018931150e-04
2.525311196222901344e-03
1.156097510829567909e-03
2.194946573581546545e-04
1.602894742973148823e-03
-1.273098750971257687e-03
3.183596127200871706e-04
7.996513159014284611e-04
1.112396246753633022e-03
1.252617657883092761e-04
1.978778978809714317e-03
1.405621529556810856e-03
-1.703181042103096843e-04
-3.288963052909821272e-04
-2.295281447004526854e-04
-1.245475868927314878e-05
7.903640507720410824e-04
-1.478043501265347004e-03
-7.298612617887556553e-04
-5.442420660983771086e-05
5.547087639570236206e-04
-3.715987550094723701e-04
-4.911154392175376415e-04
-4.138586518820375204e-04
6.791549967601895332e-04
4.162520926911383867e-04
-3.731432370841503143e-04
-1.053792424499988556e-03
-6.252716993913054466e-04
1.063468749634921551e-03
1.022472642944194376e-04
-2.647149958647787571e-04
2.080395788652822375e-04
7.321788580156862736e-04
7.697297260165214539e-04
5.116706015542149544e-04
-7.641219417564570904e-04
-1.178910042654024437e-05
-2.613993710838258266e-04
-2.310678792127873749e-05
-7.920125790406018496e-05
3.738872241228818893e-03
-1.331787090748548508e-03
-1.799581688828766346e-03
1.369737437926232815e-03
7.812810945324599743e-04
-1.213522395119071007e-03
6.775158108212053776e-04
6.011615623719990253e-04
-7.309470674954354763e-04
-6.099232705309987068e-04
6.499323062598705292e-04
7.220415864139795303e-04
2.262604393763467669e-04
9.117658482864499092e-04
-7.620385149493813515e-04
4.582246474456042051e-04
-1.610831008292734623e-03
-4.369362432043999434e-04
-4.476500907912850380e-04
-5.851740133948624134e-04
-3.727340663317590952e-04
1.558696152642369270e-03
9.053420508280396461e-04
-1.228437467943876982e-04
6.921993917785584927e-05
6.281189271248877048e-04
5.947318277321755886e-05
-8.453039336018264294e-04
5.504544824361801147e-04
-7.227793685160577297e-05
-6.354392826324328780e-05
1.617711095605045557e-04
-4.014546357211656868e-05
1.045466167852282524e-03
