-2.496443688869476318e-02 9.760245680809020996e-03 2.580227516591548920e-02
-6.880182772874832153e-02 6.127364467829465866e-03 1.335384696722030640e-02
1.061646547168493271e-02 -2.888560481369495392e-02 2.279587462544441223e-02
1.432099193334579468e-01 1.543895006179809570e-01 1.574735045433044434e-01
2.114626169204711914e-01 2.168349772691726685e-01 2.106458395719528198e-01
9.315434098243713379e-02 1.863029301166534424e-01 1.860666126012802124e-01
-6.261894106864929199e-02 3.370935097336769104e-02 2.019245550036430359e-02
-2.539863809943199158e-02 1.653818972408771515e-02 4.948908099322579801e-05
-4.181768000125885010e-02 -3.519372269511222839e-02 -3.188369795680046082e-02
5.203713849186897278e-02 9.659984707832336426e-02 5.267500877380371094e-02
9.737619757652282715e-02 1.400032192468643188e-01 9.338759630918502808e-02
7.242093235254287720e-02 1.248462200164794922e-01 1.455574482679367065e-01
4.815408587455749512e-02 6.925317645072937012e-02 3.646681830286979675e-02
8.002737164497375488e-02 1.442453861236572266e-01 6.792815774679183960e-02
3.705529496073722839e-02 7.676086574792861938e-02 3.265094757080078125e-02
-3.714277222752571106e-02 -2.458530478179454803e-02 -7.382922805845737457e-03
3.257783874869346619e-02 -2.260770415887236595e-03 5.243164300918579102e-02
3.753408789634704590e-02 1.511721871793270111e-02 -1.905170269310474396e-02
6.730457395315170288e-02 1.339477747678756714e-01 1.810183674097061157e-01
1.052358224987983704e-01 1.793146878480911255e-01 1.943476051092147827e-01
7.733488082885742188e-02 1.684961467981338501e-01 1.427299082279205322e-01
4.648960009217262268e-02 4.138398915529251099e-02 4.989765211939811707e-02
1.628408767282962799e-02 5.085666105151176453e-02 2.579585649073123932e-02
1.991700753569602966e-02 -1.098736282438039780e-02 1.866117352619767189e-03
4.032437130808830261e-02 3.569558961316943169e-03 -6.943103857338428497e-03
3.155734762549400330e-02 4.823613446205854416e-03 -3.623608499765396118e-03
-5.762428045272827148e-03 2.358912490308284760e-02 1.288666273467242718e-03
-1.462872922420501709e-01 -8.938457071781158447e-02 -9.503142535686492920e-02
-8.808643370866775513e-02 -7.875126600265502930e-02 -7.173546403646469116e-02
-9.909795969724655151e-02 -6.118845939636230469e-02 -4.827395081520080566e-02
5.939348042011260986e-02 1.514725536108016968e-01 1.013881042599678040e-01
1.029403880238533020e-01 1.493773758411407471e-01 1.042705550789833069e-01
2.072009257972240448e-02 6.012816354632377625e-02 8.881768211722373962e-03
2.092338800430297852e-01 2.015039324760437012e-01 2.159498780965805054e-01
2.071372866630554199e-01 2.588225901126861572e-01 2.719871103763580322e-01
2.300555855035781860e-01 2.389439791440963745e-01 2.192600667476654053e-01
2.023729495704174042e-02 -2.812130004167556763e-02 2.519057691097259521e-02
4.669075459241867065e-02 4.911529272794723511e-02 4.320403560996055603e-02
-1.138774678111076355e-02 5.609900876879692078e-02 1.433524768799543381e-02
2.137962728738784790e-02 2.742181532084941864e-02 -1.388936489820480347e-02
6.699214875698089600e-02 5.569548346102237701e-03 -2.565715648233890533e-02
6.818310171365737915e-02 5.337175354361534119e-02 2.538091875612735748e-02
-6.312834471464157104e-02 -5.260677263140678406e-02 -5.644027143716812134e-02
2.364975586533546448e-02 5.579660180956125259e-03 -1.716148853302001953e-02
2.860336191952228546e-02 6.980878300964832306e-03 3.940133005380630493e-02
-5.072636995464563370e-03 -3.920678049325942993e-02 -1.730106212198734283e-02
1.759925670921802521e-02 4.006823583040386438e-04 3.115132637321949005e-02
-2.643102034926414490e-02 1.242408342659473419e-02 5.338337644934654236e-02
5.090276151895523071e-02 5.766064301133155823e-02 4.599097743630409241e-02
4.328378476202487946e-03 1.046061888337135315e-02 3.548932448029518127e-02
4.087147489190101624e-02 2.960562147200107574e-02 3.297148644924163818e-02
-3.928194195032119751e-02 6.547407805919647217e-02 4.722514376044273376e-02
-1.843852736055850983e-02 6.538617610931396484e-02 3.742359578609466553e-02
-5.044665560126304626e-02 -2.161849057301878929e-03 7.001391798257827759e-02
1.050281077623367310e-01 8.143694698810577393e-02 1.215073373168706894e-02
1.713150739669799805e-01 1.636072397232055664e-01 7.104702293872833252e-02
1.328070908784866333e-01 1.635114699602127075e-01 1.145317405462265015e-01
-4.688307642936706543e-02 4.726721718907356262e-02 7.063315808773040771e-02
-3.330948203802108765e-02 3.590162098407745361e-02 7.922857254743576050e-02
-5.798114580102264881e-04 3.298298269510269165e-02 2.977857924997806549e-02
4.756915383040904999e-03 3.863396868109703064e-02 1.808494701981544495e-02
-3.290782496333122253e-02 2.300265803933143616e-02 5.313342064619064331e-02
-4.439312964677810669e-02 -3.950380533933639526e-02 -3.099209256470203400e-02
-3.173184767365455627e-02 1.426413282752037048e-02 2.598696574568748474e-02
-6.141721457242965698e-02 2.093967123073525727e-05 3.063087724149227142e-02
-8.158484846353530884e-02 -7.420505583286285400e-02 -1.405366044491529465e-02
-4.060541838407516479e-02 -4.971975088119506836e-02 -1.089254990220069885e-01
-1.500006951391696930e-02 1.436529401689767838e-02 -3.379281144589185715e-03
-1.905988156795501709e-02 4.024798423051834106e-02 2.836056239902973175e-02
-8.738942444324493408e-03 2.046836726367473602e-02 2.628086134791374207e-02
1.440987829118967056e-02 5.285901948809623718e-02 2.917687036097049713e-02
-3.646510653197765350e-03 5.460843443870544434e-03 1.294288132339715958e-02
4.683829843997955322e-02 6.669428944587707520e-02 7.429061084985733032e-02
3.835314884781837463e-02 3.363538533449172974e-02 1.644915156066417694e-02
6.565533578395843506e-02 2.233266085386276245e-02 2.860240265727043152e-02
-2.404286339879035950e-02 1.077765412628650665e-02 -3.974482044577598572e-02
3.913670405745506287e-02 1.919504068791866302e-02 6.114731356501579285e-02
2.537726983428001404e-02 1.196287572383880615e-01 9.672348201274871826e-02
2.911541052162647247e-02 -3.418556973338127136e-02 4.674162715673446655e-02
-3.048007143661379814e-03 2.132543176412582397e-02 7.721603661775588989e-02
-3.021239675581455231e-02 -5.101788789033889771e-02 3.046991489827632904e-02
-4.272943735122680664e-02 -1.936140470206737518e-02 -2.960703521966934204e-02
-2.742478158324956894e-03 -1.620177179574966431e-02 1.412724424153566360e-02
-4.237353056669235229e-02 -6.221741903573274612e-03 1.687700673937797546e-02
-1.836499758064746857e-02 2.280226349830627441e-02 -1.997837051749229431e-02
3.499103337526321411e-02 4.827648401260375977e-02 1.468404289335012436e-02
-2.514718472957611084e-02 4.307682439684867859e-02 2.946324646472930908e-02
7.065506279468536377e-02 1.699677482247352600e-02 -3.232060372829437256e-02
3.405901044607162476e-02 2.368478802964091301e-03 -4.896119609475135803e-02
-3.984183073043823242e-03 -7.152894884347915649e-02 -1.367586106061935425e-01
4.171109199523925781e-02 5.013896152377128601e-02 1.019748114049434662e-02
7.526984810829162598e-02 4.418791458010673523e-02 7.452922314405441284e-02
2.570935338735580444e-02 5.837863683700561523e-02 7.552953064441680908e-02
-4.737848415970802307e-02 1.958043314516544342e-02 4.870514571666717529e-02
2.614842727780342102e-02 9.865988045930862427e-02 1.338210254907608032e-01
-4.691227898001670837e-02 7.340826839208602905e-02 9.717524051666259766e-02
2.794649638235569000e-02 2.078557200729846954e-02 7.053788285702466965e-03
6.434985995292663574e-02 2.960772067308425903e-02 6.212321668863296509e-02
5.033835396170616150e-02 7.554514706134796143e-02 5.880055949091911316e-02
7.436480373144149780e-02 8.725503832101821899e-02 5.719180032610893250e-02
1.412185877561569214e-01 1.566336005926132202e-01 1.280898004770278931e-01
1.689942777156829834e-01 1.421458274126052856e-01 1.276764720678329468e-01
-5.430340766906738281e-02 -2.724391967058181763e-02 -3.771444410085678101e-02
4.049880430102348328e-03 1.289586257189512253e-02 -1.172326598316431046e-02
-2.530800178647041321e-02 -8.325849776156246662e-04 -2.947613038122653961e-02
2.295306026935577393e-01 2.504338026046752930e-01 2.179683595895767212e-01
2.224968969821929932e-01 2.788561284542083740e-01 2.746420800685882568e-01
2.125886976718902588e-01 2.108694761991500854e-01 2.151464819908142090e-01
5.637935176491737366e-02 6.218227208591997623e-04 -7.953345775604248047e-02
9.096544235944747925e-02 7.803441584110260010e-02 1.420922670513391495e-02
1.064169034361839294e-01 1.091623976826667786e-01 3.190086036920547485e-02
-3.463392704725265503e-02 5.786022171378135681e-03 2.889979258179664612e-02
-1.656750403344631195e-02 1.980302389711141586e-03 2.741919644176959991e-02
-2.271990664303302765e-02 -3.428212075959891081e-04 4.177684336900711060e-02
1.146194487810134888e-01 1.592546254396438599e-01 1.652216166257858276e-01
1.351761370897293091e-01 1.633089035749435425e-01 1.598586142063140869e-01
1.678432375192642212e-01 1.258537918329238892e-01 1.722952425479888916e-01
7.167274504899978638e-02 1.030959337949752808e-01 7.383605837821960449e-02
1.068711057305335999e-01 1.222016662359237671e-01 5.943296104669570923e-02
4.785477742552757263e-02 1.142944172024726868e-01 6.261948496103286743e-02
1.232092361897230148e-02 1.275238245725631714e-01 1.090548858046531677e-01
1.191629189997911453e-02 9.352822601795196533e-02 1.510708481073379517e-01
2.037741802632808685e-02 9.068595618009567261e-02 1.073741540312767029e-01
-4.352564364671707153e-02 -6.084030959755182266e-03 7.805329747498035431e-03
-1.473947893828153610e-02 2.817807532846927643e-02 2.800700441002845764e-02
-5.619697272777557373e-03 1.858519576489925385e-02 2.595214359462261200e-02
-3.917713090777397156e-02 -5.426485836505889893e-02 -7.964941859245300293e-02
8.924578316509723663e-03 -2.452649921178817749e-02 -3.945631161332130432e-02
5.694080889225006104e-02 4.781668260693550110e-02 7.674338668584823608e-02
1.352626234292984009e-01 1.450841128826141357e-01 1.174309030175209045e-01
1.558090001344680786e-01 2.208284586668014526e-01 2.088780850172042847e-01
1.455292105674743652e-01 1.933362782001495361e-01 1.729037314653396606e-01
4.437803477048873901e-02 1.397021394222974777e-02 -1.377474423497915268e-02
-6.268495693802833557e-03 3.876781463623046875e-02 -2.387801650911569595e-03
-1.584014669060707092e-02 -1.897229254245758057e-02 -9.835775941610336304e-03
8.145289495587348938e-03 3.187656402587890625e-02 1.233276259154081345e-02
2.574665844440460205e-02 2.558501996099948883e-02 7.591882348060607910e-02
-3.168454766273498535e-02 1.441770512610673904e-02 3.507891669869422913e-02
-9.070797241292893887e-04 8.592741936445236206e-02 6.073723733425140381e-02
3.741751983761787415e-02 9.889727085828781128e-02 7.908313721418380737e-02
-2.463378384709358215e-02 5.485052242875099182e-02 4.710809513926506042e-02
3.217675909399986267e-02 4.524613544344902039e-02 1.134378649294376373e-02
9.877379238605499268e-02 2.034035921096801758e-01 1.448249965906143188e-01
1.504863798618316650e-01 1.933461278676986694e-01 1.722707599401473999e-01
-1.462444011121988297e-02 2.594965882599353790e-02 1.694611832499504089e-02
-2.687455527484416962e-02 1.615728950127959251e-03 3.649381920695304871e-02
3.475389629602432251e-02 2.606659196317195892e-02 4.038952291011810303e-02
7.830719649791717529e-02 1.145990863442420959e-01 5.321621522307395935e-02
1.510014683008193970e-01 1.786416321992874146e-01 1.228408887982368469e-01
9.731157869100570679e-02 1.190437674522399902e-01 6.317091733217239380e-02
1.247485354542732239e-01 1.154653877019882202e-01 8.823427557945251465e-02
1.310599893331527710e-01 1.851496249437332153e-01 9.968713670969009399e-02
9.628745913505554199e-02 1.513735949993133545e-01 1.006082743406295776e-01
7.477688044309616089e-02 5.996385216712951660e-02 5.316738411784172058e-02
8.004592359066009521e-02 6.554437428712844849e-02 4.348088055849075317e-02
8.014979958534240723e-02 8.678616583347320557e-02 3.073525615036487579e-02
1.757522076368331909e-01 1.757512241601943970e-01 1.476266682147979736e-01
2.023580372333526611e-01 2.507449686527252197e-01 2.226674556732177734e-01
1.816525310277938843e-01 2.292376011610031128e-01 1.885066330432891846e-01
-3.949972987174987793e-02 -1.028842385858297348e-02 -1.996368169784545898e-02
3.393539041280746460e-02 -1.521535217761993408e-03 8.712399750947952271e-03
-2.157356031239032745e-02 -2.941061928868293762e-02 -3.066941350698471069e-02
1.189957484602928162e-01 1.768091171979904175e-01 8.709815144538879395e-02
1.522508114576339722e-01 1.413819044828414917e-01 1.452232152223587036e-01
9.789792448282241821e-02 1.455153077840805054e-01 5.097694694995880127e-02
-3.799279406666755676e-02 1.893963292241096497e-02 4.901928361505270004e-03
1.968528889119625092e-02 2.679400891065597534e-02 -2.276000939309597015e-02
3.920122981071472168e-03 1.749453879892826080e-02 5.621971935033798218e-02
5.741433054208755493e-02 1.025089900940656662e-02 -8.008681237697601318e-02
4.443211108446121216e-02 8.170792716555297375e-04 -9.927435964345932007e-02
-5.735103413462638855e-02 -7.951865345239639282e-02 -1.681242734193801880e-01
-9.724440053105354309e-03 3.246065601706504822e-02 6.044698506593704224e-02
-4.703240096569061279e-02 1.671490818262100220e-02 8.975233882665634155e-02
9.993888437747955322e-03 -3.869015257805585861e-03 1.142643988132476807e-01
1.769836060702800751e-02 1.314247548580169678e-01 3.875720128417015076e-02
6.347166746854782104e-02 6.534625589847564697e-02 2.198172733187675476e-02
1.712665520608425140e-02 3.799955174326896667e-02 1.184539217501878738e-02
7.805897295475006104e-02 6.194466352462768555e-02 -1.905674859881401062e-02
1.961833052337169647e-02 7.149002701044082642e-02 2.504209615290164948e-02
-2.630472742021083832e-02 4.002004570793360472e-04 -1.630967017263174057e-03
2.484985440969467163e-02 3.360768035054206848e-02 4.101077839732170105e-02
-1.761658862233161926e-02 5.264557432383298874e-03 8.831694722175598145e-02
-4.249868448823690414e-03 2.592607215046882629e-02 5.306711420416831970e-03
5.787670239806175232e-02 3.133739531040191650e-02 2.372157946228981018e-02
5.641045793890953064e-02 3.927744552493095398e-02 -1.618370180949568748e-03
3.350084647536277771e-02 4.422942548990249634e-02 -2.648029476404190063e-02
9.431565552949905396e-02 6.742151826620101929e-02 1.727592200040817261e-02
1.245328225195407867e-02 4.427943378686904907e-02 -3.238068521022796631e-02
1.152302790433168411e-02 -1.015348639339208603e-02 -1.742740720510482788e-02
-6.118396297097206116e-03 6.649067252874374390e-02 3.770443424582481384e-02
-5.670461431145668030e-02 2.458173036575317383e-02 -9.532113559544086456e-03
-1.808646135032176971e-02 3.993637114763259888e-02 4.051149263978004456e-02
1.990798674523830414e-02 -2.213727384805679321e-01 7.854423671960830688e-02
9.421803057193756104e-02 -3.070600926876068115e-01 2.196046411991119385e-01
1.384492963552474976e-01 -3.415338397026062012e-01 1.138678193092346191e-01
3.281695395708084106e-02 1.476524025201797485e-02 -3.042816370725631714e-02
3.839670866727828979e-02 4.047363251447677612e-02 3.589307889342308044e-02
3.881162032485008240e-02 -7.956783287227153778e-03 3.434405848383903503e-02
-4.373358935117721558e-02 -1.010318771004676819e-01 -3.476959839463233948e-02
4.088130965828895569e-02 -2.484807930886745453e-02 -2.477969601750373840e-02
-2.312814630568027496e-02 -2.603253722190856934e-02 1.575553789734840393e-02
-5.496545135974884033e-02 -4.007803276181221008e-02 -5.189540609717369080e-02
-2.166587300598621368e-02 -4.452651739120483398e-02 -6.390679627656936646e-02
-1.643723808228969574e-02 -4.772963002324104309e-02 -2.414429187774658203e-02
-4.683076962828636169e-02 -6.936750560998916626e-02 -9.145709127187728882e-02
6.725397892296314240e-03 -1.031329762190580368e-02 -8.592543005943298340e-02
-5.330480635166168213e-02 -5.914540588855743408e-02 -1.172201335430145264e-01
-4.024083167314529419e-02 8.750855922698974609e-02 1.606778614223003387e-02
-6.492163985967636108e-02 7.530876249074935913e-02 6.814194470643997192e-02
-8.209294080734252930e-02 -4.956847988069057465e-03 -4.022134095430374146e-02
4.017132893204689026e-02 -5.278931930661201477e-02 -1.759979501366615295e-02
8.354707062244415283e-02 -4.430231079459190369e-02 4.100225400179624557e-03
7.095225155353546143e-02 -5.954944994300603867e-03 3.736883029341697693e-02
3.951149526983499527e-03 -3.369064629077911377e-02 2.557330881245434284e-04
-3.913650754839181900e-03 -2.036168985068798065e-02 -2.659448888152837753e-03
-8.164196461439132690e-02 -1.940072327852249146e-02 4.987919703125953674e-02
-9.098428301513195038e-03 -8.328642696142196655e-02 -4.682089760899543762e-02
5.751924216747283936e-02 2.630225941538810730e-02 7.185934484004974365e-02
7.048378884792327881e-02 -1.371304597705602646e-02 1.357107460498809814e-01
4.270709306001663208e-02 1.720347627997398376e-02 2.029386349022388458e-02
2.517491579055786133e-02 7.066732505336403847e-04 1.501906290650367737e-02
-5.459734704345464706e-03 -6.733380258083343506e-03 -1.490802410989999771e-02
-8.863315917551517487e-03 -6.075482349842786789e-03 2.200681343674659729e-02
2.219950780272483826e-02 -2.519523911178112030e-02 2.541303634643554688e-02
-3.180238604545593262e-02 -2.311605215072631836e-02 -2.782693365588784218e-03
9.795160591602325439e-02 2.487939782440662384e-02 -3.213800862431526184e-02
2.776663191616535187e-02 1.678637973964214325e-02 3.497718274593353271e-02
9.754471480846405029e-03 -9.233845397830009460e-03 -4.596489481627941132e-03
4.135222733020782471e-02 6.379611045122146606e-02 -8.975882828235626221e-02
1.424553245306015015e-02 4.121442511677742004e-02 -2.045757323503494263e-02
9.168521314859390259e-02 5.850032716989517212e-02 -1.102475635707378387e-02
-4.802665114402770996e-02 -1.943463459610939026e-02 2.100854879245162010e-03
2.632676810026168823e-02 2.832735143601894379e-02 1.568595878779888153e-02
7.091750204563140869e-02 1.739621907472610474e-02 1.647553220391273499e-02
-5.171475559473037720e-02 -4.418161511421203613e-02 -9.170316159725189209e-02
-7.367134094238281250e-02 4.493267834186553955e-02 8.135365205816924572e-04
-8.286812156438827515e-02 1.980996876955032349e-02 -3.707795636728405952e-03
6.692504137754440308e-02 -1.093883067369461060e-01 -7.644426077604293823e-02
1.074534058570861816e-01 -4.222968593239784241e-02 -1.145923212170600891e-01
9.248997271060943604e-02 1.020488212816417217e-03 -5.590153485536575317e-02
-4.492813348770141602e-02 -5.603608489036560059e-02 1.690454781055450439e-02
9.128661826252937317e-03 -8.924331516027450562e-02 -4.809932783246040344e-02
-1.748131704516708851e-03 1.460582017898559570e-02 4.139034077525138855e-03
4.574969410896301270e-02 -1.247476227581501007e-02 4.949769005179405212e-02
2.259294316172599792e-02 -4.212746769189834595e-02 3.953416272997856140e-02
2.654344076290726662e-03 5.124799441546201706e-03 1.252774987369775772e-02
-6.479661166667938232e-02 -5.938471294939517975e-03 -3.331714123487472534e-02
-2.394668012857437134e-02 9.445818141102790833e-03 4.524641262833029032e-04
-3.148493170738220215e-02 -6.993620097637176514e-02 -1.906803622841835022e-02
-5.445224698632955551e-03 2.457393892109394073e-02 -1.899403892457485199e-02
4.088500514626502991e-03 7.183478772640228271e-02 -2.736408822238445282e-02
2.625273913145065308e-02 4.219280928373336792e-02 -5.875269696116447449e-02
1.233620494604110718e-01 -4.368749558925628662e-01 1.057902649044990540e-01
2.106713503599166870e-01 -4.996422529220581055e-01 1.164005473256111145e-01
2.073877602815628052e-01 -2.967020273208618164e-01 6.067401915788650513e-02
-2.062349207699298859e-02 -2.458375692367553711e-02 -2.773365471512079239e-03
-5.663848482072353363e-03 -1.629463024437427521e-02 1.040499657392501831e-02
-1.112228631973266602e-02 -1.624254323542118073e-02 -3.288327157497406006e-02
5.468510091304779053e-02 -5.100329220294952393e-02 1.721962541341781616e-02
1.237124111503362656e-02 -7.151983678340911865e-02 3.647210448980331421e-02
-7.400444708764553070e-03 -8.819548040628433228e-02 6.363416463136672974e-02
7.069180160760879517e-02 -1.647168397903442383e-01 -8.561500348150730133e-03
9.343488514423370361e-02 -1.437287926673889160e-01 -8.215141482651233673e-03
8.490575850009918213e-02 -1.239091455936431885e-01 -3.898211522027850151e-03
1.904620788991451263e-02 6.435348093509674072e-02 4.335232079029083252e-02
4.030827432870864868e-02 1.051401123404502869e-01 -1.332316175103187561e-02
9.719124995172023773e-03 1.402692496776580811e-01 3.809706494212150574e-02
3.841910883784294128e-02 -1.011583656072616577e-01 -1.481031626462936401e-01
3.372032940387725830e-02 -1.243787780404090881e-01 -1.243038848042488098e-01
8.051649481058120728e-02 -5.438172444701194763e-02 -1.157887354493141174e-01
-6.455793231725692749e-02 2.104514092206954956e-02 -5.259529128670692444e-02
-1.631244458258152008e-02 7.942727953195571899e-02 -2.880143746733665466e-02
-4.218753427267074585e-02 6.084942445158958435e-02 3.153036162257194519e-02
-6.668522208929061890e-02 3.185083344578742981e-02 1.587124168872833252e-02
-1.296333074569702148e-01 6.647375971078872681e-02 7.374490797519683838e-02
5.654521286487579346e-02 1.180856898427009583e-01 -1.189062446355819702e-01
3.956307470798492432e-02 -1.028737276792526245e-01 -1.686761528253555298e-01
3.597880527377128601e-02 -9.527017921209335327e-02 -1.663623005151748657e-01
4.319802299141883850e-02 -2.544931508600711823e-02 -1.081697270274162292e-01
-1.242160331457853317e-03 4.430671036243438721e-02 1.218661107122898102e-02
1.651338860392570496e-02 5.973058938980102539e-02 -1.495572272688150406e-02
-4.272006079554557800e-02 2.130029536783695221e-02 -4.043343011289834976e-03
-4.412458091974258423e-02 -6.064506992697715759e-02 -1.587013155221939087e-02
6.561619043350219727e-02 4.855028539896011353e-02 1.056574471294879913e-02
7.044526189565658569e-02 4.160713404417037964e-02 2.437565941363573074e-03
6.407491862773895264e-02 3.096646256744861603e-02 1.152133475989103317e-02
5.778220295906066895e-02 -4.518841393291950226e-03 -3.002955205738544464e-02
5.048864707350730896e-02 2.106446400284767151e-02 -6.173729896545410156e-02
-9.027963876724243164e-02 -6.977693736553192139e-02 -1.436392311006784439e-02
-4.603959619998931885e-03 -1.802170462906360626e-02 -3.555031865835189819e-02
-3.045867383480072021e-02 8.927792310714721680e-03 2.864555828273296356e-02
-4.393580183386802673e-02 2.925322018563747406e-02 -9.310155361890792847e-02
-5.058297887444496155e-02 4.709669202566146851e-02 1.721700653433799744e-03
-2.953686751425266266e-02 -4.641651641577482224e-03 -1.995208486914634705e-02
6.975217163562774658e-02 -4.313023015856742859e-02 -4.589357972145080566e-02
4.233147948980331421e-03 -7.267445325851440430e-02 1.573497205972671509e-01
-2.626684959977865219e-03 -1.527816653251647949e-01 6.389212608337402344e-02
5.066702514886856079e-02 4.931999742984771729e-02 8.834626525640487671e-02
2.709719911217689514e-02 -1.215353887528181076e-02 9.166038036346435547e-02
4.186020419001579285e-02 5.370030994527041912e-04 8.336006104946136475e-02
-2.292116358876228333e-02 -2.161055058240890503e-02 -2.208680100739002228e-02
3.798628458753228188e-03 3.538857563398778439e-04 -2.730487659573554993e-02
6.159886717796325684e-02 1.699902676045894623e-02 -2.057423256337642670e-02
1.105556488037109375e-01 -9.765617549419403076e-02 4.500276595354080200e-02
1.806647628545761108e-01 -2.148642539978027344e-01 2.541968133300542831e-03
1.057317927479743958e-01 -2.793262302875518799e-01 5.845509469509124756e-02
-6.295438110828399658e-02 -1.085110474377870560e-02 -5.464227404445409775e-03
-2.936952933669090271e-02 6.844852119684219360e-03 5.237274989485740662e-02
-3.381427749991416931e-02 -6.940396875143051147e-02 1.237529050558805466e-02
-1.319926325231790543e-02 -8.127260208129882812e-02 -3.242681175470352173e-02
-3.485319018363952637e-02 -6.311739981174468994e-02 -3.349762037396430969e-02
1.964421756565570831e-02 -2.676386386156082153e-02 -2.682990022003650665e-02
2.381287142634391785e-02 -2.422427944839000702e-02 -2.269684569910168648e-03
-4.538640379905700684e-02 6.834978237748146057e-03 -2.440507337450981140e-02
-2.713470533490180969e-02 -1.068816240876913071e-02 -4.695994406938552856e-02
-1.205574944615364075e-01 3.123306334018707275e-01 -1.594822555780410767e-01
-2.626227736473083496e-01 4.570705890655517578e-01 -2.493228465318679810e-01
-3.320778012275695801e-01 3.491105437278747559e-01 -1.841961294412612915e-01
1.253278739750385284e-02 8.687499910593032837e-02 2.437077462673187256e-02
-3.244753554463386536e-02 1.434365473687648773e-02 8.067631162703037262e-03
3.199872793629765511e-03 2.992792241275310516e-02 3.348688036203384399e-02
-4.533378887572325766e-05 3.764326125383377075e-02 -1.854109950363636017e-02
3.081573545932769775e-02 5.442677438259124756e-02 8.317286148667335510e-03
3.619095310568809509e-02 5.147152021527290344e-02 5.559919029474258423e-02
-3.294443711638450623e-02 -1.486915946006774902e-01 8.893600851297378540e-02
1.013175696134567261e-01 -1.757537424564361572e-01 -4.829876869916915894e-02
6.273771077394485474e-02 -9.281613677740097046e-02 2.848511748015880585e-02
2.451377734541893005e-02 3.684359043836593628e-02 2.425322122871875763e-02
1.168086659163236618e-02 2.451115660369396210e-02 4.450404644012451172e-02
5.084542930126190186e-02 -6.182803586125373840e-02 7.323037367314100266e-03
1.557951420545578003e-02 7.070019375532865524e-03 -6.542561203241348267e-02
-4.790166392922401428e-03 -8.696121722459793091e-02 -5.475851520895957947e-02
3.712669014930725098e-03 -7.902558147907257080e-02 -1.552206128835678101e-01
4.847800359129905701e-02 -1.267757825553417206e-02 8.528489619493484497e-02
6.809920817613601685e-02 -6.425378471612930298e-02 8.898036926984786987e-02
7.759868353605270386e-02 -6.129973381757736206e-02 9.355408698320388794e-02
9.139928966760635376e-03 4.679147526621818542e-02 5.439145117998123169e-02
3.594156354665756226e-02 1.662235148251056671e-02 7.525734603404998779e-02
1.637776731513440609e-03 1.482995110563933849e-03 5.335631966590881348e-02
-2.353796735405921936e-03 -3.557926043868064880e-02 -4.817784950137138367e-02
-6.864205934107303619e-03 -6.481345277279615402e-03 -8.686144649982452393e-02
-4.144288599491119385e-02 8.953756652772426605e-03 -6.709384918212890625e-02
3.943729214370250702e-03 7.946808822453022003e-03 3.635312244296073914e-02
3.923995420336723328e-02 5.027093924582004547e-03 5.952599272131919861e-02
9.205414354801177979e-02 -2.215166343376040459e-03 1.675425469875335693e-02
1.372683048248291016e-02 -4.384313523769378662e-02 -3.329679742455482483e-02
1.823986321687698364e-02 1.002218201756477356e-02 -3.419509902596473694e-02
8.503855764865875244e-02 -1.698403619229793549e-03 5.296313203871250153e-03
4.630853980779647827e-02 1.835193485021591187e-02 2.657869271934032440e-02
2.421682141721248627e-02 3.388400003314018250e-02 5.754566565155982971e-02
1.483951043337583542e-02 1.157454494386911392e-02 1.370830275118350983e-02
2.972608432173728943e-02 -2.339592874050140381e-01 7.927271723747253418e-02
1.368332356214523315e-01 -3.594423532485961914e-01 1.181346401572227478e-01
1.132505536079406738e-01 -2.669995725154876709e-01 7.346618175506591797e-02
-1.020148489624261856e-02 -3.027427941560745239e-02 -7.525736093521118164e-02
-7.518262416124343872e-02 -8.420747518539428711e-02 -1.401633024215698242e-02
-4.211068153381347656e-02 -1.775007508695125580e-02 -5.979146808385848999e-02
-5.415278021246194839e-03 -1.226353831589221954e-02 -2.490220777690410614e-02
-1.280688494443893433e-01 6.460430473089218140e-02 2.383458986878395081e-02
-6.061035022139549255e-02 6.548988074064254761e-02 -1.883980631828308105e-02
-2.129730582237243652e-02 5.975623428821563721e-02 4.618039727210998535e-02
-3.745812177658081055e-02 4.676082357764244080e-02 1.188714988529682159e-02
-3.443607687950134277e-02 1.676934398710727692e-02 3.268730640411376953e-02
-1.415026374161243439e-02 4.782992228865623474e-02 7.632870972156524658e-02
-8.895057253539562225e-03 2.610171400010585785e-02 6.226059049367904663e-03
1.280279085040092468e-02 1.914567686617374420e-02 -1.561101991683244705e-02
-5.823408812284469604e-02 -2.696490287780761719e-02 -6.521730870008468628e-02
2.870224975049495697e-02 2.005722140893340111e-03 -9.130493737757205963e-03
-5.494339857250452042e-03 5.675692856311798096e-02 6.042116507887840271e-02
-3.525842353701591492e-02 5.539540946483612061e-02 -1.897529885172843933e-02
-8.597326278686523438e-02 -2.044090069830417633e-02 4.559092689305543900e-03
-1.825259067118167877e-02 4.333924874663352966e-02 4.443202912807464600e-02
-1.560212392359972000e-02 4.820428043603897095e-02 -3.142036870121955872e-02
2.345302142202854156e-02 1.761914491653442383e-01 -3.960320353507995605e-02
1.047665532678365707e-02 1.717705577611923218e-01 -2.715384028851985931e-02
3.482488170266151428e-02 5.418819934129714966e-02 -2.143951877951622009e-02
4.519449546933174133e-02 7.227723300457000732e-02 7.048149406909942627e-02
3.372877463698387146e-02 -4.910437855869531631e-03 6.072349846363067627e-03
-1.783524081110954285e-02 -1.258789002895355225e-01 -5.409695580601692200e-02
5.458531901240348816e-02 -7.196333259344100952e-02 5.566788837313652039e-02
1.328300684690475464e-02 -2.139498014003038406e-03 1.262807846069335938e-01
-1.141355633735656738e-01 1.079580560326576233e-01 -1.673104614019393921e-01
-4.456480219960212708e-02 1.825219839811325073e-01 -9.899608790874481201e-02
-1.499421894550323486e-01 1.542758345603942871e-01 6.404766440391540527e-02
2.579495497047901154e-02 4.842567443847656250e-02 -3.493951261043548584e-02
1.356617063283920288e-01 8.816869556903839111e-02 2.918910793960094452e-02
6.276854872703552246e-02 -2.143175899982452393e-02 -7.885250449180603027e-02
1.013689190149307251e-01 8.502476662397384644e-02 9.253232926130294800e-02
5.916798487305641174e-02 -1.154975406825542450e-02 2.003165148198604584e-02
1.724411174654960632e-02 -2.595116943120956421e-02 -3.063690289855003357e-02
1.078760530799627304e-02 1.140490919351577759e-02 -7.435724884271621704e-02
1.945594884455204010e-02 4.453683644533157349e-02 -3.194833174347877502e-03
-3.287735953927040100e-02 -4.061896726489067078e-02 -8.278778195381164551e-02
1.032557263970375061e-01 1.244111061096191406e-01 7.118236273527145386e-02
9.657777845859527588e-02 6.326558440923690796e-02 -6.607533991336822510e-02
2.510222792625427246e-02 -5.378114059567451477e-02 -1.209054365754127502e-01
1.390073001384735107e-01 3.895810246467590332e-02 2.054790779948234558e-02
2.828398905694484711e-02 -5.997208505868911743e-02 -9.134000539779663086e-02
-5.804731324315071106e-02 -1.146273240447044373e-01 -1.950711458921432495e-01
6.482679396867752075e-02 4.301777482032775879e-02 2.962276525795459747e-02
-6.487445533275604248e-02 -1.266779601573944092e-01 -8.402197808027267456e-02
-9.063773602247238159e-02 -1.030404120683670044e-01 -7.294923812150955200e-02
6.306486669927835464e-03 9.883760660886764526e-02 8.547922223806381226e-02
7.720526307821273804e-02 1.284678876399993896e-01 9.484687447547912598e-02
5.627637729048728943e-02 1.234848722815513611e-01 6.592724472284317017e-02
-8.105235546827316284e-02 -6.598054617643356323e-02 -3.493833169341087341e-02
-8.251608349382877350e-03 1.467707101255655289e-02 5.688513163477182388e-03
2.574111102148890495e-03 1.375808380544185638e-02 -3.980260808020830154e-03
1.647784113883972168e-01 2.296424806118011475e-01 2.273796647787094116e-01
2.125256061553955078e-01 2.649529874324798584e-01 1.620862036943435669e-01
1.089499369263648987e-01 1.036320552229881287e-01 1.332724988460540771e-01
-2.299003154039382935e-01 -2.407220304012298584e-01 -1.849674284458160400e-01
-2.491629570722579956e-01 -2.395758032798767090e-01 -1.687148511409759521e-01
-2.169472873210906982e-01 -2.567059993743896484e-01 -1.673924922943115234e-01
7.490191608667373657e-02 6.285152584314346313e-02 -2.467439882457256317e-02
3.564418852329254150e-02 -3.002068959176540375e-02 -1.022975370287895203e-01
-4.164697974920272827e-02 -1.517929434776306152e-01 -1.766302585601806641e-01
5.632743984460830688e-02 1.100229397416114807e-01 8.693443238735198975e-02
2.250370569527149200e-02 8.924833685159683228e-02 7.146885991096496582e-02
5.929002538323402405e-02 5.900494381785392761e-02 4.385850951075553894e-02
2.393323229625821114e-03 4.126789420843124390e-02 -1.122622052207589149e-03
1.727483584545552731e-03 -6.692757830023765564e-03 -5.926082283258438110e-02
-4.724038019776344299e-02 -7.169232517480850220e-02 -1.041667163372039795e-01
6.376303732395172119e-02 1.362508684396743774e-01 1.450889110565185547e-01
1.588806360960006714e-01 1.559882611036300659e-01 6.822071969509124756e-02
1.440219879150390625e-01 1.047142222523689270e-01 -3.343642223626375198e-03
1.589661538600921631e-01 1.128282919526100159e-01 5.631842091679573059e-02
-2.556598745286464691e-02 9.813536889851093292e-03 1.149355061352252960e-02
-1.729324907064437866e-01 -1.589986085891723633e-01 -3.638551011681556702e-02
7.187574356794357300e-02 9.117128700017929077e-02 1.135985776782035828e-01
-7.920367270708084106e-02 -8.245792984962463379e-02 -1.707958057522773743e-03
-9.147793054580688477e-02 -1.369521319866180420e-01 -2.639762870967388153e-02
-7.522194087505340576e-02 -1.032742485404014587e-02 2.402036450803279877e-03
-5.204566754400730133e-03 6.586258858442306519e-02 6.840064376592636108e-02
2.442765049636363983e-03 3.808654472231864929e-02 3.170292824506759644e-02
7.537318766117095947e-02 1.037424132227897644e-01 5.448084324598312378e-02
7.208069413900375366e-02 2.350333891808986664e-02 -5.568026378750801086e-02
2.262267470359802246e-02 -8.787488937377929688e-02 -1.700394898653030396e-01
7.303691655397415161e-02 7.128401100635528564e-02 5.523492768406867981e-02
6.497763097286224365e-02 5.080372095108032227e-02 2.725890837609767914e-02
1.700631342828273773e-02 -8.371989242732524872e-03 -5.200955644249916077e-02
-7.389453798532485962e-02 -7.296953815966844559e-03 1.339406147599220276e-02
-3.433855995535850525e-02 -1.334517728537321091e-02 6.936971843242645264e-02
-2.763953618705272675e-02 7.106400281190872192e-02 1.185296475887298584e-01
-7.495430856943130493e-02 -9.057164937257766724e-02 -1.800007075071334839e-01
6.498456746339797974e-02 1.722031459212303162e-02 -7.996930927038192749e-02
6.094513833522796631e-02 4.567863047122955322e-02 6.342026870697736740e-03
-1.016484806314110756e-03 3.939298912882804871e-02 7.743221521377563477e-02
-2.957466617226600647e-02 -2.383829839527606964e-02 3.534698858857154846e-03
-2.942384779453277588e-02 -6.037313118577003479e-02 -3.245269134640693665e-02
8.262617141008377075e-02 8.180708438158035278e-02 8.242315798997879028e-02
6.301411241292953491e-02 6.174046546220779419e-02 -8.136158436536788940e-02
3.526171669363975525e-02 -4.556434229016304016e-02 -2.621454000473022461e-01
3.307569399476051331e-02 4.719774797558784485e-02 8.494668453931808472e-02
-1.105824634432792664e-01 -6.609594076871871948e-02 -2.016981132328510284e-03
-1.057765856385231018e-01 -5.775209516286849976e-02 2.085717767477035522e-02
-2.150630392134189606e-02 -4.072415828704833984e-02 1.905818097293376923e-02
-3.587822616100311279e-02 -2.803024137392640114e-03 4.821527376770973206e-02
-2.347567491233348846e-02 4.273547977209091187e-02 2.404732257127761841e-02
6.313773244619369507e-02 5.866998806595802307e-02 7.281867787241935730e-03
-2.836546674370765686e-02 -6.001573801040649414e-02 -7.170210778713226318e-02
-8.413877338171005249e-02 -1.982659399509429932e-01 -2.439295053482055664e-01
-6.748368591070175171e-02 -2.642001584172248840e-02 2.576309628784656525e-02
-1.507970038801431656e-02 5.795647948980331421e-02 5.943811684846878052e-02
1.552953012287616730e-02 5.106956511735916138e-02 9.638676792383193970e-02
-1.463673077523708344e-02 -7.233283668756484985e-02 -8.801434189081192017e-03
-8.127015829086303711e-02 -5.052774772047996521e-02 2.585897594690322876e-02
5.538273602724075317e-02 3.289898112416267395e-02 5.170973762869834900e-02
5.224450677633285522e-02 -9.857967495918273926e-03 3.376251459121704102e-02
-1.336456239223480225e-01 -2.021765708923339844e-01 -1.659651547670364380e-01
-1.338617503643035889e-01 -2.338727265596389771e-01 -1.824767440557479858e-01
6.313618272542953491e-02 7.198914140462875366e-02 1.192445866763591766e-02
-3.457785397768020630e-02 2.374798804521560669e-02 -2.317427471280097961e-02
-5.196290463209152222e-02 -6.978113204240798950e-02 -8.291122317314147949e-02
1.279279291629791260e-01 1.372474431991577148e-01 1.857530921697616577e-01
1.348249912261962891e-01 9.931751340627670288e-02 1.058657765388488770e-01
3.132670000195503235e-02 7.067397236824035645e-02 1.156392693519592285e-01
1.171296909451484680e-01 6.187743321061134338e-02 1.806862652301788330e-02
3.342510387301445007e-02 -1.581544172950088978e-03 -7.653328776359558105e-02
2.143707312643527985e-02 -6.625951826572418213e-02 -1.655981540679931641e-01
6.214039027690887451e-02 5.857429653406143188e-02 6.522160023450851440e-02
9.591156244277954102e-02 1.358246654272079468e-01 1.716191619634628296e-01
1.423209309577941895e-01 2.516758143901824951e-01 1.828848272562026978e-01
7.673099637031555176e-02 2.954223938286304474e-02 5.218799412250518799e-02
9.626968763768672943e-03 -3.523524478077888489e-02 -3.034776076674461365e-02
-6.530345976352691650e-02 -1.318167895078659058e-01 -9.067036956548690796e-02
1.808718293905258179e-01 1.470549553632736206e-01 4.771604016423225403e-02
9.206781536340713501e-02 -2.076081000268459320e-02 -8.677094429731369019e-02
1.759411767125129700e-02 -1.150418147444725037e-01 -1.858296543359756470e-01
5.802369862794876099e-02 3.537943214178085327e-02 4.312366992235183716e-02
1.259995400905609131e-01 1.310670375823974609e-02 5.520809441804885864e-03
5.639793723821640015e-02 2.250364236533641815e-02 2.818396314978599548e-03
1.090954691171646118e-01 1.094015091657638550e-01 5.255488678812980652e-02
7.349510490894317627e-02 5.026384443044662476e-02 2.048197900876402855e-03
1.943979295901954174e-03 1.977344788610935211e-02 2.524135820567607880e-02
-2.815803745761513710e-03 4.547536373138427734e-02 -5.008852574974298477e-03
4.056755453348159790e-02 1.161334961652755737e-01 9.271840006113052368e-02
-1.322972495108842850e-02 -4.928722232580184937e-02 6.671567447483539581e-03
7.667950540781021118e-02 1.148531734943389893e-01 1.058616042137145996e-01
8.416054397821426392e-02 8.795948326587677002e-02 1.040920242667198181e-01
9.586367756128311157e-02 1.023699417710304260e-01 1.020619645714759827e-01
-1.023484114557504654e-02 2.618244476616382599e-02 -8.097170852124691010e-03
1.725861616432666779e-02 5.798673629760742188e-02 2.627629227936267853e-02
7.215207070112228394e-02 7.796732336282730103e-02 4.111135005950927734e-02
-2.318154647946357727e-02 -2.142854966223239899e-02 -8.232298493385314941e-02
7.149811135604977608e-04 -3.923995792865753174e-02 -5.046129971742630005e-02
-1.138487085700035095e-02 -7.556274533271789551e-03 9.063598699867725372e-03
-5.013569723814725876e-03 -3.641046211123466492e-02 2.333008125424385071e-02
-5.668041110038757324e-02 -1.666902750730514526e-02 9.968481957912445068e-02
-6.374158710241317749e-02 -7.668022997677326202e-03 1.433798521757125854e-01
-6.152102723717689514e-02 -9.851921349763870239e-02 -7.708243280649185181e-02
-1.126188933849334717e-01 -3.420422971248626709e-02 -3.969990834593772888e-02
-9.536769241094589233e-02 -6.696750968694686890e-02 -6.039479747414588928e-02
1.228388398885726929e-01 1.146892383694648743e-01 6.849081069231033325e-02
1.019638329744338989e-01 3.367011994123458862e-02 5.246986821293830872e-02
2.572298608720302582e-02 4.248699918389320374e-02 -1.594069786369800568e-02
-1.133846715092658997e-01 -1.630803197622299194e-02 -6.036357954144477844e-03
-7.239312678575515747e-02 5.739908665418624878e-02 6.996992975473403931e-02
1.331921294331550598e-02 1.070960685610771179e-01 9.005565941333770752e-02
-8.041462861001491547e-03 -3.632542863488197327e-02 2.428759762551635504e-04
-5.344840884208679199e-02 -3.371418640017509460e-02 1.403278484940528870e-02
5.036482587456703186e-03 -2.277137711644172668e-02 -2.411035448312759399e-02
1.009590104222297668e-01 8.227346092462539673e-02 -1.259755529463291168e-02
8.260223083198070526e-03 -8.187326043844223022e-02 -1.293900310993194580e-01
-4.682312533259391785e-02 -1.433484256267547607e-01 -2.263865172863006592e-01
1.353787332773208618e-01 1.574284881353378296e-01 8.275099843740463257e-02
1.199166029691696167e-01 5.555143579840660095e-02 -2.050116658210754395e-02
5.392296239733695984e-02 8.983072475530207157e-04 -4.900173470377922058e-02
-4.309018701314926147e-02 1.801727712154388428e-02 2.661837637424468994e-02
-2.624739706516265869e-02 5.288661271333694458e-02 1.697670668363571167e-02
4.109506029635667801e-03 -9.287068620324134827e-03 5.665528029203414917e-02
4.925001412630081177e-02 4.291081428527832031e-02 1.185616850852966309e-02
9.966404177248477936e-03 -7.331562042236328125e-02 -6.224369630217552185e-02
-3.889551013708114624e-02 -1.390961259603500366e-01 -1.430119723081588745e-01
7.017281651496887207e-02 3.075468540191650391e-02 4.227922111749649048e-02
7.246573269367218018e-02 7.226353138685226440e-02 -4.864343907684087753e-03
1.614016853272914886e-02 1.448920369148254395e-02 -3.870198503136634827e-02
3.856799006462097168e-02 5.826910957694053650e-02 3.063365444540977478e-02
3.763239085674285889e-02 8.735939115285873413e-02 7.894519716501235962e-02
1.272712461650371552e-02 1.166145280003547668e-01 9.309533983469009399e-02
1.467430591583251953e-01 1.109990552067756653e-01 8.373501151800155640e-02
1.010070443153381348e-01 7.248946279287338257e-02 7.159777730703353882e-02
1.187183633446693420e-01 7.799015939235687256e-02 6.740859150886535645e-02
-9.980317950248718262e-02 -4.096775501966476440e-02 7.216737419366836548e-02
-3.804917633533477783e-02 5.750451236963272095e-02 3.357879817485809326e-02
-3.150795772671699524e-02 2.442460507154464722e-02 1.696664281189441681e-02
4.185203462839126587e-02 4.632858559489250183e-02 4.815697669982910156e-02
4.801754280924797058e-02 6.156269833445549011e-02 4.243068397045135498e-02
5.515272915363311768e-02 8.760822564363479614e-02 5.409917235374450684e-02
1.120506972074508667e-01 2.307779341936111450e-01 8.356656879186630249e-02
3.082749806344509125e-02 3.160043433308601379e-02 -8.176466450095176697e-03
-1.427165865898132324e-01 -1.127019524574279785e-01 -8.677982538938522339e-02
3.951886668801307678e-03 5.260202102363109589e-03 4.201102629303932190e-02
-8.950582891702651978e-02 -2.418585307896137238e-02 2.501818723976612091e-02
-8.670865744352340698e-02 -3.297524526715278625e-02 -4.792473837733268738e-02
-7.842292636632919312e-02 -1.812303997576236725e-02 -1.537024974822998047e-02
2.787377685308456421e-02 6.738068163394927979e-02 1.169484332203865051e-01
4.487821459770202637e-02 6.003228947520256042e-02 1.187025383114814758e-01
4.414717853069305420e-02 1.203697174787521362e-01 8.964293450117111206e-02
9.695518016815185547e-02 1.997273713350296021e-01 1.433551460504531860e-01
7.555492222309112549e-02 1.390367895364761353e-01 1.453131288290023804e-01
-4.960833117365837097e-02 -6.542305648326873779e-02 -6.870191544294357300e-02
-6.812501698732376099e-02 -7.023385167121887207e-02 -8.619768172502517700e-02
8.421847224235534668e-02 4.022564366459846497e-02 -5.252841860055923462e-02
7.259629666805267334e-02 2.250993065536022186e-02 -7.648019120097160339e-03
2.435693517327308655e-02 9.475764632225036621e-02 5.402459204196929932e-02
-3.415031731128692627e-02 6.035927683115005493e-02 8.140563219785690308e-02
4.285664856433868408e-02 4.277034848928451538e-02 4.083181545138359070e-02
3.033034689724445343e-02 4.527100175619125366e-02 1.552599947899580002e-02
-1.632168702781200409e-02 -3.427854552865028381e-02 -9.121554344892501831e-02
5.645339563488960266e-02 9.580649784766137600e-04 -8.576720952987670898e-02
3.819146752357482910e-02 1.886989735066890717e-02 -4.902626574039459229e-02
-2.694949507713317871e-02 -4.587905853986740112e-02 -4.110228642821311951e-02
-1.337660104036331177e-01 -3.342774510383605957e-02 -2.446100302040576935e-02
4.912524949759244919e-03 1.449476927518844604e-01 1.473153680562973022e-01
-1.498009730130434036e-02 3.736521303653717041e-02 3.482825681567192078e-02
-1.643849723041057587e-02 5.239368882030248642e-03 -4.149414598941802979e-03
5.114974826574325562e-02 -1.857840083539485931e-02 -5.162375047802925110e-02
-2.880781330168247223e-02 -2.628153748810291290e-02 -6.744392961263656616e-02
-1.081967428326606750e-01 -1.445049792528152466e-01 -1.384996324777603149e-01
-1.281179934740066528e-01 -1.692610830068588257e-01 -1.413650363683700562e-01
-8.922157436609268188e-02 -1.395636200904846191e-01 -1.406360268592834473e-01
1.396308392286300659e-01 9.265797585248947144e-02 -3.184843063354492188e-02
7.483157515525817871e-02 6.550423800945281982e-02 -4.752090666443109512e-03
3.670617192983627319e-02 -5.415749270468950272e-03 3.448973968625068665e-02
-2.350320667028427124e-02 -8.336982131004333496e-02 -1.098016947507858276e-01
-4.689918830990791321e-02 -1.170602440834045410e-01 -1.587248742580413818e-01
-5.490673333406448364e-02 -1.296498775482177734e-01 -1.339082121849060059e-01
-5.126383155584335327e-02 -8.454792201519012451e-02 -8.238884806632995605e-02
-6.926829367876052856e-02 -1.253305822610855103e-01 -1.137183457612991333e-01
-1.168708689510822296e-02 -1.132335439324378967e-01 -1.209725514054298401e-01
-6.437960267066955566e-02 -8.478535711765289307e-02 -3.703872114419937134e-02
-1.554948370903730392e-02 -1.012375652790069580e-01 -6.577588617801666260e-02
6.968277692794799805e-02 7.188700139522552490e-03 -3.602376952767372131e-02
8.862331509590148926e-02 3.328006714582443237e-02 -6.291219592094421387e-02
1.061124354600906372e-01 1.120179146528244019e-02 -3.123324550688266754e-02
5.447731912136077881e-02 4.276162385940551758e-02 -7.399607449769973755e-02
-9.543760679662227631e-03 1.856786431744694710e-03 6.962405052036046982e-03
-3.026429936289787292e-02 9.405375272035598755e-02 8.464886248111724854e-02
-3.942490369081497192e-02 7.817329466342926025e-02 4.334280639886856079e-02
7.278852909803390503e-02 1.025315076112747192e-01 1.192221343517303467e-01
2.987985126674175262e-02 7.017974276095628738e-03 7.578224688768386841e-02
-3.707304596900939941e-02 -5.778835341334342957e-02 -8.003621548414230347e-02
2.433929033577442169e-02 -1.363072078675031662e-02 6.560279428958892822e-02
5.930333212018013000e-02 3.261126950383186340e-02 5.872214585542678833e-02
3.271484375000000000e-02 5.897791683673858643e-02 8.071830123662948608e-02
9.390772134065628052e-02 1.260852161794900894e-02 -4.298153892159461975e-02
3.613679111003875732e-02 -3.322873264551162720e-03 -1.384824328124523163e-02
3.993507474660873413e-02 -4.117277264595031738e-02 -3.894013911485671997e-02
-2.627152577042579651e-02 -4.560787230730056763e-02 -5.232346430420875549e-02
-4.314022511243820190e-02 -8.547110855579376221e-02 -8.556549251079559326e-02
-4.903803579509258270e-03 -9.357205033302307129e-02 -6.693032383918762207e-02
-1.173913106322288513e-02 4.440362751483917236e-02 4.162633419036865234e-02
-2.728503569960594177e-02 -1.882552355527877808e-02 -2.010865323245525360e-02
-2.387937344610691071e-02 -6.837064400315284729e-03 1.996915973722934723e-02
-2.966933697462081909e-02 1.972718350589275360e-02 3.239282965660095215e-02
5.448605492711067200e-02 3.901824355125427246e-03 -3.801197186112403870e-02
4.045140370726585388e-02 -1.187395770102739334e-02 -5.453058332204818726e-02
-6.616792827844619751e-02 6.130388751626014709e-02 1.275449059903621674e-02
-6.811346113681793213e-02 -3.823798522353172302e-02 2.569143846631050110e-02
-1.462854146957397461e-01 -5.920452624559402466e-02 1.133793778717517853e-02
-1.683498546481132507e-02 -5.592605099081993103e-02 4.704135283827781677e-02
-2.823334373533725739e-02 -7.744017243385314941e-02 -1.834036596119403839e-02
-3.130290191620588303e-03 -9.396719187498092651e-02 4.606085270643234253e-02
4.656324908137321472e-02 7.738316059112548828e-02 1.972125656902790070e-02
5.734765157103538513e-02 5.129986256361007690e-02 4.224037379026412964e-02
2.478757686913013458e-02 9.770289808511734009e-02 3.627746924757957458e-02
5.030088871717453003e-02 -1.320570614188909531e-02 -4.103614389896392822e-02
6.757394969463348389e-02 -9.013772010803222656e-03 -6.958416104316711426e-02
1.016680896282196045e-01 -4.236682876944541931e-02 -6.216794997453689575e-02
2.852254547178745270e-02 -4.465397074818611145e-02 -7.844966836273670197e-03
-2.565388754010200500e-02 -1.218486502766609192e-01 -9.121637046337127686e-02
-3.837210312485694885e-02 -1.420014351606369019e-01 -8.264987170696258545e-02
-1.556493639945983887e-01 -4.887050017714500427e-02 -1.980124600231647491e-02
-1.162931919097900391e-01 2.843739092350006104e-02 1.073515936732292175e-01
-6.084734201431274414e-02 6.569352746009826660e-02 8.663365989923477173e-02
2.168295904994010925e-02 -4.574127122759819031e-02 -9.302873164415359497e-02
9.282023459672927856e-02 9.155218489468097687e-03 -1.374235451221466064e-01
2.236332185566425323e-02 3.100628405809402466e-02 -2.998923882842063904e-02
1.062596775591373444e-02 -1.366097107529640198e-02 -5.388915538787841797e-02
8.604881353676319122e-03 1.424193195998668671e-02 -8.844667114317417145e-03
4.403891414403915405e-02 2.989009022712707520e-02 -2.811350161209702492e-03
6.886194646358489990e-02 1.975807547569274902e-02 2.727044001221656799e-02
8.939453959465026855e-02 -2.905601263046264648e-02 -6.429141759872436523e-02
2.038731798529624939e-02 -4.562719911336898804e-02 -4.243121668696403503e-02
-1.178023740649223328e-01 -1.084001809358596802e-01 1.934698596596717834e-02
-1.177363172173500061e-01 -9.314389526844024658e-02 -1.004563085734844208e-02
-3.628685697913169861e-02 -3.359246999025344849e-02 -1.597383292391896248e-03
-4.460339620709419250e-02 -1.324406359344720840e-02 1.209320873022079468e-02
3.339182003401219845e-04 5.423954129219055176e-02 2.784018218517303467e-02
-1.254261005669832230e-02 7.470410317182540894e-02 2.954844944179058075e-02
6.239976733922958374e-02 7.933192886412143707e-03 1.031383574008941650e-01
8.731970936059951782e-02 -4.169663786888122559e-02 9.832060895860195160e-03
7.781036198139190674e-02 -2.340744249522686005e-02 -2.506058849394321442e-02
-1.564155891537666321e-02 5.688577145338058472e-02 4.265345633029937744e-02
-4.031710699200630188e-02 1.180985271930694580e-01 1.036494001746177673e-01
-4.039599373936653137e-02 4.243620857596397400e-02 5.422605201601982117e-02
-3.134358674287796021e-02 -7.082174718379974365e-02 -3.597884252667427063e-02
-1.938328519463539124e-02 -4.415858164429664612e-02 -2.987132966518402100e-02
-1.074590906500816345e-02 -2.339616417884826660e-02 9.317435324192047119e-04
7.201927155256271362e-02 2.237288467586040497e-02 1.188287511467933655e-01
3.282681480050086975e-02 -4.225433513056486845e-04 6.382792443037033081e-02
1.124462336301803589e-01 8.507614023983478546e-03 -1.112357061356306076e-02
-5.874615907669067383e-02 -7.183284312486648560e-02 -8.605983108282089233e-02
-5.059612542390823364e-02 -4.738133773207664490e-02 -4.998875781893730164e-02
-8.634740859270095825e-02 -9.182745963335037231e-02 -1.906991936266422272e-02
3.422483429312705994e-02 3.990975022315979004e-02 -2.650078944861888885e-02
1.351487822830677032e-02 1.914087869226932526e-02 -1.332769077271223068e-02
-5.101658403873443604e-02 -7.012788206338882446e-02 -4.542318638414144516e-03
2.049259841442108154e-02 -1.353992056101560593e-02 -5.010099336504936218e-02
5.750254262238740921e-03 -8.940117806196212769e-02 -1.341103911399841309e-01
-9.621845558285713196e-03 -6.683997064828872681e-02 -1.096505299210548401e-01
-2.035971730947494507e-02 -6.731389090418815613e-03 3.901830315589904785e-02
4.230412840843200684e-02 4.526465013623237610e-02 5.591711029410362244e-02
3.257262334227561951e-02 4.931583628058433533e-02 5.471131205558776855e-02
4.700667038559913635e-02 1.086329668760299683e-02 8.722997456789016724e-02
-2.075955644249916077e-02 -5.525306239724159241e-02 -9.739632369019091129e-04
-1.956550031900405884e-02 -5.604213103652000427e-02 -5.775712057948112488e-02
4.795109853148460388e-02 -2.066285163164138794e-02 -1.901514944620430470e-03
-4.784740507602691650e-02 -1.239969208836555481e-01 -1.014474257826805115e-01
1.340535236522555351e-03 -6.966266781091690063e-02 -5.259755998849868774e-02
-2.210090123116970062e-02 -1.375437527894973755e-01 -1.042558103799819946e-01
-3.247945755720138550e-02 -1.240273341536521912e-01 -7.375808060169219971e-02
-2.736948616802692413e-02 -7.937074452638626099e-02 -1.201049610972404480e-01
1.086752936244010925e-01 1.015004739165306091e-01 1.249505728483200073e-01
8.059450984001159668e-02 3.571300581097602844e-02 9.631595015525817871e-02
3.516387939453125000e-02 5.817163269966840744e-03 9.252312779426574707e-02
2.844541147351264954e-02 2.446345798671245575e-02 6.253843009471893311e-02
-2.785053104162216187e-02 -5.919414758682250977e-02 -5.263037979602813721e-03
-6.978771835565567017e-02 -5.594825744628906250e-02 4.616550356149673462e-02
-4.646706953644752502e-02 -4.133542999625205994e-02 -9.653122164309024811e-03
-4.609529301524162292e-02 -2.716747112572193146e-02 2.051922678947448730e-02
-4.509411379694938660e-02 1.041381619870662689e-02 2.936027571558952332e-02
1.634412258863449097e-01 2.093103677034378052e-01 1.423275768756866455e-01
2.605845928192138672e-01 3.173083662986755371e-01 2.183396518230438232e-01
2.323694974184036255e-01 2.842378616333007812e-01 2.253392487764358521e-01
-8.266709744930267334e-02 5.139729008078575134e-03 -2.387191914021968842e-02
-5.065815523266792297e-02 4.006034508347511292e-02 1.500135939568281174e-02
-6.635122746229171753e-02 1.683876849710941315e-02 7.747122645378112793e-02
-5.990440770983695984e-02 -3.054633177816867828e-02 -6.370720267295837402e-02
-1.256908029317855835e-01 7.299257908016443253e-03 2.134639024734497070e-02
-5.445225164294242859e-02 -7.998858578503131866e-03 2.547697164118289948e-02
-3.434146195650100708e-02 -2.264526300132274628e-02 -4.866451025009155273e-02
2.770406939089298248e-02 4.802100732922554016e-02 -1.415169797837734222e-02
-6.311404053121805191e-03 2.153431996703147888e-02 -2.518720366060733795e-02
-2.807636931538581848e-02 -1.170098558068275452e-01 -7.110030949115753174e-02
-9.786408394575119019e-02 -1.368848383426666260e-01 -1.647941023111343384e-01
-6.024499237537384033e-02 -1.564846038818359375e-01 -1.210403516888618469e-01
-2.757069282233715057e-02 -5.987947806715965271e-02 -4.093795083463191986e-03
1.635553129017353058e-02 8.563475310802459717e-02 5.873434618115425110e-02
-8.951135911047458649e-03 5.217246338725090027e-02 5.965695157647132874e-02
-2.492569386959075928e-02 -2.498282864689826965e-02 -5.003432556986808777e-02
6.222965195775032043e-02 2.766253799200057983e-02 3.540503792464733124e-03
1.649983227252960205e-01 1.035146713256835938e-01 4.153438657522201538e-02
2.276955917477607727e-02 -6.581216305494308472e-02 -8.855972439050674438e-02
1.614625193178653717e-02 -9.478451311588287354e-02 -7.700610905885696411e-02
5.362707003951072693e-02 -7.885630428791046143e-02 -1.158758550882339478e-01
-1.138176117092370987e-02 -8.770681917667388916e-02 -8.521738648414611816e-02
-4.983340203762054443e-02 -1.182990148663520813e-01 -1.409219801425933838e-01
-3.787652030587196350e-02 -7.924818992614746094e-02 -1.191002056002616882e-01
-8.340173214673995972e-02 -1.337670627981424332e-02 1.167409401386976242e-02
-3.668910637497901917e-02 2.797107212245464325e-02 8.388412743806838989e-02
1.434034854173660278e-02 6.599244475364685059e-02 8.442032337188720703e-02
-8.716490119695663452e-02 -1.080526635050773621e-01 -9.267555922269821167e-02
-1.165226176381111145e-01 -1.007321476936340332e-01 -1.030831634998321533e-01
-1.275727599859237671e-01 -1.281836330890655518e-01 -1.509068906307220459e-01
3.323699906468391418e-02 -3.993728384375572205e-02 -7.822336256504058838e-02
7.919798605144023895e-03 -8.532407879829406738e-02 -7.767583429813385010e-02
4.570962395519018173e-03 -9.811189025640487671e-02 -4.520702362060546875e-02
1.296275258064270020e-01 1.836435794830322266e-01 8.371325582265853882e-02
2.554759085178375244e-01 2.907320261001586914e-01 2.182068973779678345e-01
1.912531256675720215e-01 2.495310306549072266e-01 1.832851618528366089e-01
-4.377120733261108398e-02 -1.072826161980628967e-01 -5.358665063977241516e-02
-4.684136807918548584e-02 -8.646340668201446533e-02 -6.047162413597106934e-02
-6.943158060312271118e-02 -4.676052555441856384e-02 -1.301544457674026489e-01
-1.057199202477931976e-02 -1.649212278425693512e-02 4.564846865832805634e-03
2.218738943338394165e-02 -9.160951711237430573e-03 -1.863552629947662354e-02
3.817540779709815979e-02 4.917266778647899628e-05 -5.475211143493652344e-02
-3.407338590477593243e-05 8.731636404991149902e-02 4.708586633205413818e-02
9.556692093610763550e-02 1.020438894629478455e-01 1.445592045783996582e-01
5.340157076716423035e-02 1.466410160064697266e-01 1.455555409193038940e-01
-1.378431916236877441e-02 2.095403894782066345e-02 3.861615806818008423e-02
-4.897868633270263672e-02 -6.544004380702972412e-02 8.972121402621269226e-03
-2.868833579123020172e-02 -3.644073382019996643e-02 -4.837523680180311203e-03
-1.165857631713151932e-02 -4.424820840358734131e-02 7.211567834019660950e-03
-2.619378454983234406e-02 -3.640502318739891052e-02 4.189057648181915283e-02
-3.607121482491493225e-02 -3.335431683808565140e-03 2.788394922390580177e-03
4.389814566820859909e-03 1.300328597426414490e-02 1.793153770267963409e-02
2.382397465407848358e-02 9.939116984605789185e-02 1.021569874137639999e-02
3.099450469017028809e-02 1.641615480184555054e-02 5.442251637578010559e-02
1.065044030547142029e-01 1.905461251735687256e-01 6.902790069580078125e-02
1.075082346796989441e-01 1.869022995233535767e-01 9.476232528686523438e-02
-6.318160798400640488e-03 7.945265620946884155e-02 2.085073664784431458e-02
-4.463117942214012146e-02 -8.271102607250213623e-02 -2.971685491502285004e-03
1.345305982977151871e-02 -2.214860916137695312e-02 -2.062850259244441986e-02
2.025963552296161652e-02 -1.351132243871688843e-02 -3.844571858644485474e-02
-6.533297151327133179e-02 3.826577914878726006e-03 5.439118295907974243e-02
-1.058195680379867554e-01 4.598352685570716858e-02 1.055879369378089905e-01
-1.479748040437698364e-01 -1.653185486793518066e-02 5.583256110548973083e-02
5.340424925088882446e-02 8.147467672824859619e-02 1.571256108582019806e-02
-3.930740058422088623e-03 -1.675850898027420044e-02 -4.015436396002769470e-02
-3.177049010992050171e-02 -5.142236128449440002e-02 -1.742492988705635071e-02
5.438382923603057861e-02 1.140901669859886169e-01 -4.369102790951728821e-02
4.886386543512344360e-02 1.140633299946784973e-01 -1.338128559291362762e-02
-4.703313112258911133e-02 -2.441988885402679443e-02 -4.347665235400199890e-02
-2.527475729584693909e-02 1.800769940018653870e-02 -5.971727892756462097e-03
-3.239162266254425049e-02 4.555364325642585754e-02 8.480187505483627319e-02
-4.148984327912330627e-02 -2.068466134369373322e-02 -3.798546036705374718e-03
7.283966243267059326e-02 1.181415617465972900e-01 3.869850561022758484e-02
6.917417794466018677e-02 -1.189297996461391449e-02 -5.621336773037910461e-02
-1.078662052750587463e-01 -1.428022980690002441e-01 -1.169917508959770203e-01
4.982219636440277100e-02 -2.431275323033332825e-02 -5.071508884429931641e-02
-1.632910594344139099e-02 -1.217119768261909485e-01 -9.450829029083251953e-02
-6.391807459294795990e-03 -7.547412812709808350e-02 -1.075408682227134705e-01
4.483912140130996704e-02 2.621762081980705261e-02 -8.505023433826863766e-04
6.073402240872383118e-02 4.542894288897514343e-02 -1.004710141569375992e-02
-2.381153218448162079e-02 -3.872964531183242798e-02 -3.420741111040115356e-02
8.248515427112579346e-02 -3.124909661710262299e-02 -5.184165015816688538e-02
8.767888881266117096e-03 -2.064376324415206909e-01 -1.682065278291702271e-01
-2.503533661365509033e-02 -1.789215803146362305e-01 -1.720610111951828003e-01
4.052807018160820007e-02 -5.084772780537605286e-02 -4.476273059844970703e-02
-7.157285511493682861e-02 -1.967874467372894287e-01 -1.528060287237167358e-01
-6.449285149574279785e-02 -1.999903023242950439e-01 -1.372217684984207153e-01
2.449142280966043472e-03 -3.381433710455894470e-02 6.858360022306442261e-03
-1.370736807584762573e-01 -1.547305881977081299e-01 -1.142008882015943527e-02
-3.880727291107177734e-02 -5.492810904979705811e-02 -3.500453010201454163e-02
1.529514491558074951e-01 1.014028862118721008e-01 2.039690501987934113e-02
1.907578557729721069e-01 4.928113147616386414e-02 -3.989862278103828430e-02
1.065541580319404602e-01 4.476668313145637512e-02 -3.472914174199104309e-02
-5.512636154890060425e-02 -2.296089567244052887e-02 -7.858969271183013916e-03
-1.557044219225645065e-02 5.665286630392074585e-02 -8.061232045292854309e-03
3.125324845314025879e-02 1.386524457484483719e-02 -1.204563397914171219e-02
-6.486756727099418640e-03 -6.211610510945320129e-02 -5.052382126450538635e-02
-6.952442228794097900e-02 -5.967304110527038574e-02 -8.500004559755325317e-02
-1.487338840961456299e-01 -1.393946260213851929e-01 -8.541130274534225464e-02
7.572717964649200439e-02 1.145512163639068604e-01 1.686188727617263794e-01
1.364282071590423584e-01 1.349330246448516846e-01 1.575535386800765991e-01
1.216171532869338989e-01 1.210415065288543701e-01 1.501272171735763550e-01
1.378927528858184814e-01 3.148080036044120789e-02 -1.364396535791456699e-03
3.354058042168617249e-02 -1.274207681417465210e-01 -1.092203930020332336e-01
-4.670055583119392395e-02 -1.472040116786956787e-01 -1.152311563491821289e-01
1.372809261083602905e-01 7.632851600646972656e-02 3.258331445977091789e-03
1.141239479184150696e-01 4.519316554069519043e-02 -1.386681571602821350e-02
7.353609800338745117e-02 7.118023931980133057e-03 -1.306757330894470215e-02
9.091953933238983154e-02 8.063612878322601318e-02 2.698466368019580841e-02
5.034193769097328186e-02 -8.267421275377273560e-03 -1.995516195893287659e-02
1.353329699486494064e-02 -7.584982365369796753e-02 -4.469539038836956024e-03
2.225668169558048248e-02 5.408961698412895203e-02 1.913606561720371246e-02
1.200792565941810608e-02 -3.598156198859214783e-02 -5.090077593922615051e-02
-7.320200651884078979e-02 -1.112395301461219788e-01 -1.007478758692741394e-01
8.713141083717346191e-02 1.805909909307956696e-02 4.511247202754020691e-02
-3.404633328318595886e-02 -1.428404636681079865e-02 3.086620476096868515e-03
-9.035546332597732544e-02 -2.586655691266059875e-02 3.473589569330215454e-02
7.142873853445053101e-02 7.428965717554092407e-02 1.063915491104125977e-01
-5.524578317999839783e-02 -4.475683346390724182e-02 1.073042303323745728e-02
-2.450752072036266327e-02 -2.818445488810539246e-02 6.346516311168670654e-02
-4.776983987540006638e-03 4.380905535072088242e-03 -4.403922334313392639e-02
1.475148648023605347e-02 8.495419472455978394e-02 3.443154739215970039e-03
-5.307589471340179443e-02 2.049927366897463799e-03 -5.702062323689460754e-02
1.197006627917289734e-01 3.659134730696678162e-02 3.598597273230552673e-02
7.074258476495742798e-02 -9.231592714786529541e-02 -1.588957905769348145e-01
9.891452640295028687e-02 -1.258510053157806396e-01 -1.741032451391220093e-01
7.750462740659713745e-02 -1.282626669853925705e-02 -3.502957522869110107e-02
3.055197652429342270e-03 -7.990514487028121948e-02 -8.598347008228302002e-02
-2.607562765479087830e-02 -9.399250894784927368e-02 -8.789351582527160645e-02
-1.262805890291929245e-02 -1.062650606036186218e-01 -1.315452605485916138e-01
-1.051533520221710205e-01 -1.319045722484588623e-01 -1.561860740184783936e-01
-8.619739860296249390e-02 -1.258569061756134033e-01 -2.152442336082458496e-01
4.175873473286628723e-02 -6.255511939525604248e-02 -1.463177800178527832e-01
1.288089454174041748e-01 2.640494517982006073e-02 -1.259944587945938110e-01
1.153748109936714172e-01 8.182466030120849609e-02 -3.509070351719856262e-02
6.090917810797691345e-02 3.311652690172195435e-02 5.728141590952873230e-02
5.290425196290016174e-02 8.821003139019012451e-02 4.909099638462066650e-02
3.874181583523750305e-02 7.601035386323928833e-02 4.469884932041168213e-02
7.453051209449768066e-02 2.119676955044269562e-02 -9.510254114866256714e-02
2.519269473850727081e-02 -7.416337728500366211e-02 -1.411048173904418945e-01
1.989935711026191711e-02 -1.654685437679290771e-01 -2.493176162242889404e-01
4.116038233041763306e-02 -3.404188528656959534e-02 -2.841752767562866211e-02
-6.289418786764144897e-02 -7.535387575626373291e-02 -1.073341965675354004e-01
7.177280634641647339e-02 2.644480019807815552e-02 -2.195123961428180337e-04
-1.139665488153696060e-02 -2.198595739901065826e-02 -2.111143246293067932e-02
4.171614721417427063e-02 -4.807150457054376602e-03 -2.453935146331787109e-02
-4.251507669687271118e-02 -1.184287387877702713e-02 -4.477009922266006470e-02
6.565216928720474243e-02 5.009244382381439209e-02 6.315556168556213379e-02
4.918917547911405563e-03 -8.624480664730072021e-02 -9.857534617185592651e-02
-4.628083482384681702e-02 -1.618444472551345825e-01 -1.256667822599411011e-01
-7.082204520702362061e-02 -1.153988763689994812e-03 -3.132425993680953979e-02
-8.433901518583297729e-02 1.929435133934020996e-02 8.438896387815475464e-03
-6.743379682302474976e-02 8.554492890834808350e-02 -9.342405200004577637e-02
-1.350256752630230039e-05 -5.338232219219207764e-02 1.072264984250068665e-01
-5.209362134337425232e-02 -4.667278379201889038e-02 -3.921302780508995056e-02
4.216649755835533142e-02 2.645269036293029785e-02 -3.065593726933002472e-02
8.077088743448257446e-02 -2.379613928496837616e-02 4.963608831167221069e-02
-3.537797555327415466e-02 -1.191278919577598572e-01 -6.943162530660629272e-02
4.956682398915290833e-02 -5.975011363625526428e-02 4.053223878145217896e-02
6.721919775009155273e-02 -2.530854195356369019e-02 -3.935397788882255554e-02
9.005285054445266724e-02 2.511951327323913574e-02 1.445106789469718933e-02
8.673302084207534790e-02 5.351198837161064148e-03 -1.306864246726036072e-02
5.571759492158889771e-02 6.688034534454345703e-02 -1.610762253403663635e-02
1.760410703718662262e-02 3.426348045468330383e-02 -4.920994490385055542e-02
4.746874421834945679e-02 2.373497700318694115e-03 -4.241417348384857178e-02
9.238865226507186890e-02 3.577104955911636353e-02 -2.951183915138244629e-02
5.109482631087303162e-02 -6.897785514593124390e-02 -1.073672696948051453e-01
2.132401615381240845e-02 -7.661037892103195190e-02 -9.701731055974960327e-02
-1.258289664983749390e-01 -6.353111565113067627e-02 -5.420939251780509949e-02
-1.187061145901679993e-01 -5.190585553646087646e-02 -8.388558030128479004e-02
-8.824894577264785767e-02 -8.827491104602813721e-02 -1.286290436983108521e-01
1.993362605571746826e-02 -4.616563767194747925e-02 -1.728048175573348999e-02
-1.061946824193000793e-01 -1.408214122056961060e-01 -8.934701234102249146e-02
-9.005343168973922729e-02 -1.766052544116973877e-01 -1.058087050914764404e-01
6.841624528169631958e-02 5.186511948704719543e-02 4.331288114190101624e-02
-7.827033847570419312e-02 -2.031175196170806885e-01 -9.898941963911056519e-02
-4.420506209135055542e-02 -1.813909709453582764e-01 -2.669443190097808838e-02
6.275057047605514526e-02 6.243018805980682373e-02 -5.311949644237756729e-03
6.701803952455520630e-02 1.897350512444972992e-02 -1.249848771840333939e-02
9.523770213127136230e-02 1.857005059719085693e-02 1.074921898543834686e-02
6.255920231342315674e-02 2.777950465679168701e-02 -8.903774432837963104e-03
-3.356385743245482445e-03 -4.715344309806823730e-02 -2.779423072934150696e-02
2.899034321308135986e-02 -7.510253041982650757e-02 -3.784628584980964661e-02
3.898521885275840759e-02 7.982330024242401123e-02 3.667774051427841187e-02
8.756727725267410278e-02 1.670416146516799927e-01 -1.535903196781873703e-02
-6.647491455078125000e-02 4.157192260026931763e-02 -1.218035165220499039e-02
-2.995830215513706207e-02 -7.036887854337692261e-02 -8.229725062847137451e-02
-3.071854263544082642e-02 -6.880059838294982910e-02 -1.067863777279853821e-01
-8.850348740816116333e-02 -8.802197873592376709e-02 -1.394223272800445557e-01
-9.994347393512725830e-02 -1.327656507492065430e-01 -1.461236029863357544e-01
-7.277024537324905396e-02 -1.003274172544479370e-01 -1.498770117759704590e-01
-9.713105857372283936e-02 -9.566397964954376221e-02 -1.755079627037048340e-01
3.364649787545204163e-02 -7.023997604846954346e-02 -8.178079128265380859e-02
-5.053569003939628601e-02 -8.801157027482986450e-02 -9.444276988506317139e-02
-6.388715654611587524e-02 -9.650499373674392700e-02 -8.090150356292724609e-02
5.892429873347282410e-02 -1.893664710223674774e-02 -1.972880028188228607e-02
-4.237946867942810059e-02 -6.252459436655044556e-02 5.858810618519783020e-02
8.014938235282897949e-02 4.561711102724075317e-02 1.062274351716041565e-01
7.859702222049236298e-03 3.552114218473434448e-02 3.292209655046463013e-02
6.867831200361251831e-02 8.516911417245864868e-02 9.109346196055412292e-03
1.901908399304375052e-04 -2.028744667768478394e-03 -5.377165973186492920e-02
1.094500347971916199e-01 8.251603692770004272e-02 3.659445792436599731e-02
6.318258494138717651e-02 8.724943734705448151e-03 -5.012345686554908752e-02
6.322613358497619629e-02 -4.697129130363464355e-02 -6.301972270011901855e-02
-1.848314143717288971e-02 -2.221188321709632874e-02 1.677831448614597321e-02
1.815597712993621826e-02 8.513846993446350098e-02 -2.287024632096290588e-02
5.930851027369499207e-02 1.107216775417327881e-01 -6.746302545070648193e-02
-6.307298317551612854e-03 -1.996713690459728241e-02 -2.739766426384449005e-02
-1.765265502035617828e-02 -5.386544391512870789e-02 -6.340625882148742676e-02
1.003691181540489197e-01 3.489743918180465698e-02 -7.488242350518703461e-03
8.833818882703781128e-02 -2.425893954932689667e-02 -6.696704030036926270e-02
3.910549730062484741e-02 -1.385433524847030640e-01 -1.791308671236038208e-01
2.504777349531650543e-02 -1.180472150444984436e-01 -1.977769434452056885e-01
9.175520390272140503e-02 -1.687059551477432251e-02 -1.997781917452812195e-02
1.428347360342741013e-02 -1.032419949769973755e-01 -1.185318157076835632e-01
-1.390191074460744858e-02 -6.659401208162307739e-02 -9.966120868921279907e-02
9.199114888906478882e-02 2.469229139387607574e-02 4.898306215181946754e-04
5.188047885894775391e-02 4.031264688819646835e-03 -3.769175708293914795e-02
1.349222380667924881e-02 -1.418241392821073532e-02 9.258212521672248840e-03
2.728249132633209229e-02 -2.788181230425834656e-02 -4.202095046639442444e-02
-9.112498909235000610e-02 -1.676324605941772461e-01 -1.088625192642211914e-01
-1.122761517763137817e-01 -1.089574545621871948e-01 -1.563509404659271240e-01
1.505897194147109985e-01 6.654535233974456787e-02 7.350529078394174576e-03
7.274225354194641113e-02 -1.956651918590068817e-02 -2.074837870895862579e-02
9.173640608787536621e-02 -6.853870581835508347e-03 4.330728668719530106e-03
-6.741233915090560913e-02 -1.287061870098114014e-01 -7.775456458330154419e-02
-5.190808698534965515e-02 -8.427934348583221436e-02 -7.881426066160202026e-02
-4.643360525369644165e-02 -6.361966580152511597e-02 -9.501717239618301392e-02
3.539628908038139343e-02 -4.687851667404174805e-02 -1.953527703881263733e-02
3.120233118534088135e-02 -4.878165200352668762e-03 -3.212999925017356873e-02
-1.394470501691102982e-02 -1.021919958293437958e-02 -3.134940192103385925e-02
4.020253568887710571e-02 6.917253136634826660e-02 1.884977146983146667e-02
1.118585169315338135e-01 1.820546202361583710e-02 -6.628105044364929199e-02
1.120268628001213074e-01 -5.946744233369827271e-02 -4.508361592888832092e-02
-9.111983329057693481e-02 -1.243142709136009216e-01 -1.609804928302764893e-01
-1.462114900350570679e-01 -1.218436732888221741e-01 -1.736563444137573242e-01
-1.466240733861923218e-01 -1.166963204741477966e-01 -1.353627592325210571e-01
1.881154924631118774e-01 1.087940037250518799e-01 2.687458693981170654e-02
8.652582764625549316e-04 -6.195624172687530518e-02 -3.354850783944129944e-02
-6.800892204046249390e-02 -1.712962090969085693e-01 -4.130627587437629700e-02
-1.611512340605258942e-02 -4.408275336027145386e-02 1.186197437345981598e-02
-2.837327774614095688e-03 -6.701893173158168793e-03 1.748264208436012268e-02
1.090952605009078979e-01 4.531782120466232300e-02 3.071367181837558746e-02
-1.567858830094337463e-02 5.162409693002700806e-02 4.127707332372665405e-02
5.083719640970230103e-02 1.124306768178939819e-01 5.494149774312973022e-02
3.823767229914665222e-02 6.256175041198730469e-02 7.505723834037780762e-02
-3.823871538043022156e-02 -4.508762434124946594e-02 -6.949712336063385010e-02
-8.384962379932403564e-02 -4.578758403658866882e-02 -8.311180770397186279e-02
-1.246909350156784058e-01 -8.733516186475753784e-02 -1.037342771887779236e-01
-5.701244622468948364e-02 -1.727384887635707855e-02 4.266309738159179688e-02
3.035208769142627716e-02 9.136509150266647339e-03 4.492308013141155243e-03
1.620796918869018555e-01 5.797035247087478638e-02 -4.747608676552772522e-02
8.628252893686294556e-02 -9.536644816398620605e-02 -8.834384381771087646e-02
6.718653440475463867e-02 -6.445629894733428955e-02 -6.842666864395141602e-02
5.238198488950729370e-02 -2.821910381317138672e-02 -4.217025265097618103e-02
1.132992058992385864e-01 6.689384579658508301e-02 6.397644430398941040e-02
7.841701805591583252e-02 5.962416529655456543e-02 1.045281514525413513e-01
1.325885057449340820e-01 3.740865364670753479e-02 7.032094895839691162e-02
-9.865786880254745483e-02 -1.037675142288208008e-01 -1.349780410528182983e-01
-1.281845271587371826e-01 -1.069833040237426758e-01 -1.085264533758163452e-01
-1.237145215272903442e-01 -1.171697229146957397e-01 -7.890796661376953125e-02
-1.251062005758285522e-02 8.641984313726425171e-02 4.357440397143363953e-02
1.134760864078998566e-02 1.591947823762893677e-01 5.637896806001663208e-02
5.803756881505250931e-03 -3.334492072463035583e-02 -4.601704329252243042e-02
-5.978033295832574368e-04 1.227394044399261475e-01 1.424557119607925415e-01
-8.095370978116989136e-02 1.183792762458324432e-02 2.820574119687080383e-02
-1.257532089948654175e-01 -7.915362715721130371e-02 -4.159551486372947693e-02
-1.300203241407871246e-02 -3.506760299205780029e-02 -8.861487358808517456e-02
-3.539106808602809906e-03 -4.923469573259353638e-02 -1.074044331908226013e-01
1.715497858822345734e-02 -2.409609220921993256e-02 -5.321230366826057434e-02
-5.889141559600830078e-02 -2.357721142470836639e-02 4.772187676280736923e-03
-7.236862089484930038e-03 5.007947236299514771e-02 4.615798220038414001e-02
-3.066597320139408112e-02 8.431307971477508545e-03 5.499748885631561279e-02
5.451711639761924744e-02 -1.842898316681385040e-02 -3.615898638963699341e-02
5.432037264108657837e-02 1.569057698361575603e-03 -7.243753969669342041e-02
3.350216150283813477e-02 6.469032913446426392e-02 -4.376665502786636353e-02
2.724544145166873932e-02 -4.137829691171646118e-02 -7.153721898794174194e-02
-1.785187236964702606e-02 -6.824085116386413574e-02 -9.676485508680343628e-02
1.494290865957736969e-02 3.235560283064842224e-02 -5.142461135983467102e-02
-9.988251328468322754e-02 -1.080248281359672546e-01 -7.109602540731430054e-02
-1.012250129133462906e-02 -7.848981767892837524e-02 -1.963033340871334076e-02
6.469248235225677490e-02 2.028123848140239716e-02 9.277636557817459106e-02
-8.449377492070198059e-03 4.445280879735946655e-02 3.621269948780536652e-03
2.322763204574584961e-02 8.336877077817916870e-02 3.127264976501464844e-02
-1.600756682455539703e-02 2.039424516260623932e-02 -2.213803678750991821e-02
-7.020659744739532471e-02 -3.367123892530798912e-03 -3.041039034724235535e-02
-7.415534555912017822e-02 3.177134320139884949e-03 3.742904216051101685e-02
-9.449707716703414917e-02 -6.035686284303665161e-02 -3.926302120089530945e-02
-2.425233088433742523e-02 -4.609007388353347778e-02 -4.503505676984786987e-02
-8.897671103477478027e-02 -1.149718910455703735e-01 -9.430505335330963135e-02
-1.354847103357315063e-01 -1.330965161323547363e-01 -1.573000997304916382e-01
-1.360191255807876587e-01 -1.305025368928909302e-01 -1.340007185935974121e-01
-4.384222254157066345e-02 -5.971289798617362976e-02 -6.193723157048225403e-02
-2.107987180352210999e-02 -4.757132008671760559e-02 -1.846104860305786133e-02
1.644953526556491852e-02 8.181554265320301056e-03 -3.335613757371902466e-02
4.650248587131500244e-02 -8.957938989624381065e-04 3.313510119915008545e-02
4.778346419334411621e-02 4.080337658524513245e-02 2.973178960382938385e-02
-2.060332149267196655e-02 -6.192070432007312775e-03 -5.283780395984649658e-02
3.212919458746910095e-02 -3.162000328302383423e-02 -4.108721390366554260e-02
2.704482153058052063e-02 -2.381800301373004913e-02 -4.576098918914794922e-02
-7.215835899114608765e-02 -5.840390548110008240e-02 -6.809417158365249634e-02
-8.279852569103240967e-02 -6.831499934196472168e-02 -3.273268789052963257e-02
-8.754078298807144165e-02 -1.512398291379213333e-02 -6.216412410140037537e-02
-8.217924833297729492e-02 -4.857848957180976868e-02 -5.270465090870857239e-02
-6.211060658097267151e-02 -6.967097520828247070e-02 -3.113644570112228394e-02
-6.990368664264678955e-02 -6.012501195073127747e-02 -9.631291031837463379e-03
-2.000453323125839233e-01 -1.461955755949020386e-01 -4.561644047498703003e-02
-1.743132621049880981e-01 -1.421634703874588013e-01 -2.848072163760662079e-02
-1.965997815132141113e-01 -1.439777016639709473e-01 -2.225638367235660553e-02
3.420786559581756592e-02 -1.682573929429054260e-02 -7.663293182849884033e-02
9.545592218637466431e-02 -5.060908570885658264e-02 -1.024268940091133118e-01
1.336754709482192993e-01 3.039211779832839966e-02 -2.093028277158737183e-02
-8.993724733591079712e-02 -3.520834445953369141e-02 -6.427369266748428345e-02
-5.900623649358749390e-02 -7.394412904977798462e-02 -2.390309982001781464e-02
-6.015133485198020935e-02 -4.743370786309242249e-02 -9.362269192934036255e-02
6.679265061393380165e-05 -2.938147867098450661e-03 -1.974207721650600433e-02
1.436632126569747925e-02 -2.921878546476364136e-02 -6.210849061608314514e-02
8.384493738412857056e-02 3.917031735181808472e-02 -4.140848293900489807e-03
4.866795614361763000e-02 -2.790063433349132538e-02 -7.514178752899169922e-02
6.262205541133880615e-03 -1.198992654681205750e-01 -1.473461687564849854e-01
-2.667379565536975861e-03 -5.659568309783935547e-02 -9.429584443569183350e-02
-2.708896100521087646e-01 -2.103458493947982788e-01 -1.348375529050827026e-01
-1.939156651496887207e-01 -6.420528143644332886e-02 2.411374635994434357e-02
-1.298290789127349854e-01 -3.390270099043846130e-02 3.151032328605651855e-02
1.917085237801074982e-02 7.064240425825119019e-02 5.668433010578155518e-02
-6.935868877917528152e-03 1.134544331580400467e-02 3.574512526392936707e-02
-1.194183379411697388e-01 -3.966901451349258423e-02 -9.774122387170791626e-03
1.824434148147702217e-03 1.391285564750432968e-02 3.735067322850227356e-02
-5.959829688072204590e-02 1.188996247947216034e-02 4.799037799239158630e-02
-1.871936954557895660e-02 -9.333909489214420319e-03 6.362219899892807007e-02
-4.173213988542556763e-02 9.204523637890815735e-03 -2.020634710788726807e-02
-1.532960124313831329e-02 -3.423870541155338287e-03 -6.363590806722640991e-02
-6.532229483127593994e-02 -6.484851241111755371e-02 -7.000371068716049194e-02
1.543914992362260818e-02 -7.779083400964736938e-02 3.103362396359443665e-04
1.689091697335243225e-02 -1.106171160936355591e-01 2.779760956764221191e-02
8.675086498260498047e-02 -1.306121051311492920e-02 1.018758565187454224e-01
-2.130313031375408173e-02 2.228437457233667374e-03 3.276324644684791565e-02
-2.243828400969505310e-02 4.643676802515983582e-02 6.296163797378540039e-02
-4.420853033661842346e-02 -3.008158504962921143e-02 3.940670564770698547e-02
-4.672502167522907257e-03 4.455197602510452271e-02 6.530905142426490784e-03
1.110137207433581352e-03 -5.960167385637760162e-03 -9.182202816009521484e-02
4.484689980745315552e-02 3.441783040761947632e-02 -7.939772307872772217e-02
-8.310124278068542480e-02 -1.867187581956386566e-02 2.170558087527751923e-02
-3.786697238683700562e-02 2.630367130041122437e-02 9.912034869194030762e-02
-7.331506162881851196e-02 -1.246647909283638000e-02 4.336684569716453552e-02
-2.263781242072582245e-02 -6.257496308535337448e-03 -4.301220923662185669e-02
7.596727460622787476e-02 2.830835524946451187e-03 1.738224737346172333e-02
4.759087041020393372e-02 9.167862683534622192e-02 1.041975766420364380e-01
-1.096831914037466049e-02 -9.836255759000778198e-02 -1.752742528915405273e-01
-8.425854146480560303e-03 -1.114461049437522888e-01 -1.496923267841339111e-01
1.746159046888351440e-02 -2.533553913235664368e-02 -4.811652377247810364e-02
-3.755680471658706665e-02 -3.936920315027236938e-02 -7.111417502164840698e-02
-6.392388045787811279e-02 -3.292157873511314392e-02 -5.376508459448814392e-02
-3.531714901328086853e-02 -5.579431727528572083e-02 1.403989922255277634e-02
-6.658435612916946411e-02 -4.120310768485069275e-02 -9.730142354965209961e-02
-8.850119262933731079e-02 -9.119401872158050537e-02 -1.184719428420066833e-01
-1.210666671395301819e-01 -1.240387856960296631e-01 -1.394680291414260864e-01
1.534523256123065948e-02 3.774078935384750366e-02 7.283546775579452515e-02
4.218829050660133362e-02 6.778574734926223755e-02 -6.047574337571859360e-03
5.152742937207221985e-02 4.754196852445602417e-02 -8.437934331595897675e-03
-4.524416103959083557e-02 -6.884510070085525513e-02 1.536149997264146805e-02
-6.187057867646217346e-02 1.565150567330420017e-03 2.141517773270606995e-02
-6.885929405689239502e-02 -6.538844853639602661e-02 -2.592703886330127716e-02
-9.840415790677070618e-03 -1.210000179708003998e-02 5.382570624351501465e-02
-4.368488490581512451e-02 -4.420431330800056458e-02 -4.550544545054435730e-02
-1.355485711246728897e-02 -1.236344780772924423e-02 8.180011995136737823e-03
-4.208981059491634369e-03 4.088638722896575928e-02 2.198948524892330170e-02
2.987874485552310944e-02 2.779464470222592354e-03 -3.807239979505538940e-02
8.207040838897228241e-03 -4.943434894084930420e-02 -2.452354505658149719e-02
2.160472050309181213e-02 -3.990073129534721375e-02 -9.792602062225341797e-02
-1.409803144633769989e-02 -2.336398139595985413e-02 -6.271585077047348022e-02
-2.140067890286445618e-02 -2.533745951950550079e-02 -6.444994360208511353e-02
-9.340108186006546021e-02 -1.518722027540206909e-01 -8.503316342830657959e-02
-1.527638733386993408e-01 -1.737662404775619507e-01 -1.332631856203079224e-01
-1.222585141658782959e-01 -1.590012013912200928e-01 -1.001878008246421814e-01
6.678485125303268433e-02 3.493148088455200195e-02 5.273473262786865234e-02
-5.279010161757469177e-02 -5.014171078801155090e-02 3.939250111579895020e-02
-4.425073787569999695e-02 4.458884522318840027e-02 5.461573600769042969e-02
-3.503665328025817871e-02 2.146327868103981018e-02 1.004252396523952484e-02
-9.894983377307653427e-04 1.111622452735900879e-01 8.786246180534362793e-02
-2.066168235614895821e-03 9.086035937070846558e-02 1.091283783316612244e-01
-1.973409391939640045e-02 1.305416822433471680e-01 6.726063042879104614e-02
8.737001568078994751e-02 2.136524766683578491e-01 2.494812756776809692e-01
5.378028377890586853e-02 1.657571792602539062e-01 2.183576971292495728e-01
-1.896773427724838257e-01 -5.761025846004486084e-02 -2.792532555758953094e-02
-1.157984212040901184e-01 4.681940004229545593e-02 1.156500428915023804e-01
-2.774274721741676331e-02 7.515257596969604492e-02 1.519042551517486572e-01
-4.711052030324935913e-02 -5.448083952069282532e-02 -2.821934036910533905e-02
2.982190996408462524e-02 4.877043142914772034e-02 2.441959641873836517e-02
7.650767266750335693e-02 1.038096398115158081e-01 2.180544473230838776e-02
-6.015047803521156311e-02 -9.436799213290214539e-03 -6.210076436400413513e-02
-6.409315764904022217e-02 2.251594886183738708e-02 2.509873546659946442e-02
-1.108486726880073547e-01 -6.499538570642471313e-02 -9.543148428201675415e-02
-5.146177485585212708e-02 -7.825281471014022827e-02 -8.968771994113922119e-02
-6.556494534015655518e-02 -1.607839465141296387e-01 -1.432007700204849243e-01
-5.593601241707801819e-02 -1.355407983064651489e-01 -1.485461443662643433e-01
-4.245958290994167328e-03 -7.368416339159011841e-02 -3.675700724124908447e-02
1.499147992581129074e-02 3.239962831139564514e-02 3.076302632689476013e-02
-3.846368566155433655e-02 -1.376287359744310379e-02 -5.009527783840894699e-03
-8.997601270675659180e-02 -1.760041862726211548e-01 -1.800544112920761108e-01
-3.558029979467391968e-02 -8.155474066734313965e-02 -1.348759531974792480e-01
2.998734824359416962e-02 3.598893433809280396e-02 4.533541575074195862e-02
2.228184975683689117e-02 3.889208659529685974e-02 -4.937527701258659363e-02
2.352180145680904388e-02 2.318933233618736267e-02 -7.294192165136337280e-02
4.428397491574287415e-02 3.451960533857345581e-02 -9.292368777096271515e-03
7.841116935014724731e-02 5.468584969639778137e-02 -2.547800540924072266e-02
2.879334054887294769e-02 -5.174360703676939011e-04 -1.113974396139383316e-02
9.115977212786674500e-03 -1.285429112613201141e-03 -2.989142760634422302e-02
-1.124010309576988220e-01 -1.131152585148811340e-01 -1.092262938618659973e-01
-9.427729249000549316e-02 -7.301619648933410645e-02 -6.396487355232238770e-02
-9.922383725643157959e-02 1.154420431703329086e-02 2.062475122511386871e-02
-1.830743812024593353e-02 -1.193937030620872974e-03 -2.868525683879852295e-02
7.403357885777950287e-03 -5.851164460182189941e-02 -3.958067297935485840e-02
3.909949958324432373e-02 1.880177296698093414e-02 -1.665994897484779358e-02
-5.997827276587486267e-02 -9.078536182641983032e-02 -8.565149456262588501e-02
-9.225221723318099976e-02 -1.230970323085784912e-01 -1.298874765634536743e-01
-1.048265546560287476e-01 -1.124659031629562378e-01 -7.397197186946868896e-02
4.029574617743492126e-02 1.242913305759429932e-01 1.318373978137969971e-01
1.048609465360641479e-01 1.665681153535842896e-01 1.401909142732620239e-01
3.512413054704666138e-02 1.490957289934158325e-01 1.091360226273536682e-01
1.598256975412368774e-01 1.002476289868354797e-01 9.093020856380462646e-02
1.397630572319030762e-01 1.139719858765602112e-01 7.639846950769424438e-02
7.876772433519363403e-02 1.570606827735900879e-01 5.482508242130279541e-02
1.867408677935600281e-02 4.487997293472290039e-02 3.803710639476776123e-02
9.611123800277709961e-02 9.305150806903839111e-02 2.684945426881313324e-02
-7.531229872256517410e-03 -1.832941919565200806e-02 -5.996356159448623657e-02
3.467479720711708069e-02 1.370164453983306885e-01 1.584835946559906006e-01
7.095064967870712280e-02 1.737530827522277832e-01 2.613008916378021240e-01
8.611074090003967285e-02 2.288434505462646484e-01 2.095012366771697998e-01
-9.120205044746398926e-02 -8.538382500410079956e-02 -6.173069030046463013e-02
-6.792303174734115601e-02 -7.422161102294921875e-02 -3.235011547803878784e-02
3.560442104935646057e-02 2.491842769086360931e-02 6.326492875814437866e-02
-2.518638595938682556e-02 -3.829606622457504272e-02 -4.989179596304893494e-02
-5.181074887514114380e-02 -9.337517619132995605e-02 -4.126361757516860962e-02
-3.551093861460685730e-02 -4.233269020915031433e-02 -3.779782727360725403e-02
4.325947165489196777e-02 4.460053460206836462e-04 1.714266836643218994e-02
6.169236823916435242e-02 8.044168353080749512e-02 7.682824879884719849e-02
3.219815343618392944e-02 5.930421873927116394e-02 4.386047646403312683e-02
-3.982384130358695984e-02 4.139207676053047180e-02 6.044784933328628540e-02
-4.320712760090827942e-02 8.179399371147155762e-02 1.278533190488815308e-01
-1.109475046396255493e-01 5.507416557520627975e-03 -5.502081010490655899e-03
-5.297427996993064880e-02 -7.663400471210479736e-02 -1.894677616655826569e-02
4.939039703458547592e-03 -5.977253895252943039e-03 4.766563884913921356e-03
-4.585631936788558960e-02 -1.204409357160329819e-02 1.224268227815628052e-02
-1.384290009737014771e-01 -2.630233950912952423e-02 2.520840987563133240e-02
-1.180153191089630127e-01 -3.344146907329559326e-02 3.069155663251876831e-02
-1.326485723257064819e-01 -6.926546990871429443e-02 4.034208133816719055e-02
5.627651140093803406e-02 1.108690053224563599e-01 4.241915047168731689e-02
5.330667272210121155e-02 7.244762033224105835e-02 3.914026916027069092e-02
3.335507214069366455e-02 5.249631032347679138e-02 5.791202187538146973e-03
-8.451696485280990601e-03 1.645866334438323975e-01 1.582209020853042603e-01
-7.054276019334793091e-02 9.972139447927474976e-02 1.516540646553039551e-01
-8.569692820310592651e-02 3.298241272568702698e-02 5.527046322822570801e-02
-4.890417214483022690e-03 3.470644354820251465e-02 6.950505077838897705e-02
1.250655110925436020e-02 6.287658214569091797e-02 7.913348823785781860e-02
-1.993110775947570801e-02 -7.236174773424863815e-03 -6.810606271028518677e-02
8.638145029544830322e-02 9.472166001796722412e-02 5.441025644540786743e-02
5.063712969422340393e-02 1.816629059612751007e-02 1.036972738802433014e-02
4.797948151826858521e-02 4.372964613139629364e-03 2.102775312960147858e-02
-4.192490130662918091e-02 -1.404317766427993774e-01 -1.343789249658584595e-01
-1.439453363418579102e-01 -2.646099328994750977e-01 -2.293854504823684692e-01
-1.042756363749504089e-01 -2.774133682250976562e-01 -2.617077231407165527e-01
-4.316905513405799866e-02 -2.880688523873686790e-03 -5.088540911674499512e-02
-1.197154819965362549e-02 -4.534069076180458069e-02 -7.448191288858652115e-03
-3.009981662034988403e-02 -2.306392230093479156e-02 -4.741947632282972336e-03
7.196986116468906403e-03 -1.454880535602569580e-01 -9.268008172512054443e-02
-1.088439747691154480e-01 -2.218709886074066162e-01 -2.206072062253952026e-01
-7.955615967512130737e-02 -2.052697390317916870e-01 -2.434534430503845215e-01
-1.970861405134201050e-01 -2.402212172746658325e-01 -1.841495931148529053e-01
-2.501252889633178711e-01 -3.333946168422698975e-01 -3.120249211788177490e-01
-2.389790713787078857e-01 -3.207786083221435547e-01 -2.934346199035644531e-01
-5.439021438360214233e-02 -7.880419492721557617e-02 -9.508358687162399292e-02
-2.677518688142299652e-02 -7.626166939735412598e-02 -1.794382184743881226e-02
-4.875331744551658630e-02 -7.738666236400604248e-02 -1.852491497993469238e-02
-5.080196633934974670e-02 -8.547232300043106079e-02 -4.954144358634948730e-02
-5.287051573395729065e-02 -7.443733513355255127e-02 -1.092834323644638062e-01
-4.225083813071250916e-02 -9.380526840686798096e-02 -1.076204255223274231e-01
-1.586180180311203003e-02 -2.002460695803165436e-02 -9.855613112449645996e-03
-2.547003887593746185e-02 -1.278894860297441483e-02 -2.824285440146923065e-02
1.320536900311708450e-02 -3.224433632567524910e-03 8.997537195682525635e-03
-1.096557602286338806e-01 -1.189609542489051819e-01 -1.075134500861167908e-01
-1.006910651922225952e-01 -1.659894138574600220e-01 -1.287751346826553345e-01
-7.719042152166366577e-02 -1.211318969726562500e-01 -8.390380442142486572e-02
-4.618057981133460999e-02 -1.235830597579479218e-02 -7.778598461300134659e-03
-7.680414617061614990e-02 -7.383187115192413330e-02 -4.759599640965461731e-02
-4.808462411165237427e-02 -1.077004000544548035e-01 -2.598096244037151337e-02
-9.618013352155685425e-02 -1.995416879653930664e-01 -1.637091934680938721e-01
-1.398076862096786499e-01 -2.464411705732345581e-01 -2.925555408000946045e-01
-1.318484544754028320e-01 -1.760004758834838867e-01 -2.330982238054275513e-01
-1.186531186103820801e-01 -6.728370487689971924e-02 -8.567173779010772705e-02
-9.213081002235412598e-02 -8.355619758367538452e-02 -9.533009678125381470e-02
-1.091445311903953552e-01 -9.550926834344863892e-02 -1.264266520738601685e-01
4.618092626333236694e-02 3.139418363571166992e-02 -4.417392238974571228e-02
-1.583585888147354126e-02 -7.265359163284301758e-02 -4.985659942030906677e-02
-9.467475116252899170e-03 -6.223100423812866211e-02 -2.477126196026802063e-02
-1.050185188651084900e-01 -1.065962314605712891e-01 -1.499885767698287964e-01
-1.268400102853775024e-01 -1.561308950185775757e-01 -1.304295361042022705e-01
-1.079647094011306763e-01 -1.168316155672073364e-01 -1.300095319747924805e-01
-1.198063883930444717e-02 3.394580632448196411e-02 4.236089531332254410e-03
-1.247364059090614319e-01 -6.508279591798782349e-02 -5.371308699250221252e-02
-1.042988970875740051e-01 -7.434409856796264648e-02 -6.620070338249206543e-02
-3.617199137806892395e-02 -7.520261406898498535e-02 -6.165227666497230530e-02
-6.843924522399902344e-02 -5.559932067990303040e-02 -1.689919680356979370e-01
-4.217432066798210144e-02 -1.031594052910804749e-01 -1.140405237674713135e-01
-5.247042328119277954e-02 -2.104312367737293243e-02 -7.596326619386672974e-02
-4.848658293485641479e-02 -2.535865083336830139e-02 -2.616549283266067505e-02
-7.873535156250000000e-02 -3.501993045210838318e-02 -8.087800443172454834e-02
1.406280044466257095e-02 -1.191325336694717407e-01 -1.742136776447296143e-01
-8.614227920770645142e-02 -2.360087037086486816e-01 -3.310245573520660400e-01
5.032787448726594448e-04 -1.802324652671813965e-01 -3.069866299629211426e-01
-1.661559683270752430e-03 -1.099377050995826721e-01 -2.688638679683208466e-02
-7.750704139471054077e-02 -1.838370263576507568e-01 -1.452127844095230103e-01
-1.595369428396224976e-01 -1.704884320497512817e-01 -1.935517340898513794e-01
-9.248159825801849365e-02 -6.559280306100845337e-02 -9.451612085103988647e-02
-8.443982899188995361e-02 -8.162669837474822998e-02 -8.322659879922866821e-02
-4.994969069957733154e-02 -4.110196977853775024e-02 -8.143620938062667847e-02
4.245352931320667267e-03 1.388077624142169952e-02 -4.909004271030426025e-02
1.479081902652978897e-02 -6.659021135419607162e-03 -4.020792990922927856e-02
5.923797376453876495e-03 -2.686231583356857300e-02 -8.941879495978355408e-03
-5.865702778100967407e-02 -7.453919202089309692e-02 -1.047996357083320618e-01
-7.432393729686737061e-02 -7.218420505523681641e-02 -1.144952327013015747e-01
-9.020353853702545166e-02 -1.029651314020156860e-01 -1.318977624177932739e-01
1.505480986088514328e-02 -3.049845620989799500e-02 -6.496608257293701172e-02
-1.010382454842329025e-02 -1.774071753025054932e-01 -1.846005469560623169e-01
-8.019125461578369141e-02 -2.237044572830200195e-01 -2.513069212436676025e-01
-7.739960402250289917e-02 -9.229578077793121338e-02 -5.752586200833320618e-02
-8.478167653083801270e-02 -5.358114093542098999e-02 -8.611401170492172241e-02
-4.937093704938888550e-02 2.101292484439909458e-04 -2.301777526736259460e-02
-1.790750771760940552e-02 -1.302355900406837463e-02 -1.664224825799465179e-02
-4.100143536925315857e-02 -4.917421564459800720e-02 -1.708904653787612915e-02
-5.694366246461868286e-02 -5.564872547984123230e-02 -3.296257695183157921e-03
-5.815865099430084229e-02 -9.850110113620758057e-02 -1.111588105559349060e-01
-1.436994969844818115e-01 -2.338284105062484741e-01 -2.172677665948867798e-01
-1.463760435581207275e-01 -2.436708062887191772e-01 -2.703027427196502686e-01
-4.804671183228492737e-02 -4.447518289089202881e-02 -2.888533659279346466e-02
-6.050033122301101685e-02 -1.853750832378864288e-02 -5.790477991104125977e-02
-4.946637526154518127e-02 -7.371583580970764160e-02 -7.248296588659286499e-02
-9.771518409252166748e-02 -1.514405906200408936e-01 -5.800857394933700562e-02
-6.383740901947021484e-02 -7.788842171430587769e-02 -6.313416361808776855e-02
-1.650847122073173523e-02 -4.981652647256851196e-02 -7.171121239662170410e-02
-1.878300011157989502e-01 -2.537994086742401123e-01 -1.614419221878051758e-01
-1.830733865499496460e-01 -2.862435579299926758e-01 -2.519532144069671631e-01
-1.758477240800857544e-01 -1.852219998836517334e-01 -1.370226591825485229e-01
-2.772045731544494629e-01 -1.730224043130874634e-01 -1.356091201305389404e-01
-1.997531503438949585e-01 -1.193217188119888306e-01 -1.444146186113357544e-01
-7.137937843799591064e-02 -7.661136984825134277e-02 -2.874130755662918091e-02
2.752961590886116028e-02 -2.334460243582725525e-02 -7.387440651655197144e-02
-4.196710139513015747e-02 -4.768798500299453735e-02 -7.244956493377685547e-02
-2.594672888517379761e-02 -5.058544501662254333e-02 -3.416030108928680420e-02
4.549365490674972534e-02 -1.402521580457687378e-01 -2.291165441274642944e-01
-6.144671887159347534e-02 -2.334696352481842041e-01 -3.341635465621948242e-01
-1.256927568465471268e-02 -2.224320620298385620e-01 -3.552222847938537598e-01
-3.888567164540290833e-02 -5.744366347789764404e-02 -3.868302702903747559e-02
-8.068986982107162476e-02 -6.863648444414138794e-02 -3.900197520852088928e-02
-5.013724043965339661e-02 -1.007881537079811096e-01 -7.784328609704971313e-02
-9.827136248350143433e-02 -1.262036263942718506e-01 -4.362495243549346924e-02
-1.950366795063018799e-01 -2.564889490604400635e-01 -1.864909827709197998e-01
-2.148758918046951294e-01 -3.044543564319610596e-01 -2.798432707786560059e-01
-8.149441564455628395e-04 -3.889376763254404068e-03 -1.164494175463914871e-02
-2.314517647027969360e-02 -9.349571168422698975e-02 -6.790015101432800293e-02
-4.071507230401039124e-02 -4.000300914049148560e-02 -5.576400086283683777e-02
-1.337484717369079590e-01 -1.371624916791915894e-01 -1.421639323234558105e-01
-1.166220083832740784e-01 -1.587952375411987305e-01 -1.823382824659347534e-01
-1.131647974252700806e-01 -1.664669811725616455e-01 -2.013497203588485718e-01
-1.895823925733566284e-01 -1.311981379985809326e-01 -9.472105652093887329e-02
-2.370872348546981812e-01 -1.628542244434356689e-01 -1.096576005220413208e-01
-2.224874943494796753e-01 -1.881028562784194946e-01 -1.466121971607208252e-01
1.072551775723695755e-02 2.320184931159019470e-02 1.741190254688262939e-02
-3.317351639270782471e-02 -1.872513629496097565e-02 5.225358996540307999e-03
-5.565924569964408875e-02 -4.021756350994110107e-02 -3.806481882929801941e-02
3.782152011990547180e-02 2.459292672574520111e-02 -8.435861091129481792e-04
5.303362756967544556e-02 -2.535570040345191956e-02 1.202131062746047974e-02
3.307985141873359680e-02 -2.604948356747627258e-02 2.652475610375404358e-02
1.723031140863895416e-02 -2.357339253649115562e-03 4.929464776068925858e-03
2.750257961452007294e-02 -1.790954545140266418e-02 -2.757287770509719849e-02
3.403636813163757324e-02 -2.518301596865057945e-03 2.497417666018009186e-02
2.178423851728439331e-02 -2.825196646153926849e-02 -4.779626056551933289e-02
-1.105497684329748154e-02 -3.600841015577316284e-02 -2.830597013235092163e-02
-4.888421669602394104e-02 -4.997467622160911560e-02 -2.414285577833652496e-02
-1.600897870957851410e-02 2.056493889540433884e-03 4.715872555971145630e-02
-5.539366975426673889e-02 -5.200979858636856079e-02 -4.354211036115884781e-03
3.226318210363388062e-02 -2.215474098920822144e-02 2.307030605152249336e-03
7.750873267650604248e-02 7.334064692258834839e-02 5.193004384636878967e-02
1.306874752044677734e-01 6.786073744297027588e-02 2.787494845688343048e-02
6.219116970896720886e-02 2.474705688655376434e-02 4.564367234706878662e-02
-7.666089385747909546e-02 -1.758842766284942627e-01 -1.545863300561904907e-01
-1.397261321544647217e-01 -1.881326735019683838e-01 -2.189701348543167114e-01
-1.527439057826995850e-01 -2.444907724857330322e-01 -2.791798710823059082e-01
7.162419147789478302e-03 5.884689744561910629e-03 -4.417285695672035217e-02
2.201833948493003845e-02 -9.737228974699974060e-04 -1.753663085401058197e-02
9.091622196137905121e-03 -2.454638294875621796e-02 -2.295842766761779785e-02
-1.901585012674331665e-01 -2.236679643392562866e-01 -2.719118595123291016e-01
-1.423476934432983398e-01 -2.136574685573577881e-01 -2.208896130323410034e-01
-7.538086920976638794e-02 -1.750208139419555664e-01 -1.402016580104827881e-01
-1.580103039741516113e-01 -2.911908328533172607e-01 -3.619747161865234375e-01
-2.351945936679840088e-01 -3.902891576290130615e-01 -4.461451768875122070e-01
-1.498589068651199341e-01 -3.149063289165496826e-01 -3.938125073909759521e-01
-3.349513188004493713e-02 -1.347355246543884277e-01 -1.226134002208709717e-01
-1.007012203335762024e-01 -2.171499431133270264e-01 -2.318716645240783691e-01
-1.743646115064620972e-01 -2.871917784214019775e-01 -3.217705190181732178e-01
2.533303759992122650e-02 1.110452320426702499e-02 6.876464933156967163e-02
2.790129184722900391e-02 -4.062205262016505003e-04 4.319300875067710876e-02
2.535173483192920685e-02 2.620144002139568329e-02 6.517415493726730347e-02
-1.158670037984848022e-01 -1.516727954149246216e-01 -3.184701502323150635e-02
-2.207884788513183594e-01 -2.278541326522827148e-01 -1.589749604463577271e-01
-2.438316941261291504e-01 -2.489689588546752930e-01 -2.448448538780212402e-01
-1.681257337331771851e-01 -1.477298438549041748e-01 -1.421985179185867310e-01
-1.674428731203079224e-01 -1.895637959241867065e-01 -2.421016842126846313e-01
-2.197868674993515015e-01 -2.159207016229629517e-01 -1.671879440546035767e-01
