4.663669690489768982e-02
-6.404737383127212524e-02
1.536139938980340958e-02
-7.477486506104469299e-03
-4.804451391100883484e-02
5.414436012506484985e-02
-1.356821060180664062e-01
-6.755836308002471924e-02
-5.510120093822479248e-02
2.710470184683799744e-02
-2.706722728908061981e-02
-1.593754999339580536e-02
-1.836835145950317383e-01
5.813246592879295349e-02
-7.619394455105066299e-03
1.037439424544572830e-02
-5.378030613064765930e-02
9.817121922969818115e-02
2.426625974476337433e-02
4.172930493950843811e-02
-6.795763969421386719e-02
-1.698657497763633728e-02
-6.004358455538749695e-02
1.977566163986921310e-03
1.685209199786186218e-02
-8.963390253484249115e-03
-8.437173068523406982e-02
6.614586454816162586e-04
8.254416286945343018e-03
-1.108398213982582092e-01
5.342127289623022079e-03
9.020468592643737793e-02
7.519792765378952026e-02
8.018646389245986938e-02
-2.674321085214614868e-02
-8.469162881374359131e-02
2.649989677593111992e-03
-5.390023440122604370e-02
1.688571460545063019e-02
7.511784788221120834e-03
-8.742736652493476868e-03
7.869137078523635864e-02
-1.378904730081558228e-01
1.237942576408386230e-01
5.476895347237586975e-02
6.883577257394790649e-02
1.061275303363800049e-01
-4.160761833190917969e-02
-1.469996012747287750e-02
-6.630452722311019897e-02
-4.351731762290000916e-02
6.070153787732124329e-02
2.195694595575332642e-01
-6.416203081607818604e-02
6.529043614864349365e-02
8.187508583068847656e-02
3.251964971423149109e-02
-5.839485675096511841e-02
-6.232216581702232361e-02
4.544743895530700684e-02
1.283615231513977051e-01
-3.824489936232566833e-02
4.532625153660774231e-02
-8.394484757445752621e-04
