1.121501401066780090e-01 4.646524041891098022e-02 2.422215193510055542e-01
-5.168350040912628174e-02 -1.014947309158742428e-03 -3.689704090356826782e-02
-4.229881800711154938e-03 -1.354165654629468918e-02 3.946209326386451721e-02
8.290577679872512817e-02 -1.793757379055023193e-01 -5.773222818970680237e-02
-2.754516713321208954e-02 -9.329113364219665527e-02 -6.337862461805343628e-02
-6.030862033367156982e-02 2.377955466508865356e-01 4.154696315526962280e-02
5.651147221215069294e-04 -5.587184801697731018e-02 -1.179757993668317795e-02
1.706008762121200562e-01 -7.976228743791580200e-02 1.302047669887542725e-01
5.204637069255113602e-03 -4.452813416719436646e-02 2.924869582056999207e-02
2.456552684307098389e-01 4.349024593830108643e-01 4.053570628166198730e-01
2.019323408603668213e-01 -4.190506041049957275e-02 -1.082866545766592026e-02
1.023640260100364685e-01 2.587616443634033203e-01 1.658734828233718872e-01
-3.464151173830032349e-02 -4.662907123565673828e-02 -4.572322126477956772e-03
3.502554446458816528e-02 -1.222993247210979462e-02 -4.030889645218849182e-02
-2.364557608962059021e-02 6.581111345440149307e-03 -4.274948034435510635e-03
1.422999892383813858e-02 9.292279928922653198e-02 1.383563578128814697e-01
-4.350553452968597412e-02 -1.174612790346145630e-01 -1.808964088559150696e-02
4.518853127956390381e-02 -7.927782833576202393e-02 -4.993991553783416748e-02
-5.124437063932418823e-02 -3.163595497608184814e-02 -2.387704141438007355e-02
1.755400747060775757e-02 -1.241555786691606045e-03 -8.917480707168579102e-02
2.438833005726337433e-02 1.750685647130012512e-02 2.854236029088497162e-02
9.128235280513763428e-02 -3.112284839153289795e-02 3.651441074907779694e-03
1.209232769906520844e-02 -3.228050842881202698e-02 -2.531168283894658089e-03
-1.764027960598468781e-02 7.556716352701187134e-02 1.578472107648849487e-01
2.714390754699707031e-01 1.434835791587829590e-01 7.397905737161636353e-02
7.000951468944549561e-02 1.110674440860748291e-01 4.700771868228912354e-01
1.841706037521362305e-01 2.013351768255233765e-01 -9.113431721925735474e-02
2.838453948497772217e-01 7.041309028863906860e-02 2.247850447893142700e-01
8.241771161556243896e-02 3.699399158358573914e-02 -2.742345631122589111e-02
6.707806140184402466e-02 4.303965717554092407e-02 2.046649307012557983e-01
-1.022319681942462921e-02 -3.714601323008537292e-02 1.531495451927185059e-01
2.061027139425277710e-01 1.518112868070602417e-01 1.175132691860198975e-01
2.775461412966251373e-03 -2.226820588111877441e-02 -3.792164474725723267e-02
5.135878548026084900e-02 -3.669386357069015503e-02 -3.903828561305999756e-02
5.565331783145666122e-03 -6.637696176767349243e-02 3.022833354771137238e-02
-3.746727854013442993e-02 2.598744817078113556e-02 -2.850397257134318352e-03
1.690168306231498718e-02 1.239986196160316467e-01 -1.470320671796798706e-02
-1.013222895562648773e-02 5.144911631941795349e-02 4.667735472321510315e-02
-8.530849590897560120e-03 2.462165653705596924e-01 -9.486340731382369995e-02
2.070817947387695312e-01 -1.353880912065505981e-01 3.150210678577423096e-01
-1.947880163788795471e-02 -9.351839125156402588e-02 -7.041040062904357910e-02
-3.342179208993911743e-02 -1.926245354115962982e-02 1.849621236324310303e-01
1.727839186787605286e-02 -2.901399694383144379e-02 -2.717101760208606720e-02
1.269965171813964844e-01 6.810793280601501465e-02 -2.972659282386302948e-02
7.120972732082009315e-04 -2.288264036178588867e-02 5.406183656305074692e-03
1.202404848299920559e-03 1.122822798788547516e-02 -4.939523339271545410e-02
-1.414112448692321777e-01 -1.763912849128246307e-02 -8.566760458052158356e-03
6.819525267928838730e-03 -2.517471276223659515e-02 -5.032953806221485138e-03
5.829665809869766235e-03 -4.431035777088254690e-04 3.446066286414861679e-03
4.448799788951873779e-02 6.682394444942474365e-02 3.445996344089508057e-02
-2.707120589911937714e-02 1.366880605928599834e-03 3.494367748498916626e-02
-8.349753171205520630e-02 -6.669076532125473022e-02 -3.808028623461723328e-02
2.053745836019515991e-02 3.763903398066759109e-03 3.413463383913040161e-02
-4.518444836139678955e-02 -7.325706630945205688e-02 -1.816344819962978363e-02
-6.771818548440933228e-02 -1.013840436935424805e-01 -7.786999642848968506e-02
-8.810336887836456299e-02 -8.561890572309494019e-02 -1.150237545371055603e-01
-5.332950502634048462e-02 -7.228256762027740479e-02 -3.649473935365676880e-02
-1.563909649848937988e-02 -8.422500453889369965e-03 -1.387079618871212006e-02
-6.065965443849563599e-02 4.139792546629905701e-02 -7.099656015634536743e-02
2.516983635723590851e-02 -7.088451832532882690e-02 -3.649817779660224915e-03
-4.181362316012382507e-02 -3.852806612849235535e-02 -3.237171843647956848e-02
1.376215461641550064e-02 6.851334124803543091e-02 -3.529897332191467285e-02
-2.422549389302730560e-02 4.951455071568489075e-02 2.989129535853862762e-02
-7.390553504228591919e-02 5.313437432050704956e-02 9.904433973133563995e-03
-1.142310872673988342e-01 -1.991673931479454041e-02 4.703731834888458252e-02
-6.529418379068374634e-02 -2.075700089335441589e-02 -4.939204826951026917e-02
1.735051870346069336e-01 3.233899176120758057e-02 4.922486245632171631e-01
-3.559499606490135193e-02 -4.335505887866020203e-02 -1.363864354789257050e-02
-2.245670370757579803e-02 1.206341981887817383e-01 2.078346349298954010e-02
-6.880561122670769691e-04 -4.486191645264625549e-02 -2.928150817751884460e-02
-2.341415360569953918e-02 -6.048029754310846329e-03 2.723434939980506897e-02
-1.353258383460342884e-03 -5.415488407015800476e-02 2.903399057686328888e-02
1.511301030404865742e-03 -2.980702184140682220e-02 -1.644298247992992401e-02
-5.899971723556518555e-02 7.327056676149368286e-02 -1.915119402110576630e-02
-3.929003328084945679e-02 -8.535875007510185242e-03 1.255523785948753357e-02
-7.000420987606048584e-02 -8.264283090829849243e-02 -7.355505973100662231e-02
-1.466771494597196579e-02 -6.547795981168746948e-02 -6.931981444358825684e-02
-1.187575794756412506e-02 2.196607738733291626e-02 1.246721576899290085e-02
-1.482834517955780029e-01 4.429383948445320129e-02 -1.470484882593154907e-01
-6.160458549857139587e-02 -4.493592679500579834e-02 3.922886773943901062e-02
1.549304723739624023e-01 -1.940537057816982269e-02 9.998543560504913330e-02
-5.824184510856866837e-03 -9.013191610574722290e-02 3.667124733328819275e-02
3.946445137262344360e-02 -2.230760455131530762e-02 3.702498599886894226e-02
5.218786373734474182e-02 1.496708840131759644e-01 -9.121488779783248901e-03
-3.818279132246971130e-02 -6.094794254750013351e-03 -7.104536984115839005e-03
-8.470667153596878052e-02 -1.367552578449249268e-01 1.457533519715070724e-02
5.393486097455024719e-02 6.687168776988983154e-02 -9.608583897352218628e-02
1.825343631207942963e-02 7.422473281621932983e-02 -2.368670422583818436e-03
-5.042748153209686279e-02 -1.021651178598403931e-01 -3.427783027291297913e-02
9.706299751996994019e-04 3.740479797124862671e-02 5.134843662381172180e-02
2.604447770863771439e-03 -1.375290472060441971e-02 -2.347706817090511322e-03
-3.197438549250364304e-03 1.294633559882640839e-02 -9.482249617576599121e-03
-1.438179984688758850e-02 -1.668765954673290253e-02 2.178375609219074249e-02
2.537566423416137695e-02 -8.767546969465911388e-04 3.341702371835708618e-02
-1.000271178781986237e-02 2.740874141454696655e-02 4.009994491934776306e-02
-5.555472522974014282e-02 1.163817495107650757e-01 9.191702306270599365e-02
-1.427724212408065796e-02 -1.547808758914470673e-02 -9.304755926132202148e-02
-4.336057975888252258e-02 2.252780087292194366e-02 -1.539024617522954941e-02
4.973455332219600677e-03 8.471216075122356415e-03 6.750584393739700317e-02
1.597844660282135010e-01 8.649221807718276978e-02 1.957802847027778625e-02
4.871747642755508423e-02 -4.592404142022132874e-02 1.700668632984161377e-01
5.383192747831344604e-02 -2.192040905356407166e-02 6.156420335173606873e-02
-8.410182595252990723e-02 1.591590419411659241e-02 -2.448734268546104431e-02
4.859417211264371872e-03 -1.034511998295783997e-02 -4.222718253731727600e-02
2.728435583412647247e-02 1.967749185860157013e-02 -5.067067220807075500e-02
-1.312755700200796127e-02 -2.618867531418800354e-02 -6.785867735743522644e-03
-7.372852414846420288e-02 -5.987801402807235718e-02 7.075430452823638916e-02
-4.540946707129478455e-02 3.086750805377960205e-01 3.433398529887199402e-02
7.920698821544647217e-02 4.880174621939659119e-02 -3.726839274168014526e-02
1.888058148324489594e-02 4.167779814451932907e-03 1.132432930171489716e-02
-4.693309590220451355e-02 -1.095234137028455734e-02 -5.524884536862373352e-02
-5.874975398182868958e-02 3.448447957634925842e-02 6.807742267847061157e-02
1.996669918298721313e-02 4.649915499612689018e-04 -2.955096960067749023e-02
-9.003381431102752686e-02 1.210992038249969482e-01 6.798978149890899658e-02
-2.737710066139698029e-02 -8.172333985567092896e-02 1.347126066684722900e-01
7.231951504945755005e-02 5.989001691341400146e-02 -1.547112502157688141e-02
-8.944015204906463623e-02 2.221753448247909546e-02 1.931573003530502319e-01
6.167860701680183411e-02 1.285113580524921417e-02 6.388127803802490234e-02
1.978803053498268127e-02 8.536458015441894531e-02 8.412012830376625061e-03
2.182068303227424622e-02 2.212314307689666748e-02 5.872143059968948364e-02
-1.726206205785274506e-02 -2.707362733781337738e-02 -3.230197727680206299e-02
-4.725600592792034149e-03 3.212932869791984558e-02 3.708871081471443176e-02
6.911326199769973755e-03 2.865426428616046906e-02 -3.104292228817939758e-02
-6.898764520883560181e-02 -1.079293489456176758e-01 -2.910081297159194946e-02
4.243620038032531738e-01 6.381647288799285889e-02 -1.047320216894149780e-01
-6.564218550920486450e-02 -3.170612454414367676e-02 3.247957676649093628e-02
-5.511755496263504028e-02 -7.585291564464569092e-02 -1.011373288929462433e-02
1.758842729032039642e-02 1.130419224500656128e-02 1.898696646094322205e-02
-5.541969835758209229e-02 5.182062834501266479e-02 -2.658156864345073700e-02
-5.468258261680603027e-02 -7.015477120876312256e-02 -5.251711234450340271e-02
1.415621023625135422e-02 2.335742115974426270e-02 -5.799755454063415527e-02
-8.947291225194931030e-02 6.170321255922317505e-02 1.438551023602485657e-02
6.507049500942230225e-02 2.326362580060958862e-02 -2.749850973486900330e-02
7.530108094215393066e-02 1.688396558165550232e-02 -2.570595219731330872e-02
8.824618160724639893e-02 4.099431633949279785e-02 -6.603828817605972290e-02
-6.213771551847457886e-02 9.246375411748886108e-02 -1.921886950731277466e-02
2.327968925237655640e-01 1.532994490116834641e-02 -8.589953184127807617e-02
-7.030059397220611572e-02 5.759549513459205627e-02 -2.440561540424823761e-02
-1.489504892379045486e-02 1.047933548688888550e-01 5.565031990408897400e-02
3.589070215821266174e-02 -2.849230729043483734e-02 5.420514196157455444e-02
1.627724990248680115e-02 -1.130384355783462524e-01 -4.565178975462913513e-02
-6.437079608440399170e-02 4.386310651898384094e-02 6.777928024530410767e-02
1.580781489610671997e-02 6.297662854194641113e-02 -1.203904524445533752e-01
-1.309743374586105347e-01 1.082972437143325806e-01 9.460517764091491699e-02
-1.326316595077514648e-01 -1.297124288976192474e-02 -1.807051450014114380e-01
-1.254396326839923859e-02 -7.969087362289428711e-02 -2.452538162469863892e-02
6.403420120477676392e-02 -6.194985285401344299e-02 -1.412571314722299576e-02
6.857108324766159058e-02 8.224468678236007690e-02 -9.100300259888172150e-03
9.326521307229995728e-03 -1.299040317535400391e-01 -7.332313340157270432e-03
-4.656329005956649780e-02 -1.757899299263954163e-02 -2.155059389770030975e-02
3.414347767829895020e-01 1.165676303207874298e-02 1.416693031787872314e-01
3.377237915992736816e-02 6.604011654853820801e-01 -2.597351744771003723e-02
2.275216132402420044e-01 -3.258578106760978699e-02 2.386237382888793945e-01
-5.622109770774841309e-02 -4.473205283284187317e-02 -7.414993643760681152e-02
1.722544990479946136e-02 9.909463115036487579e-03 -2.779284678399562836e-02
-6.677262485027313232e-02 -3.986754640936851501e-02 -3.959088772535324097e-02
-7.973919622600078583e-03 -2.971099130809307098e-02 -1.336311548948287964e-02
6.777300685644149780e-02 2.425693534314632416e-02 9.083546698093414307e-03
1.019605435431003571e-02 -4.974426701664924622e-02 1.156217977404594421e-02
1.035155076533555984e-02 -6.032878905534744263e-02 1.019542217254638672e-01
-1.234937012195587158e-01 6.259261816740036011e-02 -1.336350440979003906e-01
1.187240611761808395e-02 2.062755450606346130e-02 -8.057699538767337799e-03
1.016547083854675293e-01 -1.847961917519569397e-02 -8.040259033441543579e-02
-7.578441500663757324e-02 -3.751642256975173950e-02 3.634937107563018799e-02
-1.728698424994945526e-02 4.233238101005554199e-02 1.196929514408111572e-01
7.195243984460830688e-02 3.204912692308425903e-02 8.559402078390121460e-02
4.114966839551925659e-02 -3.531355038285255432e-02 -3.276786208152770996e-02
4.281353354454040527e-01 4.951238259673118591e-02 4.953787624835968018e-01
3.123707836493849754e-03 -2.158091031014919281e-02 1.010699477046728134e-02
-5.835021659731864929e-02 2.621697820723056793e-02 -1.612163707613945007e-02
-1.483164634555578232e-02 -3.976672515273094177e-02 3.710950165987014771e-02
-5.804697051644325256e-02 1.403318196535110474e-01 -7.974193990230560303e-02
3.290138021111488342e-02 -1.139519959688186646e-01 1.003931183367967606e-02
5.459284875541925430e-03 -2.008548006415367126e-02 -2.400676719844341278e-02
7.351111620664596558e-02 -1.412982791662216187e-01 1.261961162090301514e-01
-6.522201001644134521e-02 3.629211708903312683e-02 -1.675526425242424011e-02
7.846190035343170166e-02 -3.258000686764717102e-02 7.930862158536911011e-02
-1.147736683487892151e-01 4.781370609998703003e-02 2.230527810752391815e-02
3.063538484275341034e-02 -6.163111887872219086e-03 -7.659506797790527344e-02
-4.862731322646141052e-03 4.438221454620361328e-02 3.276789188385009766e-02
1.442609261721372604e-02 2.162716351449489594e-02 1.274087838828563690e-02
4.425238445401191711e-02 1.881724037230014801e-02 -1.114686056971549988e-01
6.058673933148384094e-02 -3.608874045312404633e-03 2.135780602693557739e-01
-6.506784260272979736e-02 -3.621805459260940552e-02 1.830888167023658752e-02
3.543839603662490845e-02 -7.265466451644897461e-02 5.361312534660100937e-03
-4.095521196722984314e-02 7.389640808105468750e-02 -1.110061910003423691e-02
-6.095875427126884460e-02 3.811986744403839111e-02 -2.770908549427986145e-02
4.348005726933479309e-02 6.591437757015228271e-02 -3.250096924602985382e-03
-2.313410118222236633e-02 5.548400431871414185e-02 1.951126009225845337e-02
6.683205068111419678e-02 -6.238429341465234756e-03 7.687596231698989868e-02
1.863047927618026733e-01 2.828217670321464539e-02 -1.185973957180976868e-01
6.171042844653129578e-02 -1.834110617637634277e-01 -4.951986949890851974e-03
-1.980145275592803955e-01 -2.868383377790451050e-02 1.258147042244672775e-02
9.539764374494552612e-02 -2.971750311553478241e-02 -8.148373663425445557e-02
4.761243984103202820e-02 5.665748380124568939e-03 -1.199061423540115356e-01
-3.874968737363815308e-02 -8.335509151220321655e-02 -3.709010407328605652e-02
-4.436359554529190063e-02 -3.607032820582389832e-02 -2.164482884109020233e-02
-5.958490446209907532e-02 -3.634487688541412354e-01 -4.514098167419433594e-02
6.790408492088317871e-02 -8.676341176033020020e-02 4.823115468025207520e-02
-3.197478055953979492e-01 -1.077139452099800110e-01 -2.751618325710296631e-01
1.589102484285831451e-02 -2.137814164161682129e-01 8.078009635210037231e-02
7.407016307115554810e-02 1.381757706403732300e-01 1.028341334313154221e-02
4.063457250595092773e-02 -5.162347853183746338e-02 8.962301909923553467e-02
-1.971233338117599487e-01 -7.867728173732757568e-02 7.257474958896636963e-02
3.102774173021316528e-02 -1.110478676855564117e-02 -6.169945374131202698e-02
-9.085414558649063110e-02 -2.163901366293430328e-02 -1.142129004001617432e-01
2.191274426877498627e-03 -2.110812440514564514e-02 -6.169049069285392761e-02
-1.660125702619552612e-01 -1.725024878978729248e-01 1.250114738941192627e-01
1.152020879089832306e-02 -9.591054171323776245e-02 -1.054966822266578674e-02
4.044178873300552368e-02 -2.653199993073940277e-02 1.684802584350109100e-02
-4.071423038840293884e-02 -6.537179648876190186e-02 -1.036042273044586182e-01
-3.710189461708068848e-02 -1.619426310062408447e-01 -1.555045396089553833e-01
8.254753798246383667e-02 -7.044538110494613647e-02 -1.893520057201385498e-01
-5.564831197261810303e-02 -1.465535815805196762e-02 3.117312118411064148e-02
-4.265863448381423950e-02 -1.364752557128667831e-02 3.692133352160453796e-02
-1.287446320056915283e-01 1.371875405311584473e-02 -1.989710181951522827e-01
6.328537315130233765e-02 -3.488964587450027466e-02 3.596009686589241028e-02
-3.605774044990539551e-02 -6.641162186861038208e-02 -2.736212015151977539e-01
4.224000032991170883e-03 -1.172083839774131775e-01 -8.100617676973342896e-03
-2.637998461723327637e-01 3.700822591781616211e-02 -2.712564468383789062e-01
-1.369288116693496704e-01 -2.008771710097789764e-02 3.602135553956031799e-02
-2.431458383798599243e-01 4.546123743057250977e-02 -1.351593732833862305e-01
-1.706271171569824219e-01 -1.600329279899597168e-01 -2.430014312267303467e-01
-5.277873873710632324e-01 -9.955338388681411743e-02 -8.212137222290039062e-02
-5.566769838333129883e-02 2.092332392930984497e-02 -1.476805061101913452e-01
8.509864658117294312e-02 -4.729678481817245483e-02 6.133842468261718750e-02
-8.524076640605926514e-02 -3.937407582998275757e-02 3.944160416722297668e-02
6.245510652661323547e-03 -1.689801663160324097e-01 -8.890834450721740723e-02
-4.419735446572303772e-02 -1.618504896759986877e-02 8.308243751525878906e-02
-8.838682435452938080e-03 -1.524874102324247360e-02 -3.858469193801283836e-03
8.787073940038681030e-02 -2.510029263794422150e-02 2.073769085109233856e-02
-1.898021250963211060e-01 1.525686308741569519e-02 -6.362792849540710449e-02
-5.437463149428367615e-02 -1.947000506334006786e-03 -4.119824152439832687e-03
-4.473374038934707642e-02 4.430419206619262695e-02 -1.872157603502273560e-01
-1.631020568311214447e-02 -1.727874875068664551e-01 -1.397578418254852295e-01
-1.142179965972900391e-01 -1.473596412688493729e-02 -3.561762571334838867e-01
1.698200963437557220e-02 -5.821298062801361084e-02 -7.552821934223175049e-02
-1.976540125906467438e-02 -8.755208551883697510e-02 -7.918339967727661133e-02
-3.432266414165496826e-02 4.496226832270622253e-02 -3.579538688063621521e-02
7.615305483341217041e-02 -1.667944788932800293e-01 -8.497080206871032715e-02
-1.147678047418594360e-01 5.863079056143760681e-02 -9.928951971232891083e-03
5.967151373624801636e-02 -2.056519091129302979e-01 6.974303722381591797e-02
-2.886245772242546082e-02 3.739441186189651489e-02 -2.460216730833053589e-02
3.589207306504249573e-02 9.614869952201843262e-03 -1.070590317249298096e-01
7.051549106836318970e-02 -4.272475093603134155e-02 -9.375511854887008667e-02
-3.361057862639427185e-02 -4.133494198322296143e-02 -6.880023330450057983e-02
9.675429319031536579e-04 -9.302007406949996948e-02 -1.072021797299385071e-01
-2.358641475439071655e-01 -1.128442138433456421e-01 -1.056852266192436218e-01
-3.317017853260040283e-02 -1.998275071382522583e-01 -6.368609517812728882e-02
-9.069219231605529785e-02 -6.826740503311157227e-02 5.414366722106933594e-02
-1.393408179283142090e-01 -7.264752686023712158e-02 -1.153040751814842224e-01
-7.566113024950027466e-02 -2.960958331823348999e-02 4.467276483774185181e-02
-1.237905919551849365e-01 -8.986876904964447021e-02 -1.742757558822631836e-01
8.755572885274887085e-02 3.117881715297698975e-02 2.861917205154895782e-02
-1.298670768737792969e-01 -3.351105749607086182e-02 -2.008315473794937134e-01
-1.279298961162567139e-01 -6.168701499700546265e-02 7.555599510669708252e-02
-3.994398191571235657e-02 -2.700817883014678955e-01 -9.526445716619491577e-02
-3.527872264385223389e-02 -3.289549145847558975e-03 -1.669469755142927170e-03
-3.072641193866729736e-01 6.932668387889862061e-02 -1.536704450845718384e-01
7.338494062423706055e-02 1.067734584212303162e-01 -1.560684759169816971e-02
-2.766240388154983521e-02 -6.795156281441450119e-03 -1.074151918292045593e-01
-2.664377912878990173e-02 -3.709084540605545044e-02 -6.608323752880096436e-02
-1.157400012016296387e-02 1.061214879155158997e-01 -3.798432275652885437e-02
-6.513916701078414917e-02 9.383440949022769928e-03 -7.371884584426879883e-02
-5.707224085927009583e-02 -1.539830118417739868e-01 -1.518319398164749146e-01
-6.962329498492181301e-04 -1.522028539329767227e-02 -5.695595964789390564e-02
-9.216438978910446167e-02 -2.142655104398727417e-01 -1.375464349985122681e-01
-5.344844609498977661e-02 -3.173872828483581543e-02 2.335654571652412415e-02
-1.054614665918052197e-03 2.890669927000999451e-02 -4.189449548721313477e-02
-5.327046662569046021e-02 2.832364104688167572e-02 2.049545198678970337e-02
-4.853056278079748154e-03 2.742320112884044647e-02 -1.096306741237640381e-01
1.564401946961879730e-02 -2.194817177951335907e-02 1.290218532085418701e-02
-6.539071351289749146e-02 9.086920320987701416e-02 -8.848621696233749390e-02
3.492987528443336487e-02 1.884792298078536987e-01 4.331144317984580994e-02
-6.987224798649549484e-03 -2.004716731607913971e-02 1.512527931481599808e-02
-2.046401612460613251e-02 -1.045891866087913513e-01 -1.870436221361160278e-02
3.134126216173171997e-02 -5.821099504828453064e-02 1.135330125689506531e-01
3.996987361460924149e-03 -1.675403304398059845e-02 -6.223659962415695190e-03
8.554061502218246460e-02 1.273613572120666504e-01 3.888080641627311707e-02
1.271704956889152527e-02 -2.716891281306743622e-02 1.001285389065742493e-01
1.396240293979644775e-01 2.361382730305194855e-02 1.987087726593017578e-02
2.696183510124683380e-02 5.769450590014457703e-02 2.595893107354640961e-02
-2.043064869940280914e-02 -1.695360839366912842e-01 3.847315208986401558e-03
-6.304778158664703369e-02 -1.042949967086315155e-02 -5.205491557717323303e-03
-1.848741620779037476e-02 -1.626258790493011475e-01 4.050784744322299957e-03
6.957356631755828857e-02 -1.749861091375350952e-01 -9.281802177429199219e-02
-6.689907982945442200e-03 -2.230277508497238159e-01 -1.749023348093032837e-01
-1.101020053029060364e-01 -1.718105822801589966e-01 -6.057820096611976624e-02
9.973807632923126221e-02 1.923743053339421749e-03 -2.258249521255493164e-01
5.415583029389381409e-03 3.060960955917835236e-02 5.380851030349731445e-02
-3.522258019074797630e-03 3.135668858885765076e-02 -9.827960282564163208e-02
-1.042854562401771545e-01 -1.813444346189498901e-01 2.574848569929599762e-02
-1.376841124147176743e-02 -7.790658622980117798e-02 -1.549574881792068481e-01
1.231986954808235168e-01 2.554786391556262970e-02 3.449330851435661316e-02
-1.681140214204788208e-01 -1.150376796722412109e-01 -5.561191588640213013e-02
-5.888875573873519897e-02 -3.549132728949189186e-03 -9.406825155019760132e-02
-1.296371500939130783e-02 3.569111227989196777e-02 -1.643576174974441528e-01
-2.503817342221736908e-02 -1.055299043655395508e-01 -4.474090412259101868e-02
3.833309933543205261e-02 1.676116324961185455e-02 -4.441065248101949692e-03
-3.692250326275825500e-02 -1.281663179397583008e-01 -1.556501444429159164e-02
-1.124695092439651489e-01 1.899428479373455048e-02 -1.560887247323989868e-01
-1.570599377155303955e-01 8.819002658128738403e-03 -2.764646410942077637e-01
-2.277180254459381104e-01 -1.041354089975357056e-01 -1.945623457431793213e-01
-5.635956674814224243e-02 -9.553737193346023560e-02 -6.394151598215103149e-02
4.220623522996902466e-02 -7.934702560305595398e-03 -9.944363497197628021e-03
-1.636133641004562378e-01 -2.130773067474365234e-01 -9.933602809906005859e-02
-4.935665801167488098e-02 -9.127232432365417480e-02 -1.697183400392532349e-01
-6.283278763294219971e-02 -2.093387395143508911e-01 -9.263681620359420776e-02
-6.402835994958877563e-02 -7.331189513206481934e-02 -6.448502093553543091e-02
5.156059190630912781e-02 -1.791238635778427124e-01 -1.638997495174407959e-01
3.122895024716854095e-02 -1.322977989912033081e-01 -1.305918097496032715e-01
4.125804454088211060e-02 -2.300794869661331177e-01 -5.691296607255935669e-02
-2.041909657418727875e-02 -4.834926128387451172e-02 -5.193152464926242828e-03
2.899767644703388214e-02 9.844314306974411011e-03 3.015821240842342377e-02
-1.315196882933378220e-02 -6.149931810796260834e-03 3.582479804754257202e-02
-1.176711884909309447e-04 3.694877028465270996e-02 5.706144962459802628e-03
-3.139293193817138672e-01 2.264920808374881744e-02 -1.360980272293090820e-01
5.072440579533576965e-02 -2.098551951348781586e-02 -2.745848335325717926e-02
-6.873186677694320679e-02 -2.693413384258747101e-02 -2.633658424019813538e-02
3.590787574648857117e-02 -4.346158355474472046e-02 1.022963039577007294e-02
-7.505441457033157349e-02 -2.071326076984405518e-01 -4.907889664173126221e-02
-1.136581506580114365e-02 -3.692680895328521729e-01 4.042933508753776550e-02
-1.687365025281906128e-01 2.429307624697685242e-02 -1.128537729382514954e-01
5.379178375005722046e-02 -3.363161385059356689e-01 -1.125954277813434601e-02
-5.646727979183197021e-02 -1.680876011960208416e-03 -1.650348603725433350e-01
-4.108950495719909668e-02 -6.371714640408754349e-03 4.204818233847618103e-02
3.794519975781440735e-02 3.344316035509109497e-02 -2.915010154247283936e-01
-5.451755132526159286e-03 -1.494697928428649902e-01 -8.569312840700149536e-02
-6.226905062794685364e-02 -3.930470347404479980e-02 -1.270866394042968750e-01
-9.359268471598625183e-03 -6.459067761898040771e-02 5.936842411756515503e-03
-1.275776475667953491e-01 -9.113205224275588989e-02 -2.784618437290191650e-01
-1.404855549335479736e-01 7.712143659591674805e-02 -8.380096405744552612e-02
-1.422644127160310745e-02 -5.238297581672668457e-02 -1.502081155776977539e-01
-1.495579257607460022e-02 -1.561186164617538452e-01 -1.022585034370422363e-01
-4.463248327374458313e-02 2.398328110575675964e-02 2.576602622866630554e-02
-8.130556344985961914e-02 -1.386103928089141846e-01 -9.661740064620971680e-02
-1.245179697871208191e-01 4.480040166527032852e-03 -1.053491085767745972e-01
-1.265675015747547150e-02 1.312311645597219467e-02 -2.036630064249038696e-01
9.668496437370777130e-03 -1.416769325733184814e-01 -1.590436995029449463e-01
4.122747480869293213e-02 -9.964906424283981323e-02 -7.974547147750854492e-02
-1.405583322048187256e-01 -1.967909634113311768e-01 -1.924369186162948608e-01
-2.181130461394786835e-02 -1.175306923687458038e-02 -1.191000342369079590e-01
4.233422514516860247e-04 -3.521279990673065186e-02 8.284983225166797638e-03
7.880782941356301308e-04 -2.475000768899917603e-01 -1.048776227980852127e-02
-1.820306181907653809e-01 -2.179675921797752380e-02 -1.570864929817616940e-03
-9.218942373991012573e-02 -6.121130660176277161e-02 2.390168607234954834e-02
-6.626255810260772705e-02 -4.571868479251861572e-02 -2.838646247982978821e-02
6.402637809514999390e-02 -8.931700885295867920e-02 -3.140128776431083679e-02
-4.296957515180110931e-03 -1.364035010337829590e-01 -2.735455632209777832e-01
-5.564674362540245056e-02 -4.619835317134857178e-02 -1.142127588391304016e-01
-6.774097215384244919e-03 -1.478699594736099243e-01 -1.452257186174392700e-01
-7.160160690546035767e-02 2.751747891306877136e-02 1.440698951482772827e-01
-4.020878672599792480e-01 1.036512013524770737e-02 -1.854461804032325745e-02
2.123930677771568298e-02 -1.253652153536677361e-03 -9.634827077388763428e-02
-8.028505742549896240e-02 2.528145909309387207e-02 -8.667989075183868408e-02
-4.056842590216547251e-04 3.276428952813148499e-02 -6.713961809873580933e-02
-2.406335622072219849e-01 -6.210175342857837677e-03 -5.038210004568099976e-02
-8.065477013587951660e-02 -6.076340377330780029e-02 -1.564455777406692505e-02
1.360373292118310928e-02 -2.252214588224887848e-02 -2.419820241630077362e-02
-1.618983745574951172e-01 -1.971723139286041260e-01 9.611310437321662903e-03
-1.297638192772865295e-02 -2.059938944876194000e-02 -1.171061769127845764e-01
-7.878790795803070068e-02 -1.522672027349472046e-01 -8.790756762027740479e-02
-2.507937699556350708e-02 -7.667309790849685669e-02 -6.589563935995101929e-02
-1.132800057530403137e-02 -5.692949518561363220e-02 -2.647991105914115906e-02
-3.314149007201194763e-02 -2.316817827522754669e-02 9.449555724859237671e-02
1.523162983357906342e-02 -4.569825530052185059e-02 9.308392327511683106e-05
-2.793648838996887207e-01 3.195998445153236389e-02 1.029020827263593674e-02
-4.418038949370384216e-02 5.084096640348434448e-02 -3.059414774179458618e-02
-3.773108124732971191e-01 -7.411003857851028442e-02 -2.120413929224014282e-01
7.704497128725051880e-02 -1.091795265674591064e-01 -3.005390428006649017e-02
-1.082763001322746277e-01 -2.242172695696353912e-02 9.029705077409744263e-02
-1.797990202903747559e-01 8.755233138799667358e-03 -3.098505139350891113e-01
-4.624210298061370850e-02 -1.645360887050628662e-02 4.869825020432472229e-02
-7.923272252082824707e-02 1.077346652746200562e-01 3.578149899840354919e-02
1.935891993343830109e-02 8.882644027471542358e-02 -2.613391578197479248e-01
-8.662108331918716431e-02 -4.738400578498840332e-01 -1.083389595150947571e-01
-1.514954268932342529e-01 -1.604158878326416016e-01 2.475037472322583199e-03
1.420012302696704865e-02 -4.331939518451690674e-01 -1.497212201356887817e-01
1.500639617443084717e-01 -1.349298954010009766e-01 -1.389738824218511581e-02
-5.626538023352622986e-02 -1.920754089951515198e-02 -1.134623810648918152e-01
1.731142960488796234e-02 -2.297174334526062012e-01 6.002480909228324890e-02
1.243411973118782043e-01 -7.236262317746877670e-03 1.965138614177703857e-01
-5.790196359157562256e-02 -5.533719658851623535e-01 -8.176112920045852661e-02
-2.732620760798454285e-02 -6.118503957986831665e-02 -8.459470421075820923e-02
-4.909515380859375000e-03 -3.833488374948501587e-02 -9.956455230712890625e-02
1.516235060989856720e-02 -5.473238602280616760e-02 -1.153308749198913574e-01
-1.101117134094238281e-01 8.350963145494461060e-02 6.623156368732452393e-02
7.728657685220241547e-03 -6.702419370412826538e-02 3.250069916248321533e-02
3.444190695881843567e-02 -1.311025302857160568e-02 1.501859351992607117e-02
1.436700224876403809e-01 1.009181141853332520e-01 -4.546326026320457458e-02
1.046241447329521179e-01 -7.044833153486251831e-02 5.501195043325424194e-02
6.779515743255615234e-02 2.989790961146354675e-02 6.899426877498626709e-02
-2.087567560374736786e-02 1.032907441258430481e-01 -1.746859028935432434e-02
-5.112284794449806213e-02 -8.661463856697082520e-02 5.237521976232528687e-02
-8.700652979314327240e-03 3.269131109118461609e-02 -2.396375499665737152e-02
-1.045123580843210220e-02 7.506594061851501465e-02 -5.083806067705154419e-02
1.734906993806362152e-02 4.238214343786239624e-02 5.714903399348258972e-02
-4.852758720517158508e-03 2.528063021600246429e-02 3.703934699296951294e-02
1.300485897809267044e-02 8.116848766803741455e-03 -3.452867036685347557e-03
-1.567800641059875488e-01 4.621345177292823792e-02 -7.750375568866729736e-02
-9.077679365873336792e-03 -2.334538847208023071e-02 4.490656405687332153e-02
-8.452654629945755005e-02 -1.027723997831344604e-01 -5.180358141660690308e-02
8.718357235193252563e-02 -1.669029891490936279e-01 -1.371839493513107300e-01
2.031887471675872803e-01 2.434216737747192383e-01 9.846904128789901733e-02
4.581096768379211426e-02 1.537659317255020142e-01 1.821934729814529419e-01
4.558237269520759583e-02 -1.096451655030250549e-02 -1.263500601053237915e-01
1.328299641609191895e-01 2.788039389997720718e-03 1.337324082851409912e-02
-4.868066012859344482e-01 -1.204511616379022598e-02 3.715572059154510498e-01
-1.954777166247367859e-02 -1.110324170440435410e-02 6.969146430492401123e-02
-2.255965620279312134e-01 -8.771720342338085175e-03 1.323871780186891556e-02
1.277509629726409912e-01 -1.691685058176517487e-02 -2.247002162039279938e-02
4.770009592175483704e-02 -1.273436285555362701e-02 -9.575430303812026978e-03
-3.388421609997749329e-02 1.420080214738845825e-01 3.411330655217170715e-02
-7.109655439853668213e-02 -2.817613305523991585e-03 -6.166628003120422363e-02
-4.862961173057556152e-02 1.192426458001136780e-01 6.398029625415802002e-03
9.727311879396438599e-02 1.694413572549819946e-01 -5.554703250527381897e-02
3.765466436743736267e-02 5.593940615653991699e-02 -5.955072585493326187e-03
-1.814803183078765869e-01 -4.249970018863677979e-01 9.382301010191440582e-03
-4.023595154285430908e-02 -1.602187901735305786e-01 -2.124010026454925537e-02
1.376289576292037964e-01 9.848214685916900635e-02 7.706223428249359131e-02
-3.131916746497154236e-04 -1.683236062526702881e-01 6.309843063354492188e-02
-4.678948223590850830e-02 -6.172706838697195053e-03 -8.874718844890594482e-02
4.750774055719375610e-02 5.924350023269653320e-02 -7.563624531030654907e-02
-7.870692759752273560e-03 2.936529368162155151e-02 9.362255781888961792e-02
-9.651185944676399231e-03 1.038530319929122925e-01 8.790003135800361633e-03
4.971206933259963989e-02 3.127334266901016235e-02 -1.386295258998870850e-01
-9.431944042444229126e-02 -2.754760719835758209e-02 -3.606183454394340515e-02
-2.345496229827404022e-02 1.235146913677453995e-02 -2.691179811954498291e-01
-1.297121644020080566e-01 -8.298707008361816406e-02 2.201978415250778198e-01
-1.791431158781051636e-01 -1.145471469499170780e-03 -1.423519290983676910e-02
-1.667896360158920288e-01 7.514964789152145386e-02 7.257073372602462769e-02
-2.044314891099929810e-01 -1.779312938451766968e-01 -4.210622236132621765e-02
-2.098471075296401978e-01 -3.543904749676585197e-03 -8.297570794820785522e-02
5.019435193389654160e-03 9.669857099652290344e-03 7.259185612201690674e-02
-3.961814641952514648e-01 -1.322789043188095093e-01 2.514488436281681061e-02
5.604966427199542522e-04 -9.758535772562026978e-02 -9.513154625892639160e-02
1.989274621009826660e-01 -1.096287276595830917e-02 3.452003002166748047e-02
-8.735869824886322021e-02 -3.032775521278381348e-01 1.705760881304740906e-02
1.231702640652656555e-01 -4.435466136783361435e-03 6.848330050706863403e-02
-7.434714585542678833e-02 1.303199827671051025e-01 2.618441358208656311e-03
7.667210698127746582e-02 1.280639972537755966e-02 2.940028533339500427e-02
-6.192079558968544006e-02 -1.187156662344932556e-01 6.438450515270233154e-02
-4.529834724962711334e-03 -7.804694026708602905e-02 -7.876760326325893402e-03
3.992803394794464111e-02 -1.709026992321014404e-01 -3.634655382484197617e-03
-7.442272454500198364e-02 -3.433322161436080933e-02 -9.915756061673164368e-03
-8.167922496795654297e-02 1.451482903212308884e-02 -1.005654186010360718e-01
-8.484629541635513306e-02 3.348512575030326843e-02 -8.590188622474670410e-02
1.176047474145889282e-01 7.095938920974731445e-02 -1.182845141738653183e-02
-2.734801173210144043e-01 1.755208075046539307e-01 2.371196448802947998e-01
-3.723317384719848633e-02 -9.741732478141784668e-02 -2.894147671759128571e-02
-3.009942919015884399e-02 -4.231854528188705444e-02 5.372002348303794861e-02
4.731200635433197021e-03 1.400606124661862850e-03 -7.785063982009887695e-02
-1.749190092086791992e-01 -8.425694704055786133e-02 -1.012139096856117249e-01
1.850431971251964569e-02 5.925872921943664551e-02 1.855217479169368744e-02
1.680766791105270386e-02 2.668506465852260590e-03 6.267569214105606079e-02
-4.948059469461441040e-02 4.250260442495346069e-02 9.906647726893424988e-03
-8.889884501695632935e-02 1.083140820264816284e-01 -3.174041211605072021e-02
-2.010854333639144897e-01 -8.110259473323822021e-02 -3.678756952285766602e-02
-1.133041009306907654e-01 6.961719691753387451e-02 -9.198389947414398193e-03
-5.343145132064819336e-02 3.156187757849693298e-02 -3.161052986979484558e-02
-2.697852812707424164e-02 2.637596614658832550e-02 -1.167357526719570160e-02
-7.208671420812606812e-02 -2.017158083617687225e-02 -1.005184557288885117e-02
-3.884085118770599365e-01 9.513646364212036133e-02 7.213487476110458374e-02
-4.882554709911346436e-02 5.880225822329521179e-02 8.707606792449951172e-02
7.314109825529158115e-04 -1.101624742150306702e-01 -1.094294041395187378e-01
-3.744677826762199402e-02 -6.237391382455825806e-03 2.398812770843505859e-02
-5.274501815438270569e-02 -7.390770316123962402e-02 2.778575941920280457e-02
-6.750770658254623413e-02 1.074785366654396057e-01 -1.483161151409149170e-01
-1.267635077238082886e-02 7.611647248268127441e-02 1.592680364847183228e-01
-5.353178828954696655e-03 1.167469769716262817e-01 -5.117089301347732544e-02
6.402997300028800964e-03 -1.513811349868774414e-01 -1.595158874988555908e-01
-5.641316995024681091e-02 -3.477047383785247803e-02 1.001059412956237793e-01
-4.080677032470703125e-02 -2.334141582250595093e-01 4.847696051001548767e-02
-2.140198796987533569e-01 -1.712775975465774536e-01 -1.057862490415573120e-01
1.898448728024959564e-02 -1.587804779410362244e-02 4.503232985734939575e-02
-9.598512202501296997e-02 -4.376270249485969543e-02 -1.559447683393955231e-02
-2.318217605352401733e-02 1.286108605563640594e-02 -3.291068598628044128e-02
-8.481247723102569580e-02 1.753011643886566162e-01 -1.050835102796554565e-01
1.457270234823226929e-01 2.139993458986282349e-01 2.873627841472625732e-01
1.262329071760177612e-01 -6.483738869428634644e-02 -2.221404202282428741e-02
7.234372198581695557e-02 -6.959738209843635559e-03 -3.948075473308563232e-01
-7.311796396970748901e-02 1.006911545991897583e-01 -6.499911844730377197e-02
-1.338134855031967163e-01 -2.832531556487083435e-02 -8.514732122421264648e-02
1.578889340162277222e-01 -5.359945073723793030e-02 -1.182945370674133301e-01
4.635632783174514771e-02 5.265168473124504089e-02 1.854962855577468872e-01
-6.576967239379882812e-02 -4.349605366587638855e-02 1.337610036134719849e-01
2.561279758810997009e-02 -3.505652397871017456e-02 -4.176629707217216492e-02
3.064066544175148010e-02 -4.207053780555725098e-02 -2.309119999408721924e-01
-1.336808353662490845e-01 -2.902753092348575592e-02 8.215369284152984619e-02
-1.134018227458000183e-02 5.427083745598793030e-02 7.767675071954727173e-02
-1.388140581548213959e-02 -3.708620369434356689e-02 9.482542052865028381e-03
4.864325001835823059e-02 1.076314002275466919e-01 6.199906393885612488e-02
8.005538582801818848e-02 2.046467661857604980e-01 6.186424195766448975e-02
4.680208396166563034e-03 -1.361823291517794132e-03 -4.496719315648078918e-02
-1.034936606884002686e-01 1.360220760107040405e-01 2.102591097354888916e-03
1.694144755601882935e-01 -1.209032163023948669e-01 -1.331563144922256470e-01
1.333826631307601929e-01 1.442018896341323853e-01 1.064793691039085388e-01
2.129423171281814575e-01 2.318055331707000732e-01 -2.302467636764049530e-02
-1.069318279623985291e-01 -1.682682521641254425e-02 -4.538514614105224609e-01
1.089603379368782043e-01 2.269867807626724243e-01 -6.858628243207931519e-02
1.604504585266113281e-01 1.213583722710609436e-01 -5.015383958816528320e-01
-1.015517860651016235e-02 4.617417871486395597e-04 -4.652992263436317444e-02
-4.725894331932067871e-02 -4.240332171320915222e-03 1.517029255628585815e-01
2.004801854491233826e-02 -2.777387797832489014e-01 7.540743798017501831e-02
-8.776874095201492310e-02 1.936510205268859863e-02 -1.661604270339012146e-02
-5.235861986875534058e-03 1.695916987955570221e-03 1.652772910892963409e-02
4.836591891944408417e-03 -2.374698035418987274e-02 -3.636692417785525322e-03
1.171762496232986450e-01 1.965463012456893921e-01 2.207698486745357513e-02
5.550583600997924805e-01 3.085537254810333252e-01 -3.300234973430633545e-01
4.779937118291854858e-02 1.898631602525711060e-01 9.336858987808227539e-02
6.908791512250900269e-02 -1.444236491806805134e-03 -1.084729954600334167e-01
1.074254438281059265e-01 -3.159995004534721375e-02 -5.014576762914657593e-02
-3.674653172492980957e-02 1.416371464729309082e-01 4.837916791439056396e-02
5.566468462347984314e-02 2.123434469103813171e-02 5.528067238628864288e-03
-3.615931840613484383e-03 -1.201109495013952255e-02 4.894880205392837524e-02
1.490557193756103516e-02 -1.028882060199975967e-02 8.823873847723007202e-02
-6.167528778314590454e-02 -7.218610495328903198e-02 1.717447787523269653e-01
2.291369289159774780e-01 -4.923846572637557983e-02 -1.373696029186248779e-01
-3.909570574760437012e-01 -1.478931307792663574e-02 1.220830157399177551e-01
-6.310376804322004318e-03 -1.107234731316566467e-01 -4.353117197751998901e-02
1.655123382806777954e-01 2.119810320436954498e-02 -4.291066229343414307e-01
1.047024782747030258e-02 -7.931061089038848877e-02 -4.744970053434371948e-02
-1.156775746494531631e-03 1.293598301708698273e-02 -1.311135739088058472e-01
6.217880174517631531e-02 -2.017366513609886169e-02 2.658687904477119446e-02
-1.926855184137821198e-02 -7.086735218763351440e-02 -2.735466659069061279e-01
1.701113432645797729e-01 -1.743929982185363770e-01 -1.033772900700569153e-01
8.218730986118316650e-02 9.140972793102264404e-02 -4.717129096388816833e-02
-1.477280706167221069e-01 -2.754966495558619499e-03 1.385943889617919922e-01
-4.683995246887207031e-02 -5.686782673001289368e-02 6.101735308766365051e-02
3.841776028275489807e-02 8.058603852987289429e-02 5.064536631107330322e-02
-1.415638029575347900e-01 -1.103499755263328552e-01 -3.218022286891937256e-01
7.333859056234359741e-02 6.616792827844619751e-02 8.359098434448242188e-02
-1.781878024339675903e-01 -4.182848706841468811e-02 2.017229795455932617e-01
-1.905592232942581177e-01 -9.765253216028213501e-02 -7.334082573652267456e-02
1.306986510753631592e-01 1.017077546566724777e-02 -6.206094101071357727e-02
6.150618195533752441e-03 7.028491050004959106e-02 -4.167951270937919617e-02
-1.065291315317153931e-01 -4.803242906928062439e-02 -2.014960199594497681e-01
-6.656648963689804077e-02 -4.228785634040832520e-02 -3.207678720355033875e-02
4.957614839076995850e-02 -3.085920587182044983e-02 4.445419460535049438e-02
-7.315473258495330811e-02 -1.232593879103660583e-02 -2.505436539649963379e-02
-1.139774639159440994e-02 1.008896678686141968e-01 -1.398529708385467529e-01
-1.844389736652374268e-02 -5.723910406231880188e-02 9.757885709404945374e-03
-9.546531736850738525e-02 7.901367545127868652e-02 -1.082646623253822327e-01
7.602792233228683472e-02 -5.816179886460304260e-02 5.296414601616561413e-04
-1.416484415531158447e-01 -2.603266574442386627e-02 -1.642620414495468140e-01
-3.834521025419235229e-02 -3.463610261678695679e-02 -1.520137339830398560e-01
-8.752629510127007961e-04 7.123351842164993286e-02 -1.723092980682849884e-02
-1.623104512691497803e-02 3.393101692199707031e-02 -2.980821952223777771e-02
1.185781136155128479e-02 2.101182937622070312e-01 9.118694067001342773e-02
6.005230545997619629e-02 5.578251183032989502e-02 -3.498388454318046570e-02
2.518553659319877625e-02 -9.229462593793869019e-03 -8.439717814326286316e-03
-3.225177899003028870e-02 3.300481766927987337e-04 2.399783208966255188e-02
5.687382537871599197e-03 1.856051683425903320e-01 -7.634889334440231323e-02
-8.841568231582641602e-02 6.865444779396057129e-02 -5.147808045148849487e-02
-1.106723397970199585e-01 1.709923595190048218e-01 5.413963273167610168e-02
-7.402105629444122314e-02 -9.548711590468883514e-03 2.015095204114913940e-02
-4.116246849298477173e-02 -1.680286824703216553e-01 6.267526187002658844e-03
6.060112267732620239e-02 -1.204988732933998108e-01 -6.267334520816802979e-02
1.027022954076528549e-02 -9.386545419692993164e-02 -2.458648197352886200e-02
3.619217872619628906e-02 -3.211791813373565674e-02 5.040486808866262436e-03
-1.752399653196334839e-01 1.395952999591827393e-01 -8.163240551948547363e-02
-1.037423461675643921e-01 -3.958287462592124939e-02 -7.972037047147750854e-02
1.500855945050716400e-02 -4.033178836107254028e-02 -3.213104233145713806e-02
-4.942214488983154297e-02 -3.422986343502998352e-02 -1.259624119848012924e-02
7.864315062761306763e-02 -4.322141036391258240e-02 -3.359355330467224121e-01
1.109862178564071655e-01 4.799594357609748840e-02 -1.710497736930847168e-01
3.663102909922599792e-02 6.243842095136642456e-02 -2.702321158722043037e-03
2.685880102217197418e-02 -8.544256538152694702e-02 2.370367012917995453e-02
-1.220481470227241516e-02 1.736742109060287476e-01 -3.560944274067878723e-02
-6.197223905473947525e-03 1.912699937820434570e-01 1.209257096052169800e-01
1.951429620385169983e-02 -1.667030602693557739e-01 -5.321016535162925720e-02
-7.313569635152816772e-02 -9.681250154972076416e-02 -5.631388351321220398e-02
7.408054918050765991e-02 -2.107399255037307739e-01 -2.097894996404647827e-01
-6.555628776550292969e-02 -4.216286912560462952e-02 -2.015332505106925964e-02
-6.047717481851577759e-02 -1.501891016960144043e-01 -6.057483609765768051e-03
-1.259376704692840576e-01 -2.476249448955059052e-02 1.170353665947914124e-01
-9.931540489196777344e-02 2.334832586348056793e-02 -1.793867349624633789e-02
-2.903409674763679504e-02 7.980235666036605835e-02 -3.975272178649902344e-02
-2.357619851827621460e-01 4.679650068283081055e-02 4.024037718772888184e-02
7.027411460876464844e-02 -1.326024979352951050e-01 8.535861223936080933e-02
-5.993095412850379944e-02 3.277465328574180603e-02 -6.770458072423934937e-02
9.185943752527236938e-02 -4.170060530304908752e-02 7.722876965999603271e-03
6.903411448001861572e-02 -1.261052489280700684e-02 1.005328893661499023e-01
-2.357004433870315552e-01 5.274363234639167786e-02 -5.004861950874328613e-02
4.902256280183792114e-02 4.994603246450424194e-02 5.024500936269760132e-02
-3.639474213123321533e-01 -3.990381956100463867e-01 -2.581542432308197021e-01
-1.315928846597671509e-01 4.519091546535491943e-02 -2.084884941577911377e-01
-2.909275591373443604e-01 -3.705171644687652588e-01 -2.805044651031494141e-01
-3.082204610109329224e-02 -5.762418732047080994e-02 -1.575773395597934723e-02
3.681530803442001343e-02 -2.623725868761539459e-02 -1.916341669857501984e-02
9.569564135745167732e-04 -3.658375516533851624e-02 2.579434774816036224e-02
-2.906942963600158691e-01 5.995424464344978333e-02 -1.588344424962997437e-01
4.262369126081466675e-02 7.392711192369461060e-02 6.771281361579895020e-02
-2.004965096712112427e-01 2.240190096199512482e-02 -3.779639676213264465e-02
-8.739433437585830688e-02 6.444589048624038696e-02 -6.922409683465957642e-02
1.465549413114786148e-02 -1.325369067490100861e-02 1.095132250338792801e-02
1.762206107378005981e-02 3.431792184710502625e-02 -4.033261910080909729e-03
-1.261252164840698242e-01 -2.472490537911653519e-03 1.014669537544250488e-01
1.305150706321001053e-02 2.966823615133762360e-02 3.104102425277233124e-02
-2.166373431682586670e-01 9.625247679650783539e-03 2.198812551796436310e-02
-5.674353614449501038e-02 -1.779337041079998016e-02 -7.898609340190887451e-02
-7.108626514673233032e-02 1.269079744815826416e-01 -3.993780314922332764e-01
-2.811332941055297852e-01 -1.745168492197990417e-02 -3.818579912185668945e-01
-5.613238736987113953e-02 -1.877377368509769440e-02 6.987718399614095688e-03
1.870925128459930420e-01 9.106997400522232056e-02 7.504467666149139404e-02
-3.281578794121742249e-02 -1.923219114542007446e-02 5.868594348430633545e-02
4.078427329659461975e-03 1.965115661732852459e-04 -6.966473907232284546e-02
-1.240174621343612671e-01 8.473323285579681396e-02 4.488558322191238403e-02
-2.002946473658084869e-02 -6.120210140943527222e-02 -4.211487248539924622e-02
-5.312479287385940552e-02 -4.314899444580078125e-02 -2.413781918585300446e-02
1.469072047621011734e-02 4.844336211681365967e-02 3.025367856025695801e-02
9.836968965828418732e-03 1.024802029132843018e-02 4.025046527385711670e-02
2.467195317149162292e-02 -8.212345838546752930e-02 -1.730363257229328156e-02
5.906448513269424438e-02 1.432964801788330078e-01 2.135276608169078827e-02
-1.775205321609973907e-02 -1.896075308322906494e-01 -4.396473243832588196e-02
-7.602951023727655411e-03 7.063081488013267517e-03 -1.396394670009613037e-01
2.817398309707641602e-02 1.172306388616561890e-02 2.222628705203533173e-02
-2.911628969013690948e-02 1.351434644311666489e-02 -1.296171993017196655e-01
2.826956473290920258e-02 8.459834009408950806e-02 7.207593321800231934e-02
1.916923932731151581e-02 -1.928791031241416931e-02 -2.395227178931236267e-02
2.056807093322277069e-02 4.516833275556564331e-02 1.963517814874649048e-02
-8.889000862836837769e-02 -1.169092655181884766e-01 2.798530273139476776e-02
1.584182679653167725e-02 9.168956428766250610e-02 -8.727043867111206055e-03
-1.003064662218093872e-01 -1.247857064008712769e-01 -4.762108251452445984e-02
-8.770941942930221558e-02 3.802928701043128967e-02 4.571304470300674438e-02
1.599759794771671295e-02 -5.196724832057952881e-02 6.921432167291641235e-02
-1.786078214645385742e-01 6.067749857902526855e-02 8.146212249994277954e-02
-2.027212642133235931e-02 -1.428967714309692383e-01 2.592973643913865089e-03
5.951497331261634827e-02 6.770388036966323853e-02 4.170619882643222809e-03
-3.957080096006393433e-02 -1.177029833197593689e-01 -3.204154223203659058e-02
-1.891931891441345215e-02 1.920144655741751194e-03 6.326698232442140579e-03
-8.046654984354972839e-03 -1.177263911813497543e-02 7.759459316730499268e-02
-8.704999834299087524e-02 5.089062824845314026e-02 6.818900350481271744e-03
3.267384134232997894e-03 -1.644023694097995758e-02 -3.333022445440292358e-02
-2.454476058483123779e-02 1.317635178565979004e-01 -9.582871943712234497e-02
4.213459044694900513e-02 -6.747908145189285278e-02 -6.482126563787460327e-02
8.449122309684753418e-02 -3.329925937578082085e-03 6.162361428141593933e-02
6.618724763393402100e-02 1.555320471525192261e-01 1.339822355657815933e-02
5.894222855567932129e-02 -5.216595530509948730e-02 -8.374482393264770508e-03
-4.970164224505424500e-02 7.720849663019180298e-02 1.090862415730953217e-02
1.655934378504753113e-02 -5.691511929035186768e-02 1.666442863643169403e-02
-7.329401373863220215e-02 5.152563005685806274e-02 -4.080284014344215393e-02
-1.390655338764190674e-01 -4.596623033285140991e-02 8.995337784290313721e-02
-1.034992281347513199e-02 2.448510006070137024e-02 -6.116211041808128357e-02
-1.893806904554367065e-01 -3.172374144196510315e-02 -9.971126168966293335e-02
-5.199854820966720581e-02 -7.194797042757272720e-03 3.238173201680183411e-02
1.832561381161212921e-02 1.140454337000846863e-01 -6.601012311875820160e-03
-2.884513000026345253e-03 1.973732933402061462e-02 1.501094829291105270e-02
1.110525056719779968e-01 3.541221469640731812e-02 7.044574618339538574e-02
7.280588150024414062e-02 1.635966151952743530e-01 -6.596526131033897400e-03
7.218279689550399780e-02 2.399019896984100342e-02 2.575787156820297241e-02
-3.480344312265515327e-03 9.475937485694885254e-02 3.862441331148147583e-02
3.327601030468940735e-02 1.063909456133842468e-01 6.825431436300277710e-02
-3.847952466458082199e-03 3.396329283714294434e-02 -5.814098753035068512e-03
3.823114186525344849e-02 -6.848791614174842834e-03 -1.822726279497146606e-01
2.053465880453586578e-02 3.106287866830825806e-02 4.217241704463958740e-02
7.813446968793869019e-02 -1.266368478536605835e-02 -2.411025911569595337e-01
1.272232681512832642e-01 5.601165816187858582e-02 9.606118500232696533e-02
-1.749612763524055481e-02 -4.263380542397499084e-03 1.432344466447830200e-01
9.721345454454421997e-02 9.447612799704074860e-03 3.119080513715744019e-02
-1.072570905089378357e-01 -8.870152384042739868e-02 -3.320473805069923401e-02
8.467100560665130615e-02 9.281683713197708130e-02 7.632663846015930176e-02
-5.078357830643653870e-02 -9.853389114141464233e-02 3.033469803631305695e-02
-2.742085047066211700e-02 -7.598539441823959351e-02 -4.445651173591613770e-02
-9.895667433738708496e-02 -4.809363186359405518e-02 -1.361506897956132889e-02
5.908748600631952286e-03 -6.337580084800720215e-02 -3.462144359946250916e-02
3.803166002035140991e-02 4.832730069756507874e-02 -1.410998590290546417e-02
6.251243874430656433e-03 1.353471428155899048e-01 -1.096763461828231812e-02
7.352141290903091431e-02 -7.923488155938684940e-04 2.693520672619342804e-02
5.715558305382728577e-02 -6.496500223875045776e-02 1.324680596590042114e-01
2.577242068946361542e-02 8.287602663040161133e-02 7.802664302289485931e-03
5.190581083297729492e-02 -1.599878370761871338e-01 1.641233116388320923e-01
5.645513162016868591e-02 4.671271890401840210e-02 -1.523061990737915039e-01
2.772335149347782135e-02 -4.305718839168548584e-02 -2.862011268734931946e-02
6.834699213504791260e-02 -3.896039444953203201e-03 -9.641622006893157959e-02
-1.511635631322860718e-01 -1.613699644804000854e-01 -1.243416965007781982e-01
-1.563204079866409302e-01 1.271819323301315308e-01 -1.585648208856582642e-01
-9.956789016723632812e-02 -2.302538305521011353e-01 -1.503126472234725952e-01
6.384177505970001221e-02 2.276032790541648865e-02 4.666700959205627441e-02
-1.190964877605438232e-01 -5.574747920036315918e-03 9.474856778979301453e-03
-8.730086684226989746e-02 2.653575316071510315e-02 2.257139980792999268e-01
-4.136838763952255249e-02 -4.561636745929718018e-01 4.360959306359291077e-02
-3.433215245604515076e-02 -1.972935348749160767e-02 6.203248351812362671e-02
3.060288727283477783e-03 -2.199359983205795288e-01 2.967873588204383850e-02
1.015400588512420654e-01 -4.317108169198036194e-02 -2.841330766677856445e-01
6.478498876094818115e-02 1.157328784465789795e-01 -1.658137738704681396e-01
1.800571978092193604e-01 3.002882748842239380e-02 -8.275565505027770996e-02
-1.055494882166385651e-02 -1.496894210577011108e-01 -4.778625071048736572e-02
4.400208964943885803e-02 1.047484129667282104e-01 5.893363058567047119e-02
-7.694909721612930298e-02 -1.227427423000335693e-01 -4.350696504116058350e-02
-2.929469384253025055e-02 3.032395616173744202e-02 -2.950878441333770752e-01
6.759733706712722778e-02 3.089363873004913330e-02 -5.417422950267791748e-02
-7.072460651397705078e-02 -4.995824769139289856e-02 -1.868024021387100220e-01
3.764138743281364441e-02 1.952086947858333588e-02 9.472011774778366089e-02
1.516168285161256790e-02 1.493120491504669189e-01 6.356766074895858765e-02
4.648256674408912659e-02 -7.037354633212089539e-03 5.291254073381423950e-02
2.753769420087337494e-02 -9.231431409716606140e-03 -5.633595865219831467e-03
5.469696596264839172e-02 9.737970307469367981e-03 9.036011993885040283e-02
-2.016190253198146820e-02 -1.404172554612159729e-02 -2.795350737869739532e-02
3.404155746102333069e-02 1.020886078476905823e-01 4.780373722314834595e-02
1.760540902614593506e-02 1.120757460594177246e-01 -1.323478817939758301e-01
-4.698625300079584122e-03 5.202512815594673157e-02 2.852960489690303802e-02
-6.568560749292373657e-02 -7.070222869515419006e-03 1.495046727359294891e-02
7.324717193841934204e-02 8.693894743919372559e-02 8.661141991615295410e-02
-1.358055025339126587e-01 -7.474526017904281616e-02 3.037964552640914917e-02
-6.665606796741485596e-02 -8.273203670978546143e-02 7.334955781698226929e-02
-3.663455322384834290e-02 2.666384913027286530e-02 5.668085534125566483e-03
9.973698109388351440e-02 7.602874655276536942e-03 8.016074448823928833e-02
-8.848153054714202881e-02 -1.294280961155891418e-02 6.190468370914459229e-02
5.216458812355995178e-02 2.755147963762283325e-02 2.989219874143600464e-02
-1.573875844478607178e-01 -1.337134186178445816e-02 5.742102861404418945e-02
4.850191995501518250e-03 -1.437702775001525879e-01 -3.921722248196601868e-02
4.059660807251930237e-02 7.486974354833364487e-03 -1.734303236007690430e-01
3.014322184026241302e-02 -1.925076246261596680e-01 -2.933281101286411285e-02
3.366660326719284058e-02 1.336983293294906616e-01 -1.438278704881668091e-01
1.510552316904067993e-01 6.106047704815864563e-02 -1.198701839894056320e-02
-8.022068440914154053e-02 3.264580294489860535e-02 -1.834592372179031372e-01
1.409080717712640762e-02 -2.227762639522552490e-01 -3.645412623882293701e-02
1.178375165909528732e-02 7.611904293298721313e-02 -3.453979501500725746e-03
-5.767155811190605164e-02 -1.734144985675811768e-01 -3.180145472288131714e-02
-1.342134736478328705e-02 -3.222221508622169495e-02 -2.346966974437236786e-02
7.762992288917303085e-03 9.886073321104049683e-02 1.081158965826034546e-02
-1.518662422895431519e-01 -1.018527820706367493e-01 -2.378812432289123535e-01
3.936902433633804321e-02 -5.578663945198059082e-02 7.904183864593505859e-02
-6.970371119678020477e-03 -7.375793159008026123e-02 1.058754101395606995e-01
4.036654531955718994e-02 -8.325039595365524292e-02 2.833972498774528503e-02
-9.526525437831878662e-02 4.104281589388847351e-02 -7.680487632751464844e-02
2.928288280963897705e-02 -1.987614631652832031e-01 7.479712367057800293e-02
-4.002717733383178711e-01 6.888534873723983765e-02 -2.271413356065750122e-01
2.073060721158981323e-02 1.308431923389434814e-01 6.950858235359191895e-02
2.018212825059890747e-01 6.006959453225135803e-02 1.067703962326049805e-01
1.142512485384941101e-01 9.796503186225891113e-02 -5.530882254242897034e-02
-9.073106572031974792e-03 -3.703887760639190674e-02 9.952185675501823425e-03
-5.415234342217445374e-02 1.537853926420211792e-01 4.570642951875925064e-03
-1.409232034347951412e-03 -6.533738225698471069e-02 -3.543484024703502655e-03
2.672589197754859924e-02 5.467040836811065674e-02 5.740662291646003723e-02
-1.544446498155593872e-01 2.575587853789329529e-02 8.155907690525054932e-02
2.437510341405868530e-02 2.450188063085079193e-02 4.388317465782165527e-03
-8.113031834363937378e-02 1.705802977085113525e-01 1.733137369155883789e-01
-1.593136042356491089e-02 1.762479916214942932e-02 -2.297669090330600739e-02
-1.653471440076828003e-01 8.440113067626953125e-02 2.490431219339370728e-01
-5.890181660652160645e-02 -1.603727042675018311e-01 -7.292085140943527222e-02
8.240836113691329956e-02 1.038908734917640686e-01 4.644656926393508911e-02
-4.944866895675659180e-01 -4.628788232803344727e-01 -4.505413472652435303e-01
-8.036030922085046768e-04 -2.622529864311218262e-02 -2.715974301099777222e-02
-3.109807847067713737e-03 2.101339772343635559e-02 2.942645736038684845e-02
-6.617797911167144775e-02 -1.056689620018005371e-01 -5.594154819846153259e-02
1.216297876089811325e-02 -7.486658543348312378e-02 -1.559742987155914307e-01
-7.500047981739044189e-02 1.498914510011672974e-01 -1.815039105713367462e-02
2.569643221795558929e-02 -1.260356605052947998e-01 -1.526910513639450073e-01
-4.386489465832710266e-02 7.826676964759826660e-02 3.370482474565505981e-02
-5.605296045541763306e-02 3.258821368217468262e-02 3.165129572153091431e-02
-5.308056250214576721e-02 7.539047300815582275e-02 7.064041495323181152e-02
-3.907883539795875549e-02 3.880528733134269714e-02 -3.472557961940765381e-01
7.424279302358627319e-02 -1.442417874932289124e-02 4.560021683573722839e-02
-1.157563552260398865e-01 1.112133916467428207e-02 -7.272521406412124634e-02
-1.980376802384853363e-02 -2.862996654585003853e-03 -1.890038996934890747e-01
3.081210516393184662e-02 5.412224307656288147e-02 -4.438469558954238892e-02
-2.270653098821640015e-02 -8.089955151081085205e-02 -1.796331852674484253e-01
4.739437997341156006e-02 1.466979235410690308e-01 -3.753834590315818787e-02
8.896167390048503876e-03 -2.587842196226119995e-02 1.058690696954727173e-01
5.495097115635871887e-02 1.621127277612686157e-01 7.743565738201141357e-02
-9.836383163928985596e-02 -2.789499610662460327e-02 2.450470812618732452e-02
2.054835483431816101e-02 1.129233390092849731e-01 -6.338226795196533203e-02
-3.202144801616668701e-02 1.349149644374847412e-02 -6.999074667692184448e-02
-1.690677255392074585e-01 -1.323656588792800903e-01 7.194571942090988159e-02
8.731137961149215698e-03 4.857084155082702637e-02 1.310779750347137451e-01
4.870082065463066101e-02 5.027957260608673096e-02 -5.581299774348735809e-03
1.619336158037185669e-01 -6.317240744829177856e-02 1.700882315635681152e-01
5.362853407859802246e-02 -6.050853431224822998e-02 1.692677587270736694e-01
9.164355695247650146e-02 -2.815568447113037109e-02 1.291407346725463867e-01
-8.153967559337615967e-03 1.714423149824142456e-01 -7.304394245147705078e-02
5.856925994157791138e-02 -7.596806436777114868e-02 -7.962957024574279785e-02
-3.232542425394058228e-02 2.979731559753417969e-01 -8.125987648963928223e-02
1.239380449987947941e-03 3.206183761358261108e-02 -4.780036956071853638e-02
9.214606881141662598e-02 -3.955355286598205566e-02 7.960447669029235840e-02
4.418215714395046234e-03 6.996620446443557739e-02 1.203653635457158089e-03
3.669562563300132751e-02 7.819283753633499146e-03 -5.957283452153205872e-02
-1.670091971755027771e-02 -1.407867670059204102e-02 -2.970070205628871918e-02
4.498360678553581238e-02 1.542243361473083496e-02 4.690404515713453293e-03
-4.599193483591079712e-02 7.846757769584655762e-03 7.637569308280944824e-02
9.308320283889770508e-02 3.736642003059387207e-02 9.762508422136306763e-02
-4.947451874613761902e-02 -2.224419079720973969e-02 2.198739349842071533e-02
1.183089986443519592e-01 1.436879113316535950e-02 -1.536016315221786499e-01
-2.287275716662406921e-02 2.590675652027130127e-02 3.894962742924690247e-02
1.064611598849296570e-03 4.336184635758399963e-02 6.354528665542602539e-02
2.238999120891094208e-03 -7.751548197120428085e-03 1.506699025630950928e-01
6.425473093986511230e-02 -5.583406984806060791e-02 -4.420680552721023560e-02
1.130544245243072510e-01 1.730375178158283234e-02 3.993702679872512817e-02
-5.892056971788406372e-03 1.529215369373559952e-02 -5.161481723189353943e-02
-1.240184530615806580e-02 -8.075872808694839478e-02 5.854719877243041992e-02
1.628190092742443085e-02 2.383518777787685394e-02 -1.361903697252273560e-01
-1.020300835371017456e-01 -7.772707194089889526e-02 -5.021271482110023499e-02
3.254877030849456787e-02 -4.102936387062072754e-02 2.896490879356861115e-02
-9.260652959346771240e-02 -1.248207408934831619e-02 -6.853514164686203003e-02
1.240653246641159058e-01 1.728759147226810455e-02 -2.978921681642532349e-02
-9.870126843452453613e-02 -1.042283233255147934e-02 -7.554349303245544434e-02
1.121379137039184570e-01 3.680451959371566772e-02 2.849166467785835266e-02
9.889176487922668457e-02 -9.910000860691070557e-02 -1.505796145647764206e-02
3.203763663768768311e-01 2.470581792294979095e-02 2.424155622720718384e-01
-1.626526005566120148e-02 3.325826674699783325e-02 -4.323260113596916199e-02
-4.864477738738059998e-02 1.058491915464401245e-01 -2.666547894477844238e-02
-1.080201286822557449e-02 2.037151344120502472e-02 7.329852320253849030e-03
-6.943275779485702515e-02 1.101506128907203674e-01 4.274448379874229431e-02
-3.833872973918914795e-01 1.508727073669433594e-01 -1.806190907955169678e-01
5.899594631046056747e-03 -5.030927713960409164e-03 -6.914731860160827637e-02
-1.928354799747467041e-02 -3.387709558010101318e-01 3.965564072132110596e-02
2.327422797679901123e-01 -3.412298485636711121e-02 1.519510596990585327e-01
-1.886843144893646240e-02 5.948588950559496880e-04 -4.944176226854324341e-02
1.748918890953063965e-01 1.250256784260272980e-02 3.780648112297058105e-01
-5.233703181147575378e-02 -5.308563262224197388e-02 9.223125129938125610e-02
2.899203300476074219e-01 7.106343656778335571e-02 1.741927117109298706e-01
-2.196886204183101654e-02 -5.382995586842298508e-03 1.511789578944444656e-02
-5.381045117974281311e-02 1.028915420174598694e-01 -1.221653372049331665e-01
-2.569705247879028320e-02 -4.906198941171169281e-03 -7.978978008031845093e-02
-1.192030590027570724e-02 1.184524372220039368e-01 -1.421766076236963272e-02
3.210500776767730713e-01 -2.015207521617412567e-02 3.356882184743881226e-02
-1.047185510396957397e-01 -7.469727843999862671e-02 -7.520361244678497314e-02
2.244140952825546265e-01 -4.134446755051612854e-02 7.381355017423629761e-02
2.294091284275054932e-01 1.190636605024337769e-01 1.846470981836318970e-01
-4.116820916533470154e-02 -5.263711512088775635e-02 -1.224238798022270203e-01
2.562766708433628082e-02 7.339791953563690186e-02 4.344899579882621765e-02
8.523032814264297485e-02 -3.141442313790321350e-02 1.702573895454406738e-02
2.400913275778293610e-02 -5.803231894969940186e-02 2.706984616816043854e-02
4.684753343462944031e-02 -5.028785392642021179e-02 5.439687892794609070e-02
-2.122262567281723022e-01 1.754945367574691772e-01 -1.916726082563400269e-01
-4.454735219478607178e-01 8.757945150136947632e-02 -2.281591743230819702e-01
-9.530299343168735504e-03 1.621118783950805664e-01 2.093975432217121124e-02
1.605362631380558014e-02 -1.891670934855937958e-02 -7.216528803110122681e-02
3.338590636849403381e-02 7.578471302986145020e-02 8.664537966251373291e-02
-5.350232869386672974e-02 -2.189880795776844025e-02 -4.841825366020202637e-02
-2.349427789449691772e-01 -2.913476899266242981e-02 -5.900769680738449097e-02
3.256740048527717590e-02 4.229494184255599976e-02 -9.247902035713195801e-02
2.468298189342021942e-02 -5.284706875681877136e-02 -4.460534546524286270e-03
4.636846482753753662e-01 -7.876264303922653198e-02 1.443006843328475952e-01
-7.263115048408508301e-02 5.666090641170740128e-03 6.250839680433273315e-02
3.145764172077178955e-01 -2.875753305852413177e-02 1.554050445556640625e-01
-3.204267099499702454e-02 -2.836146578192710876e-02 4.228860605508089066e-03
-3.795229643583297729e-02 6.662064045667648315e-02 2.290810272097587585e-02
6.825404241681098938e-03 1.778356544673442841e-02 -4.146143421530723572e-02
2.232557907700538635e-02 1.697690971195697784e-02 -4.934038594365119934e-02
5.070893466472625732e-02 8.194824308156967163e-02 3.330487385392189026e-02
2.912866696715354919e-02 5.309089645743370056e-02 5.738085135817527771e-03
5.102089792490005493e-02 8.735198527574539185e-03 4.581560380756855011e-03
7.347026374191045761e-03 2.476084977388381958e-02 -2.003533067181706429e-03
2.918596379458904266e-02 1.644981838762760162e-02 -1.246261689811944962e-02
4.249868541955947876e-02 6.051440536975860596e-02 2.446114569902420044e-01
3.903835266828536987e-02 -2.067086985334753990e-03 -2.387473732233047485e-02
-2.914967536926269531e-01 -4.592006653547286987e-02 8.995121717453002930e-02
-8.496063202619552612e-02 -2.987051755189895630e-02 -3.875528648495674133e-02
2.121665477752685547e-01 -2.661447227001190186e-02 -1.993389800190925598e-02
1.337550021708011627e-02 -3.215250093489885330e-03 -1.727357506752014160e-02
-1.249087154865264893e-01 1.345505863428115845e-01 -5.977322161197662354e-02
-4.943241924047470093e-02 -5.583537369966506958e-02 -4.935237392783164978e-02
3.934324905276298523e-02 9.684438258409500122e-02 -2.719429694116115570e-02
2.231866493821144104e-02 4.054738208651542664e-02 7.085272576659917831e-03
-8.584982901811599731e-02 -8.015024662017822266e-02 -9.358132630586624146e-02
-2.181756496429443359e-02 -1.616147533059120178e-02 5.100716650485992432e-02
-1.160150859504938126e-02 3.650243580341339111e-02 6.205310113728046417e-03
-4.688252694904804230e-03 8.917994797229766846e-02 7.200331427156925201e-03
-5.998292937874794006e-03 4.389274120330810547e-02 -1.285815052688121796e-02
2.578295208513736725e-02 1.181254535913467407e-01 3.251472488045692444e-02
-2.589939348399639130e-02 -1.289625167846679688e-01 -3.143173875287175179e-03
4.921413026750087738e-03 1.700356006622314453e-01 6.992629729211330414e-03
1.430015712976455688e-01 -4.135065898299217224e-02 3.602554500102996826e-01
-2.373810112476348877e-02 -9.987463057041168213e-02 1.588370092213153839e-02
-1.928787827491760254e-01 6.337245553731918335e-02 -7.948265224695205688e-02
-5.906301364302635193e-02 -4.223925992846488953e-02 7.700382266193628311e-03
-4.132237285375595093e-02 -9.543736814521253109e-04 -6.938612461090087891e-02
-5.087952315807342529e-02 -6.034186575561761856e-03 -4.563897475600242615e-02
3.048088401556015015e-02 -1.044747009873390198e-01 5.526695866137742996e-03
3.764967620372772217e-01 -3.804949298501014709e-02 -1.411142200231552124e-01
1.192281395196914673e-01 2.062015421688556671e-02 -9.286722168326377869e-03
-8.666525036096572876e-02 4.096111655235290527e-02 -6.866599433124065399e-03
-1.014186516404151917e-01 5.308594927191734314e-02 -4.633101075887680054e-02
-8.289945870637893677e-02 1.159438565373420715e-01 -8.799225091934204102e-02
-2.316028997302055359e-02 1.178108435124158859e-02 -4.512702673673629761e-02
-1.006680633872747421e-02 -5.321308970451354980e-03 2.229136973619461060e-02
-1.520031969994306564e-02 4.001585766673088074e-02 1.158744003623723984e-02
-1.271938681602478027e-01 2.133664488792419434e-02 7.541187107563018799e-02
4.396232590079307556e-02 -2.750157145783305168e-03 -2.384764514863491058e-02
3.577826917171478271e-02 -2.335300296545028687e-02 2.698779478669166565e-02
6.682303547859191895e-02 -3.977350890636444092e-02 1.454191803932189941e-01
-2.302801795303821564e-02 -7.366135716438293457e-02 -4.628960788249969482e-02
1.772929914295673370e-02 1.650600135326385498e-02 1.193631365895271301e-01
2.296943664550781250e-01 1.711622774600982666e-01 1.203637048602104187e-01
-6.143201887607574463e-02 -8.904718607664108276e-02 -9.753726422786712646e-02
2.048396877944469452e-02 2.550759017467498779e-01 -4.794522374868392944e-02
-1.315982174128293991e-02 8.066858351230621338e-02 -1.320716179907321930e-02
-6.518618669360876083e-03 3.899474628269672394e-03 4.312137141823768616e-02
-7.418635487556457520e-02 7.827591150999069214e-02 -4.714533314108848572e-02
5.163374543190002441e-02 -3.671120107173919678e-02 4.406515508890151978e-03
-2.236797660589218140e-01 -7.230588048696517944e-02 1.623380035161972046e-01
2.047528326511383057e-02 -2.821461856365203857e-02 -1.015036366879940033e-02
2.028603404760360718e-01 -1.107172966003417969e-01 1.056546345353126526e-01
-5.411273613572120667e-02 8.477029204368591309e-02 3.754225373268127441e-02
2.953224480152130127e-01 -1.006387993693351746e-01 1.437634527683258057e-01
-1.011209413409233093e-01 1.483913064002990723e-01 -7.441760390065610409e-04
3.495124354958534241e-02 -4.332671314477920532e-02 4.447741806507110596e-02
-3.912954777479171753e-02 1.188642159104347229e-01 -1.291568279266357422e-01
8.768893033266067505e-02 5.772589147090911865e-02 -1.368798166513442993e-01
1.781933242455124855e-03 4.421049728989601135e-03 -4.120817780494689941e-02
6.626813113689422607e-02 -4.004065319895744324e-02 1.967397704720497131e-02
3.054036945104598999e-02 -2.468160986900329590e-01 8.056647330522537231e-02
5.810579750686883926e-03 -1.192760393023490906e-01 1.706947833299636841e-01
-4.952215123921632767e-03 -6.125254556536674500e-02 -1.580793596804141998e-02
1.820408701896667480e-01 -5.806469544768333435e-02 1.804551929235458374e-01
1.752400025725364685e-02 -2.573276683688163757e-02 6.017591059207916260e-02
1.491180658340454102e-01 -6.016404181718826294e-02 2.518860399723052979e-01
1.538893580436706543e-01 -4.049558192491531372e-02 -1.490354817360639572e-02
5.971543118357658386e-02 -6.004377454519271851e-02 -1.770812645554542542e-02
4.891133308410644531e-02 7.328542321920394897e-02 7.831621915102005005e-03
1.781657487154006958e-01 6.265507545322179794e-03 7.239088416099548340e-02
2.410345041425898671e-05 -7.890018075704574585e-02 -4.226012900471687317e-02
2.367089688777923584e-02 -2.088346984237432480e-03 1.837865263223648071e-01
-3.430419415235519409e-02 -7.902284152805805206e-03 2.571917697787284851e-02
6.430732458829879761e-02 -1.351273339241743088e-02 2.418452873826026917e-02
-5.113406106829643250e-03 1.543201692402362823e-02 -8.256476372480392456e-03
1.046796212904155254e-03 3.854296868667006493e-03 1.976544735953211784e-03
1.638661324977874756e-02 -5.262520536780357361e-02 1.377516333013772964e-02
3.347802534699440002e-02 1.153658423572778702e-02 -1.849759253673255444e-03
2.640687488019466400e-02 4.361061379313468933e-02 -2.955563366413116455e-03
1.914587244391441345e-02 5.230462923645973206e-02 3.630862012505531311e-02
-7.526084315031766891e-03 2.846972271800041199e-02 -4.261003807187080383e-03
2.966542728245258331e-02 -1.997265219688415527e-01 5.124117061495780945e-02
1.289249677211046219e-02 5.404526367783546448e-02 6.356549914926290512e-03
-5.132153257727622986e-02 -5.980874598026275635e-02 4.974234104156494141e-02
-1.106893941760063171e-01 -4.371356591582298279e-02 -1.133295148611068726e-01
2.027956098318099976e-01 -9.808491915464401245e-03 3.273681970313191414e-03
2.031096667051315308e-01 -1.081890892237424850e-02 2.581702172756195068e-01
9.768781810998916626e-02 -5.764224752783775330e-02 5.417345557361841202e-03
-8.546543307602405548e-03 9.563513100147247314e-03 -5.384494084864854813e-03
1.005691289901733398e-01 -3.036546753719449043e-03 -6.956789176911115646e-03
-4.393895342946052551e-02 1.031026691198348999e-01 -5.493862926959991455e-02
-5.911751464009284973e-02 -2.607263997197151184e-02 -2.107392996549606323e-02
1.212322190403938293e-01 1.054549496620893478e-02 1.288338191807270050e-02
5.719200894236564636e-02 -9.320718050003051758e-02 8.064241707324981689e-02
-1.681966520845890045e-02 -7.217390090227127075e-02 2.598628401756286621e-02
6.794326007366180420e-02 2.483106404542922974e-02 1.062463968992233276e-02
-1.978480815887451172e-01 6.340139359235763550e-02 -3.656834363937377930e-02
-2.909446358680725098e-01 -9.344325400888919830e-03 -1.573690474033355713e-01
-1.140968650579452515e-01 1.060980707406997681e-01 -2.432108297944068909e-02
1.530876606702804565e-01 5.050933454185724258e-03 7.406959193758666515e-04
2.832707762718200684e-02 -4.385270550847053528e-02 7.023303210735321045e-02
9.671258181333541870e-02 4.371293261647224426e-02 -1.916275173425674438e-02
2.299712784588336945e-02 -1.138857528567314148e-01 1.979403570294380188e-02
-4.455440677702426910e-03 7.856118492782115936e-03 -3.461239114403724670e-02
-1.525904610753059387e-02 -6.067293882369995117e-02 9.491363912820816040e-02
-2.803581766784191132e-02 -2.697744593024253845e-02 2.546536326408386230e-01
1.072620390914380550e-03 -2.523990115150809288e-03 1.509478129446506500e-02
-6.655137985944747925e-02 1.833246462047100067e-02 -2.163259536027908325e-01
-1.819927245378494263e-02 1.706321537494659424e-01 -6.621326506137847900e-02
-1.642332226037979126e-02 -2.461109310388565063e-02 -6.783136725425720215e-02
-6.240137293934822083e-02 1.894118189811706543e-01 -1.224756799638271332e-02
-9.766790084540843964e-03 6.323049217462539673e-02 -3.302497090771794319e-03
1.596488431096076965e-02 -7.458440493792295456e-03 6.978267338126897812e-04
-5.482406914234161377e-02 1.135001629590988159e-01 5.101339425891637802e-03
-1.113755106925964355e-01 3.573082387447357178e-02 -1.395276039838790894e-01
-4.012142494320869446e-02 4.321404099464416504e-01 -5.091453343629837036e-02
-7.076435256749391556e-03 -7.103530317544937134e-02 9.710310958325862885e-03
2.210427820682525635e-02 -1.113477349281311035e-02 -1.742317341268062592e-03
-4.791404679417610168e-02 6.503920257091522217e-02 -3.377655521035194397e-02
4.846349358558654785e-03 -1.381882233545184135e-03 -1.634606532752513885e-02
9.327999316155910492e-03 3.971784561872482300e-02 4.974517505615949631e-03
-9.469997882843017578e-02 -3.078257199376821518e-03 -3.748658299446105957e-02
-8.173978887498378754e-03 9.265106171369552612e-03 3.564876271411776543e-03
-1.827720552682876587e-02 -1.683694496750831604e-02 2.223178558051586151e-02
-3.981700167059898376e-03 -9.794844314455986023e-03 2.140846103429794312e-02
4.579095542430877686e-02 -7.957524619996547699e-03 -9.990766644477844238e-03
-4.040887206792831421e-02 -5.710625648498535156e-02 -6.498107686638832092e-03
-3.965927660465240479e-02 2.448630146682262421e-02 -5.319623276591300964e-02
-5.717918649315834045e-02 -8.790656924247741699e-02 -5.799534171819686890e-02
-5.536800250411033630e-03 8.661516942083835602e-03 2.573419734835624695e-02
3.809154732152819633e-03 8.674614131450653076e-03 7.880845223553478718e-04
-2.464989759027957916e-02 -4.956351127475500107e-03 -2.646250277757644653e-02
-1.436350215226411819e-02 1.581142307259142399e-03 -3.078790754079818726e-02
1.938678696751594543e-02 -3.220363333821296692e-02 1.707616820931434631e-02
-4.024563729763031006e-02 -1.699674315750598907e-02 -1.470956485718488693e-02
1.774118840694427490e-02 -2.225023461505770683e-03 3.546376526355743408e-02
-5.661110859364271164e-03 -1.958726160228252411e-02 -1.321403961628675461e-02
1.427421532571315765e-02 -1.140666101127862930e-02 2.300716936588287354e-02
2.688535489141941071e-02 -1.063617691397666931e-02 -2.305434271693229675e-02
-7.944609969854354858e-03 -1.142498571425676346e-02 -8.916754275560379028e-03
-1.769604906439781189e-02 -1.376510690897703171e-02 3.715576138347387314e-03
-3.784367814660072327e-02 -6.716634333133697510e-02 -4.276465252041816711e-02
-3.772517293691635132e-02 -3.023376921191811562e-03 4.122126474976539612e-02
-3.517434746026992798e-02 9.140104055404663086e-03 -5.516429618000984192e-02
2.025391347706317902e-02 -6.328654941171407700e-03 8.321381360292434692e-02
-4.767929762601852417e-02 -1.131402328610420227e-02 -1.096540223807096481e-02
6.437414139509201050e-02 8.392471820116043091e-03 -1.435565855354070663e-02
-2.590477652847766876e-02 -1.873243227601051331e-02 3.752370551228523254e-02
8.354242146015167236e-02 3.998778760433197021e-02 -1.370776630938053131e-02
-4.070818424224853516e-02 -7.526117563247680664e-02 -9.252498298883438110e-02
2.257420681416988373e-02 3.982849419116973877e-02 4.819615185260772705e-02
3.402248024940490723e-03 -2.332500414922833443e-03 -1.009230408817529678e-02
1.217511575669050217e-02 6.727933138608932495e-02 5.443181842565536499e-02
-4.859180655330419540e-03 -4.541595280170440674e-02 -3.106356784701347351e-02
9.053198620676994324e-03 5.920336395502090454e-02 4.626809805631637573e-02
-5.493242666125297546e-02 -2.493985183537006378e-02 -7.519762963056564331e-02
3.540793061256408691e-02 -6.505738012492656708e-03 3.177364543080329895e-02
7.560323923826217651e-03 4.516753833740949631e-03 4.694603011012077332e-02
1.453864201903343201e-02 1.834441721439361572e-02 -5.402763187885284424e-02
1.692479476332664490e-02 -6.632694602012634277e-02 -2.059914870187640190e-03
-1.549725793302059174e-02 1.556031871587038040e-02 -3.742022812366485596e-02
-2.023053355515003204e-02 3.651561215519905090e-03 1.192534901201725006e-02
2.935279626399278641e-04 5.933168157935142517e-02 8.476565591990947723e-03
-3.662513568997383118e-02 3.055778890848159790e-02 -1.281142793595790863e-02
1.695927046239376068e-02 4.616510868072509766e-02 -1.275283191353082657e-02
2.526373788714408875e-02 1.418719999492168427e-02 5.251866765320301056e-03
2.724089287221431732e-02 -8.129917085170745850e-02 1.582061871886253357e-02
-1.048831269145011902e-02 1.870075613260269165e-02 2.213630592450499535e-03
2.663167379796504974e-02 2.489114366471767426e-02 -1.484981458634138107e-02
-1.542935986071825027e-02 3.110041096806526184e-02 -1.914973370730876923e-02
1.405562646687030792e-02 3.968729451298713684e-02 -2.102114446461200714e-02
3.495228663086891174e-02 -4.148165509104728699e-02 3.292244300246238708e-02
1.958716474473476410e-02 1.439156569540500641e-02 4.210001789033412933e-03
2.197162620723247528e-02 -3.021203167736530304e-02 4.683825373649597168e-02
2.619103528559207916e-02 1.089006941765546799e-02 -3.838011622428894043e-02
1.396154146641492844e-02 5.972464755177497864e-02 -3.546642512083053589e-02
1.897739805281162262e-02 -8.874232880771160126e-04 -2.513783425092697144e-02
5.038812011480331421e-02 9.122136980295181274e-03 1.053742244839668274e-01
-2.621985599398612976e-02 4.326882958412170410e-02 3.738252073526382446e-02
1.282657124102115631e-02 5.145192146301269531e-03 8.352998644113540649e-02
-1.723310910165309906e-02 -2.547443471848964691e-02 1.167320646345615387e-02
-3.652328252792358398e-02 4.898663982748985291e-02 -6.765156984329223633e-03
-1.249893847852945328e-02 4.428379237651824951e-03 3.241611644625663757e-03
1.980491913855075836e-02 -2.296678163111209869e-02 -3.782578930258750916e-02
-8.751894347369670868e-03 4.821787774562835693e-02 5.916468054056167603e-02
-4.606027156114578247e-02 -2.818915620446205139e-02 -3.051204979419708252e-02
-3.775958716869354248e-02 -7.103765010833740234e-01 -3.653027489781379700e-02
-7.956432178616523743e-03 6.901737302541732788e-02 3.915611654520034790e-02
-1.801183633506298065e-02 -7.517680525779724121e-01 2.432570047676563263e-02
4.581397771835327148e-02 5.619030818343162537e-02 9.475672990083694458e-02
6.528166704811155796e-04 3.626502305269241333e-02 -3.365304321050643921e-02
3.042627498507499695e-02 3.674035146832466125e-02 5.482615157961845398e-02
-1.751141622662544250e-02 -3.238771809265017509e-03 -2.312772441655397415e-03
1.353898737579584122e-02 -2.030516788363456726e-02 1.122714311350136995e-04
6.172740831971168518e-03 1.344636175781488419e-02 -4.254510998725891113e-02
1.112294755876064301e-02 -4.433116316795349121e-02 8.274953812360763550e-03
4.562581889331340790e-03 -3.243319690227508545e-03 -2.906907908618450165e-02
2.153427898883819580e-02 -3.485437855124473572e-02 -4.269343335181474686e-03
-1.613640040159225464e-02 4.832039587199687958e-03 -1.808204688131809235e-02
9.742540121078491211e-02 -5.479880422353744507e-02 4.241652414202690125e-02
3.903189674019813538e-02 -3.618748486042022705e-02 3.390147909522056580e-02
-1.029684580862522125e-02 4.722533747553825378e-02 -5.019647069275379181e-03
-2.502603828907012939e-02 -5.416690930724143982e-02 -6.407934427261352539e-02
-1.358103938400745392e-02 -7.097398862242698669e-03 1.707157865166664124e-02
-1.455056387931108475e-02 9.074630588293075562e-02 -2.323648659512400627e-03
2.246446534991264343e-02 -3.380767256021499634e-02 4.002525657415390015e-02
6.711578462272882462e-03 5.061400309205055237e-02 3.967817872762680054e-02
3.848420828580856323e-02 -7.316432893276214600e-02 2.929432876408100128e-02
3.720535710453987122e-02 3.520913049578666687e-02 3.026040270924568176e-02
1.636189967393875122e-02 -5.614339932799339294e-02 3.210752084851264954e-02
7.750765886157751083e-03 1.639440655708312988e-02 4.198774322867393494e-02
4.779657348990440369e-03 -1.088417693972587585e-02 7.925165444612503052e-02
-2.346332557499408722e-02 -3.772024810314178467e-02 1.467184629291296005e-02
2.551041916012763977e-02 1.204523257911205292e-02 -5.275471881031990051e-02
-3.344753989949822426e-03 4.168341681361198425e-02 2.599898912012577057e-02
7.286497391760349274e-03 -5.541211366653442383e-02 -2.197888493537902832e-02
-1.813701528590172529e-04 1.747806742787361145e-02 -1.354039553552865982e-02
-1.047416776418685913e-02 5.247094482183456421e-02 -2.113384380936622620e-02
-2.777886576950550079e-02 -6.115107238292694092e-02 -1.542428601533174515e-02
-4.837639629840850830e-02 -3.820293117314577103e-03 2.489484287798404694e-02
-9.371777065098285675e-03 -9.008347988128662109e-02 -5.735709518194198608e-02
6.203737109899520874e-03 -6.660548970103263855e-04 -1.395000144839286804e-02
5.038576666265726089e-03 -7.747644186019897461e-02 2.497400902211666107e-02
-5.086482036858797073e-03 -5.537516251206398010e-02 -3.998439386487007141e-02
-1.064207125455141068e-02 -3.153905645012855530e-02 8.391647040843963623e-02
2.755888924002647400e-02 -4.517237842082977295e-02 -2.890112437307834625e-02
2.603675611317157745e-02 2.723835036158561707e-02 -3.170519322156906128e-02
5.545781925320625305e-02 4.084229841828346252e-02 3.536444855853915215e-03
9.074174799025058746e-03 2.335158549249172211e-02 2.678401768207550049e-02
9.757347404956817627e-03 1.113746985793113708e-01 1.775752566754817963e-02
-1.062740478664636612e-02 -2.530764974653720856e-02 3.537506097927689552e-03
8.035903796553611755e-03 -1.676339469850063324e-02 -5.528226122260093689e-02
-8.383440435864031315e-04 -2.342820912599563599e-02 -3.133992105722427368e-02
-3.869946300983428955e-02 -2.970374003052711487e-02 1.731366477906703949e-02
1.534336898475885391e-02 3.892518952488899231e-02 8.526063524186611176e-03
-1.156981941312551498e-02 2.586442278698086739e-03 -1.959195360541343689e-02
1.814642455428838730e-03 3.615123406052589417e-02 -6.621475331485271454e-03
2.606049412861466408e-03 -3.651297092437744141e-02 7.106049451977014542e-03
-3.467439860105514526e-02 5.038874689489603043e-03 3.163973335176706314e-03
1.386974356137216091e-03 -5.695047602057456970e-02 9.500943124294281006e-03
-8.018263615667819977e-03 1.266066264361143112e-02 1.176745630800724030e-02
5.772516876459121704e-02 3.363656997680664062e-02 5.052647087723016739e-03
-1.122808177024126053e-02 1.535701565444469452e-02 6.443881895393133163e-03
1.594664342701435089e-02 -1.007321663200855255e-02 3.679500950966030359e-04
2.722360007464885712e-02 3.108676895499229431e-02 1.609585434198379517e-02
-9.844297543168067932e-03 -6.416418123990297318e-03 1.975005725398659706e-03
-8.198817074298858643e-02 2.342146122828125954e-03 -3.436715528368949890e-02
1.744912005960941315e-02 1.461337786167860031e-02 -1.653079316020011902e-02
-5.106467753648757935e-02 1.949869282543659210e-02 9.658256545662879944e-03
-6.534729152917861938e-03 1.932166703045368195e-02 7.151322904974222183e-03
7.301683072000741959e-03 -2.236145921051502228e-02 -1.698971539735794067e-02
-1.358584873378276825e-02 1.064288709312677383e-02 1.321523264050483704e-02
1.104594860225915909e-02 8.367198519408702850e-03 -2.523005194962024689e-02
1.483137439936399460e-02 -7.770048920065164566e-03 3.346881270408630371e-02
-1.631732471287250519e-02 3.604192752391099930e-03 -4.162258654832839966e-02
1.947802864015102386e-02 1.203946396708488464e-02 2.636674977838993073e-02
-2.339351736009120941e-02 8.398176170885562897e-03 -6.847654585726559162e-04
2.646944485604763031e-02 1.990182697772979736e-02 4.291869234293699265e-03
-8.963974192738533020e-03 -1.133877690881490707e-02 6.421439815312623978e-03
-4.929836373776197433e-03 -2.571497671306133270e-02 -2.285455539822578430e-02
3.891226369887590408e-03 -3.157145902514457703e-02 -9.260134771466255188e-03
-7.340867887251079082e-04 5.810583475977182388e-03 -2.943201549351215363e-02
-3.547279164195060730e-02 2.170675899833440781e-03 -1.746268197894096375e-02
-5.861432850360870361e-02 -3.435378149151802063e-02 -9.316443651914596558e-02
3.793098032474517822e-02 3.815232589840888977e-02 3.388249129056930542e-02
4.036454483866691589e-02 -6.831538677215576172e-02 1.396714989095926285e-02
-9.934018366038799286e-03 1.726884022355079651e-02 4.543152824044227600e-02
-3.640682250261306763e-02 1.435905811376869678e-03 1.235663983970880508e-02
8.202992379665374756e-03 -6.362988799810409546e-02 4.715236835181713104e-03
7.004050072282552719e-03 -2.232258953154087067e-02 -2.242706157267093658e-02
6.276162713766098022e-02 7.081566751003265381e-02 2.949130348861217499e-02
3.312160028144717216e-03 4.044556524604558945e-03 3.943235147744417191e-03
3.611582890152931213e-02 2.745087444782257080e-02 7.454561442136764526e-02
1.479720976203680038e-02 -3.238747268915176392e-02 -1.298918854445219040e-02
-9.170323610305786133e-03 5.889295414090156555e-02 -1.776803284883499146e-02
1.905412785708904266e-02 -1.982748974114656448e-03 -2.589177805930376053e-03
1.184603315778076649e-03 -3.629311546683311462e-02 2.789119258522987366e-02
6.059357151389122009e-02 3.108396567404270172e-02 4.803623259067535400e-02
-4.449433472473174334e-04 3.205410763621330261e-02 3.799838572740554810e-02
8.838889002799987793e-02 -2.220957726240158081e-02 1.760922372341156006e-02
-2.448533661663532257e-02 -5.175423994660377502e-02 -3.150834143161773682e-02
6.899741943925619125e-03 1.949253492057323456e-02 6.673463433980941772e-02
-3.912946581840515137e-02 -6.731648743152618408e-02 -3.427056595683097839e-02
2.676585130393505096e-02 4.630229994654655457e-02 -6.045729387551546097e-03
-8.084125071763992310e-02 -8.325495570898056030e-02 -7.835126668214797974e-02
-1.167622767388820648e-02 4.968862235546112061e-02 4.949511960148811340e-02
-3.086951188743114471e-02 -1.767968758940696716e-02 -2.440948039293289185e-02
4.172493889927864075e-02 6.890370696783065796e-02 1.656288467347621918e-02
2.578096464276313782e-04 -1.814552349969744682e-03 -3.073975443840026855e-02
-3.047189489006996155e-02 4.127378016710281372e-02 -2.707092091441154480e-02
-2.475661691278219223e-03 -4.763681441545486450e-03 -7.679929491132497787e-03
3.133900463581085205e-02 -3.510291129350662231e-02 6.790183484554290771e-02
1.762864366173744202e-02 4.701437428593635559e-02 3.283952549099922180e-02
2.824189700186252594e-02 -4.102025181055068970e-03 3.963374719023704529e-02
2.954974211752414703e-02 -2.681292779743671417e-02 8.829513192176818848e-02
-5.280805751681327820e-02 -2.759672142565250397e-02 -4.728564247488975525e-02
6.467515230178833008e-02 -3.211786597967147827e-02 -2.635810291394591331e-03
-1.054298225790262222e-02 -6.319244857877492905e-03 -1.030553132295608521e-02
2.290385589003562927e-02 4.725655075162649155e-03 -6.423433776944875717e-03
7.037197239696979523e-03 1.182872569188475609e-03 -2.011883188970386982e-04
1.037602964788675308e-02 6.468423455953598022e-02 1.139445137232542038e-02
5.998175963759422302e-02 -5.320551339536905289e-03 -7.633957266807556152e-02
3.024551831185817719e-02 1.104112714529037476e-01 5.235142260789871216e-02
2.618798520416021347e-03 8.525379747152328491e-02 3.585676476359367371e-02
2.288676612079143524e-02 -2.425245940685272217e-02 -5.687342956662178040e-02
-1.108374446630477905e-02 4.153568297624588013e-03 4.226056858897209167e-02
-3.841151297092437744e-02 5.657330527901649475e-02 8.485336601734161377e-02
-8.396972715854644775e-02 -7.677267491817474365e-02 5.039756745100021362e-02
3.781132400035858154e-03 -3.782497253268957138e-03 -2.053632773458957672e-02
-2.089164853096008301e-01 2.836708538234233856e-02 1.780078932642936707e-02
-2.683010697364807129e-01 4.387311637401580811e-02 -1.946830004453659058e-01
-4.088994264602661133e-01 4.042357951402664185e-02 -4.744259715080261230e-01
7.835350185632705688e-02 9.339408576488494873e-02 -6.226526945829391479e-02
-1.003273427486419678e-01 4.155701398849487305e-02 -5.595202744007110596e-02
1.197787001729011536e-02 -2.114400416612625122e-01 1.302433013916015625e-02
-1.259112823754549026e-02 -6.851921975612640381e-02 5.584269296377897263e-03
4.365920647978782654e-02 6.680240388959646225e-03 1.023113206028938293e-01
-3.050053678452968597e-02 -2.981211431324481964e-02 -3.216151893138885498e-02
3.606527298688888550e-02 -1.349219866096973419e-02 -2.641447633504867554e-02
-3.045952692627906799e-02 4.211419820785522461e-02 -1.044607013463973999e-01
-1.173447817564010620e-01 -1.269301474094390869e-01 -1.190582066774368286e-01
-4.092381894588470459e-02 3.474239259958267212e-02 -6.893281638622283936e-02
1.104231327772140503e-01 -4.441557452082633972e-03 1.170019805431365967e-01
1.926281303167343140e-02 2.955015376210212708e-02 4.540134221315383911e-02
-1.924712657928466797e-01 -5.623076483607292175e-02 1.273411065340042114e-01
-7.716554682701826096e-03 8.225402235984802246e-02 2.078048884868621826e-02
-4.398792982101440430e-02 -4.251959547400474548e-02 -4.474045336246490479e-02
-9.833849221467971802e-02 -1.653590425848960876e-02 -4.872034117579460144e-02
-7.637226581573486328e-02 6.684015039354562759e-03 1.116394065320491791e-02
-4.636019095778465271e-02 -2.604495361447334290e-02 -1.076988056302070618e-01
-9.547337889671325684e-02 -4.042504355311393738e-02 -7.485385984182357788e-02
3.530971705913543701e-02 2.271830476820468903e-02 3.112560324370861053e-02
-2.828879058361053467e-01 4.440060630440711975e-02 1.443117558956146240e-01
-4.773028939962387085e-02 -3.487266227602958679e-02 -6.510313600301742554e-02
1.431778538972139359e-03 -1.874285563826560974e-02 -6.856796145439147949e-02
-2.339896187186241150e-02 -4.928816109895706177e-02 -1.547543108463287354e-01
-4.561277478933334351e-02 1.997568085789680481e-02 1.254733055830001831e-01
5.011492967605590820e-02 -1.081482600420713425e-02 -5.555241927504539490e-02
-5.148192867636680603e-03 -5.034063942730426788e-03 3.312133625149726868e-02
-1.978997141122817993e-02 3.103246213868260384e-03 1.949755824171006680e-03
-1.428842693567276001e-01 9.064725786447525024e-02 1.248644143342971802e-01
3.699368238449096680e-02 -4.932906478643417358e-02 -2.217984758317470551e-02
-4.610565677285194397e-02 -8.078811317682266235e-02 5.832615867257118225e-02
-4.367600008845329285e-02 -4.853849485516548157e-02 -2.073218859732151031e-02
3.524157404899597168e-02 8.153109252452850342e-02 -4.674852639436721802e-02
9.297950193285942078e-03 -2.725676894187927246e-01 -8.046249859035015106e-03
-1.712468825280666351e-02 3.747969120740890503e-02 1.745566166937351227e-02
-1.089014783501625061e-01 1.130941696465015411e-02 -5.901347845792770386e-02
-1.287513077259063721e-01 -1.099336426705121994e-02 -1.000886037945747375e-01
2.208952978253364563e-02 2.957749553024768829e-02 3.438842296600341797e-02
-2.438459172844886780e-02 -2.896130457520484924e-02 -2.624477148056030273e-01
-5.144901201128959656e-02 -5.262136831879615784e-02 -4.826449323445558548e-03
-2.129334211349487305e-01 -4.197149723768234253e-02 -1.325941830873489380e-02
-7.701069861650466919e-02 -8.735737763345241547e-03 9.569729864597320557e-02
-2.519075274467468262e-01 -1.046681702136993408e-01 -7.099097222089767456e-02
-4.063113033771514893e-02 3.044803813099861145e-02 4.242439195513725281e-02
-2.099069207906723022e-01 -1.710955649614334106e-01 -5.208916962146759033e-02
-2.788324654102325439e-01 -1.094325631856918335e-02 -5.744677409529685974e-02
-2.447117865085601807e-02 -1.992013603448867798e-01 4.242314398288726807e-02
-3.264539837837219238e-01 3.518532961606979370e-02 -1.645407825708389282e-01
-1.230456531047821045e-01 -1.414442807435989380e-01 -8.575464785099029541e-02
3.152654320001602173e-02 9.369386732578277588e-02 7.768775522708892822e-02
-1.029068678617477417e-01 -6.595043092966079712e-02 -1.477528959512710571e-01
1.762245222926139832e-02 1.412617564201354980e-01 1.159738600254058838e-01
-1.596916839480400085e-02 -1.423624064773321152e-02 -3.948933258652687073e-02
2.644435130059719086e-02 4.080820828676223755e-02 5.968441814184188843e-02
3.942828997969627380e-02 -1.878959089517593384e-01 -6.970096379518508911e-02
-7.616461813449859619e-02 1.130898147821426392e-01 -1.205687597393989563e-01
-3.425227943807840347e-03 -2.747980058193206787e-01 7.103556767106056213e-03
1.432029297575354576e-03 -2.894997410476207733e-02 1.115512847900390625e-02
7.021432369947433472e-02 2.407660521566867828e-02 1.483450178056955338e-02
-3.290213644504547119e-02 -7.035835832357406616e-02 1.486654672771692276e-02
-3.398660942912101746e-02 7.516698446124792099e-03 5.819397419691085815e-02
-1.458948291838169098e-02 -1.405695378780364990e-01 1.044124737381935120e-01
-2.482745237648487091e-02 2.934062154963612556e-03 9.077338874340057373e-02
-2.443182468414306641e-01 -4.615627974271774292e-02 -3.847166895866394043e-02
-3.751344978809356689e-02 -1.100021824240684509e-01 -1.154642328619956970e-01
-8.946735411882400513e-02 -5.352459847927093506e-03 -1.287501603364944458e-01
1.543116942048072815e-02 -2.961518429219722748e-02 2.087262226268649101e-03
1.788216643035411835e-02 6.345750391483306885e-02 2.963360957801342010e-02
-1.829094439744949341e-02 -1.438236329704523087e-02 -4.108742251992225647e-02
-3.215393424034118652e-02 -4.314664378762245178e-02 1.701454073190689087e-02
-3.186247497797012329e-02 4.288905486464500427e-02 2.820306643843650818e-02
-2.101032622158527374e-02 -1.674424391239881516e-03 3.325952216982841492e-02
-5.331321805715560913e-02 3.554010391235351562e-02 8.792890235781669617e-03
1.845504902303218842e-02 -3.909274935722351074e-02 8.587671816349029541e-02
-4.910264164209365845e-02 -7.780595123767852783e-02 4.649038892239332199e-03
-1.661369651556015015e-01 -3.102874942123889923e-02 -7.655610144138336182e-02
6.941013038158416748e-02 -1.096392702311277390e-02 -4.827858880162239075e-02
8.343786932528018951e-03 -7.021724432706832886e-02 -4.036695137619972229e-02
2.048146212473511696e-03 8.215495944023132324e-02 4.018735513091087341e-02
-1.315138787031173706e-01 -3.150638192892074585e-02 1.407266855239868164e-01
-1.960182934999465942e-02 2.081936784088611603e-02 -9.562619030475616455e-02
5.400573089718818665e-02 -3.726823627948760986e-02 5.660261958837509155e-04
-3.293224424123764038e-02 -8.683318272233009338e-03 -3.190619125962257385e-02
-2.868567779660224915e-02 5.828082561492919922e-02 -3.124348819255828857e-03
2.943272329866886139e-02 2.693948335945606232e-02 1.819216087460517883e-02
-1.128115952014923096e-01 -6.847329437732696533e-02 -4.514085128903388977e-03
3.653598204255104065e-02 1.075956374406814575e-01 7.968871854245662689e-03
-4.234965518116950989e-02 1.920973509550094604e-02 -2.350312098860740662e-02
8.389577269554138184e-02 2.228054776787757874e-02 9.316585492342710495e-04
1.302822958678007126e-02 7.617578841745853424e-03 6.680886726826429367e-03
-9.539197385311126709e-02 8.631069958209991455e-02 1.481277309358119965e-02
-1.454965323209762573e-01 1.209270954132080078e-02 -4.430961981415748596e-02
6.129381060600280762e-02 3.977041691541671753e-02 -1.448287367820739746e-01
-1.091102138161659241e-01 2.487212792038917542e-02 -4.641765058040618896e-01
9.962522424757480621e-03 3.674379736185073853e-02 1.405504625290632248e-02
5.267691798508167267e-03 -2.209629490971565247e-02 -2.427745759487152100e-01
1.597909256815910339e-02 5.735590122640132904e-03 6.213885731995105743e-03
-7.999566197395324707e-02 2.381563745439052582e-02 -7.795165479183197021e-02
-5.087997391819953918e-02 -7.097590714693069458e-02 -1.251046173274517059e-02
1.822296157479286194e-02 3.594285622239112854e-02 1.797796227037906647e-02
-2.925356328487396240e-01 4.715341702103614807e-02 1.104929484426975250e-02
-9.970884025096893311e-02 -3.562769293785095215e-02 -3.008815832436084747e-02
2.658102475106716156e-02 -4.088751971721649170e-01 1.912393979728221893e-02
6.850779801607131958e-02 -7.044473895803093910e-04 -6.806408055126667023e-03
4.070641472935676575e-02 -2.018515020608901978e-01 5.098269134759902954e-02
-3.661128133535385132e-02 -1.157862618565559387e-01 -1.182394996285438538e-01
6.358920037746429443e-02 5.426451936364173889e-02 -8.226447552442550659e-02
-1.896661706268787384e-02 -1.660379469394683838e-01 -2.110495045781135559e-02
-1.357740536332130432e-02 -1.426108777523040771e-01 -1.245491653680801392e-01
1.882837153971195221e-02 7.907816022634506226e-02 1.288642454892396927e-02
-2.268119901418685913e-02 -1.152794659137725830e-01 -1.286451518535614014e-01
-8.341648615896701813e-03 2.399372309446334839e-02 -1.905631422996520996e-01
-3.900076448917388916e-02 -4.160344228148460388e-02 -6.658133864402770996e-02
5.303516238927841187e-02 1.133435871452093124e-02 -1.937070786952972412e-01
-5.941423773765563965e-02 -1.869789958000183105e-01 2.034453488886356354e-02
2.022720174863934517e-03 -1.811911351978778839e-02 -2.008878625929355621e-02
-5.654539912939071655e-02 -2.010926157236099243e-01 -2.659677900373935699e-02
-4.459150135517120361e-02 -5.643048882484436035e-02 -3.964810445904731750e-02
2.718137204647064209e-02 8.225905895233154297e-02 -1.800893805921077728e-03
-4.928044602274894714e-02 2.692669816315174103e-02 -4.396457690745592117e-03
2.345391549170017242e-02 6.834699958562850952e-02 4.294503107666969299e-02
1.495881658047437668e-02 9.362166374921798706e-02 -2.999412417411804199e-01
4.053641110658645630e-02 8.405636996030807495e-02 1.049589831382036209e-02
-1.935227513313293457e-01 -7.970873266458511353e-02 -1.721928417682647705e-01
8.418702334165573120e-02 5.154817178845405579e-02 4.933208227157592773e-02
-3.272871077060699463e-01 -5.151654407382011414e-02 -4.313409626483917236e-01
-2.678524516522884369e-02 4.204287752509117126e-02 4.883052036166191101e-02
1.909957639873027802e-02 1.596801728010177612e-02 5.496566742658615112e-02
1.537406933493912220e-03 4.887224361300468445e-02 4.824821650981903076e-02
-1.738821566104888916e-01 -3.031320869922637939e-02 1.477035582065582275e-01
9.711885452270507812e-02 -5.671976879239082336e-02 9.782271459698677063e-03
-1.619090288877487183e-01 -3.899492323398590088e-02 -2.211612462997436523e-02
-6.597237288951873779e-02 -4.389636591076850891e-02 -7.092633843421936035e-02
-7.389322854578495026e-03 2.526321448385715485e-02 -3.583671450614929199e-01
-8.747669868171215057e-03 -4.190839454531669617e-02 -8.557794243097305298e-02
-3.500559180974960327e-02 -2.214049734175205231e-02 -2.251688390970230103e-01
-6.155799329280853271e-02 -9.164398536086082458e-03 -9.099053591489791870e-02
-2.687097340822219849e-02 -1.525100041180849075e-02 -3.110963702201843262e-01
-1.317075341939926147e-01 -1.531888991594314575e-01 -1.399283483624458313e-02
-3.581855213269591331e-03 5.930535867810249329e-02 -6.539551913738250732e-02
-5.149826034903526306e-02 -1.288828849792480469e-01 -7.982311397790908813e-02
8.723362535238265991e-02 -3.851347416639328003e-02 1.132752001285552979e-01
-1.919384859502315521e-02 -5.127589404582977295e-02 -2.765383687801659107e-04
1.307578980922698975e-01 -5.175101757049560547e-02 -4.178099706768989563e-02
-4.237181320786476135e-02 1.223329454660415649e-02 -3.805208206176757812e-02
-2.739560604095458984e-02 4.838216304779052734e-02 6.666953116655349731e-02
2.145717479288578033e-02 -4.428142309188842773e-02 2.982306992635130882e-03
-8.315292000770568848e-02 2.437060698866844177e-02 7.353604771196842194e-03
1.796873472630977631e-02 -2.371406257152557373e-01 3.986752033233642578e-02
-1.475493013858795166e-01 2.543513849377632141e-02 -3.284497559070587158e-02
