-3.424248716328293085e-04
-7.447122479788959026e-04
-1.490463328082114458e-04
-1.122580142691731453e-04
6.287710857577621937e-05
-1.208942965604364872e-03
8.460442586510907859e-06
-3.811612259596586227e-05
-2.157698909286409616e-04
-2.015224454225972295e-04
1.217411045217886567e-04
5.751476055593229830e-05
-4.876110178884118795e-04
-2.812877355609089136e-04
-6.014214595779776573e-04
-1.438053877791389823e-04
-6.578071042895317078e-04
2.052691997960209846e-03
4.132428512093611062e-05
3.053912660107016563e-04
-3.936332359444350004e-04
-6.003490416333079338e-04
5.299450131133198738e-04
-8.774935849942266941e-05
-1.595681969774886966e-04
1.558232906972989440e-04
4.572717298287898302e-04
-8.164744212990626693e-05
1.244670129381120205e-04
9.171938290819525719e-05
2.212421968579292297e-04
5.900664109503850341e-05
-5.200012237764894962e-04
1.575014903210103512e-04
-3.565980296116322279e-04
-5.394750769482925534e-05
-9.805975423660129309e-05
-6.366054731188341975e-05
1.250662171514704823e-04
6.222079391591250896e-04
3.593976725824177265e-04
-8.444416016573086381e-05
-1.251271809451282024e-03
-4.092463350389152765e-04
-8.285249350592494011e-04
-1.590930478414520621e-04
1.341544120805338025e-04
1.464148954255506396e-04
3.224178217351436615e-04
-5.624970654025673866e-04
4.135819035582244396e-04
3.622059884946793318e-04
-5.351167146727675572e-06
2.109150373144075274e-04
1.113415812142193317e-03
-1.435435115126892924e-04
4.451324930414557457e-04
-1.546653220430016518e-05
1.650412159506231546e-04
-1.139234664151445031e-04
-3.764256325666792691e-05
4.786949721165001392e-04
1.669885677983984351e-04
1.126960978581337258e-05
-3.399002889636904001e-04
-1.702794688753783703e-04
2.523146104067564011e-04
3.975032996095251292e-06
-3.328574239276349545e-04
2.778490597847849131e-04
-5.981806316412985325e-05
-6.136638112366199493e-04
-3.818815457634627819e-04
-8.179363067029044032e-05
-1.254119888471905142e-05
9.627584222471341491e-05
-9.187873365590348840e-05
-7.923794328235089779e-05
2.175515983253717422e-04
-4.436252929735928774e-04
-2.205030614277347922e-04
3.762109554372727871e-05
3.771894262172281742e-05
-2.093388466164469719e-04
-1.516607590019702911e-03
2.155287256755400449e-05
-2.577829291112720966e-04
-1.035905006574466825e-04
1.155094127170741558e-03
3.433407109696418047e-04
-4.111137241125106812e-05
2.818855573423206806e-04
1.944033283507451415e-04
8.001959067769348621e-04
-1.542802783660590649e-04
1.334524597041308880e-03
-2.549697237554937601e-04
-4.710778302978724241e-04
-2.347564732190221548e-04
1.616634981473907828e-04
-2.671351656317710876e-03
8.786617545410990715e-04
-3.201607905793935061e-04
2.078577526845037937e-04
-4.607472874340601265e-05
-3.741840482689440250e-04
1.429539843229576945e-04
-4.050285133416764438e-05
-1.223902509082108736e-04
2.819495566654950380e-04
-1.862032921053469181e-03
-2.893325108743738383e-05
8.031429752008989453e-05
-2.191055536968633533e-04
1.607429352588951588e-03
-6.180195487104356289e-05
8.616843842901289463e-05
1.140960557677317411e-05
6.891395314596593380e-04
-1.792659168131649494e-04
-2.617806603666394949e-04
-1.145239639299688861e-05
1.235949457623064518e-04
3.128894022665917873e-04
-1.130881064455024898e-04
-9.467607596889138222e-04
-3.966694639530032873e-04
-8.936024387367069721e-04
-2.446334656269755214e-05
-1.294455069000832736e-05
-7.105828844942152500e-04
3.178365004714578390e-04
-1.509611494839191437e-03
-1.072796385415131226e-05
1.179397877422161400e-04
-7.424524483212735504e-06
7.974678737809881568e-06
-4.754662768391426653e-06
1.106907075154595077e-04
-1.884426019387319684e-04
-5.164645335753448308e-05
2.055000048130750656e-03
2.263015194330364466e-04
-4.652591451304033399e-05
4.615231955540366471e-05
-2.747060498222708702e-04
-6.179297924973070621e-04
-1.634452746657188982e-05
1.176349996967473999e-05
1.486633555032312870e-04
-5.673364648828282952e-05
-7.990306476131081581e-04
-7.983386603882536292e-05
-1.108687138184905052e-05
-1.574108900967985392e-04
-1.049291095114313066e-04
3.559220931492745876e-05
-1.970240409718826413e-04
-9.174356237053871155e-04
-3.379739791853353381e-05
2.163736207876354456e-04
5.199977313168346882e-04
4.143585916608572006e-03
-6.183001678436994553e-04
-2.670665853656828403e-04
-2.041057741735130548e-04
3.605545207392424345e-04
-2.114555536536499858e-05
-1.575963106006383896e-04
-1.526338019175454974e-05
-8.411862654611468315e-05
3.680454683490097523e-04
2.069784328341484070e-03
1.151769974967464805e-04
7.512451816182874609e-08
-1.779310696292668581e-04
3.914525732398033142e-04
-2.340187638765200973e-04
-8.168044587364420295e-05
-1.038165137288160622e-04
-3.806123568210750818e-04
2.582829038146883249e-04
1.096125488402321935e-04
-1.189980775961885229e-05
-6.029157702869269997e-06
3.839955898001790047e-03
-7.857411401346325874e-05
4.575420462060719728e-04
-7.664249278604984283e-05
-8.856834028847515583e-05
3.872713423334062099e-04
9.871029760688543320e-05
-1.283710880670696497e-04
8.256280125351622701e-05
-6.762478005839511752e-05
-3.953849227400496602e-05
3.684629627969115973e-04
-7.419818575726822019e-05
4.860863191424869001e-05
5.151798832230269909e-04
4.756735506816767156e-05
8.452797919744625688e-05
-7.508802809752523899e-05
-8.817920752335339785e-05
1.639960333704948425e-03
4.738959542009979486e-04
-4.157394869253039360e-04
-8.955429075285792351e-04
-2.389589826634619385e-05
8.308711403515189886e-05
-4.152811743551865220e-05
-3.905150224454700947e-04
-4.404353676363825798e-04
-1.060659924405626953e-04
-7.509755087085068226e-04
-2.064074360532686114e-04
-1.617306552361696959e-04
2.645682834554463625e-04
2.344026725040748715e-04
1.155116115114651620e-04
-3.350931219756603241e-04
3.888664650730788708e-04
1.168947128462605178e-04
-1.822536978579591960e-05
4.788101796293631196e-05
6.138612516224384308e-04
-1.853134162956848741e-04
-2.497600216884166002e-04
-8.056172373471781611e-05
1.208332250826060772e-03
1.745677400322165340e-05
3.580088377930223942e-04
-1.308513106778264046e-03
-9.585027146385982633e-05
-4.309508367441594601e-04
-2.064599539153277874e-04
5.762947694165632129e-05
-2.158128518203739077e-05
1.600188668817281723e-03
5.710305413231253624e-04
2.494092041160911322e-04
-5.312499706633388996e-04
-1.053819316439330578e-03
-4.866800736635923386e-05
1.254155504284426570e-04
4.018043546238914132e-05
-8.084200089797377586e-05
-7.011378183960914612e-04
-6.267488788580521941e-05
2.446055295877158642e-04
4.963481333106756210e-04
-4.834861902054399252e-04
9.355574002256616950e-05
-1.038791961036622524e-04
-1.366530632367357612e-04
9.129674290306866169e-04
