-3.343899548053741455e-02 1.183914989233016968e-01 -1.911471225321292877e-02 -6.608338095247745514e-03 1.057522445917129517e-01 4.513412341475486755e-02 -7.390704005956649780e-02
1.057786196470260620e-01 -1.145478561520576477e-01 -7.970536500215530396e-02 -1.285089738667011261e-02 2.419562824070453644e-02 -8.336125314235687256e-02 -3.375618718564510345e-03
-3.809937834739685059e-02 -1.490444540977478027e-01 2.122856229543685913e-01 1.029154062271118164e-01 -1.664110459387302399e-04 -8.380668237805366516e-03 1.189079508185386658e-01
-1.673904955387115479e-01 2.492967247962951660e-02 2.304929643869400024e-01 -5.410197004675865173e-02 -2.668282575905323029e-02 3.370121121406555176e-02 3.687609205371700227e-05
-1.204223465174436569e-02 -1.222319453954696655e-01 -1.903902888298034668e-01 -1.550352275371551514e-01 4.206144437193870544e-02 -9.833166375756263733e-03 -7.026853412389755249e-02
6.506574153900146484e-02 -1.141056194901466370e-01 -5.545353889465332031e-02 1.257717516273260117e-02 9.547051787376403809e-02 -5.555842071771621704e-03 1.556602120399475098e-02
-1.292706727981567383e-01 1.889619417488574982e-02 4.450311139225959778e-02 2.008635550737380981e-02 3.127301111817359924e-03 -2.992035634815692902e-02 5.406334623694419861e-02
-1.128359045833349228e-02 -4.087398946285247803e-02 6.687407940626144409e-02 5.592167750000953674e-02 1.819519884884357452e-02 7.965805009007453918e-03 8.977321535348892212e-02
-1.047307997941970825e-02 -1.580334901809692383e-01 2.879154635593295097e-03 -8.785636723041534424e-02 -1.074463501572608948e-01 -1.577095687389373779e-02 2.422469668090343475e-02
7.242861390113830566e-02 -9.154672175645828247e-02 1.507043987512588501e-01 5.323718301951885223e-03 4.833292588591575623e-02 8.953550457954406738e-02 -6.155481934547424316e-02
1.139744445681571960e-01 -6.280961632728576660e-02 1.795086264610290527e-01 2.554668486118316650e-02 1.036075782030820847e-02 5.914618447422981262e-02 -1.434403937309980392e-02
-7.775318622589111328e-02 -1.076343432068824768e-01 1.001301184296607971e-01 -1.270848959684371948e-01 -1.216541230678558350e-01 4.626954719424247742e-02 4.976908490061759949e-02
-1.240643113851547241e-01 3.363075479865074158e-02 5.301178246736526489e-02 -9.438407421112060547e-02 -1.857975870370864868e-02 8.265231549739837646e-02 4.311988502740859985e-02
-2.215718477964401245e-02 -8.636474609375000000e-03 -4.016973823308944702e-02 1.342831272631883621e-02 3.104586713016033173e-02 -3.011051565408706665e-02 2.124795317649841309e-02
1.018655523657798767e-01 -2.640568464994430542e-02 -3.035945072770118713e-02 4.671663511544466019e-03 6.873781979084014893e-02 -7.543106377124786377e-02 -4.543060436844825745e-02
5.870413780212402344e-02 -2.635814249515533447e-02 -3.523205593228340149e-02 -1.976661235094070435e-01 -7.371190935373306274e-02 -5.702029448002576828e-03 -4.595434293150901794e-02
3.122299350798130035e-02 -6.169518828392028809e-02 1.533869057893753052e-01 -6.964185088872909546e-02 -7.058817148208618164e-02 4.356055334210395813e-02 2.439511939883232117e-03
1.519782692193984985e-01 -1.118289306759834290e-01 1.617445200681686401e-01 9.218872338533401489e-02 -7.478021085262298584e-02 -6.155395135283470154e-02 -6.388396024703979492e-02
5.202158540487289429e-02 -1.584651917219161987e-01 1.522710733115673065e-02 -2.039216831326484680e-02 -4.511692374944686890e-02 -7.971148937940597534e-02 -5.296995490789413452e-02
1.200586631894111633e-01 4.767958819866180420e-02 4.014512524008750916e-02 -3.737636283040046692e-02 6.077980250120162964e-02 1.624266244471073151e-02 -2.900291420519351959e-02
4.097423702478408813e-02 1.430127024650573730e-01 7.789894938468933105e-03 -1.445088442414999008e-02 7.009344547986984253e-02 2.720540575683116913e-02 -2.113692089915275574e-02
-8.488057553768157959e-02 -1.111662983894348145e-01 -5.790928378701210022e-02 -4.948697239160537720e-02 -6.560253351926803589e-02 -1.138937696814537048e-01 -7.961843162775039673e-02
-8.359722793102264404e-02 -8.989145979285240173e-03 1.270849443972110748e-02 1.765228435397148132e-02 6.748845917172729969e-04 -4.740129038691520691e-02 -4.046978801488876343e-02
-5.288334563374519348e-03 2.375094778835773468e-02 1.817902326583862305e-01 2.257525175809860229e-01 1.253422200679779053e-01 6.300429813563823700e-03 -5.436465889215469360e-02
-5.057778675109148026e-03 7.916319370269775391e-02 3.400400578975677490e-01 4.305240511894226074e-01 2.566288411617279053e-01 -2.306342497467994690e-02 -4.499259218573570251e-02
-5.421730503439903259e-02 5.336817819625139236e-03 2.068522274494171143e-01 3.594991266727447510e-01 1.946540325880050659e-01 3.400309756398200989e-02 -5.086519569158554077e-02
-7.357799261808395386e-02 -5.082145333290100098e-02 3.091205656528472900e-02 7.983347028493881226e-02 5.525238811969757080e-02 -6.527598202228546143e-02 -9.611091762781143188e-02
-1.029106900095939636e-01 -5.909618735313415527e-02 -5.257078260183334351e-02 -3.630392253398895264e-02 -2.108381502330303192e-02 -9.375657886266708374e-02 -1.006702482700347900e-01
-4.956466704607009888e-02 -5.664058774709701538e-02 -3.772539645433425903e-02 -7.198528200387954712e-02 -7.656942307949066162e-02 -5.291561409831047058e-02 -5.081320554018020630e-02
-1.517581194639205933e-02 -1.479404047131538391e-02 2.125647477805614471e-02 3.802166134119033813e-02 -2.326788567006587982e-02 -5.097415298223495483e-02 -5.072616413235664368e-02
-3.958183526992797852e-02 -7.762982044368982315e-03 1.659635305404663086e-01 2.151917666196823120e-01 8.032344281673431396e-02 -1.738046854734420776e-02 -5.443248897790908813e-02
-1.708969473838806152e-03 5.696900188922882080e-02 2.585307061672210693e-01 4.534716904163360596e-01 2.052731812000274658e-01 1.322321128100156784e-02 -2.733532711863517761e-02
-4.293199628591537476e-02 2.757150307297706604e-02 1.837981492280960083e-01 3.470546305179595947e-01 2.162483185529708862e-01 -4.465638485271483660e-04 -1.265523489564657211e-02
-7.007348537445068359e-02 -2.955328486859798431e-02 2.803407423198223114e-02 3.600831702351570129e-02 8.248897641897201538e-02 1.690278295427560806e-03 1.922031515277922153e-03
-5.808153003454208374e-02 -7.870543748140335083e-02 -6.397698819637298584e-02 -5.700861103832721710e-03 -5.098386108875274658e-02 -3.858007863163948059e-02 -3.938537091016769409e-02
1.728328317403793335e-02 -1.904130168259143829e-02 1.154713146388530731e-02 -2.260128967463970184e-02 1.717178337275981903e-02 6.443919241428375244e-02 9.788062423467636108e-03
2.165093645453453064e-02 -1.631317287683486938e-02 3.267889469861984253e-02 9.402632713317871094e-03 8.872420527040958405e-03 -1.193750184029340744e-02 2.652147412300109863e-02
5.159798264503479004e-02 2.137378044426441193e-02 7.732045650482177734e-02 4.746989160776138306e-02 3.320263465866446495e-03 2.009163377806544304e-03 2.633188106119632721e-02
1.941171847283840179e-02 -9.024287573993206024e-03 9.820710122585296631e-02 1.240810975432395935e-01 7.834126055240631104e-02 1.031650230288505554e-02 3.328562155365943909e-02
-2.857553027570247650e-02 -2.712057158350944519e-02 -7.345151389017701149e-04 8.659908175468444824e-02 6.492011249065399170e-02 4.038782790303230286e-02 -8.937611710280179977e-04
-2.103918045759201050e-02 -6.461086124181747437e-02 -4.053101688623428345e-02 -4.937260970473289490e-02 5.199039354920387268e-03 1.233425363898277283e-02 9.703772142529487610e-03
-1.203498337417840958e-02 -3.140605241060256958e-02 -7.054100185632705688e-02 -3.534161299467086792e-02 -4.296346381306648254e-02 -4.527642391622066498e-03 5.968117620795965195e-03
3.825135994702577591e-03 -4.198322817683219910e-02 -1.377746611833572388e-01 -4.319372400641441345e-02 -8.092378266155719757e-03 -2.682225964963436127e-02 -5.710668489336967468e-02
-3.101179189980030060e-02 -2.634747028350830078e-01 -1.423331201076507568e-01 3.671690449118614197e-02 -6.892135739326477051e-02 -9.944164007902145386e-02 -1.493535749614238739e-02
-1.405536383390426636e-01 -5.935358628630638123e-02 2.646769583225250244e-01 2.206599414348602295e-01 1.448708325624465942e-01 1.906600035727024078e-02 -4.291472211480140686e-02
-8.140908926725387573e-02 -1.420115027576684952e-02 -3.747257590293884277e-02 -1.810154467821121216e-01 -6.698092818260192871e-02 -4.226045683026313782e-02 -5.510867014527320862e-02
5.161688476800918579e-02 6.073559075593948364e-02 7.749465852975845337e-02 -1.372336223721504211e-02 2.086855843663215637e-02 -3.070222772657871246e-02 3.390463069081306458e-02
-4.421963170170783997e-02 1.695271022617816925e-02 2.345813065767288208e-01 1.903863996267318726e-01 3.219144791364669800e-02 -1.079706475138664246e-02 2.427300438284873962e-02
-5.007828399538993835e-02 -7.411463186144828796e-03 8.447057753801345825e-02 6.066707894206047058e-02 -4.465826600790023804e-02 1.638467051088809967e-02 9.225256741046905518e-03
2.754069678485393524e-02 -5.583816394209861755e-02 -2.147356048226356506e-02 8.282136172056198120e-03 4.036792740225791931e-02 -3.272412717342376709e-02 2.446737512946128845e-02
-1.417275704443454742e-02 -1.019828990101814270e-01 8.088233880698680878e-03 -2.197482064366340637e-02 -1.461871201172471046e-03 -3.243913501501083374e-02 -8.886676281690597534e-02
-2.092462964355945587e-02 2.274102158844470978e-02 2.313151508569717407e-01 2.274527102708816528e-01 1.923427730798721313e-01 9.910212457180023193e-02 -7.891108840703964233e-02
1.322109717875719070e-02 1.074603479355573654e-02 4.156555980443954468e-03 -1.501441001892089844e-01 -6.271373480558395386e-02 -4.927753005176782608e-03 1.531804818660020828e-02
-1.843842677772045135e-02 5.589077249169349670e-02 8.273167163133621216e-02 -3.357890248298645020e-02 -4.166989773511886597e-02 -4.301358759403228760e-02 2.083467319607734680e-02
-3.954396769404411316e-02 7.509896159172058105e-02 1.232509166002273560e-01 8.299271017313003540e-02 2.536301314830780029e-02 1.639638328924775124e-03 -4.587759450078010559e-02
-2.624546550214290619e-02 -4.843884706497192383e-02 6.986613385379314423e-03 -5.288336798548698425e-02 -4.519377276301383972e-02 -5.813146755099296570e-02 -5.434715747833251953e-02
1.203518658876419067e-01 3.910555690526962280e-02 6.944215297698974609e-02 9.231322258710861206e-02 2.672354131937026978e-02 4.599772393703460693e-02 7.942701131105422974e-02
4.616311192512512207e-02 -3.266930580139160156e-02 1.478592772036790848e-02 -1.418390544131398201e-03 -5.068059545010328293e-03 -1.451554801315069199e-02 -2.485960721969604492e-02
3.578912466764450073e-02 2.004311233758926392e-02 1.091981306672096252e-01 1.109907850623130798e-01 1.219820901751518250e-01 1.617379114031791687e-02 -4.879321157932281494e-02
7.234078366309404373e-03 -6.437297910451889038e-02 -7.330448180437088013e-02 -1.483442187309265137e-01 -1.135746985673904419e-01 -5.613616853952407837e-02 7.062748074531555176e-02
-1.966399513185024261e-02 3.367466852068901062e-02 2.273245155811309814e-02 -1.197152584791183472e-01 -1.228559315204620361e-01 -4.390281438827514648e-02 5.434517934918403625e-02
-2.979086525738239288e-02 -2.568714506924152374e-02 4.165072739124298096e-02 -7.588926702737808228e-02 -7.291644811630249023e-02 -4.995995759963989258e-02 -3.252314403653144836e-02
3.547438234090805054e-02 -5.031617730855941772e-02 -7.808883488178253174e-02 1.214860007166862488e-02 -3.825298696756362915e-02 -5.340932309627532959e-02 -1.750929281115531921e-02
-8.045089989900588989e-02 -8.191841095685958862e-02 -6.980331987142562866e-02 -4.552430659532546997e-02 -6.122900545597076416e-02 -4.810567200183868408e-02 -2.068504691123962402e-02
-9.250859916210174561e-02 -6.792955845594406128e-02 -1.338075753301382065e-02 2.339520491659641266e-02 -3.875297261402010918e-03 -4.696947708725929260e-02 -2.876900136470794678e-02
-5.653421580791473389e-02 -9.055767208337783813e-03 1.943902075290679932e-01 2.890035808086395264e-01 3.200097754597663879e-02 -1.541621889919042587e-02 -1.552239805459976196e-02
-2.960450574755668640e-02 1.735705323517322540e-02 2.870738506317138672e-01 4.054440557956695557e-01 1.465307921171188354e-01 -2.592326886951923370e-02 -3.114189952611923218e-02
-5.694309622049331665e-02 2.926731854677200317e-02 1.511204391717910767e-01 2.272011339664459229e-01 -6.337859202176332474e-03 -8.059907704591751099e-02 -2.557571046054363251e-02
-4.739383608102798462e-02 -4.694395512342453003e-02 -9.417060762643814087e-03 -9.466212941333651543e-04 -3.128106892108917236e-02 -3.370761498808860779e-02 1.215859968215227127e-02
-2.611341699957847595e-02 -2.421165630221366882e-02 -6.251011043787002563e-02 -7.169909030199050903e-02 -9.781708568334579468e-02 -4.935625940561294556e-02 -3.345043957233428955e-02
5.227647256106138229e-03 3.771350160241127014e-02 6.584750488400459290e-03 -4.136556386947631836e-02 -5.487990379333496094e-02 1.192237064242362976e-02 -1.469853450544178486e-03
-4.010127857327461243e-02 -2.885493077337741852e-02 3.737872838973999023e-02 4.369266331195831299e-02 -6.146994233131408691e-02 -2.199421823024749756e-02 5.274388473480939865e-03
-9.931442327797412872e-03 4.872733354568481445e-02 2.316562086343765259e-01 3.473134636878967285e-01 5.278515070676803589e-02 -3.976315259933471680e-02 -1.959126256406307220e-02
-1.095299888402223587e-02 8.192255347967147827e-02 3.794478178024291992e-01 5.498692989349365234e-01 1.405756920576095581e-01 -2.604625746607780457e-02 -1.303456444293260574e-02
-5.399501416832208633e-03 6.842538714408874512e-02 2.120515704154968262e-01 2.730011641979217529e-01 8.833066374063491821e-02 1.855501555837690830e-03 -3.481721132993698120e-02
-3.325787559151649475e-02 3.071851469576358795e-02 2.784334681928157806e-02 5.684870854020118713e-02 -1.021086983382701874e-02 9.936284273862838745e-03 -1.521736755967140198e-02
1.822358369827270508e-02 -1.360713131725788116e-02 -9.020426310598850250e-03 -8.136466145515441895e-02 -4.691404104232788086e-02 1.050374936312437057e-02 -2.397038275375962257e-03
4.696568474173545837e-02 4.657936282455921173e-03 1.003275974653661251e-03 3.442015498876571655e-03 -2.227458730340003967e-02 5.023070797324180603e-02 -1.580763928359374404e-04
-1.451299525797367096e-02 -2.939810231328010559e-02 -2.039066702127456665e-02 3.956088796257972717e-02 -2.405744791030883789e-02 -8.807794190943241119e-03 4.573806747794151306e-02
-2.718267403542995453e-02 -2.714398142416030169e-04 9.774056077003479004e-02 1.293592602014541626e-01 -1.281022746115922928e-02 9.679691866040229797e-03 -2.434441447257995605e-02
-3.697071457281708717e-03 8.718627505004405975e-03 1.399151384830474854e-01 2.389032095670700073e-01 2.585539966821670532e-02 -5.418059602379798889e-02 2.671387279406189919e-03
-2.019773609936237335e-02 -5.357760936021804810e-02 2.857180777937173843e-03 9.365697205066680908e-02 -3.637145739048719406e-03 -3.532495722174644470e-02 1.262039993889629841e-03
-2.349237911403179169e-02 -6.596366316080093384e-02 -5.137631669640541077e-02 -7.309345901012420654e-02 -8.682040125131607056e-02 -2.813891321420669556e-02 -8.828539401292800903e-03
1.083401963114738464e-02 -5.468865111470222473e-02 -6.044848635792732239e-02 -8.174765855073928833e-02 -6.359934806823730469e-02 -4.105265717953443527e-03 1.546208001673221588e-02
-3.145223110914230347e-02 -5.018717423081398010e-02 -5.302489921450614929e-02 1.000984758138656616e-02 -5.944995209574699402e-03 -5.742582306265830994e-02 -4.333448782563209534e-02
-4.262761026620864868e-02 -8.130633831024169922e-02 -6.102656945586204529e-03 4.931960254907608032e-02 1.634946791455149651e-03 -7.412888109683990479e-02 -3.648327197879552841e-03
-5.486257374286651611e-02 -7.521325349807739258e-02 7.717428356409072876e-02 1.891030520200729370e-01 5.149389803409576416e-02 -2.987566217780113220e-02 -1.348550524562597275e-02
-8.341712504625320435e-02 -6.599085032939910889e-02 1.657919734716415405e-01 3.627892434597015381e-01 2.093711942434310913e-01 -3.016391769051551819e-02 1.018170081079006195e-02
-9.204327315092086792e-02 -6.895840913057327271e-02 1.033228859305381775e-01 2.140103429555892944e-01 1.422447413206100464e-01 3.197757527232170105e-02 7.902319775894284248e-04
-4.482468962669372559e-02 -7.946898788213729858e-02 -1.855283975601196289e-02 1.119265053421258926e-02 1.731932908296585083e-02 -7.383219897747039795e-02 1.029999554157257080e-02
-5.005509406328201294e-02 -6.193539500236511230e-02 -6.312844902276992798e-02 -8.603803068399429321e-02 -9.897687472403049469e-03 -2.670076489448547363e-02 4.255192354321479797e-03
-6.939496379345655441e-03 -3.854085132479667664e-02 -4.160010069608688354e-02 -2.331109344959259033e-02 -3.487631678581237793e-02 -2.951257489621639252e-02 1.154052838683128357e-02
-7.634630799293518066e-02 -7.268778234720230103e-02 -4.367619752883911133e-02 3.862564638257026672e-02 -5.176948755979537964e-02 -5.663469061255455017e-02 -2.143990807235240936e-02
-8.566337823867797852e-02 -9.681390225887298584e-02 2.791650593280792236e-02 1.645300388336181641e-01 2.807318419218063354e-02 -5.698356404900550842e-02 -1.597630605101585388e-02
-7.216263562440872192e-02 -4.890653654001653194e-04 1.457664668560028076e-01 3.673701286315917969e-01 1.696048676967620850e-01 5.330745596438646317e-03 4.335955716669559479e-03
-1.028505787253379822e-01 -6.550729274749755859e-02 1.060242131352424622e-01 2.210345566272735596e-01 9.362253546714782715e-02 1.452894136309623718e-02 9.976783767342567444e-03
-6.986816227436065674e-02 -1.199702769517898560e-01 2.556507708504796028e-03 1.343136932700872421e-02 -3.440993651747703552e-02 -1.075760833919048309e-02 -6.162317935377359390e-03
-5.112051591277122498e-02 -1.873728260397911072e-02 -1.641896180808544159e-02 -2.756553888320922852e-02 -6.465787068009376526e-03 -1.785648055374622345e-02 9.936111047863960266e-03
-7.786892820149660110e-03 -3.526379913091659546e-02 1.510311383754014969e-02 -1.069563254714012146e-02 -3.884133696556091309e-02 -4.678656533360481262e-02 -8.718976168893277645e-04
-2.593579469248652458e-03 -4.369977116584777832e-02 -4.578036814928054810e-02 -9.682932868599891663e-03 -7.550922036170959473e-02 -3.957494720816612244e-02 -1.783960126340389252e-02
-9.456452913582324982e-03 -5.287684127688407898e-02 2.738174051046371460e-02 1.454314589500427246e-01 1.654740236699581146e-02 -3.841716423630714417e-02 -3.986843675374984741e-02
-3.541111201047897339e-02 -6.985798943787813187e-03 1.893636882305145264e-01 3.942611813545227051e-01 1.905442327260971069e-01 -9.235123434336856008e-05 -2.538105845451354980e-02
-1.220283098518848419e-02 -5.017782095819711685e-03 1.368398666381835938e-01 2.771865427494049072e-01 1.239992454648017883e-01 -1.329180940956575796e-05 6.770515348762273788e-03
-1.196616888046264648e-02 -6.309200078248977661e-02 3.726531937718391418e-02 1.305514946579933167e-02 2.812977693974971771e-02 -1.419547572731971741e-02 -2.934455126523971558e-02
3.582359477877616882e-02 -1.852157525718212128e-02 -1.664789952337741852e-02 -2.789643406867980957e-02 -1.652695052325725555e-02 -2.684476971626281738e-02 1.614915020763874054e-02
-1.001305580139160156e-01 3.097882121801376343e-02 7.128506549634039402e-04 -8.033970743417739868e-02 -2.170662581920623779e-02 2.711340971291065216e-02 -4.453220218420028687e-02
-2.139379642903804779e-02 9.620275348424911499e-02 -2.916716039180755615e-02 -1.557624526321887970e-02 6.920644547790288925e-03 3.798583149909973145e-02 -6.468924880027770996e-02
2.132128365337848663e-02 1.830768771469593048e-03 -6.487721204757690430e-02 9.580572694540023804e-02 -3.255213424563407898e-02 1.254880893975496292e-02 -3.794122859835624695e-02
-4.267627373337745667e-02 1.763541065156459808e-02 1.055504679679870605e-01 2.987945675849914551e-01 7.923711091279983521e-02 7.662198692560195923e-02 -3.486732020974159241e-02
-4.741235449910163879e-02 6.384939700365066528e-02 9.212342649698257446e-02 2.459364831447601318e-01 1.127999871969223022e-01 9.097968786954879761e-02 -1.981992274522781372e-02
3.880292177200317383e-02 1.032392606139183044e-01 3.056718222796916962e-02 4.787339642643928528e-02 3.483540564775466919e-02 3.817530348896980286e-02 -2.190634980797767639e-02
4.111250489950180054e-02 8.846199512481689453e-02 1.645709760487079620e-02 -3.041585208848118782e-03 5.577509477734565735e-02 4.681295156478881836e-02 -1.728985644876956940e-02
-7.534675300121307373e-02 -8.983689546585083008e-02 -8.683569729328155518e-02 -3.626068681478500366e-02 -1.308304220438003540e-01 -6.760191172361373901e-02 -5.580105632543563843e-02
-1.767561770975589752e-02 -3.628634288907051086e-02 -1.228751689195632935e-01 -6.636171042919158936e-02 -1.705436855554580688e-01 -1.512154587544500828e-03 1.783850416541099548e-02
2.132521197199821472e-02 -9.241344034671783447e-02 -2.003619074821472168e-01 -1.952695287764072418e-02 -2.604613006114959717e-01 -1.101585179567337036e-01 1.437377184629440308e-02
-1.854526810348033905e-02 -1.388050317764282227e-01 -1.030883938074111938e-01 1.180485188961029053e-01 -1.774390339851379395e-01 -1.259972155094146729e-02 3.350355103611946106e-02
-6.653996556997299194e-02 -1.206619143486022949e-01 -8.028177171945571899e-02 7.143039256334304810e-02 -1.301524937152862549e-01 -1.383215654641389847e-02 1.572710089385509491e-02
-1.015409305691719055e-01 -5.596922338008880615e-02 -5.138156190514564514e-02 -7.987292855978012085e-02 -1.913115680217742920e-01 2.895322162657976151e-03 9.229051880538463593e-03
-1.019740402698516846e-01 7.779163308441638947e-03 -9.846313856542110443e-03 -6.779976934194564819e-02 -6.939167529344558716e-02 -1.190506201237440109e-02 -1.288356166332960129e-02
1.706594228744506836e-02 7.704524695873260498e-02 8.223099634051322937e-03 4.503935948014259338e-02 5.751433223485946655e-02 4.758166894316673279e-02 -4.463119059801101685e-02
1.152320019900798798e-02 3.554087877273559570e-02 3.515921533107757568e-02 9.041417390108108521e-02 -4.383887350559234619e-02 1.062423288822174072e-01 6.068738922476768494e-02
9.426801651716232300e-02 1.861904375255107880e-02 -7.863788306713104248e-02 8.702789247035980225e-02 -1.125686094164848328e-01 6.663336604833602905e-02 5.678935348987579346e-02
1.056086644530296326e-01 -1.645079255104064941e-02 -3.253475204110145569e-02 2.467713505029678345e-01 4.405040293931961060e-02 3.692465275526046753e-02 5.235983058810234070e-03
9.271819144487380981e-02 -5.416554212570190430e-02 -4.896048083901405334e-02 2.336454540491104126e-01 6.862530112266540527e-02 1.595758460462093353e-02 -1.109920907765626907e-02
4.582095518708229065e-02 2.523546107113361359e-03 -1.130490563809871674e-02 -1.961620524525642395e-03 2.318367362022399902e-02 4.269710741937160492e-03 1.223632786422967911e-02
3.579678013920783997e-02 1.539524830877780914e-02 8.363232016563415527e-03 -6.914842873811721802e-02 2.616279385983943939e-02 3.013128787279129028e-02 -3.417078405618667603e-02
2.009413577616214752e-02 -1.735263876616954803e-02 1.375375315546989441e-02 6.320822983980178833e-02 2.680804207921028137e-02 3.928175196051597595e-02 3.655534610152244568e-02
-6.784087512642145157e-03 -4.677622765302658081e-02 1.145298033952713013e-01 1.698521673679351807e-01 5.587057024240493774e-02 1.505741942673921585e-02 -1.841242797672748566e-02
9.700781665742397308e-03 1.049150601029396057e-01 2.271418273448944092e-01 1.928079128265380859e-01 1.946127787232398987e-02 5.864140763878822327e-02 6.994722038507461548e-02
3.505420684814453125e-02 2.319209724664688110e-01 3.721734583377838135e-01 8.134303987026214600e-02 -4.710245504975318909e-02 5.481144879013299942e-03 7.200872153043746948e-02
6.873838603496551514e-02 1.791293025016784668e-01 2.457389831542968750e-01 2.415262535214424133e-02 2.835841476917266846e-02 9.110306948423385620e-02 9.500672668218612671e-02
5.973206833004951477e-02 1.128505393862724304e-01 1.152127012610435486e-01 1.749778538942337036e-01 1.655691266059875488e-01 8.931919187307357788e-02 6.795690208673477173e-02
-3.561629215255379677e-03 3.232612460851669312e-02 1.001986488699913025e-01 1.713410317897796631e-01 6.702579557895660400e-02 7.273169606924057007e-02 5.705372244119644165e-02
-5.184562504291534424e-02 -7.344424724578857422e-02 -7.711785286664962769e-02 -7.660942524671554565e-02 -7.182306796312332153e-02 -2.103670872747898102e-02 -1.054530683904886246e-02
-6.697481125593185425e-02 -1.207323893904685974e-01 -2.384548075497150421e-02 -6.354595720767974854e-02 -5.418400466442108154e-02 -6.227286905050277710e-02 -4.828253388404846191e-02
-1.079484447836875916e-01 -6.929460167884826660e-02 -2.145311236381530762e-02 -8.978244662284851074e-02 -8.737416565418243408e-02 -4.317923635244369507e-02 -8.191895484924316406e-02
-9.167189896106719971e-02 -3.450364246964454651e-02 2.760887332260608673e-02 -2.270742803812026978e-01 -1.858371347188949585e-01 -4.353008046746253967e-02 -6.176124885678291321e-02
-1.032326966524124146e-01 -6.744726747274398804e-02 -6.450763344764709473e-02 -2.044629454612731934e-01 -1.913478821516036987e-01 -7.487916946411132812e-02 -6.003123521804809570e-02
-1.048424243927001953e-01 -9.430687129497528076e-02 -5.569295212626457214e-02 -1.498575061559677124e-01 -5.818993598222732544e-02 -3.622139245271682739e-02 -1.020860299468040466e-01
-1.731322109699249268e-01 -1.073278039693832397e-01 -1.217382624745368958e-01 -1.173772215843200684e-01 -6.351105868816375732e-02 -4.742819070816040039e-02 -5.691753700375556946e-02
7.209463417530059814e-02 9.970762580633163452e-02 9.799235314130783081e-02 7.451215386390686035e-02 5.341298505663871765e-02 1.012981384992599487e-01 1.047689020633697510e-01
4.752745851874351501e-02 5.365487653762102127e-03 6.210558488965034485e-02 6.748897582292556763e-02 7.106059789657592773e-02 8.685166388750076294e-02 7.923340052366256714e-02
1.663997210562229156e-02 2.232630271464586258e-03 1.053321436047554016e-01 3.534057876095175743e-03 5.801285617053508759e-03 -4.462947137653827667e-03 3.597030416131019592e-02
1.926646195352077484e-02 4.281810019165277481e-03 1.089227944612503052e-01 -5.169630795717239380e-02 -5.351107567548751831e-02 3.083756379783153534e-02 8.682011067867279053e-02
-2.648896537721157074e-02 8.505713194608688354e-03 1.041598990559577942e-01 -4.434001445770263672e-02 -7.122414559125900269e-02 2.792944945394992828e-02 6.221007183194160461e-02
7.771675009280443192e-03 4.017279669642448425e-02 5.228343885391950607e-03 6.552129983901977539e-03 1.808572374284267426e-02 6.064444407820701599e-02 1.049009561538696289e-01
2.534185908734798431e-02 5.808656290173530579e-02 -4.999787081032991409e-03 7.987668365240097046e-02 5.148942768573760986e-02 6.518128514289855957e-02 9.260922670364379883e-02
5.330142378807067871e-02 1.876854337751865387e-02 -2.137518301606178284e-02 -7.408625911921262741e-03 -9.710486046969890594e-03 -6.960196793079376221e-02 1.261567417532205582e-02
-8.296215906739234924e-03 4.593814536929130554e-02 -2.400493808090686798e-02 -3.958078101277351379e-02 -2.848841249942779541e-02 2.659429050981998444e-02 4.342954233288764954e-02
3.193623945116996765e-02 4.770518839359283447e-02 -4.632007330656051636e-02 -1.561203300952911377e-01 2.925414592027664185e-02 6.054283306002616882e-02 -5.209308117628097534e-03
6.487412750720977783e-02 -8.400523074669763446e-05 -2.756361663341522217e-01 -4.081825613975524902e-01 -9.898479282855987549e-02 1.360349450260400772e-02 6.012951210141181946e-02
1.249419897794723511e-02 -4.610678926110267639e-02 -1.576676815748214722e-01 -3.192856311798095703e-01 -1.239807307720184326e-01 -1.295945234596729279e-02 2.428958658128976822e-03
-5.533811450004577637e-02 5.421998212113976479e-04 6.083375960588455200e-02 4.896999895572662354e-02 3.700260818004608154e-02 -6.244664080440998077e-03 -3.699279576539993286e-02
-6.249867752194404602e-02 -3.639477863907814026e-02 7.968433201313018799e-03 6.893552094697952271e-02 9.494952857494354248e-03 -5.515064299106597900e-02 -3.268691524863243103e-02
8.168612420558929443e-02 5.405038967728614807e-02 6.566701084375381470e-02 1.469997502863407135e-02 4.524411633610725403e-02 -1.323220785707235336e-02 -5.653441697359085083e-02
2.498070895671844482e-02 4.703583568334579468e-02 1.775240711867809296e-02 4.046725109219551086e-02 1.036600619554519653e-01 3.018607757985591888e-02 -8.086083835223689675e-05
1.676211832091212273e-03 6.567734479904174805e-02 3.358010947704315186e-02 -1.215715799480676651e-02 7.785702496767044067e-02 5.414555966854095459e-02 -1.985581126064062119e-03
6.500492990016937256e-02 5.746093019843101501e-02 -5.068236216902732849e-02 -2.025736570358276367e-01 1.143140532076358795e-02 5.289547145366668701e-02 -1.790453121066093445e-02
9.527508169412612915e-02 8.523549884557723999e-02 -5.582769960165023804e-02 -1.503045856952667236e-01 7.128319144248962402e-02 3.752879425883293152e-02 -5.978785455226898193e-03
6.241365894675254822e-02 9.971252083778381348e-02 1.008436754345893860e-01 1.357811987400054932e-01 1.176936626434326172e-01 3.656734898686408997e-02 -4.380541667342185974e-02
-1.671693474054336548e-02 5.765199661254882812e-02 7.600606232881546021e-02 1.052031815052032471e-01 2.959015965461730957e-02 -1.113986410200595856e-02 -8.464552462100982666e-02
-2.774501778185367584e-02 -4.746899381279945374e-02 1.241591945290565491e-02 -1.684187725186347961e-02 -4.260035976767539978e-02 -4.392456263303756714e-02 3.856482729315757751e-02
-1.439222134649753571e-02 -3.940204158425331116e-02 -6.154089048504829407e-02 -2.620661444962024689e-02 3.387912362813949585e-02 -2.461348101496696472e-02 -9.233507327735424042e-03
-3.331549465656280518e-02 -4.525961354374885559e-02 -1.032545119524002075e-01 -1.214002892374992371e-01 3.352105617523193359e-02 1.141256839036941528e-02 2.802796196192502975e-03
-9.767322242259979248e-02 4.096144065260887146e-02 -1.083822995424270630e-01 -3.072150647640228271e-01 -8.848800510168075562e-02 4.718671366572380066e-02 1.646327041089534760e-02
1.846049446612596512e-03 5.155891180038452148e-02 -7.329566031694412231e-02 -2.256183624267578125e-01 -2.911814302206039429e-02 1.095150187611579895e-01 7.348376512527465820e-02
2.889448031783103943e-02 5.417321622371673584e-02 3.853900358080863953e-02 7.124717533588409424e-02 1.238892301917076111e-01 1.042820438742637634e-01 -3.170524490997195244e-03
-1.127559971064329147e-02 6.764803081750869751e-03 4.308551177382469177e-02 1.157623380422592163e-01 1.062258332967758179e-01 1.118264067918062210e-02 -3.789130598306655884e-02
-2.904821559786796570e-02 -3.941781446337699890e-02 3.291951119899749756e-02 4.194338619709014893e-02 3.519529476761817932e-02 -2.795906923711299896e-02 -4.788268730044364929e-02
-1.310071628540754318e-02 -3.505422919988632202e-02 9.191736578941345215e-02 1.280107051134109497e-01 8.064471930265426636e-02 -1.830088347196578979e-02 1.677253399975597858e-03
7.232087082229554653e-04 -2.298089489340782166e-02 1.749553829431533813e-01 2.594200670719146729e-01 1.078062877058982849e-01 3.440653160214424133e-02 1.572266966104507446e-02
-4.730799421668052673e-02 7.173679769039154053e-03 1.116964593529701233e-01 1.761341243982315063e-01 9.655626863241195679e-02 -3.500849381089210510e-02 1.436618156731128693e-02
-2.455206587910652161e-02 -8.709719404578208923e-03 2.086406201124191284e-02 -1.276675425469875336e-02 -3.367550671100616455e-02 -9.108815342187881470e-03 -5.372417718172073364e-02
6.307245697826147079e-03 -5.601247027516365051e-02 -1.064872443675994873e-01 -9.279685467481613159e-02 -2.938813902437686920e-02 -1.082681468687951565e-03 -2.956043183803558350e-02
-1.012658118270337582e-03 3.363933414220809937e-02 -1.422352902591228485e-02 -2.940883859992027283e-02 2.655062079429626465e-02 1.728642731904983521e-02 -2.705308422446250916e-02
4.272230342030525208e-02 -5.845141038298606873e-02 7.216374069685116410e-05 -2.164804749190807343e-02 2.986733103170990944e-03 -1.904392428696155548e-02 3.536627069115638733e-02
2.067769877612590790e-03 -6.742607057094573975e-02 8.717025071382522583e-02 1.201066449284553528e-01 -1.382627431303262711e-02 2.354512922465801239e-02 1.526554673910140991e-02
4.966081120073795319e-03 -3.161087632179260254e-02 1.330939084291458130e-01 1.671746373176574707e-01 1.062334775924682617e-01 3.900828212499618530e-02 4.177404195070266724e-02
5.538530182093381882e-03 -2.639122866094112396e-02 8.527363836765289307e-02 5.634342879056930542e-02 7.588531821966171265e-02 2.862880565226078033e-02 2.579106390476226807e-02
4.371212050318717957e-02 -4.160181805491447449e-02 -3.228673711419105530e-02 -7.521658390760421753e-02 -2.326450310647487640e-02 -1.026454661041498184e-02 -5.526902386918663979e-04
2.900295704603195190e-02 -1.666178181767463684e-02 -7.672921568155288696e-02 -1.038057059049606323e-01 -6.167121976613998413e-02 3.716326132416725159e-02 1.651741750538349152e-02
1.967723481357097626e-02 2.741760807111859322e-03 1.613691076636314392e-02 2.648105146363377571e-03 3.340278752148151398e-03 7.947204262018203735e-02 2.705531369429081678e-04
7.762023061513900757e-02 2.728596888482570648e-02 3.604623302817344666e-02 1.424106303602457047e-02 -3.184701548889279366e-03 -2.252194099128246307e-02 8.505485951900482178e-02
8.462106436491012573e-02 -6.864169985055923462e-02 -1.042616553604602814e-02 2.037345990538597107e-02 -1.098182983696460724e-02 -6.358224898576736450e-02 1.847744174301624298e-02
2.027231641113758087e-02 -1.585413664579391479e-01 3.337798267602920532e-02 1.088091880083084106e-01 -1.557748019695281982e-02 -7.165925204753875732e-02 -3.167209774255752563e-02
-5.787710659205913544e-03 -1.862379908561706543e-01 2.788985706865787506e-02 4.597521945834159851e-02 -6.303352117538452148e-02 -1.112474650144577026e-01 -3.767786547541618347e-02
-4.528970643877983093e-02 -2.041129469871520996e-01 -1.699847131967544556e-01 -1.804135590791702271e-01 -1.818308234214782715e-01 -1.845684945583343506e-01 -5.439692363142967224e-02
-2.095636911690235138e-02 -1.294491440057754517e-01 -2.414734959602355957e-01 -3.186108171939849854e-01 -2.421824485063552856e-01 -1.059533953666687012e-01 -3.640934079885482788e-02
-1.248756609857082367e-02 -5.126109346747398376e-02 -1.413806229829788208e-01 -1.220206022262573242e-01 -1.164207309484481812e-01 -7.068130373954772949e-02 -2.779691666364669800e-02
-9.843452274799346924e-02 -4.816670343279838562e-02 -9.235359728336334229e-02 -1.041048765182495117e-01 -2.068225666880607605e-02 -4.676211997866630554e-02 -4.060134664177894592e-02
-9.405598044395446777e-02 -1.236247196793556213e-01 -1.370823681354522705e-01 -8.059191703796386719e-02 -7.833783328533172607e-02 -8.155056834220886230e-02 -1.751514151692390442e-02
-6.176276504993438721e-02 -1.517600119113922119e-01 -1.030360162258148193e-01 -3.410843014717102051e-02 -5.717077851295471191e-02 -3.361040726304054260e-02 -5.562831647694110870e-03
-7.915373146533966064e-02 -1.554763913154602051e-01 -1.005572378635406494e-01 -2.235409989953041077e-02 7.291976828128099442e-03 -3.174535185098648071e-02 -8.377351611852645874e-02
-1.058377474546432495e-01 -9.656167030334472656e-02 -1.397164911031723022e-01 -3.238518163561820984e-02 -1.571131683886051178e-02 2.357030473649501801e-02 -1.741402898915112019e-03
-8.938781917095184326e-02 -9.577428549528121948e-02 -1.392961293458938599e-01 -6.139947474002838135e-02 -2.179393358528614044e-02 -1.541346311569213867e-02 -9.451814927160739899e-03
-3.877383470535278320e-02 -1.159686148166656494e-01 -8.617539703845977783e-02 -6.669359654188156128e-02 -1.547692902386188507e-02 -4.238829761743545532e-02 -4.778860509395599365e-02
-5.352906882762908936e-03 -2.564838901162147522e-02 -6.199961528182029724e-02 -4.225265234708786011e-02 -7.068264298141002655e-03 4.863272421061992645e-03 -1.790528371930122375e-02
-3.431209176778793335e-02 -8.529190719127655029e-02 -6.217100471258163452e-02 -1.850670436397194862e-03 2.645049244165420532e-02 -9.095631539821624756e-02 -8.216747082769870758e-03
-5.167844519019126892e-02 -5.884023010730743408e-02 2.142824232578277588e-03 7.778434082865715027e-03 3.702920675277709961e-02 -1.340223755687475204e-02 -1.969104167073965073e-03
-2.613336406648159027e-02 -2.774593420326709747e-02 -2.378225885331630707e-02 1.605889573693275452e-02 8.954511582851409912e-02 6.965624541044235229e-02 -9.746887721121311188e-03
-3.498469665646553040e-02 -2.482281439006328583e-02 -3.585821017622947693e-02 2.019773796200752258e-02 1.304389685392379761e-01 9.490597993135452271e-02 -6.602050736546516418e-03
-2.744283340871334076e-02 -4.827320203185081482e-02 -2.170330286026000977e-02 7.681781798601150513e-02 6.126011535525321960e-02 2.863891609013080597e-02 -2.751160413026809692e-03
-3.482988849282264709e-02 2.514362148940563202e-02 1.371873542666435242e-02 6.277962122112512589e-03 -8.748281747102737427e-03 -5.170831829309463501e-02 5.470361188054084778e-02
-1.524521317332983017e-02 -7.855460047721862793e-03 -5.380702763795852661e-02 -2.179981209337711334e-02 -2.047516405582427979e-02 1.046637352555990219e-02 6.293766200542449951e-03
-1.180685963481664658e-02 -2.519847266376018524e-02 9.803159162402153015e-03 1.336254086345434189e-02 2.849030494689941406e-02 2.550296299159526825e-02 -2.557528391480445862e-02
4.541085660457611084e-02 5.886959284543991089e-02 5.398442968726158142e-02 8.895929902791976929e-02 1.065443381667137146e-01 6.788489222526550293e-02 2.061383984982967377e-02
8.568640798330307007e-02 5.800221487879753113e-02 4.018043354153633118e-02 1.774938851594924927e-01 1.975269764661788940e-01 7.935785502195358276e-02 5.666397884488105774e-02
7.969216257333755493e-02 7.651785016059875488e-02 1.085437312722206116e-01 1.227449625730514526e-01 2.916239500045776367e-01 2.112476378679275513e-01 8.310170471668243408e-02
1.033688411116600037e-01 1.358778327703475952e-01 7.750464230775833130e-02 1.274380236864089966e-01 2.294653952121734619e-01 2.536703050136566162e-01 1.088343411684036255e-01
8.688215166330337524e-02 5.679869279265403748e-02 7.396190613508224487e-02 1.173329353332519531e-01 1.439306288957595825e-01 4.371307790279388428e-02 7.497671991586685181e-02
-7.027397304773330688e-02 -1.174574419856071472e-01 -9.214357286691665649e-02 -1.665887534618377686e-01 -1.400510221719741821e-01 -1.466175615787506104e-01 -5.675178393721580505e-02
-1.039017215371131897e-01 -1.245368793606758118e-01 -8.152162283658981323e-02 -7.429891079664230347e-02 -7.206901162862777710e-02 -1.163278967142105103e-01 -6.109648570418357849e-02
-2.711828798055648804e-02 -7.485447824001312256e-02 -2.854678081348538399e-03 1.851586699485778809e-01 3.020151145756244659e-02 -7.912895828485488892e-02 -6.551206111907958984e-02
-1.103764679282903671e-02 -8.427026867866516113e-02 6.541838496923446655e-02 2.258356064558029175e-01 3.451089933514595032e-02 -4.678366705775260925e-02 2.784811891615390778e-03
-5.117887631058692932e-02 3.561137244105339050e-02 1.253673136234283447e-01 1.435715258121490479e-01 -3.771466761827468872e-02 -1.300995610654354095e-02 4.382200911641120911e-02
-6.667982786893844604e-02 -3.829414397478103638e-02 4.057573899626731873e-02 -1.738493144512176514e-02 -5.324947834014892578e-02 1.593996584415435791e-02 5.388296395540237427e-02
-4.708917066454887390e-02 -3.081077896058559418e-02 -9.356474876403808594e-02 7.916396134532988071e-05 1.101645734161138535e-02 -3.204159811139106750e-02 -4.473193362355232239e-02
2.446018345654010773e-02 -3.263944387435913086e-02 -4.607320576906204224e-02 -7.925669103860855103e-02 -2.405182458460330963e-02 1.412701513618230820e-02 -1.910911127924919128e-02
5.047615244984626770e-02 -4.633072018623352051e-02 6.898069404996931553e-04 2.134075388312339783e-02 -4.667361453175544739e-02 -5.015217885375022888e-02 5.098629742860794067e-03
8.468639105558395386e-03 -9.310311079025268555e-02 1.032744124531745911e-01 3.931441009044647217e-01 1.165769919753074646e-01 -7.216475903987884521e-03 9.881872683763504028e-03
6.963437795639038086e-02 -2.354855276644229889e-02 2.522317767143249512e-01 5.384955406188964844e-01 9.579911828041076660e-02 3.339579328894615173e-02 1.248181052505970001e-02
6.490346044301986694e-02 1.465861946344375610e-01 2.925534546375274658e-01 3.086926639080047607e-01 2.183010056614875793e-02 6.352345645427703857e-02 9.301970154047012329e-02
5.089480802416801453e-02 4.222653806209564209e-02 1.892411112785339355e-01 1.335153281688690186e-01 -1.908031851053237915e-02 -1.074474956840276718e-02 9.215763956308364868e-02
1.952205225825309753e-02 -2.027715556323528290e-02 1.329851243644952774e-02 4.100528731942176819e-02 1.924407482147216797e-02 5.222542211413383484e-02 -7.927279220893979073e-04
2.658375352621078491e-02 -3.348796069622039795e-02 -2.213348075747489929e-02 -3.776462376117706299e-02 -6.990754604339599609e-02 -4.546508193016052246e-02 1.424289494752883911e-02
9.622171521186828613e-02 -7.403577864170074463e-02 -1.002788916230201721e-01 -2.860508300364017487e-02 -6.466708332300186157e-02 -2.909403853118419647e-02 -9.853146970272064209e-03
1.544712763279676437e-02 -6.059615686535835266e-02 5.713982973247766495e-03 9.899231046438217163e-02 5.884738266468048096e-02 1.838474534451961517e-02 2.134830504655838013e-02
-1.700887642800807953e-02 -6.770450621843338013e-02 1.085811033844947815e-01 1.595517843961715698e-01 -3.067783638834953308e-02 -1.854876428842544556e-02 4.960668832063674927e-02
2.105627208948135376e-02 -4.188203811645507812e-02 9.220694750547409058e-02 6.256753206253051758e-02 -1.385719478130340576e-01 -5.754587054252624512e-02 7.904537022113800049e-02
2.058716490864753723e-02 -1.570795103907585144e-02 -4.545797035098075867e-02 -7.043568789958953857e-02 -4.482323676347732544e-02 -5.453623365610837936e-03 1.117160730063915253e-02
6.401902530342340469e-03 1.998648792505264282e-02 -6.175408139824867249e-02 -7.422628253698348999e-02 -6.162225268781185150e-03 3.549031540751457214e-02 3.729066997766494751e-02
7.941585034132003784e-03 -6.653129588812589645e-03 7.180724292993545532e-03 1.024150103330612183e-01 7.937049865722656250e-02 5.322032794356346130e-02 2.216137712821364403e-03
-1.106403581798076630e-02 5.603158846497535706e-02 1.460247784852981567e-01 1.975433528423309326e-01 1.525480449199676514e-01 1.098389029502868652e-01 1.250881236046552658e-02
2.980917692184448242e-02 7.032262533903121948e-02 3.429141342639923096e-01 3.378915488719940186e-01 1.824884414672851562e-01 1.121702268719673157e-01 -1.872056722640991211e-02
-1.646947674453258514e-02 2.039542198181152344e-01 4.291256666183471680e-01 3.435016274452209473e-01 2.147673964500427246e-01 8.430218696594238281e-02 -9.706970304250717163e-02
-6.203687936067581177e-02 1.232379153370857239e-01 2.642374336719512939e-01 2.251972258090972900e-01 2.873940467834472656e-01 2.148902863264083862e-01 2.161802537739276886e-02
1.932732202112674713e-02 1.493080109357833862e-01 1.366659551858901978e-01 1.429192870855331421e-01 2.927814424037933350e-01 1.678052097558975220e-01 1.456653885543346405e-02
-4.208890721201896667e-03 9.811449795961380005e-02 1.416942179203033447e-01 1.387385725975036621e-01 7.818482816219329834e-02 -2.887577982619404793e-03 -6.901019066572189331e-02
4.239702969789505005e-02 -1.952590979635715485e-02 3.328255936503410339e-02 8.061563223600387573e-02 1.801828667521476746e-02 4.643558710813522339e-02 2.115230262279510498e-02
1.920737558975815773e-03 2.891137450933456421e-02 9.991817921400070190e-02 6.598109751939773560e-02 3.080581687390804291e-02 6.300398707389831543e-02 -8.851764723658561707e-03
-1.716622151434421539e-02 2.820322848856449127e-02 1.671763807535171509e-01 1.665282398462295532e-01 4.283686727285385132e-02 -1.446499954909086227e-03 -5.999996513128280640e-02
-4.022489115595817566e-02 7.156065106391906738e-02 2.218775898218154907e-01 1.862231940031051636e-01 9.340900927782058716e-02 -1.484276261180639267e-03 -6.238824501633644104e-02
-2.218364737927913666e-02 7.818650454282760620e-03 9.439240396022796631e-02 6.912786513566970825e-02 1.204465553164482117e-01 4.394885525107383728e-02 -1.782422885298728943e-02
-2.321000909432768822e-03 8.708106726408004761e-02 7.399683445692062378e-02 -2.262867800891399384e-02 8.126632124185562134e-02 1.285163611173629761e-01 2.309342846274375916e-03
1.745056174695491791e-02 6.351489573717117310e-02 -1.674743718467652798e-03 2.442938275635242462e-02 5.876569822430610657e-02 3.421337530016899109e-02 -3.041476756334304810e-02
6.413996964693069458e-02 9.417667984962463379e-03 2.291929704369977117e-04 2.200425229966640472e-02 6.950145959854125977e-02 5.637774989008903503e-02 3.184311091899871826e-02
2.036067284643650055e-02 -3.704848233610391617e-03 2.272140979766845703e-02 1.335160899907350540e-02 -7.416049484163522720e-03 1.127323973923921585e-02 8.433970622718334198e-03
-3.805141896009445190e-02 -2.508582174777984619e-02 5.455876886844635010e-02 1.189039833843708038e-02 5.175297847017645836e-04 -2.607500553131103516e-02 -5.239776521921157837e-02
-5.734238773584365845e-02 -1.858280040323734283e-02 4.688971489667892456e-02 1.217638887465000153e-02 -1.827018149197101593e-02 -6.770833581686019897e-02 -5.713438615202903748e-02
-2.167691104114055634e-02 6.100842729210853577e-03 -2.690230868756771088e-02 -6.023117899894714355e-02 -5.360187962651252747e-03 3.645030409097671509e-02 -5.905903875827789307e-03
4.803528543561697006e-03 4.133557435125112534e-03 -1.903130672872066498e-02 -7.012202590703964233e-02 1.620450988411903381e-03 5.877609550952911377e-02 4.838911816477775574e-02
5.008866637945175171e-02 2.833472564816474915e-02 1.950264559127390385e-03 -1.240441389381885529e-02 5.671208351850509644e-02 2.848822623491287231e-02 4.855738952755928040e-02
7.269572466611862183e-02 -1.026698499917984009e-01 -1.434385925531387329e-01 3.135499730706214905e-02 -4.798270016908645630e-02 -5.681065097451210022e-02 3.858190774917602539e-02
-5.698384344577789307e-02 -2.032625675201416016e-01 -1.092151254415512085e-01 -8.626382052898406982e-02 -9.558367729187011719e-02 -1.049951165914535522e-01 2.705901302397251129e-02
-6.384661048650741577e-02 -1.056496575474739075e-01 -1.064460054039955139e-01 -6.116666272282600403e-02 -4.142484441399574280e-02 -2.327587828040122986e-02 4.955354612320661545e-03
1.985707320272922516e-02 2.233746834099292755e-02 5.615601316094398499e-02 5.364294350147247314e-02 3.162131831049919128e-02 -2.767717652022838593e-02 8.756455034017562866e-02
-6.323435157537460327e-02 -1.591434888541698456e-02 -1.503620762377977371e-02 -3.706608712673187256e-02 -1.263839304447174072e-01 -7.757737487554550171e-02 6.672085821628570557e-02
-1.505996882915496826e-01 -8.185208588838577271e-02 -5.871351808309555054e-02 -9.669247269630432129e-02 -1.248089447617530823e-01 -5.791921913623809814e-02 7.116912305355072021e-02
-4.093089699745178223e-02 -9.432019293308258057e-02 -1.445337235927581787e-01 -8.170488476753234863e-02 -4.214849695563316345e-02 -1.600239239633083344e-02 2.650007233023643494e-02
1.300825923681259155e-01 2.239038981497287750e-02 4.293553996831178665e-03 -4.895845055580139160e-02 -2.042794832959771156e-03 4.475156217813491821e-02 1.323763933032751083e-02
4.981011524796485901e-02 1.491720881313085556e-02 -1.048470139503479004e-01 -4.445544630289077759e-02 -9.440209716558456421e-03 -3.549700835719704628e-03 -1.598273031413555145e-02
-4.801398888230323792e-02 5.031683947890996933e-03 8.457760512828826904e-02 1.581792533397674561e-01 1.723470166325569153e-02 -3.432310884818434715e-03 8.918239921331405640e-02
-3.776883706450462341e-02 1.226455122232437134e-01 2.974324524402618408e-01 2.286715209484100342e-01 1.416763663291931152e-01 1.017100960016250610e-01 9.345142543315887451e-02
1.219159811735153198e-01 1.674238294363021851e-01 8.394692838191986084e-02 9.537920355796813965e-02 8.432006090879440308e-02 -1.843253150582313538e-03 3.681819140911102295e-02
6.638256460428237915e-02 6.838444620370864868e-02 -1.195925194770097733e-02 9.484472684562206268e-04 1.032487675547599792e-01 1.213375385850667953e-02 6.030429899692535400e-02
-7.929983735084533691e-02 -7.239970844238996506e-03 1.665980904363095760e-03 -1.837653107941150665e-02 -2.458607591688632965e-02 3.947702795267105103e-02 1.276873145252466202e-02
2.115666307508945465e-02 2.263960428535938263e-02 1.733380631776526570e-04 -5.511130765080451965e-02 -1.942792832851409912e-01 -7.350081205368041992e-02 7.731644064188003540e-02
7.015241682529449463e-02 -2.671111375093460083e-02 -1.420520693063735962e-01 -1.037590503692626953e-01 -1.382161080837249756e-01 -1.187699437141418457e-01 1.032146066427230835e-02
2.928815782070159912e-02 -6.532421708106994629e-02 -4.352120682597160339e-02 4.785132780671119690e-02 2.435499057173728943e-02 -8.791363984346389771e-02 -9.092468023300170898e-02
3.746300702914595604e-03 2.903942763805389404e-02 1.107080057263374329e-01 1.140298396348953247e-01 5.720592569559812546e-03 -6.451196968555450439e-02 -2.812393754720687866e-02
-7.501518353819847107e-03 1.534155309200286865e-01 1.371844708919525146e-01 -6.741866469383239746e-02 -1.451513916254043579e-01 -3.436414897441864014e-02 3.664205223321914673e-02
-9.153819642961025238e-03 6.191051751375198364e-02 -3.551005572080612183e-02 -9.049184620380401611e-02 -1.204397305846214294e-01 -4.714173451066017151e-02 1.716048270463943481e-02
-2.961672842502593994e-03 -2.865669317543506622e-02 -5.116130411624908447e-02 1.157778128981590271e-02 -1.669709570705890656e-03 -6.800070405006408691e-02 -5.217432975769042969e-02
-3.682815283536911011e-02 -2.958407998085021973e-02 2.736810827627778053e-03 1.521515008062124252e-02 -4.649566859006881714e-02 -3.981776162981987000e-02 4.040573909878730774e-02
2.342177182435989380e-02 2.749250456690788269e-02 1.031354591250419617e-01 9.041375666856765747e-02 2.287193760275840759e-02 -3.449863940477371216e-02 -1.202231869683600962e-04
1.502804551273584366e-02 1.224055737257003784e-01 1.748259961605072021e-01 1.911176145076751709e-01 3.987229987978935242e-02 -5.045622587203979492e-02 3.763309121131896973e-02
-1.125392224639654160e-02 1.180308312177658081e-01 2.768938243389129639e-01 1.878411620855331421e-01 5.114436522126197815e-02 -1.832307316362857819e-04 4.762542247772216797e-02
5.084721371531486511e-02 6.284195929765701294e-02 9.897880256175994873e-02 1.742046475410461426e-01 6.081985682249069214e-02 1.864721626043319702e-02 5.350571498274803162e-02
1.664090156555175781e-02 -1.000930462032556534e-02 3.089382871985435486e-02 3.708312660455703735e-02 6.237148493528366089e-02 5.802359059453010559e-02 6.514596194028854370e-02
5.915334075689315796e-02 6.497949361801147461e-02 1.315146218985319138e-02 3.043305315077304840e-02 8.317282050848007202e-02 1.893725991249084473e-02 -1.181607786566019058e-02
-8.494010567665100098e-02 -5.675033107399940491e-02 -1.948039606213569641e-02 -1.669810339808464050e-02 -5.759081244468688965e-02 -3.665770962834358215e-02 -7.297305762767791748e-02
-7.468602061271667480e-02 -8.144435286521911621e-02 3.777684271335601807e-02 -4.263750743120908737e-03 -4.832416027784347534e-02 -4.389621317386627197e-02 -3.569229971617460251e-03
-3.806509450078010559e-02 1.527302432805299759e-02 1.230670437216758728e-01 8.304042369127273560e-02 -7.725325226783752441e-02 -4.150539636611938477e-02 -1.147429179400205612e-02
-4.280613362789154053e-02 2.470877580344676971e-02 1.113656014204025269e-01 4.974622279405593872e-02 -6.026018783450126648e-02 -8.250506967306137085e-02 -1.897114701569080353e-02
-4.496332257986068726e-02 -2.965008839964866638e-02 9.541940689086914062e-02 1.574671827256679535e-02 -3.580219298601150513e-02 4.699100740253925323e-03 5.653207190334796906e-04
1.368038076907396317e-02 -3.338580951094627380e-02 -2.448181249201297760e-02 -7.096309959888458252e-02 1.011521834880113602e-02 2.416078187525272369e-02 1.762142963707447052e-02
9.669038467109203339e-03 1.993103884160518646e-02 1.772411912679672241e-02 3.637451212853193283e-03 2.982174605131149292e-02 4.548988491296768188e-02 2.228991314768791199e-02
-8.209482580423355103e-02 -8.016978204250335693e-02 -8.065737038850784302e-02 -8.682313561439514160e-02 -1.049035340547561646e-01 -1.441350132226943970e-01 -1.239028424024581909e-01
-4.010102152824401855e-02 -9.035464376211166382e-02 -4.056261479854583740e-02 -7.368412613868713379e-02 -1.187976375222206116e-01 -1.197270601987838745e-01 -6.916631758213043213e-02
-6.250710040330886841e-02 -6.446945667266845703e-02 4.693907871842384338e-02 -3.905254602432250977e-02 -1.892471760511398315e-01 -1.781688481569290161e-01 -1.122315675020217896e-01
-9.554415196180343628e-02 -7.166734337806701660e-02 9.504743665456771851e-02 5.503900721669197083e-02 -1.763156205415725708e-01 -2.204763740301132202e-01 -1.004725098609924316e-01
-1.111233457922935486e-01 -1.446242183446884155e-01 7.496431935578584671e-03 -2.305911853909492493e-02 -1.523258984088897705e-01 -1.255430728197097778e-01 -7.430095970630645752e-02
-7.223644107580184937e-02 -1.058121621608734131e-01 -7.483195513486862183e-02 -8.361186832189559937e-02 -6.129654124379158020e-02 -4.417702555656433105e-02 1.353288255631923676e-02
1.037404220551252365e-02 -6.189187616109848022e-02 -1.075320020318031311e-01 -7.698293030261993408e-02 -4.487583786249160767e-02 -4.764029290527105331e-03 8.551304228603839874e-03
5.642298236489295959e-02 3.255799820180982351e-04 -3.480659052729606628e-02 -1.599383726716041565e-02 -1.955499500036239624e-02 7.076938450336456299e-02 4.489764198660850525e-02
-6.505151279270648956e-03 1.110174879431724548e-02 -3.843320161104202271e-02 -2.028281614184379578e-02 7.371433079242706299e-02 7.471013069152832031e-02 2.072004228830337524e-02
-1.513515692204236984e-02 -2.543935365974903107e-02 -5.646412447094917297e-02 7.726974785327911377e-02 2.092753052711486816e-01 1.162229999899864197e-01 5.511196795850992203e-03
1.371207833290100098e-02 -4.903789237141609192e-02 -5.534901842474937439e-02 7.081161439418792725e-02 2.598025798797607422e-01 1.488795578479766846e-01 3.655964881181716919e-02
-8.160712197422981262e-03 6.483889184892177582e-03 -8.871884644031524658e-02 -5.058905109763145447e-02 4.545558243989944458e-02 6.646208465099334717e-02 -1.400492805987596512e-02
1.672143675386905670e-02 2.961580269038677216e-02 -5.796253308653831482e-02 -9.141892939805984497e-02 -4.338337481021881104e-02 -1.710769603960216045e-03 -3.045656951144337654e-03
4.272120818495750427e-02 -1.041975710541009903e-02 1.698266156017780304e-02 -2.707797102630138397e-02 4.376383963972330093e-03 3.616849333047866821e-02 6.269539147615432739e-02
-6.199468672275543213e-02 -3.657736629247665405e-02 -8.671697229146957397e-02 -5.328345671296119690e-02 2.358997054398059845e-02 -6.144478917121887207e-02 -5.160083249211311340e-02
-7.538456469774246216e-02 -1.929718814790248871e-02 -1.371371895074844360e-01 -1.039926260709762573e-01 2.195421140640974045e-03 -4.418489336967468262e-02 -4.077043384313583374e-02
-4.612186923623085022e-02 -4.820447415113449097e-02 -2.115644216537475586e-01 1.019885111600160599e-02 1.496799141168594360e-01 2.244310826063156128e-02 -2.306926995515823364e-02
-3.287743404507637024e-02 -1.115023717284202576e-01 -1.834490299224853516e-01 2.912425994873046875e-02 1.887029260396957397e-01 3.359793126583099365e-02 2.208383381366729736e-02
-6.020009517669677734e-02 -7.127394527196884155e-02 -1.278959810733795166e-01 -6.552370637655258179e-02 1.552348863333463669e-02 -5.577531084418296814e-02 -2.093250863254070282e-02
-1.187626421451568604e-01 -6.855523586273193359e-02 -7.723604887723922729e-02 -1.035892441868782043e-01 -8.089452236890792847e-02 -8.670528233051300049e-02 -2.410290576517581940e-02
-7.270865142345428467e-02 -1.052640751004219055e-01 -9.467124938964843750e-02 -1.052860766649246216e-01 -4.586882889270782471e-02 -6.160832196474075317e-02 6.542586255818605423e-03
9.833506308495998383e-03 -1.002025604248046875e-02 -3.699627891182899475e-02 1.547257415950298309e-02 1.763902418315410614e-02 4.758873954415321350e-02 6.191490683704614639e-03
2.858537063002586365e-02 5.600106343626976013e-02 -3.227648138999938965e-02 7.259313017129898071e-02 1.097176522016525269e-01 9.216322749853134155e-02 4.075385257601737976e-02
3.245991468429565430e-02 5.841914564371109009e-02 -7.553097605705261230e-02 9.785577654838562012e-02 2.701478302478790283e-01 1.748051792383193970e-01 -6.374760530889034271e-03
6.359447538852691650e-02 9.395587444305419922e-02 -6.723522394895553589e-02 1.670024096965789795e-01 3.020747005939483643e-01 1.779758930206298828e-01 3.268415480852127075e-02
1.710017956793308258e-02 5.027855187654495239e-02 -4.103407636284828186e-02 -7.770344614982604980e-03 1.074475571513175964e-01 7.351683825254440308e-02 1.419575139880180359e-02
3.911044821143150330e-02 5.295291543006896973e-03 -6.061047688126564026e-02 -4.457234963774681091e-02 -6.203148514032363892e-02 -1.015252526849508286e-02 -3.134445846080780029e-02
-3.904334083199501038e-02 -2.990831807255744934e-02 -6.097275018692016602e-02 -7.623507827520370483e-02 -5.245622992515563965e-02 -2.350670844316482544e-02 -6.283214688301086426e-02
8.780720829963684082e-02 2.204145304858684540e-02 -2.767350897192955017e-02 -3.177077323198318481e-02 -2.155222371220588684e-02 -2.422801963984966278e-02 3.212638199329376221e-03
4.527826607227325439e-02 -7.191509008407592773e-02 -1.163562685251235962e-01 3.676791116595268250e-02 2.700210781767964363e-03 -5.765184387564659119e-02 -6.667715311050415039e-02
4.330814629793167114e-02 -6.780355423688888550e-02 -2.893802709877490997e-02 1.261904239654541016e-01 9.072378277778625488e-02 -7.720667123794555664e-02 -9.171830117702484131e-02
2.870596759021282196e-02 -4.697963595390319824e-02 -1.005042996257543564e-02 1.875817328691482544e-01 1.193399131298065186e-01 -4.732354730367660522e-02 -8.631138503551483154e-02
-1.214623358100652695e-02 -6.386385858058929443e-02 5.331826396286487579e-03 1.609208285808563232e-01 1.302793771028518677e-01 -4.513112083077430725e-02 -9.784547239542007446e-02
-9.557003155350685120e-03 -1.242349073290824890e-01 -1.022875532507896423e-01 4.615962877869606018e-02 1.272538397461175919e-02 -5.303152278065681458e-02 -1.763054728507995605e-02
1.817120984196662903e-02 -7.928233593702316284e-02 -8.441667258739471436e-02 -9.065595269203186035e-02 -5.879827216267585754e-02 -2.329906634986400604e-02 1.058134157210588455e-02
5.338450521230697632e-02 3.061651997268199921e-02 -6.305977702140808105e-02 -4.371976107358932495e-02 -2.557321079075336456e-02 -4.306476563215255737e-02 2.687225863337516785e-02
4.643038380891084671e-03 -1.433354802429676056e-02 -3.382937237620353699e-02 8.662351965904235840e-02 2.056167274713516235e-02 -5.835521593689918518e-02 -2.645081654191017151e-02
-3.591935848817229271e-03 -6.151631847023963928e-02 1.177906873635947704e-03 1.566679626703262329e-01 1.745500713586807251e-01 -9.781209751963615417e-03 -1.054485738277435303e-01
-4.793149419128894806e-03 -1.347101945430040359e-02 4.775765165686607361e-02 2.698678970336914062e-01 2.577106654644012451e-01 8.271449245512485504e-03 -7.520673424005508423e-02
8.128165063681080937e-05 4.042254295200109482e-03 5.681293085217475891e-02 2.261005938053131104e-01 1.716041713953018188e-01 -2.969745546579360962e-04 -8.696767687797546387e-02
-2.021268382668495178e-02 -1.671543903648853302e-02 -5.746531113982200623e-02 6.537692993879318237e-02 6.568061560392379761e-02 -6.961123645305633545e-02 -1.148403342813253403e-02
1.503132656216621399e-02 -4.740041866898536682e-02 -4.874310269951820374e-02 -3.857097029685974121e-02 -5.082587152719497681e-02 -5.025360267609357834e-03 5.648798123002052307e-02
-1.180813927203416824e-02 -4.402053728699684143e-02 -6.789615750312805176e-02 -1.950134336948394775e-02 -7.051355391740798950e-02 -9.275027364492416382e-02 1.908291131258010864e-02
3.217432275414466858e-02 -1.961909234523773193e-02 -3.137218952178955078e-02 3.522132337093353271e-02 1.866260915994644165e-02 -9.838235378265380859e-02 -6.584846228361129761e-02
-1.353519968688488007e-02 -5.660185590386390686e-02 -1.898389123380184174e-02 1.418423503637313843e-01 1.543520241975784302e-01 -1.412944495677947998e-02 -7.326304167509078979e-02
3.201078157871961594e-03 -7.503854483366012573e-02 2.083408832550048828e-02 2.205220758914947510e-01 2.667266428470611572e-01 4.543809220194816589e-03 -1.176071912050247192e-01
-1.399757899343967438e-02 -1.038781106472015381e-01 3.087520832195878029e-03 1.693724989891052246e-01 1.858293861150741577e-01 -1.051293872296810150e-02 -7.131591439247131348e-02
-4.007216915488243103e-02 -7.626947015523910522e-02 -9.177419543266296387e-02 3.823786973953247070e-02 5.931160598993301392e-02 -2.216147631406784058e-02 -2.791658602654933929e-02
-3.271243721246719360e-02 -6.557334959506988525e-02 -9.860835969448089600e-02 -7.549727708101272583e-02 -2.631007693707942963e-02 -3.045312501490116119e-02 -2.791233127936720848e-03
7.694411906413733959e-04 -2.266934886574745178e-02 7.842464372515678406e-03 5.360571667551994324e-02 3.181504830718040466e-02 -9.966018609702587128e-03 3.601849451661109924e-02
5.707918852567672729e-02 1.631639339029788971e-02 1.218955665826797485e-01 5.530959367752075195e-02 8.936603367328643799e-02 3.654012456536293030e-02 7.549811899662017822e-02
4.606415703892707825e-02 6.567168235778808594e-02 9.616968780755996704e-02 -6.506855785846710205e-02 3.464520350098609924e-02 8.321256190538406372e-02 9.120712429285049438e-02
7.051507383584976196e-02 6.577735394239425659e-02 4.638024047017097473e-02 -1.883566230535507202e-01 -7.410913705825805664e-02 6.203068420290946960e-02 8.927804976701736450e-02
4.263897985219955444e-02 3.152549266815185547e-02 5.624598264694213867e-02 -6.158682331442832947e-02 4.902144894003868103e-02 7.252559065818786621e-02 7.389847189188003540e-02
5.665145441889762878e-02 5.489017441868782043e-02 9.013763070106506348e-02 1.403532028198242188e-01 1.075441390275955200e-01 5.880756303668022156e-02 9.588067233562469482e-02
7.365082204341888428e-02 4.956325516104698181e-02 4.617892578244209290e-02 1.066663265228271484e-01 3.189432993531227112e-02 6.504292786121368408e-02 2.740526013076305389e-02
-6.362938880920410156e-02 -1.713020727038383484e-02 -3.220467595383524895e-03 -2.449399419128894806e-02 4.301949217915534973e-02 6.456390768289566040e-02 7.587709929794073105e-03
-2.390146255493164062e-02 2.905831858515739441e-02 9.278518706560134888e-02 -6.446047872304916382e-02 8.969084918498992920e-02 3.215007111430168152e-02 2.143926918506622314e-02
-4.430048167705535889e-02 4.829349741339683533e-02 9.000224620103836060e-02 -1.806595176458358765e-01 2.521549537777900696e-02 9.652718156576156616e-02 -2.900185994803905487e-02
-3.402210399508476257e-02 -4.571242257952690125e-03 9.072026237845420837e-03 -2.999111413955688477e-01 -3.269179537892341614e-02 3.401218727231025696e-02 -2.140756137669086456e-02
-4.576639086008071899e-02 -2.939068526029586792e-02 4.626463353633880615e-02 -1.823128610849380493e-01 3.083653515204787254e-03 2.327572181820869446e-02 -2.758255228400230408e-02
-1.759942062199115753e-02 1.270670630037784576e-02 1.723119057714939117e-02 -1.843559928238391876e-02 1.068201363086700439e-01 -4.036568570882081985e-03 -1.073376461863517761e-02
-1.157228741794824600e-02 1.578057743608951569e-02 -3.594676032662391663e-02 1.212026458233594894e-02 4.507975280284881592e-02 2.865812554955482483e-02 -5.132985860109329224e-02
-1.669108867645263672e-02 -8.149749040603637695e-02 -5.239181965589523315e-02 -2.023988030850887299e-02 -8.750186534598469734e-04 2.595852501690387726e-02 3.702729195356369019e-02
-5.794327706098556519e-02 -6.335783749818801880e-02 -2.136836759746074677e-02 -3.897527977824211121e-02 6.309168040752410889e-02 7.355521898716688156e-03 6.655007600784301758e-02
-1.140563040971755981e-01 -4.510886967182159424e-03 4.911700636148452759e-02 -1.833524852991104126e-01 -4.541878774762153625e-02 -3.967305272817611694e-02 2.807302027940750122e-02
-1.038540825247764587e-01 -5.627832561731338501e-02 -3.029311262071132660e-02 -3.909735381603240967e-01 -1.546087712049484253e-01 -3.402590006589889526e-02 3.077927045524120331e-02
-1.303274780511856079e-01 -6.897686421871185303e-02 -2.298312820494174957e-02 -2.335720062255859375e-01 -8.076938241720199585e-02 4.318955540657043457e-02 -1.268083415925502777e-02
-7.601083070039749146e-02 -7.603643834590911865e-02 2.180384472012519836e-02 1.607629656791687012e-02 2.888376265764236450e-02 2.125091291964054108e-02 6.804884225130081177e-02
2.861588075757026672e-02 -3.557784482836723328e-02 -2.329780533909797668e-02 5.963935703039169312e-02 4.227075353264808655e-02 7.963759824633598328e-03 7.385317236185073853e-02
-8.522184938192367554e-02 -9.659623354673385620e-02 -1.186125352978706360e-01 -8.901377022266387939e-02 -9.140621870756149292e-02 -8.445782959461212158e-02 -4.313397407531738281e-02
-3.366808220744132996e-02 -5.310498178005218506e-02 -7.757481187582015991e-02 -7.975875586271286011e-02 -1.897176913917064667e-02 -7.293114811182022095e-02 -8.786196261644363403e-02
-3.040897101163864136e-02 1.309338863939046860e-02 1.974943876266479492e-01 9.865010529756546021e-02 -8.120192587375640869e-02 -1.209589317440986633e-01 -4.580798000097274780e-02
1.023660413920879364e-02 3.576115891337394714e-02 3.549618422985076904e-01 3.010074496269226074e-01 -2.400146797299385071e-02 -1.067092493176460266e-01 9.155850857496261597e-03
-1.387378666549921036e-02 2.812040911521762609e-04 1.970153301954269409e-01 1.889285892248153687e-01 4.955322295427322388e-02 -2.822118066251277924e-02 -1.196624618023633957e-02
-3.758780658245086670e-02 -1.955548301339149475e-02 -2.639845758676528931e-02 1.194026600569486618e-02 1.505582407116889954e-02 -5.804978776723146439e-03 -8.277677744626998901e-02
-3.496802598237991333e-02 -6.785999238491058350e-02 -6.110507622361183167e-02 -8.056225627660751343e-02 -4.144720360636711121e-02 -4.402580484747886658e-02 -7.004176080226898193e-02
6.011894438415765762e-03 -4.097376391291618347e-02 -6.028318032622337341e-02 -3.957217559218406677e-02 -4.489068314433097839e-02 -9.618219919502735138e-03 9.100046008825302124e-03
-8.985179476439952850e-03 -7.194013893604278564e-02 2.651427686214447021e-02 2.918621711432933807e-02 -4.160442575812339783e-02 -4.548205435276031494e-02 -8.113448508083820343e-03
6.632636487483978271e-02 4.703769460320472717e-02 3.110579550266265869e-01 1.945870816707611084e-01 -3.969596698880195618e-02 -4.139933362603187561e-02 -1.157366577535867691e-02
6.480982154607772827e-02 1.251160055398941040e-01 4.823977053165435791e-01 3.635692000389099121e-01 -1.307538477703928947e-03 -4.717005416750907898e-02 -4.440364986658096313e-02
3.369678929448127747e-02 3.766491264104843140e-02 2.950718998908996582e-01 2.330488115549087524e-01 4.347068071365356445e-02 -1.086635864339768887e-03 -4.835860058665275574e-02
-3.745834529399871826e-02 -2.861175499856472015e-02 2.339269965887069702e-02 1.454692706465721130e-02 1.443645637482404709e-02 5.388987436890602112e-02 1.124745886772871017e-02
2.519319020211696625e-02 -1.143179740756750107e-02 -2.997073717415332794e-02 -2.674803696572780609e-02 -1.522640418261289597e-02 -3.403326123952865601e-02 -2.348282746970653534e-02
-2.649154886603355408e-02 -2.907045185565948486e-02 -6.128970906138420105e-02 -1.577703841030597687e-02 -3.207577392458915710e-02 1.511264406144618988e-02 1.942047663033008575e-02
2.897372283041477203e-02 -6.347882747650146484e-02 -2.582544088363647461e-02 -2.534989453852176666e-02 -9.961144626140594482e-02 -2.104702778160572052e-02 2.799256518483161926e-02
-1.762833213433623314e-03 -5.061140656471252441e-02 9.714365750551223755e-02 6.420414149761199951e-02 -1.043614745140075684e-01 -7.729316502809524536e-02 -2.947369776666164398e-02
-3.944391012191772461e-02 -2.603360079228878021e-02 1.725511550903320312e-01 1.169209703803062439e-01 -5.788265168666839600e-02 -7.030415534973144531e-02 -2.562065050005912781e-02
-2.378317713737487793e-02 -4.673040658235549927e-02 4.966079071164131165e-02 2.793302014470100403e-02 -6.815408170223236084e-02 9.981731884181499481e-03 3.881779685616493225e-02
-2.408570609986782074e-03 -6.755290180444717407e-02 -8.094890415668487549e-02 -7.329323142766952515e-02 8.778683841228485107e-03 3.525054454803466797e-02 1.942864619195461273e-02
4.475591331720352173e-02 2.467814274132251740e-02 -7.243988662958145142e-02 -6.817656755447387695e-02 4.397389292716979980e-02 4.479011893272399902e-02 3.130314871668815613e-02
-1.260650902986526489e-02 2.281148917973041534e-02 -8.810313791036605835e-02 -1.601643674075603485e-02 2.595544792711734772e-02 -3.604027628898620605e-02 -4.280159622430801392e-02
-3.330658748745918274e-02 -9.915311634540557861e-02 -7.480394840240478516e-02 5.389560014009475708e-02 2.354939468204975128e-02 4.329667985439300537e-02 -8.140617050230503082e-03
-4.789631068706512451e-02 -2.962155081331729889e-02 1.399934887886047363e-01 4.149908423423767090e-01 1.704341322183609009e-01 7.083387114107608795e-03 5.871168803423643112e-03
-4.426324367523193359e-02 2.048932388424873352e-02 2.232976257801055908e-01 5.336542725563049316e-01 2.112858593463897705e-01 9.015357121825218201e-03 -7.072859443724155426e-03
-5.062389746308326721e-02 -6.081589683890342712e-02 2.965819276869297028e-02 2.403141409158706665e-01 9.782584011554718018e-02 -5.879847705364227295e-02 -6.316465139389038086e-02
-8.066324517130851746e-03 -7.698408514261245728e-02 -3.719800710678100586e-02 -2.588659897446632385e-02 2.788045816123485565e-02 -3.904167935252189636e-02 -7.792886346578598022e-02
-5.436738207936286926e-02 -6.087619066238403320e-02 -2.398688346147537231e-02 -6.580015644431114197e-03 -5.873432755470275879e-02 -5.854028463363647461e-02 -9.348364174365997314e-02
3.835395723581314087e-02 -1.702486164867877960e-02 -2.229477278888225555e-02 1.550570409744977951e-02 2.289290353655815125e-02 5.894870311021804810e-02 -2.664146758615970612e-02
3.764147683978080750e-02 -2.525363862514495850e-02 -1.410163566470146179e-02 6.370378285646438599e-02 -1.977605745196342468e-02 -1.480693090707063675e-02 3.279799129813909531e-03
-1.162134669721126556e-02 -1.414477359503507614e-02 1.758745014667510986e-01 4.160971641540527344e-01 1.141481548547744751e-01 1.930440403521060944e-02 5.084770172834396362e-02
-2.385263517498970032e-02 3.474546596407890320e-02 2.235237956047058105e-01 5.645961761474609375e-01 2.303473800420761108e-01 3.680512681603431702e-02 3.435752540826797485e-02
-1.620250986889004707e-03 -2.415467053651809692e-02 1.452007293701171875e-01 2.715466916561126709e-01 1.071429774165153503e-01 3.120361454784870148e-02 -4.237185046076774597e-02
-9.708315134048461914e-03 2.475602738559246063e-02 1.495063770562410355e-02 3.449438139796257019e-02 3.460462763905525208e-02 -1.729426346719264984e-02 9.486664086580276489e-03
-6.894770264625549316e-02 -1.716772653162479401e-02 -1.086294744163751602e-02 2.419858984649181366e-02 -7.803865708410739899e-03 -4.026956111192703247e-02 -1.458813995122909546e-02
3.312124684453010559e-02 1.919702254235744476e-02 -5.985857173800468445e-02 -3.411878272891044617e-02 -3.103816695511341095e-02 1.984930410981178284e-02 5.418252572417259216e-02
1.467573083937168121e-02 -6.602373719215393066e-02 -7.506162673234939575e-02 -3.644114732742309570e-02 -4.778347909450531006e-02 3.550086170434951782e-03 1.933676749467849731e-02
-3.876809030771255493e-03 -9.090691804885864258e-02 1.106936950236558914e-02 8.865329623222351074e-02 -2.079339139163494110e-02 -7.090459764003753662e-02 3.799228370189666748e-02
3.165333066135644913e-03 -1.086933910846710205e-01 1.236283592879772186e-02 1.391212642192840576e-01 -3.654110187198966742e-04 -4.832616820931434631e-02 -4.060334712266921997e-02
3.324213996529579163e-02 -6.907303631305694580e-02 -8.576989173889160156e-02 2.860079286620020866e-03 2.632697112858295441e-02 -1.878613606095314026e-02 -2.638545259833335876e-02
4.225750919431447983e-03 -1.643025170778855681e-04 -1.095159873366355896e-01 -6.714083254337310791e-02 -4.100315645337104797e-02 -2.018579654395580292e-02 -4.064754769206047058e-02
-8.000137284398078918e-03 -1.682888902723789215e-02 -2.955921180546283722e-02 -2.171012014150619507e-02 -5.138597637414932251e-02 -7.861915230751037598e-02 6.027778610587120056e-03
-1.559780724346637726e-02 -7.164830341935157776e-03 -6.850427482277154922e-03 -4.537164419889450073e-02 -1.114277914166450500e-02 5.474469810724258423e-02 -5.581577867269515991e-02
1.744894124567508698e-02 3.303984925150871277e-02 -1.737597025930881500e-02 -4.019635170698165894e-02 2.120670676231384277e-02 5.818229913711547852e-02 3.441709280014038086e-02
-4.431389272212982178e-02 -4.980457015335559845e-03 -9.074396640062332153e-02 -1.811466217041015625e-01 1.193199772387742996e-02 7.772532850503921509e-02 4.444170743227005005e-02
-1.312623452395200729e-02 -3.264264017343521118e-02 -1.222170665860176086e-01 -1.594896316528320312e-01 2.035542950034141541e-02 9.268282353878021240e-02 1.561315730214118958e-02
4.949323460459709167e-02 6.346607208251953125e-02 -1.047831866890192032e-02 5.896840989589691162e-02 1.936961114406585693e-01 1.565380692481994629e-01 2.053005993366241455e-02
9.205143153667449951e-02 8.715995401144027710e-02 8.920837193727493286e-02 1.249941438436508179e-01 1.110772266983985901e-01 1.067252010107040405e-01 4.853556305170059204e-02
1.442996412515640259e-02 8.375569432973861694e-02 9.441959857940673828e-02 8.897388726472854614e-02 6.888543814420700073e-02 1.130413711071014404e-01 4.462613910436630249e-02
-1.748324185609817505e-02 -2.478495705872774124e-03 1.770071452483534813e-03 3.140544146299362183e-02 1.412668917328119278e-02 -1.858843304216861725e-02 8.830735459923744202e-04
-3.507939726114273071e-02 2.812301740050315857e-02 -2.224820293486118317e-02 -7.013188302516937256e-02 -6.389023736119270325e-03 -3.670152649283409119e-02 -8.467770181596279144e-03
3.018842835444957018e-04 2.767241001129150391e-02 -1.276066154241561890e-01 -2.196567356586456299e-01 -1.539510581642389297e-02 -1.947282068431377411e-02 -2.506121806800365448e-02
1.113075297325849533e-02 1.971401739865541458e-03 -2.185092717409133911e-01 -2.473493963479995728e-01 -2.306580729782581329e-02 1.197262201458215714e-02 1.596586406230926514e-02
-1.791562326252460480e-02 4.085647873580455780e-03 -4.306828975677490234e-02 -4.061799868941307068e-02 8.375959098339080811e-02 1.974671147763729095e-02 7.155469059944152832e-02
-6.699028611183166504e-02 4.029480274766683578e-03 -1.830237917602062225e-02 -6.890625227242708206e-03 4.370959848165512085e-02 1.216273382306098938e-02 1.220969762653112411e-02
-1.355481427162885666e-02 -5.187765695154666901e-03 -2.458351664245128632e-02 3.208872396498918533e-03 3.401387110352516174e-02 1.402496919035911560e-02 3.459540009498596191e-02
7.543889433145523071e-02 -1.197184436023235321e-02 6.659280043095350266e-03 7.955841720104217529e-02 8.434495329856872559e-02 2.295764535665512085e-02 6.138040870428085327e-02
-2.771991863846778870e-02 7.557838223874568939e-03 5.381941422820091248e-02 -5.458446219563484192e-02 7.361822575330734253e-02 1.048796065151691437e-02 4.764509573578834534e-02
-9.394570440053939819e-02 5.182169377803802490e-02 -1.191477999091148376e-01 -3.429181277751922607e-01 -7.333415746688842773e-02 4.698911681771278381e-02 4.237186908721923828e-02
-4.194422438740730286e-02 -3.577267006039619446e-02 -2.924135327339172363e-01 -3.565718233585357666e-01 -7.586070895195007324e-02 -2.759098075330257416e-02 5.835267156362533569e-02
-6.822850555181503296e-02 -1.360505819320678711e-03 -2.056560814380645752e-01 -1.077219322323799133e-01 5.343079566955566406e-02 3.636549785733222961e-02 -4.306638240814208984e-02
-2.402557991445064545e-02 -3.355577960610389709e-02 -6.731519848108291626e-02 -6.027539819478988647e-02 2.732918970286846161e-02 3.372677043080329895e-02 6.699271500110626221e-03
2.393817156553268433e-02 -4.404869675636291504e-02 -9.852059185504913330e-03 -5.910274758934974670e-02 -3.512450680136680603e-02 1.192659488879144192e-03 1.429779920727014542e-02
-2.112110145390033722e-02 8.863458037376403809e-02 -3.265662863850593567e-02 2.189471386373043060e-02 7.662558462470769882e-03 -2.831355668604373932e-02 8.198764175176620483e-02
9.356279857456684113e-03 -1.674811169505119324e-02 -3.355561196804046631e-02 -1.341984025202691555e-04 9.955020248889923096e-02 -1.752894185483455658e-02 2.671170420944690704e-02
9.141927212476730347e-02 -9.615314751863479614e-02 1.125281974673271179e-01 -9.130782447755336761e-03 1.085672751069068909e-01 2.228938974440097809e-02 7.606852799654006958e-02
2.925720065832138062e-02 -1.853999495506286621e-01 1.137585565447807312e-01 -1.992635428905487061e-01 -9.405086934566497803e-02 -8.358273655176162720e-02 4.170624539256095886e-02
-2.608373016119003296e-02 -4.942168667912483215e-02 1.779383271932601929e-01 4.203882068395614624e-02 1.566673256456851959e-02 -4.445627331733703613e-03 -1.448270305991172791e-02
-2.485412359237670898e-02 -4.052317515015602112e-02 3.410067036747932434e-02 7.776670902967453003e-02 7.648591697216033936e-02 -9.896694682538509369e-03 9.082130156457424164e-03
-1.482709217816591263e-02 8.350153453648090363e-03 -1.148712784051895142e-01 -3.179379971697926521e-03 -3.432616218924522400e-02 -5.249786376953125000e-02 2.254641801118850708e-02
-5.129307974129915237e-03 2.470406517386436462e-02 6.844411138445138931e-03 -3.991192951798439026e-02 -2.009846642613410950e-02 7.092529907822608948e-03 4.110065847635269165e-02
1.305523887276649475e-02 -7.131346315145492554e-02 2.056955918669700623e-02 -1.185464113950729370e-01 7.237982470542192459e-03 4.461993277072906494e-02 -2.182841114699840546e-02
2.813160605728626251e-02 -1.493756175041198730e-01 1.400163471698760986e-01 3.432885278016328812e-03 8.729165047407150269e-02 9.415227919816970825e-02 -1.729723066091537476e-03
1.794263161718845367e-02 -1.661968082189559937e-01 1.904481947422027588e-01 -1.396975666284561157e-01 -9.607019275426864624e-02 1.064022537320852280e-02 -4.132073000073432922e-02
3.522435203194618225e-02 -1.282480806112289429e-01 2.662313580513000488e-01 -6.937979161739349365e-02 -1.849472709000110626e-02 4.171920195221900940e-02 -4.164841026067733765e-02
4.236157983541488647e-02 -2.262279391288757324e-02 8.117683976888656616e-02 -4.464133828878402710e-02 8.968145400285720825e-02 4.769738018512725830e-02 -2.893846482038497925e-02
-2.380306646227836609e-02 9.117794036865234375e-02 -7.221409678459167480e-02 -7.653232663869857788e-02 -2.496715635061264038e-02 3.438084572553634644e-02 -4.413094371557235718e-02
-2.272464521229267120e-02 -1.594345830380916595e-02 -3.756695985794067383e-02 -6.932060420513153076e-02 -5.044379457831382751e-02 -8.504992723464965820e-02 -1.088695693761110306e-02
3.217181935906410217e-02 -9.464300423860549927e-02 -3.987035900354385376e-02 -8.702988177537918091e-02 5.936982482671737671e-02 -6.227435171604156494e-02 -6.152423843741416931e-02
4.937567189335823059e-02 -5.576522648334503174e-02 1.140761747956275940e-01 -9.563332796096801758e-02 1.016544997692108154e-01 7.641451060771942139e-02 -4.223734140396118164e-02
7.437400519847869873e-02 -1.225452646613121033e-01 2.117423564195632935e-01 -1.801810413599014282e-01 -1.245985180139541626e-01 8.347925730049610138e-03 -1.150071248412132263e-02
4.553915560245513916e-02 -8.765011280775070190e-02 3.033849000930786133e-01 4.325779154896736145e-02 -7.293362170457839966e-02 -2.728469483554363251e-02 2.468252554535865784e-02
8.112859725952148438e-02 -6.233593821525573730e-02 9.811408817768096924e-02 1.229912638664245605e-01 9.426776319742202759e-02 -2.466750331223011017e-02 9.625195525586605072e-03
5.500363186001777649e-02 7.960211485624313354e-02 -1.225056499242782593e-01 -6.778399460017681122e-03 1.709871925413608551e-02 -2.864502929151058197e-02 -8.529041078872978687e-04
4.192055761814117432e-02 -5.207870621234178543e-03 -5.868674442172050476e-02 -6.974162906408309937e-02 -4.854863509535789490e-02 -3.459518775343894958e-04 -3.243608027696609497e-02
2.436073310673236847e-02 3.267122060060501099e-02 -4.502317681908607483e-02 -3.660175576806068420e-02 -9.539507329463958740e-03 -2.092096768319606781e-02 -7.305677235126495361e-02
4.258665814995765686e-02 3.097124584019184113e-02 -3.935873042792081833e-03 -8.604396134614944458e-02 3.106302954256534576e-02 -5.371259525418281555e-02 -4.554821923375129700e-02
7.144545763731002808e-02 1.169825196266174316e-01 5.133107304573059082e-02 -3.149990737438201904e-02 1.121267443522810936e-03 -4.143187776207923889e-02 -7.813415676355361938e-02
1.329652667045593262e-01 1.692888885736465454e-01 1.348638385534286499e-01 3.539750725030899048e-02 1.268678624182939529e-02 3.582773730158805847e-03 -4.205101728439331055e-02
1.152605861425399780e-01 1.274504661560058594e-01 1.431684345006942749e-01 5.176806449890136719e-02 1.607014611363410950e-02 -4.016238451004028320e-02 -2.470312640070915222e-02
8.695615082979202271e-02 4.345476254820823669e-02 9.581922739744186401e-02 5.579499155282974243e-02 5.255245417356491089e-02 -1.960545778274536133e-03 -4.951369762420654297e-02
4.357551038265228271e-02 3.475066274404525757e-02 -3.508242219686508179e-02 -3.299454972147941589e-02 -8.035090565681457520e-02 -5.081287771463394165e-02 -4.527164623141288757e-02
5.419415980577468872e-02 1.896044425666332245e-02 -4.256348311901092529e-02 -7.914130389690399170e-02 -3.299562633037567139e-02 -6.220859289169311523e-02 -8.613203465938568115e-02
7.300105690956115723e-02 9.294003248214721680e-02 4.705745261162519455e-03 -7.458724081516265869e-02 -6.175522506237030029e-02 -4.914312064647674561e-02 -6.008152663707733154e-02
1.576407998800277710e-01 1.281661391258239746e-01 7.705468684434890747e-02 -3.566758707165718079e-03 -5.061960592865943909e-02 -5.491449683904647827e-02 -5.325489118695259094e-02
1.658781915903091431e-01 2.013942748308181763e-01 1.356930285692214966e-01 5.659876018762588501e-02 8.940519765019416809e-03 -4.913220554590225220e-02 -7.317011803388595581e-02
1.299777328968048096e-01 1.278027743101119995e-01 1.331518292427062988e-01 6.464335322380065918e-02 -1.139351259917020798e-02 -2.208525780588388443e-03 -7.360582053661346436e-02
1.273644566535949707e-01 1.268610805273056030e-01 9.112554788589477539e-02 6.933091580867767334e-02 2.768422663211822510e-02 2.459368435665965080e-03 -1.011056546121835709e-02
2.737846784293651581e-02 -1.154294423758983612e-02 -4.934208095073699951e-02 -8.918337523937225342e-02 -7.268854975700378418e-02 -7.599224895238876343e-02 -5.151561647653579712e-02
4.885394126176834106e-02 2.575943619012832642e-02 -1.113173961639404297e-01 -1.230453774333000183e-01 -9.692259132862091064e-02 -1.198563277721405029e-01 -6.731727719306945801e-02
1.974872872233390808e-02 9.673745371401309967e-03 -1.073552370071411133e-01 -1.927522718906402588e-01 -1.398396044969558716e-01 -9.607516229152679443e-02 -1.020463705062866211e-01
6.261168420314788818e-02 8.860886842012405396e-02 -3.356395661830902100e-02 -1.340411305427551270e-01 -1.615991145372390747e-01 -1.070346459746360779e-01 -9.945764392614364624e-02
1.068202555179595947e-01 7.535534352064132690e-02 4.605108697433024645e-04 -8.725397288799285889e-02 -1.240404844284057617e-01 -6.959187239408493042e-02 -8.856648206710815430e-02
1.064959689974784851e-01 9.618327021598815918e-02 3.611892834305763245e-02 -7.405840791761875153e-03 -7.052449882030487061e-02 -8.129712194204330444e-02 -5.533883720636367798e-02
1.000754907727241516e-01 7.341212034225463867e-02 4.963578656315803528e-02 5.835261568427085876e-02 4.919924214482307434e-02 -9.285808540880680084e-03 -8.661768585443496704e-02
-4.663832485675811768e-03 2.633994072675704956e-02 2.326508238911628723e-02 -2.133268630132079124e-03 6.471001356840133667e-02 8.159863762557506561e-03 5.732672661542892456e-02
-2.288302406668663025e-02 -2.312400005757808685e-02 5.745191499590873718e-02 7.384005934000015259e-02 6.864984333515167236e-02 2.689088135957717896e-02 3.295112401247024536e-02
-1.878556329756975174e-03 1.870963722467422485e-02 1.746147722005844116e-01 2.171559780836105347e-01 3.527997061610221863e-02 -1.310510560870170593e-03 3.575751185417175293e-02
3.834781004115939140e-03 -4.794084001332521439e-03 1.877201646566390991e-01 1.176405623555183411e-01 -3.463708609342575073e-02 -6.057237833738327026e-02 4.708786681294441223e-02
-1.606746762990951538e-02 -5.355045944452285767e-02 7.408839464187622070e-02 9.429959580302238464e-03 -3.543096035718917847e-02 -3.310690447688102722e-02 3.172051161527633667e-02
1.239411719143390656e-02 -3.344183787703514099e-02 -3.424699231982231140e-02 -8.354914188385009766e-02 -3.529328852891921997e-02 2.408584393560886383e-02 4.922729730606079102e-02
-2.885652147233486176e-02 -2.065415121614933014e-02 -2.037987112998962402e-02 -2.414735779166221619e-02 1.211490575224161148e-02 4.286497458815574646e-02 6.923454254865646362e-02
-6.503422558307647705e-02 -1.072512567043304443e-01 -8.916827291250228882e-02 -1.012270227074623108e-01 -8.531530201435089111e-02 -5.407504737377166748e-02 -4.881536122411489487e-03
-5.716871842741966248e-02 -1.045818999409675598e-01 -1.692982576787471771e-02 -1.471157930791378021e-02 -6.021410599350929260e-02 -3.628805652260780334e-02 -1.550488546490669250e-02
-4.418900236487388611e-02 -7.822824269533157349e-02 1.060159578919410706e-01 1.154031455516815186e-01 -5.834209173917770386e-02 -7.941626012325286865e-02 -2.258473075926303864e-02
-9.871179610490798950e-02 -9.567540884017944336e-02 1.010928824543952942e-01 3.818167373538017273e-02 -8.980527520179748535e-02 -9.102935343980789185e-02 -4.652741178870201111e-02
-1.182202622294425964e-01 -1.359094530344009399e-01 -5.272816494107246399e-02 -5.583230778574943542e-02 -1.520616561174392700e-01 -8.855120837688446045e-02 -5.204630643129348755e-02
-6.389408558607101440e-02 -1.366953253746032715e-01 -1.119631752371788025e-01 -1.671645194292068481e-01 -8.295005559921264648e-02 -3.229098767042160034e-02 -5.585825443267822266e-02
-7.179978489875793457e-02 -8.174016326665878296e-02 -1.272771805524826050e-01 -1.567318290472030640e-01 -1.076006367802619934e-01 -1.027600690722465515e-01 -3.206367418169975281e-02
1.578122749924659729e-02 4.813464730978012085e-02 -1.736677251756191254e-02 -5.599028896540403366e-03 -1.245732046663761139e-02 1.181108644232153893e-03 1.088536437600851059e-02
6.059066206216812134e-02 3.745641186833381653e-02 1.001395136117935181e-01 7.286165654659271240e-02 -1.072389446198940277e-02 7.532075047492980957e-03 3.242357820272445679e-02
3.234790638089179993e-02 4.376900568604469299e-02 3.760806620121002197e-01 3.213267326354980469e-01 4.062000289559364319e-02 3.320081532001495361e-02 3.822392318397760391e-03
5.990969762206077576e-02 3.921316936612129211e-02 3.251706957817077637e-01 2.205829918384552002e-01 -8.449241518974304199e-03 -1.487256120890378952e-02 3.161708638072013855e-02
2.175328508019447327e-02 -2.777270413935184479e-02 1.540931016206741333e-01 9.519647061824798584e-02 9.873320814222097397e-04 8.002121932804584503e-03 4.635475575923919678e-02
5.124379321932792664e-02 6.711154244840145111e-03 -1.076293271034955978e-02 -4.978473484516143799e-02 -1.439439365640282631e-03 2.328010648488998413e-02 4.575822874903678894e-02
3.564623370766639709e-02 3.827934386208653450e-03 -8.412761986255645752e-02 -1.777883991599082947e-02 1.839951798319816589e-02 7.165637332946062088e-03 -6.340957246720790863e-03
8.177257329225540161e-02 5.098990723490715027e-02 -1.680997759103775024e-02 2.837463468313217163e-02 5.975367035716772079e-03 -3.353915736079216003e-02 -3.627875354140996933e-03
5.427261814475059509e-02 -1.075814291834831238e-02 -3.865413740277290344e-02 -4.007993638515472412e-02 2.302438206970691681e-02 -9.469654411077499390e-02 -7.820886373519897461e-02
1.931301690638065338e-02 -4.587922990322113037e-02 -7.494957745075225830e-02 -1.269694417715072632e-01 -8.056959137320518494e-03 -4.538282379508018494e-02 -1.051554530858993530e-01
1.104500051587820053e-02 -8.529581874608993530e-02 -4.136043414473533630e-02 5.531779676675796509e-02 1.641756892204284668e-01 4.205943644046783447e-02 -4.300167039036750793e-02
-4.267673008143901825e-03 -4.987986013293266296e-02 -3.201827779412269592e-02 1.001584082841873169e-01 2.329793125391006470e-01 2.439354546368122101e-02 -9.078861027956008911e-02
-1.402639225125312805e-02 -4.659688472747802734e-02 -7.423784583806991577e-02 -1.938271336257457733e-02 1.170643344521522522e-01 -7.551342248916625977e-03 -7.219855487346649170e-02
7.974883541464805603e-03 3.230781108140945435e-02 -6.995501369237899780e-02 -5.783492326736450195e-02 -5.713639780879020691e-02 -3.219912946224212646e-02 -7.930370420217514038e-02
4.064318910241127014e-02 3.406357765197753906e-02 -5.141427274793386459e-03 1.454103505238890648e-03 4.563982132822275162e-03 -1.048526354134082794e-02 -2.419342845678329468e-02
6.812319159507751465e-02 -8.339083753526210785e-03 2.317472733557224274e-02 1.031160936690866947e-03 4.323792085051536560e-02 1.758157392032444477e-03 -4.696427285671234131e-02
6.086045131087303162e-02 -5.673846229910850525e-02 -1.055279374122619629e-01 -2.731744572520256042e-02 1.190583631396293640e-01 1.052565574645996094e-01 -4.204578325152397156e-02
2.560355886816978455e-02 -8.948533236980438232e-02 2.201240696012973785e-02 1.252781599760055542e-01 2.713524699211120605e-01 1.341909170150756836e-01 -1.769810728728771210e-02
2.295773290097713470e-02 -5.523621663451194763e-02 7.943347096443176270e-02 1.246989741921424866e-01 3.527203798294067383e-01 1.996955573558807373e-01 -1.916143298149108887e-02
-6.350188981741666794e-03 -5.315940082073211670e-02 -3.959435597062110901e-02 6.024074554443359375e-02 1.421036273241043091e-01 7.356884330511093140e-02 -8.827530592679977417e-02
-2.274159900844097137e-02 5.078832805156707764e-02 -4.905219003558158875e-02 -4.987245053052902222e-02 1.884548738598823547e-02 -1.357302442193031311e-02 -4.559497907757759094e-02
9.290064871311187744e-02 -1.709014363586902618e-02 -3.603225201368331909e-02 -3.301887959241867065e-02 1.745693199336528778e-02 -5.158293619751930237e-02 -3.432094817981123924e-03
3.608768433332443237e-02 -3.730576857924461365e-02 -6.466434895992279053e-02 -6.474277377128601074e-02 5.643366603180766106e-05 -2.681451849639415741e-02 -2.547780051827430725e-02
-1.244394225068390369e-03 -1.084481701254844666e-01 -1.519812196493148804e-01 -1.488800942897796631e-01 -2.930010901764035225e-03 3.390110284090042114e-02 -1.258168369531631470e-02
-4.282835870981216431e-02 -1.448984593152999878e-01 -7.169351726770401001e-02 -1.590892486274242401e-02 1.685190796852111816e-01 6.387822329998016357e-02 -1.097718998789787292e-02
-4.130487143993377686e-02 -1.522426009178161621e-01 -6.444450467824935913e-02 2.005783095955848694e-02 2.643972337245941162e-01 9.367944300174713135e-02 2.114999294281005859e-02
-9.173823893070220947e-02 -1.043412461876869202e-01 -8.684635907411575317e-02 2.356966398656368256e-02 7.650949060916900635e-02 2.024196460843086243e-02 -2.537160739302635193e-02
2.747467719018459320e-02 -1.212695520371198654e-02 -6.301225721836090088e-02 -1.798791624605655670e-02 1.334999594837427139e-02 3.188575804233551025e-02 -2.375854924321174622e-02
6.051681190729141235e-02 1.706727035343647003e-02 7.885932177305221558e-02 5.367022752761840820e-02 -2.067439444363117218e-02 3.977298736572265625e-02 2.949395030736923218e-02
1.214224323630332947e-01 6.240658089518547058e-02 -1.583919674158096313e-02 2.960445545613765717e-02 6.014364585280418396e-02 4.306286573410034180e-02 3.209418058395385742e-02
3.670449182391166687e-02 3.566747903823852539e-02 -5.290257278829813004e-03 -6.377536058425903320e-02 7.752917706966400146e-02 8.071342855691909790e-02 5.104317888617515564e-02
-2.996498160064220428e-02 2.713870070874691010e-02 -1.145916655659675598e-01 -2.449734210968017578e-01 -4.070549085736274719e-02 5.277342721819877625e-02 2.850118838250637054e-02
5.560737475752830505e-02 2.563863806426525116e-02 -1.156789660453796387e-01 -1.911187022924423218e-01 -1.285384781658649445e-02 4.997979477047920227e-02 4.694971069693565369e-02
8.069115132093429565e-02 4.138791933655738831e-02 3.225229308009147644e-02 3.917295020073652267e-03 -4.899447783827781677e-02 5.271202698349952698e-02 3.124227188527584076e-02
6.258325278759002686e-02 1.053008362650871277e-01 9.363543987274169922e-02 4.537607356905937195e-02 -4.020709544420242310e-02 6.845723837614059448e-02 2.405939251184463501e-02
5.637401342391967773e-02 3.457137197256088257e-02 9.121626615524291992e-03 3.282181546092033386e-02 -1.127652078866958618e-01 -7.137612998485565186e-02 7.441427558660507202e-02
-3.573336079716682434e-02 3.171213343739509583e-02 -4.901733994483947754e-02 -3.530647978186607361e-02 -3.158107772469520569e-02 -1.558646112680435181e-01 -1.474850997328758240e-02
7.782514207065105438e-03 6.240423396229743958e-02 -2.089858949184417725e-01 -5.715806409716606140e-02 3.297138959169387817e-02 -9.266912937164306641e-02 -4.260453954339027405e-02
-2.314121089875698090e-02 -1.199603639543056488e-02 -3.813006281852722168e-01 -5.136200189590454102e-01 -1.271426230669021606e-01 -7.118926942348480225e-02 8.405718021094799042e-03
-6.922508031129837036e-02 9.569955989718437195e-03 -2.100971490144729614e-01 -3.673956692218780518e-01 -2.104650586843490601e-01 -8.550174534320831299e-02 8.071810007095336914e-02
-1.489124894142150879e-01 -3.068455494940280914e-02 3.849569708108901978e-02 -7.617736607789993286e-02 -1.415186822414398193e-01 -7.266367226839065552e-02 1.989302784204483032e-02
1.529928483068943024e-02 -3.633174300193786621e-02 4.756435751914978027e-02 1.079860702157020569e-02 -1.194849703460931778e-02 -1.269350759685039520e-02 -5.538109317421913147e-02
1.402840111404657364e-02 -3.658995032310485840e-02 2.769918879494071007e-03 4.640458524227142334e-02 -3.629678487777709961e-02 -3.500685468316078186e-02 2.044107206165790558e-02
-1.423971261829137802e-02 3.598399832844734192e-02 2.388685010373592377e-03 5.578087270259857178e-02 4.412177205085754395e-02 -9.507777541875839233e-02 -2.963448688387870789e-02
-3.329856693744659424e-02 1.398915648460388184e-01 -4.209786280989646912e-02 9.782677516341209412e-04 1.309999227523803711e-01 1.425977796316146851e-01 -4.662117362022399902e-02
1.925106346607208252e-02 1.204334646463394165e-01 -1.111288890242576599e-01 -1.774892508983612061e-01 2.804451622068881989e-02 1.044486761093139648e-01 9.189497679471969604e-02
-1.539875054731965065e-03 3.575957566499710083e-02 -4.110148549079895020e-02 -1.117423474788665771e-01 -2.774410881102085114e-02 -3.479782119393348694e-02 3.894167393445968628e-02
3.372437134385108948e-02 -1.374840736389160156e-03 1.034145988523960114e-02 1.727057807147502899e-02 5.991204455494880676e-02 -1.953093335032463074e-02 3.041213564574718475e-02
9.709456935524940491e-03 3.270035609602928162e-02 5.849744379520416260e-02 4.186347126960754395e-02 4.949271678924560547e-02 1.201569959521293640e-01 1.937600038945674896e-02
8.427583612501621246e-03 -2.235084772109985352e-02 -3.008378855884075165e-02 -2.826001727953553200e-03 2.770579978823661804e-02 -1.237654499709606171e-02 1.007844805717468262e-01
-6.360481679439544678e-02 -7.389226555824279785e-02 -4.626839607954025269e-02 5.819987505674362183e-03 -3.188732266426086426e-02 -4.204420745372772217e-02 4.579369444400072098e-03
-2.562975883483886719e-02 -1.789404079318046570e-02 8.259338140487670898e-02 1.567007303237915039e-01 5.649404227733612061e-02 -1.495903125032782555e-03 -3.929334878921508789e-02
-6.052016094326972961e-02 -8.179985731840133667e-02 1.281861364841461182e-01 1.579859405755996704e-01 7.998537272214889526e-02 -4.430602863430976868e-02 -1.569328084588050842e-02
-1.068528741598129272e-01 -1.185293123126029968e-01 -5.739033594727516174e-02 -3.003289364278316498e-02 -2.489980496466159821e-02 -7.792000472545623779e-02 -2.903463691473007202e-02
-7.510775327682495117e-02 -1.503829061985015869e-01 -1.467441469430923462e-01 -1.343417912721633911e-01 -6.059156358242034912e-02 -2.583786845207214355e-02 -3.525922819972038269e-02
-2.474047243595123291e-02 -6.454667448997497559e-02 -1.046115607023239136e-01 -9.121216088533401489e-02 -6.316024810075759888e-02 -4.362145438790321350e-02 6.980936042964458466e-03
-1.316498778760433197e-02 -1.923016086220741272e-02 2.386685647070407867e-02 1.836472563445568085e-02 2.729951776564121246e-02 2.707385644316673279e-02 4.884375631809234619e-02
-6.158511154353618622e-03 -7.774428930133581161e-03 7.001543790102005005e-02 1.012922674417495728e-01 1.379120070487260818e-02 -1.426400151103734970e-03 -1.392591092735528946e-02
-3.221222758293151855e-02 1.192149892449378967e-02 2.174083441495895386e-01 2.945672571659088135e-01 1.098807454109191895e-01 -1.874201372265815735e-02 -9.474562481045722961e-03
-3.354280814528465271e-02 3.334083035588264465e-02 2.858715951442718506e-01 3.095283508300781250e-01 1.194113343954086304e-01 1.638861745595932007e-02 1.667554676532745361e-02
-1.814941689372062683e-02 -3.360151126980781555e-02 1.191712170839309692e-01 1.203350722789764404e-01 4.834435135126113892e-02 -2.969930879771709442e-02 2.820692025125026703e-02
8.980924263596534729e-03 -5.648117512464523315e-02 -2.734920196235179901e-02 9.367016609758138657e-04 2.136652823537588120e-03 1.636449061334133148e-02 2.214653789997100830e-02
1.932262815535068512e-02 3.521535918116569519e-02 -5.548927560448646545e-02 -6.197089329361915588e-02 -1.117790024727582932e-02 2.646929956972599030e-02 -1.347395405173301697e-02
1.455175224691629410e-02 -5.878181755542755127e-02 -4.708810895681381226e-02 -1.645402237772941589e-02 -3.681526333093643188e-02 -4.769516736268997192e-02 -1.242984272539615631e-02
-2.183958515524864197e-02 -3.335182368755340576e-02 3.842853009700775146e-02 4.151730984449386597e-02 -3.649440780282020569e-02 2.657658653333783150e-03 -6.073166429996490479e-02
-2.002570079639554024e-03 2.682120539247989655e-02 2.620174884796142578e-01 2.617953717708587646e-01 4.341920837759971619e-02 -5.979933962225914001e-02 -6.831569224596023560e-02
-1.377467997372150421e-02 6.568261981010437012e-02 2.722472846508026123e-01 3.061501085758209229e-01 5.339908972382545471e-02 -5.832093209028244019e-02 -7.791064679622650146e-02
2.700102329254150391e-02 -1.289240084588527679e-02 1.155462861061096191e-01 9.687821567058563232e-02 -1.535485382191836834e-03 -8.783181756734848022e-02 -5.674647912383079529e-02
6.650051567703485489e-03 -2.262609824538230896e-02 -3.222553431987762451e-02 -5.012783035635948181e-02 -7.280683517456054688e-02 -1.856375671923160553e-02 -7.553073018789291382e-02
6.775010377168655396e-02 -5.167765170335769653e-02 -8.202917128801345825e-02 -7.338402420282363892e-02 -2.192923612892627716e-02 -6.793122738599777222e-02 -5.210940912365913391e-02
2.349600754678249359e-02 -1.150451973080635071e-02 1.460128184407949448e-02 1.202947273850440979e-01 4.392097145318984985e-02 5.487634614109992981e-02 -4.379190504550933838e-02
-2.132145129144191742e-02 1.529314089566469193e-02 3.177241608500480652e-02 8.326166868209838867e-02 1.337789557874202728e-02 4.260233603417873383e-03 -8.122225850820541382e-02
4.480501636862754822e-02 1.354176253080368042e-01 -6.953956093639135361e-03 -3.684689477086067200e-02 5.836998671293258667e-02 5.251451954245567322e-02 -4.029483720660209656e-02
1.415108889341354370e-01 1.483272016048431396e-01 -1.706948578357696533e-01 -2.449596226215362549e-01 -7.515502162277698517e-03 6.587022542953491211e-02 -1.879426278173923492e-02
1.026014238595962524e-01 9.684935212135314941e-02 -1.247640103101730347e-01 -1.649432629346847534e-01 4.709455650299787521e-03 1.114440709352493286e-01 9.024154394865036011e-03
3.967989608645439148e-02 5.271441861987113953e-02 9.812320023775100708e-02 8.055908977985382080e-02 1.218127459287643433e-02 -1.651581190526485443e-02 -4.490314424037933350e-02
2.011818066239356995e-02 5.797670409083366394e-02 8.955875784158706665e-02 5.981339886784553528e-02 4.744976758956909180e-02 5.665964260697364807e-02 1.161182951182126999e-02
6.413354724645614624e-02 5.142814293503761292e-02 2.552616642788052559e-03 8.109820634126663208e-02 7.942721992731094360e-02 5.552800744771957397e-02 1.371930446475744247e-02
1.033900305628776550e-02 6.263978034257888794e-02 7.614580541849136353e-02 3.717996180057525635e-02 5.757993832230567932e-02 2.684057503938674927e-02 -5.311151500791311264e-03
1.787207834422588348e-02 2.032682597637176514e-01 -3.409735858440399170e-02 -5.583709105849266052e-02 1.034257337450981140e-01 4.541783779859542847e-02 7.016368210315704346e-03
5.045081675052642822e-02 9.117894619703292847e-02 -1.534301936626434326e-01 -3.152256309986114502e-01 7.861140766181051731e-04 4.014851152896881104e-02 -6.337718106806278229e-03
7.484985888004302979e-02 8.642503619194030762e-02 -1.540771275758743286e-01 -1.914060562849044800e-01 3.156952932476997375e-02 -3.144454583525657654e-02 -3.370874375104904175e-02
2.267833985388278961e-02 4.534250125288963318e-02 -4.005448427051305771e-03 -2.328258752822875977e-02 3.489292040467262268e-02 -8.163299411535263062e-02 -5.763053148984909058e-02
