1.332545507466420531e-04
-8.012577891349792480e-04
4.791734681930392981e-04
-1.594042987562716007e-03
-1.903785043396055698e-03
-5.113941151648759842e-04
-1.827604719437658787e-03
-4.587156872730702162e-04
-2.755613968474790454e-05
-7.174220518209040165e-04
8.740695420783595182e-07
8.196262642741203308e-04
-7.836929398763459176e-06
3.094931831583380699e-03
-1.954941777512431145e-03
-1.412421930581331253e-03
-4.832310951314866543e-04
1.109349424950778484e-03
-7.184867863543331623e-04
2.457140071783214808e-04
3.076785942539572716e-04
1.951390295289456844e-03
1.987786235986277461e-04
-1.562608056701719761e-03
-2.803268376737833023e-03
-1.601852360181510448e-03
-1.415415201336145401e-03
-2.050307666650041938e-04
-6.585335941053926945e-04
-5.298543255776166916e-04
2.769015554804354906e-04
-1.755431178025901318e-03
-9.351896733278408647e-05
5.065890727564692497e-04
5.565661122091114521e-04
-4.027814604341983795e-03
-4.712816735263913870e-04
-6.862788577564060688e-04
2.136976254405453801e-04
4.869954864261671901e-05
-9.792151395231485367e-04
1.968312717508524656e-04
-4.098295466974377632e-04
-1.809513312764465809e-03
1.098091597668826580e-03
1.312591717578470707e-03
5.817846860736608505e-03
-3.451548691373318434e-04
1.271605491638183594e-03
1.031876774504780769e-03
6.788768805563449860e-04
1.993500161916017532e-03
1.395377563312649727e-03
-5.911317421123385429e-04
-2.062375278910622001e-04
-1.109474338591098785e-03
-7.979614310897886753e-04
1.486124354414641857e-03
-5.916329100728034973e-04
-8.041565888561308384e-04
-3.477774953353218734e-05
4.101246013306081295e-04
1.262218924239277840e-03
1.238739350810647011e-04
-3.322781703900545835e-04
3.164255758747458458e-05
1.532913069240748882e-03
-2.222861396148800850e-03
8.145274478010833263e-04
-1.201387658511521295e-05
-1.988437259569764137e-03
-7.902695797383785248e-03
-1.065755146555602551e-03
-2.273658174090087414e-04
2.665451262146234512e-03
-2.068013651296496391e-03
-9.680197108536958694e-04
7.962048402987420559e-04
2.410383604001253843e-04
-9.588171378709375858e-04
9.072266984730958939e-04
2.613139338791370392e-03
5.641884054057300091e-04
1.830649678595364094e-03
5.089391488581895828e-04
-4.828034143429249525e-04
-1.341506867902353406e-04
7.430869736708700657e-04
6.020928140060277656e-06
8.189261425286531448e-04
2.441298711346462369e-04
1.328776590526103973e-03
1.397538580931723118e-03
1.787469140253961086e-03
-2.661637263372540474e-04
-5.718462052755057812e-04
1.429262105375528336e-03
-1.260838471353054047e-03
3.614668967202305794e-04
-5.136536783538758755e-04
1.762425410561263561e-03
9.800422049011103809e-06
9.373186621814966202e-04
3.006622893735766411e-03
-7.803561165928840637e-04
-3.449107520282268524e-03
-1.519221550552174449e-04
8.866434800438582897e-04
2.196902933064848185e-04
-8.700329344719648361e-04
2.043292159214615822e-03
6.959525053389370441e-04
5.194956902414560318e-03
-1.941780908964574337e-03
1.211710274219512939e-03
1.821492187445983291e-04
-1.339682843536138535e-03
-1.279719290323555470e-04
-9.788884781301021576e-04
-5.972693907096982002e-04
7.816764991730451584e-04
-1.920572598464787006e-03
-3.210140857845544815e-04
-3.496896475553512573e-03
1.713345409370958805e-03
-8.987414184957742691e-04
2.558414125815033913e-04
-1.030958839692175388e-03
2.839385531842708588e-03
6.947851943550631404e-05
-2.817961794789880514e-04
7.393152918666601181e-04
-1.837120158597826958e-03
-1.188992173410952091e-03
5.106942844577133656e-04
3.306519938632845879e-04
1.044995849952101707e-03
3.131775883957743645e-03
-5.896568764001131058e-04
1.231260248459875584e-03
-3.642288502305746078e-04
-1.605356112122535706e-03
-6.996837444603443146e-03
-6.141231860965490341e-04
-3.073385742027312517e-04
8.435049094259738922e-04
1.207689289003610611e-03
2.330425428226590157e-03
-1.546440413221716881e-03
-3.745631547644734383e-04
2.786956960335373878e-03
-6.685213884338736534e-04
-1.370858633890748024e-03
-2.081052167341113091e-03
1.046159450197592378e-04
-5.710971890948712826e-04
-1.044775242917239666e-03
-2.068732399493455887e-03
-2.828663215041160583e-03
-3.656702116131782532e-03
-1.400339766405522823e-03
-1.994437334360554814e-04
1.078601228073239326e-03
1.204571686685085297e-03
-2.306603419128805399e-04
2.524653915315866470e-03
2.677567536011338234e-04
-1.077737542800605297e-03
6.445775507017970085e-04
4.365818749647587538e-04
2.802059054374694824e-03
1.930766302393749356e-04
1.272939261980354786e-03
1.308558857999742031e-03
8.415278862230479717e-04
7.068666745908558369e-04
-1.224029925651848316e-03
-4.648727481253445148e-04
-4.293236997909843922e-04
9.638404008001089096e-04
5.423505208455026150e-04
6.837170221842825413e-04
-2.180444309487938881e-03
-9.587980457581579685e-04
-7.887918036431074142e-05
1.181004772661253810e-04
1.296310685575008392e-03
6.587644456885755062e-04
2.589022507891058922e-03
-7.962848176248371601e-04
5.693957791663706303e-04
-2.553277881816029549e-04
1.131849014200270176e-03
-3.274366899859160185e-04
-4.944294341839849949e-04
-1.374855404719710350e-03
6.080177263356745243e-04
-6.916944403201341629e-04
5.397054483182728291e-04
-2.776290290057659149e-03
-9.726996649987995625e-04
1.313489628955721855e-03
1.169630559161305428e-03
5.634052795358002186e-04
-3.837301628664135933e-04
4.828844685107469559e-04
-1.861955388449132442e-03
2.906611887738108635e-03
-7.861886406317353249e-04
1.534150680527091026e-03
1.921735703945159912e-03
9.809414623305201530e-04
1.741633750498294830e-03
-2.706308849155902863e-03
-3.234635340049862862e-03
-2.859429223462939262e-03
5.775800091214478016e-04
-9.104564378503710032e-05
-7.591132307425141335e-04
3.728331299498677254e-03
-8.075573714450001717e-04
8.001356618478894234e-04
1.130538948928005993e-04
5.141764995642006397e-04
1.533264294266700745e-04
-1.282219309359788895e-04
7.428234675899147987e-04
-2.284158952534198761e-03
-1.303681987337768078e-03
-5.627128412015736103e-04
-1.332689716946333647e-04
5.996812833473086357e-04
-6.521790055558085442e-05
-7.655918598175048828e-04
-1.916426233947277069e-03
2.974586328491568565e-03
1.428019488230347633e-03
-1.646161195822060108e-03
-3.483311505988240242e-03
-5.912533379159867764e-04
-1.447574701160192490e-03
-1.848577405326068401e-03
1.924625365063548088e-03
1.586895668879151344e-03
-3.585049416869878769e-03
-3.066764838877134025e-05
-1.183040876640006900e-04
-3.848549386020749807e-04
1.448186696507036686e-03
-2.351388568058609962e-03
5.845889099873602390e-04
-8.404004620388150215e-04
6.573482532985508442e-04
-1.699105836451053619e-03
-7.090861327014863491e-04
1.262958394363522530e-04
