4.035075253341346979e-04
3.051334169867914170e-05
3.586658043786883354e-03
1.133484300225973129e-03
-5.280313780531287193e-04
-1.863841433078050613e-03
-3.762333421036601067e-03
6.036319537088274956e-04
2.243910275865346193e-04
-2.265968825668096542e-03
-4.021530039608478546e-04
2.508325502276420593e-03
7.771329022943973541e-03
-2.588284769444726408e-05
4.782268311828374863e-03
-4.543368413578718901e-05
5.014852620661258698e-03
-2.371089212829247117e-04
8.384278626181185246e-04
8.334327721968293190e-04
-1.940751331858336926e-03
4.038423649035394192e-04
-2.234345534816384315e-03
-2.504993928596377373e-03
-1.789893256500363350e-03
-2.741674834396690130e-04
2.086031250655651093e-03
-3.274643095210194588e-03
-1.711328077362850308e-04
-1.091092344722710550e-04
7.215396617539227009e-04
2.161455107852816582e-03
-2.649553352966904640e-03
-2.508630568627268076e-04
6.858204724267125130e-04
3.226248954888433218e-04
-2.637954894453287125e-03
1.871601270977407694e-04
1.210302652907557786e-04
1.025076024234294891e-03
4.292120225727558136e-03
4.854140803217887878e-03
1.169969560578465462e-03
1.164082321338355541e-03
1.823612139560282230e-03
-4.156904760748147964e-03
3.814586903899908066e-03
6.845030002295970917e-04
1.778705511242151260e-03
6.540548929478973150e-05
-4.245666495990008116e-04
1.463761203922331333e-03
-4.646582528948783875e-03
3.296002105344086885e-04
1.096457475796341896e-03
-1.309990999288856983e-03
3.472759621217846870e-03
8.412746246904134750e-04
-3.602472832426428795e-03
8.671488467371091247e-05
-3.133879508823156357e-03
-4.405248037073761225e-04
-4.906733520328998566e-03
1.550690736621618271e-03
-1.445285161025822163e-03
1.547965919598937035e-03
2.544813556596636772e-03
4.099803336430341005e-04
3.179020714014768600e-03
-5.619719158858060837e-03
1.368198776617646217e-03
2.316214842721819878e-03
5.943006253801286221e-04
1.545350183732807636e-03
-2.158173825591802597e-03
4.281819274183362722e-04
-2.215550281107425690e-03
-6.065750494599342346e-04
-4.583999514579772949e-03
-3.827534383162856102e-03
1.141016371548175812e-03
7.894839160144329071e-03
2.406853018328547478e-03
1.865093479864299297e-03
6.627453840337693691e-04
-1.591144595295190811e-03
7.735470426268875599e-04
3.463201865088194609e-04
-1.307338941842317581e-03
8.012095466256141663e-03
3.343396820127964020e-04
-1.160634215921163559e-03
2.037455851677805185e-04
-1.478723366744816303e-03
-5.432651960290968418e-04
4.731383814942091703e-04
1.375311549054458737e-04
-1.402913825586438179e-03
-2.137746196240186691e-03
6.422668229788541794e-04
3.179541090503334999e-03
1.586982398293912411e-03
6.548903882503509521e-03
4.538716282695531845e-03
8.227713988162577152e-04
-9.172278456389904022e-03
6.275826017372310162e-04
3.788876929320394993e-04
-3.770622890442609787e-03
-1.519405515864491463e-03
4.757646820507943630e-04
-1.434706733562052250e-03
3.774646669626235962e-03
-1.197325109387747943e-04
-7.926541002234444022e-05
-8.136392571032047272e-04
-1.682151574641466141e-03
-5.146576091647148132e-03
-1.408026088029146194e-03
1.829150598496198654e-03
6.605929229408502579e-04
-1.644931035116314888e-03
6.321169785223901272e-04
-5.078804679214954376e-03
7.946022669784724712e-04
1.090704463422298431e-04
8.695230819284915924e-03
-3.545052837580442429e-03
3.309129097033292055e-04
5.455385427922010422e-03
1.023464719764888287e-03
4.912278382107615471e-04
-2.077557379379868507e-03
-3.988308366388082504e-03
-1.463949680328369141e-03
-3.593120491132140160e-04
-2.913292031735181808e-03
1.115278340876102448e-03
1.759301056154072285e-03
1.430525910109281540e-03
3.758394625037908554e-03
-6.568694370798766613e-04
4.241758491843938828e-03
-6.195300957188010216e-04
-1.648714387556537986e-04
8.326652459800243378e-04
6.042330642230808735e-04
2.651731017976999283e-03
-2.764566743280738592e-04
2.592525561340153217e-04
4.812505561858415604e-03
9.825441520661115646e-04
-2.023144625127315521e-03
-3.065082419198006392e-04
2.424934500595554709e-04
-6.041258573532104492e-03
7.459636981366202235e-05
1.336282235570251942e-03
1.594891771674156189e-03
-1.226300839334726334e-03
-3.585140453651547432e-03
2.108008600771427155e-03
-5.835795775055885315e-03
1.504655694589018822e-03
-4.988634027540683746e-04
-7.603046833537518978e-04
1.884517725557088852e-03
-5.881165619939565659e-03
6.279280933085829020e-05
-5.900402320548892021e-04
-1.129920943640172482e-03
4.293169477023184299e-04
5.960358539596199989e-04
-6.212455627974122763e-05
-8.853703038766980171e-04
7.674365042475983500e-05
2.814623061567544937e-03
5.341290496289730072e-03
2.242104092147201300e-04
5.452522542327642441e-03
5.759114399552345276e-03
-1.434548321412876248e-04
-1.168193062767386436e-03
-1.827978121582418680e-04
-7.163329864852130413e-04
-8.813865133561193943e-05
3.012293018400669098e-03
1.317918999120593071e-03
6.653254386037588120e-04
3.841803700197488070e-04
4.061557352542877197e-03
-7.260026759468019009e-04
8.681389153935015202e-04
6.946967332623898983e-04
-1.310883904807269573e-03
-3.112647915259003639e-03
-5.532361319637857378e-05
7.612049812451004982e-04
-8.438977529294788837e-04
-1.693317666649818420e-03
-1.789932604879140854e-03
9.179565240629017353e-04
-1.696725521469488740e-04
1.268630032427608967e-03
8.642636239528656006e-03
5.577791016548871994e-04
-3.793585347011685371e-04
-2.379218058194965124e-04
1.371233229292556643e-04
3.395242383703589439e-04
1.785831642337143421e-03
-1.165115041658282280e-03
-1.596746034920215607e-03
-4.648814909160137177e-03
-6.252579391002655029e-03
-1.804017461836338043e-03
9.142986964434385300e-04
4.809010715689510107e-04
2.130538050550967455e-04
-1.871438813395798206e-03
1.887402846477925777e-03
6.004557013511657715e-03
4.659227852243930101e-05
-2.840107306838035583e-03
6.442737299948930740e-03
-6.091719260439276695e-04
-1.065568183548748493e-03
3.227988781873136759e-05
-3.652860643342137337e-03
1.820821547880768776e-03
-4.231162602081894875e-04
2.171678934246301651e-03
2.890660194680094719e-03
3.557597752660512924e-03
-2.258654712932184339e-04
5.413406528532505035e-03
-6.543970084749162197e-04
-9.043670725077390671e-04
-8.144247345626354218e-03
-2.472855150699615479e-03
-1.768133020959794521e-03
1.102178590372204781e-03
2.803495444823056459e-04
8.726363885216414928e-04
-1.009391853585839272e-03
-4.091930168215185404e-04
-2.430201857350766659e-04
-2.410362940281629562e-03
7.340226438827812672e-04
-2.655472373589873314e-03
3.983740461990237236e-04
-1.874865702120587230e-04
3.508637892082333565e-04
-7.883342332206666470e-04
3.698192886076867580e-04
-7.259220583364367485e-04
