-5.606095306575298309e-03
-1.838210446294397116e-04
1.293913228437304497e-03
-1.869776053354144096e-03
-6.852211430668830872e-03
-2.225005766376852989e-03
-7.368578575551509857e-03
2.858395237126387656e-05
-2.228140219813212752e-04
3.247914370149374008e-03
2.925161505118012428e-03
5.306158680468797684e-03
-1.602976582944393158e-03
-3.746321890503168106e-04
-8.075818419456481934e-03
-6.687773857265710831e-03
-1.149322488345205784e-03
-2.067290712147951126e-03
7.584374397993087769e-03
1.668117125518620014e-03
6.869795615784823895e-04
4.861511755734682083e-03
1.176941208541393280e-03
8.162927697412669659e-04
3.405582392588257790e-03
3.941897593904286623e-04
1.742133288644254208e-03
3.613044827943667769e-05
-3.640460316091775894e-03
-4.561110865324735641e-03
-2.823034767061471939e-03
-4.237039946019649506e-03
3.663328709080815315e-03
3.366862656548619270e-04
-6.065376568585634232e-03
-6.093852687627077103e-03
4.544476512819528580e-03
-1.405519898980855942e-03
-2.310382202267646790e-03
7.293052505701780319e-03
8.110917173326015472e-03
-3.276359988376498222e-03
8.053251542150974274e-03
-7.731227669864892960e-03
-3.606683574616909027e-03
-2.540963236242532730e-03
-7.715168874710798264e-03
-3.733482910320162773e-03
-9.846732718870043755e-04
-1.260527758859097958e-03
-8.309450931847095490e-03
7.523978711105883121e-04
-1.954732579179108143e-04
-1.030424423515796661e-02
7.726048352196812630e-04
-2.967910608276724815e-03
-3.484933637082576752e-03
1.936745643615722656e-02
-1.091851736418902874e-03
6.775313988327980042e-03
6.908559589646756649e-04
-9.220153093338012695e-03
2.142659854143857956e-03
-2.250764082418754697e-04
5.154029931873083115e-04
6.352308555506169796e-04
-1.088366750627756119e-02
3.858564887195825577e-03
-1.786983630154281855e-04
8.874323219060897827e-03
-2.786963479593396187e-03
3.937444183975458145e-03
9.672315791249275208e-03
5.859753116965293884e-03
6.851969286799430847e-03
3.764987923204898834e-03
6.599360611289739609e-03
1.568612293340265751e-03
8.286691736429929733e-04
5.441971006803214550e-04
-1.832789042964577675e-03
1.620209193788468838e-03
-1.226983848027884960e-03
-4.271447658538818359e-03
3.224969608709216118e-03
1.034520391840487719e-04
-1.420862507075071335e-03
-9.736149222590029240e-04
4.002007655799388885e-03
-3.857714124023914337e-03
-5.897835828363895416e-03
-1.403472851961851120e-02
1.966011244803667068e-03
1.202705409377813339e-02
1.148234866559505463e-02
3.812991548329591751e-03
3.656385932117700577e-03
1.347140496363863349e-04
3.729690099135041237e-03
-8.385800756514072418e-04
-1.926652505062520504e-03
7.359540555626153946e-03
-3.085056319832801819e-03
-2.791228704154491425e-03
-2.044624183326959610e-03
-1.618741807760670781e-04
1.799963298253715038e-03
-2.941519021987915039e-03
7.292563095688819885e-03
-2.503161551430821419e-03
-2.293131081387400627e-03
-3.874902380630373955e-03
9.297571377828717232e-04
-1.332556828856468201e-02
1.075166510418057442e-03
5.828771274536848068e-03
-2.063388936221599579e-03
-2.959720091894268990e-03
1.586678408784791827e-04
5.960206966847181320e-03
-2.320274012163281441e-03
1.772756921127438545e-03
3.170788404531776905e-04
-2.374269068241119385e-02
-1.081101223826408386e-02
-4.815217107534408569e-03
3.747693262994289398e-03
1.655954285524785519e-03
4.861837252974510193e-03
-2.290912205353379250e-03
-1.070471480488777161e-03
1.235472853295505047e-03
-2.289593685418367386e-03
-5.218625999987125397e-03
3.708763979375362396e-03
2.549221040681004524e-03
-5.126695148646831512e-03
1.052401377819478512e-03
-5.217493977397680283e-03
-6.239613518118858337e-03
-7.707798795308917761e-05
1.606349274516105652e-02
-3.342922544106841087e-03
4.610871474142186344e-05
6.251757498830556870e-03
6.989500019699335098e-03
-1.641801791265606880e-04
-3.925939556211233139e-03
1.928504789248108864e-03
6.481338758021593094e-03
7.172146812081336975e-03
-1.677015097811818123e-03
3.272597910836338997e-03
-3.000729251652956009e-03
-3.160073421895503998e-03
-4.679895646404474974e-04
1.473272335715591908e-03
3.241615137085318565e-03
7.323609665036201477e-03
-2.125599654391407967e-03
-3.915067354682832956e-04
2.020309679210186005e-03
5.798912141472101212e-03
6.280021741986274719e-03
6.229725666344165802e-03
9.256703779101371765e-03
2.901766449213027954e-03
-2.555026207119226456e-03
3.036225680261850357e-04
5.151919904164969921e-04
-2.661318285390734673e-03
-1.567607745528221130e-03
-1.480580191127955914e-03
1.317881862632930279e-03
3.080028295516967773e-02
-7.209207396954298019e-03
7.170658558607101440e-03
2.852343022823333740e-03
-6.435794639401137829e-04
-6.361166015267372131e-03
-1.214768271893262863e-03
-2.494205953553318977e-03
8.864606730639934540e-03
7.240716367959976196e-03
7.329335785470902920e-04
-4.239838104695081711e-03
4.826368764042854309e-03
3.076708875596523285e-02
5.982731934636831284e-03
-4.121308214962482452e-03
5.104774609208106995e-03
3.219886682927608490e-03
1.453884993679821491e-03
1.144772046245634556e-03
-4.832918755710124969e-03
2.820622408762574196e-03
2.792451996356248856e-03
2.983725396916270256e-03
5.657922010868787766e-03
-5.177014507353305817e-03
2.884099958464503288e-04
-2.772369887679815292e-03
-4.702514037489891052e-03
-3.690473677124828100e-04
-2.797074150294065475e-03
-4.512498620897531509e-03
-2.311181742697954178e-03
6.230954080820083618e-03
7.884665392339229584e-04
4.312550649046897888e-03
-7.922727381810545921e-04
4.781151656061410904e-03
-9.948426857590675354e-03
-1.500061829574406147e-03
3.605209290981292725e-03
-6.793024949729442596e-03
-4.069296177476644516e-03
-2.271577948704361916e-03
6.896653678268194199e-03
5.562750622630119324e-03
6.193525623530149460e-04
-6.022500805556774139e-03
2.758437185548245907e-04
-5.734422593377530575e-04
-5.827896296977996826e-03
-2.310367999598383904e-03
-3.163696965202689171e-04
-2.639590529724955559e-03
-6.628683768212795258e-03
-1.280132681131362915e-03
3.042851109057664871e-03
-8.610645309090614319e-03
-1.133847888559103012e-02
1.439893618226051331e-03
3.633727319538593292e-03
4.872270859777927399e-03
5.205354653298854828e-03
1.040954142808914185e-03
1.828264677897095680e-03
-7.615387905389070511e-03
2.057095617055892944e-02
2.292840508744120598e-03
-1.493585761636495590e-03
4.339527804404497147e-03
1.155002159066498280e-03
1.174777559936046600e-02
-7.677869871258735657e-03
-3.685709554702043533e-03
2.540561370551586151e-03
-2.675492549315094948e-03
-1.638284535147249699e-03
9.140470996499061584e-03
3.679937683045864105e-03
-3.071188926696777344e-03
-8.733515627682209015e-03
4.101317899767309427e-04
