-7.019471842795610428e-03
8.404866605997085571e-02
-3.420719178393483162e-03
-1.958654960617423058e-03
1.325480081140995026e-02
2.327546477317810059e-02
9.162286296486854553e-03
-1.594829931855201721e-02
2.088427543640136719e-03
7.641539443284273148e-03
-1.724275201559066772e-02
-1.492546405643224716e-02
2.372144907712936401e-02
1.069280691444873810e-02
-2.520341658964753151e-03
-5.443187896162271500e-03
-1.145091839134693146e-02
5.146464798599481583e-03
2.481156028807163239e-03
3.476816928014159203e-03
-2.154142362996935844e-03
-1.678799162618815899e-03
-1.419367641210556030e-02
-4.775667563080787659e-03
-1.255133375525474548e-02
-2.503953315317630768e-02
-1.528181228786706924e-02
-1.201063394546508789e-02
5.078431218862533569e-03
2.012731693685054779e-02
5.867626518011093140e-03
-6.121066864579916000e-03
-1.535345218144357204e-03
-4.376358119770884514e-04
-4.839209723286330700e-04
5.262341350317001343e-03
2.878287341445684433e-03
2.402966283261775970e-02
7.492057979106903076e-03
-6.130998209118843079e-02
5.636530462652444839e-03
9.419232606887817383e-03
-8.218611590564250946e-03
9.826564230024814606e-03
6.196164060384035110e-03
3.817926347255706787e-02
-3.926057834178209305e-03
-4.477344336919486523e-04
-4.581531975418329239e-03
1.864906214177608490e-02
9.002167731523513794e-03
1.041298825293779373e-02
9.524603374302387238e-03
-2.242916263639926910e-02
1.310175633989274502e-03
-5.128443613648414612e-02
-1.060387957841157913e-02
2.300078235566616058e-02
-6.782629992812871933e-03
-2.526125870645046234e-03
1.569955982267856598e-02
-1.431470923125743866e-02
-2.718693343922495842e-03
-6.045677233487367630e-03
1.427241694182157516e-02
-4.264717921614646912e-03
4.425995051860809326e-03
2.416664501652121544e-03
-9.313651360571384430e-03
7.260969839990139008e-03
1.494784280657768250e-02
-1.701383851468563080e-02
8.475462091155350208e-04
-1.453901641070842743e-02
-2.957003016490489244e-04
-3.121674293652176857e-03
3.824460087344050407e-03
3.668754361569881439e-04
-2.556668594479560852e-03
3.881170600652694702e-02
1.275550387799739838e-02
-8.979819715023040771e-03
-1.871701912023127079e-03
3.544230945408344269e-03
-3.951692208647727966e-02
-2.110799541696906090e-03
1.924592442810535431e-02
-4.556427150964736938e-02
2.701010368764400482e-02
6.982094608247280121e-03
-1.551630720496177673e-02
1.914702169597148895e-02
-8.838277310132980347e-03
-1.555984560400247574e-02
4.259617999196052551e-04
-7.321684621274471283e-03
1.818195730447769165e-02
-9.037477895617485046e-03
-1.185791194438934326e-02
7.772043347358703613e-03
2.842856198549270630e-02
2.246522530913352966e-02
-7.959801703691482544e-03
-6.153148598968982697e-03
-1.479746773838996887e-02
-2.386600477620959282e-03
6.158676464110612869e-03
2.084943698719143867e-03
1.064021256752312183e-03
3.967045806348323822e-03
6.318762898445129395e-02
-1.298363879323005676e-02
4.463017452508211136e-03
-1.614652574062347412e-02
-2.962953038513660431e-02
-3.262460930272936821e-03
1.264157332479953766e-02
5.947354249656200409e-03
9.777264203876256943e-04
1.151927467435598373e-02
7.816015742719173431e-03
2.119788900017738342e-02
7.052617147564888000e-03
1.442517247051000595e-02
-1.965969987213611603e-02
-1.965089328587055206e-02
-1.076733414083719254e-02
2.359238825738430023e-02
