-6.502243690192699432e-03
3.248610766604542732e-03
7.298497017472982407e-03
6.288506556302309036e-03
1.608052290976047516e-02
8.947883732616901398e-03
-2.180238440632820129e-02
-5.841934587806463242e-03
-1.201279810629785061e-03
1.164715620689094067e-03
-9.787265211343765259e-03
-1.732242526486515999e-03
8.047657087445259094e-03
1.575903780758380890e-02
-4.154865164309740067e-03
-4.371322691440582275e-03
4.007976502180099487e-03
-5.444885697215795517e-03
-9.425930329598486423e-04
-7.415062282234430313e-03
6.465786602348089218e-03
6.072075571864843369e-03
-4.059479571878910065e-03
-6.308395415544509888e-03
5.926045196247287095e-05
-2.677761018276214600e-03
2.135675633326172829e-03
-7.005123188719153404e-04
-1.184718683362007141e-03
7.227221038192510605e-03
8.000497706234455109e-03
1.092084124684333801e-02
1.722864457406103611e-03
3.154338104650378227e-03
8.441966929240152240e-05
5.218713777139782906e-04
1.004672516137361526e-02
2.979353535920381546e-03
-2.858571009710431099e-03
1.011321227997541428e-02
-2.279339171946048737e-02
-1.321242097765207291e-02
1.851790025830268860e-02
-2.438083291053771973e-03
9.901289828121662140e-03
-1.374166109599173069e-03
-1.872593769803643227e-03
3.617785638198256493e-03
3.406918840482831001e-03
1.260010758414864540e-03
-6.401999387890100479e-03
2.549913479015231133e-03
6.548706907778978348e-03
8.290146477520465851e-03
-1.829697517678141594e-03
-1.338703557848930359e-02
6.694820243865251541e-03
-2.782098716124892235e-03
-6.281543523073196411e-03
2.753201639279723167e-03
7.376382593065500259e-03
2.617287682369351387e-04
4.099541343748569489e-03
-1.877285074442625046e-03
-1.104951516026630998e-04
-3.917132038623094559e-03
-3.340470604598522186e-03
1.061241514980792999e-02
-4.595041973516345024e-04
-1.298655848950147629e-02
2.596927806735038757e-03
2.215292304754257202e-02
2.353670861339196563e-04
4.916020203381776810e-03
5.407424643635749817e-03
-4.083956126123666763e-03
-1.113189477473497391e-02
6.011901888996362686e-03
5.246280226856470108e-03
2.262413036078214645e-04
2.217435277998447418e-02
7.187239360064268112e-03
4.101348109543323517e-03
-1.624035835266113281e-02
-8.893178310245275497e-04
1.702228561043739319e-03
2.382283710176125169e-04
1.025372091680765152e-02
-5.679269088432192802e-04
-7.998695597052574158e-03
6.750221829861402512e-03
-7.159699220210313797e-03
4.024675115942955017e-03
3.918974660336971283e-03
-1.034457120113074780e-03
5.573619157075881958e-03
1.857271231710910797e-02
-3.801910206675529480e-03
-2.023827400989830494e-04
-1.798370620235800743e-03
6.399424280971288681e-03
-8.023452013731002808e-03
3.136265091598033905e-03
1.368052093312144279e-03
5.215881858021020889e-03
-4.906324204057455063e-03
4.191840707790106535e-04
-5.588796921074390411e-03
-6.548244506120681763e-03
-2.176703652366995811e-03
-1.030178042128682137e-03
-2.741701900959014893e-03
-2.063535212073475122e-04
-1.621101051568984985e-02
1.072165323421359062e-03
6.898713763803243637e-03
8.473781868815422058e-03
-4.263075999915599823e-03
-1.536760479211807251e-03
-9.748094715178012848e-03
1.665236195549368858e-03
1.723117311485111713e-03
-5.275188945233821869e-03
1.244924776256084442e-02
6.102885818108916283e-04
-7.947083562612533569e-03
2.342444844543933868e-03
5.557251628488302231e-03
