3.488136862870305777e-04
4.140556557103991508e-04
1.999427040573209524e-04
4.118339275009930134e-04
-8.226105128414928913e-04
-1.650240883463993669e-04
8.191487722797319293e-05
3.747068694792687893e-05
-2.293746947543695569e-04
-1.657495595281943679e-04
4.618782841134816408e-04
1.282325538340955973e-04
1.508089626440778375e-04
5.976252941763959825e-05
5.748293478973209858e-04
-6.377976969815790653e-04
2.029540482908487320e-04
4.184593126410618424e-05
-5.331551074050366879e-04
5.950829945504665375e-04
2.166216028854250908e-03
7.821329054422676563e-04
-4.548589640762656927e-04
6.870298966532573104e-05
-2.547903932281769812e-05
2.039855025941506028e-04
-1.057636225596070290e-03
7.400569738820195198e-04
8.167665801011025906e-04
2.788604469969868660e-04
-6.296875653788447380e-05
1.862513017840683460e-04
4.171183973085135221e-04
5.777007318101823330e-04
7.796762656653299928e-05
-8.096799720078706741e-04
1.117160310968756676e-03
2.626913010317366570e-05
-1.695211976766586304e-03
-8.889207965694367886e-04
-9.154209401458501816e-04
-1.833252172218635678e-04
1.034402157529257238e-04
8.420850576840166468e-07
1.005693848128430545e-04
3.840599092654883862e-04
-9.568278328515589237e-04
-1.089996294467709959e-04
-1.466823159717023373e-04
5.322301876731216908e-04
5.528082328964956105e-05
3.026221820618957281e-04
6.853691302239894867e-04
3.660512447822839022e-05
-2.896270598284900188e-04
3.051882085856050253e-04
-7.432861602865159512e-04
-2.269709657412022352e-04
-4.603730922099202871e-04
-1.701691537164151669e-03
-3.136855666525661945e-04
3.308250452391803265e-04
1.166079709946643561e-05
-3.299687232356518507e-04
1.219096127897500992e-03
6.449927459470927715e-04
4.921693471260368824e-04
9.095111163333058357e-04
9.951929096132516861e-04
4.210068727843463421e-04
-2.339044585824012756e-04
4.638359532691538334e-04
1.286362821701914072e-04
-5.869448614248540252e-06
-5.890811371500603855e-05
2.267060335725545883e-03
-1.194119569845497608e-03
1.152717668446712196e-04
-1.415197184542194009e-04
4.316496488172560930e-04
4.069187561981379986e-04
3.894357942044734955e-04
7.390741375274956226e-04
2.820026711560785770e-04
-8.521073032170534134e-04
4.693338414654135704e-04
-6.729262531735002995e-04
-6.391845527105033398e-04
-1.452737924410030246e-04
7.841349724913015962e-05
-5.826256237924098969e-04
1.297195092774927616e-03
-3.453376994002610445e-04
-3.751947078853845596e-04
-1.349527970887720585e-03
2.248362725367769599e-04
5.547531181946396828e-04
-1.161374020739458501e-04
-5.166573464521206915e-05
4.281695582903921604e-04
-1.022284050122834742e-04
-1.507045584730803967e-03
6.284672999754548073e-04
1.419649488525465131e-04
-9.703497198643162847e-05
-8.287397940875962377e-05
-6.615898018935695291e-05
-8.636416168883442879e-04
4.681586287915706635e-04
-1.205075895995832980e-04
1.392090489389374852e-04
-9.062933713721577078e-06
-4.298287676647305489e-04
-7.161505054682493210e-04
-1.628057216294109821e-03
7.536012708442285657e-05
-2.913544885814189911e-04
-4.597535298671573400e-04
2.076412085443735123e-03
-1.581617834744974971e-04
-1.076689022738719359e-05
1.405981456628069282e-04
-6.747346196789294481e-05
-2.512068895157426596e-04
2.855212078429758549e-04
-6.829802878201007843e-04
-1.329980441369116306e-04
-4.830487014260143042e-04
3.253220638725906610e-04
-2.914178476203233004e-04
-1.599821494892239571e-03
-5.998731940053403378e-04
5.858737495145760477e-05
1.143988454714417458e-03
-5.157014238648116589e-04
5.127832409925758839e-04
-3.485755878500640392e-04
2.054604919976554811e-05
1.976124804059509188e-05
3.568663305486552417e-05
7.538284262409433722e-05
1.159838400781154633e-03
6.754767382517457008e-04
1.677468098932877183e-04
2.746343961916863918e-04
3.837100521195679903e-04
5.151647201273590326e-05
-1.748266367940232158e-04
3.766021109186112881e-04
-6.136152660474181175e-05
6.600409979000687599e-04
-4.098226781934499741e-04
9.853690862655639648e-04
-4.967080167261883616e-05
4.294928221497684717e-04
7.889653788879513741e-04
-6.808355101384222507e-05
-1.245601160917431116e-04
-1.145138376159593463e-04
-1.050998922437429428e-03
4.791485116584226489e-05
-4.816431028302758932e-04
7.854536524973809719e-04
8.489572064718231559e-05
1.136002683779224753e-04
1.955120387719944119e-04
6.687706336379051208e-04
2.736320893745869398e-04
-2.025622379733249545e-04
-1.250341301783919334e-05
5.846428102813661098e-04
-6.500974996015429497e-04
9.696433698991313577e-05
-7.692789658904075623e-04
-5.334685556590557098e-04
-1.112114638090133667e-03
-2.500513510312885046e-04
1.774740230757743120e-04
1.274130481760948896e-04
-1.484311651438474655e-04
3.539120662026107311e-04
3.935676650144159794e-04
-1.976831498495812411e-07
1.189069938845932484e-03
3.965246723964810371e-04
4.883187357336282730e-04
1.276024850085377693e-04
1.182271662401035428e-04
-4.898243350908160210e-04
1.501520455349236727e-04
-3.555598377715796232e-04
-6.683709216304123402e-04
-2.024033019552007318e-04
2.273818536195904016e-04
3.718751540873199701e-04
-4.780839662998914719e-04
8.362266235053539276e-04
3.796375531237572432e-04
-2.888684975914657116e-04
6.732422480126842856e-05
-6.004272145219147205e-04
2.250657271360978484e-04
4.070294016855768859e-05
-2.761836512945592403e-04
-1.427250826964154840e-04
1.092054517357610166e-04
2.261433837702497840e-05
1.595618959981948137e-04
-7.083962555043399334e-04
-8.208554936572909355e-04
-2.870036696549504995e-04
1.236988813616335392e-03
1.037143592839129269e-04
-2.050687326118350029e-04
2.556513936724513769e-04
7.081036164890974760e-05
-6.556798471137881279e-04
-2.572816447354853153e-05
-2.941500861197710037e-05
6.372791540343314409e-05
1.224212610395625234e-04
4.747242783196270466e-04
8.844862895784899592e-05
9.969566599465906620e-05
-1.427895622327923775e-04
-3.865937105729244649e-05
4.981645615771412849e-04
3.005418402608484030e-04
-4.571491444949060678e-04
-7.604361599078401923e-05
-1.273995731025934219e-04
9.698380017653107643e-04
-3.914914850611239672e-04
4.081067527295090258e-05
1.234504394233226776e-03
1.840066513977944851e-03
4.684404120780527592e-04
-6.255682092159986496e-04
-8.754846057854592800e-04
-8.479692769469693303e-05
-5.000239980290643871e-05
-1.192468480439856648e-04
-1.919379341416060925e-03
-7.564070401713252068e-04
1.958255743375048041e-04
4.053052980452775955e-04
-1.913241612783167511e-05
1.462770596845075488e-04
2.104331360897049308e-04
-1.594575354829430580e-03
2.975748793687671423e-04
6.645038956776261330e-05
1.248470216523855925e-04
-4.395028227008879185e-04
-1.145835267379879951e-04
5.153474558028392494e-05
