-5.957663233857601881e-05
-1.534460752736777067e-04
7.001985213719308376e-04
1.526513515273109078e-04
-7.384200580418109894e-04
-2.442756434902548790e-03
8.463011472485959530e-04
1.185225992230698466e-04
1.289721112698316574e-03
-2.551855053752660751e-03
-5.382352392189204693e-04
1.119035645388066769e-03
-4.929141723550856113e-04
1.350804581306874752e-03
-2.372600138187408447e-03
6.676577613689005375e-04
2.084492938593029976e-03
-2.230103826150298119e-03
6.658182828687131405e-04
-2.329763228772208095e-04
-1.405529677867889404e-03
-8.291441481560468674e-04
2.029975439654663205e-04
1.115674036554992199e-03
6.762558768969029188e-05
-5.152138764970004559e-04
8.113340300042182207e-05
-2.352289622649550438e-03
-4.856814121012575924e-05
-6.587771931663155556e-04
-2.997251227498054504e-03
2.150547807104885578e-04
-3.585383528843522072e-03
4.201330011710524559e-04
-7.170203025452792645e-04
2.046922163572162390e-04
1.316659967415034771e-03
1.079638605006039143e-04
-6.600262131541967392e-04
2.152972156181931496e-03
4.443011421244591475e-04
2.770176390185952187e-03
1.023960299789905548e-03
-7.651086780242621899e-04
2.147458289982751012e-04
3.375086467713117599e-03
6.280153989791870117e-03
-1.715346879791468382e-04
-4.397040811454644427e-06
-3.120352339465171099e-04
6.089290254749357700e-04
1.520566758699715137e-03
2.970786998048424721e-03
-1.754627679474651814e-03
8.012668113224208355e-04
-1.973580336198210716e-03
2.417764160782098770e-03
1.703224261291325092e-03
-7.560655358247458935e-04
-9.904227772494778037e-05
-6.729028536938130856e-04
2.931917551904916763e-03
-1.058338908478617668e-03
-4.658150428440421820e-04
-4.284971219021826982e-04
1.117202686145901680e-03
-4.878149484284222126e-04
-6.606453825952485204e-05
1.471302472054958344e-03
-3.065673809032887220e-04
-3.860448487102985382e-04
-3.013433888554573059e-03
-6.683010142296552658e-04
3.443963360041379929e-03
2.229773905128240585e-03
-3.575218725018203259e-04
-1.160642714239656925e-03
4.703610320575535297e-04
8.667908841744065285e-04
7.077613263390958309e-04
1.155141042545437813e-03
5.676676519215106964e-03
1.681201101746410131e-04
4.410975147038698196e-03
3.433306847000494599e-05
-2.561383182182908058e-03
2.251679543405771255e-04
-1.061622402630746365e-03
4.646418674383312464e-04
-3.689472214318811893e-04
1.030967541737481952e-04
-6.579547771252691746e-04
1.152556156739592552e-03
-1.821128535084426403e-03
-6.648011622019112110e-04
9.238458587788045406e-04
9.488930809311568737e-04
-2.593170851469039917e-03
1.347179291769862175e-03
-7.025511149549856782e-05
-6.026014452800154686e-04
2.083742292597889900e-03
6.317114457488059998e-03
6.388605688698589802e-04
-1.748035312630236149e-03
-9.798361919820308685e-03
3.977926389779895544e-04
1.556235714815557003e-03
-1.772258197888731956e-03
-5.579757271334528923e-04
-1.303264987654983997e-03
4.802174866199493408e-03
4.027442075312137604e-03
-3.462135500740259886e-04
1.852160086855292320e-03
-4.359916201792657375e-04
-1.792537397705018520e-03
-1.932545856107026339e-04
-4.105287138372659683e-03
-3.525523236021399498e-03
-4.213425854686647654e-04
2.399585500825196505e-04
4.276131949154660106e-05
-3.873064648360013962e-03
-2.383920073043555021e-04
-4.730324260890483856e-03
1.714028039714321494e-04
-6.731824250891804695e-04
5.349593120627105236e-04
1.041735522449016571e-03
6.110083777457475662e-04
6.377735990099608898e-04
-1.604577410034835339e-03
-8.065756410360336304e-04
-1.376162166707217693e-03
6.234564352780580521e-05
8.091040654107928276e-04
-5.260174162685871124e-03
-8.790448191575706005e-04
-6.264400435611605644e-04
1.954557810677215457e-04
-9.666999685578048229e-04
3.332361811771988869e-04
-2.890049363486468792e-04
9.120087488554418087e-04
3.516794182360172272e-03
-2.623284235596656799e-04
-1.733109354972839355e-03
-2.188742946600541472e-04
-2.454005589243024588e-04
2.434315247228369117e-04
-7.921449723653495312e-04
-1.773340511135756969e-03
-2.743029617704451084e-04
1.103005604818463326e-03
-4.580476088449358940e-04
-1.548794331029057503e-03
1.631536288186907768e-03
2.772263716906309128e-03
-3.700192552059888840e-03
3.017217153683304787e-03
-1.683108508586883545e-03
-6.278054206632077694e-05
-1.140385793405584991e-04
2.922136627603322268e-04
-3.245516680181026459e-03
7.672454376006498933e-05
-2.936961536761373281e-04
-6.265324918786063790e-05
3.695219056680798531e-04
-7.592779729748144746e-05
-1.178333535790443420e-03
-2.330151852220296860e-03
3.023067722097039223e-03
-2.223797491751611233e-04
9.494710830040276051e-04
-1.203477033413946629e-03
8.362529333680868149e-04
1.124363916460424662e-04
4.477989859879016876e-03
7.608749438077211380e-04
1.372501836158335209e-03
-8.059912361204624176e-04
-1.590138650499284267e-03
-2.622147985675837845e-05
-8.838299545459449291e-04
4.631814954336732626e-04
5.706342053599655628e-04
1.061965012922883034e-03
-2.306506357854232192e-04
1.076709711924195290e-03
1.697890402283519506e-04
2.274550031870603561e-03
7.994971238076686859e-04
-7.854737341403961182e-04
-3.903226926922798157e-03
6.211509025888517499e-05
3.301968390587717295e-04
1.208746325573883951e-04
-1.159041421487927437e-03
-4.444769292604178190e-04
9.823510190472006798e-04
6.623446824960410595e-04
-1.539417076855897903e-03
-4.589599848259240389e-04
3.167563991155475378e-04
-3.184699744451791048e-04
-4.118175245821475983e-03
-3.894441761076450348e-03
9.871043730527162552e-04
-1.169841416412964463e-04
-6.403834559023380280e-04
1.303803757764399052e-03
1.173450029455125332e-03
-9.834574302658438683e-04
-6.781796109862625599e-04
1.569666899740695953e-03
3.841846191789954901e-04
-4.449812113307416439e-04
-4.153716727159917355e-04
6.032700184732675552e-03
-9.743343107402324677e-04
4.207993624731898308e-04
-2.094747265800833702e-03
1.105352491140365601e-02
-1.024313969537615776e-03
-3.892430686391890049e-04
6.530215614475309849e-04
-1.240216894075274467e-03
-7.620156393386423588e-04
-1.482419902458786964e-04
-7.411976694129407406e-04
3.680433437693864107e-04
-7.459672051481902599e-04
-4.227802273817360401e-04
4.344367771409451962e-04
-5.748076364398002625e-04
-9.058528812602162361e-04
8.358784252777695656e-04
3.061531344428658485e-03
-1.021832926198840141e-03
3.554118331521749496e-03
-1.993276237044483423e-04
2.188119542552158237e-04
-2.125628758221864700e-03
1.555192138766869903e-04
-3.928740916308015585e-04
2.867167058866471052e-04
1.472254400141537189e-03
-2.816363470628857613e-03
-4.926369874738156796e-04
-1.677975378697738051e-04
5.604039179161190987e-04
2.708097745198756456e-04
-8.814526372589170933e-04
-7.669961632927879691e-05
