1.939595967996865511e-04
-5.447872536024078727e-05
1.938065361173357815e-05
3.190611605532467365e-04
1.070548431016504765e-03
-1.953039318323135376e-03
-7.510594441555440426e-04
-6.473621469922363758e-04
-3.024170873686671257e-04
-4.436783201526850462e-04
-1.515118055976927280e-04
9.819237748160958290e-04
2.518434775993227959e-04
3.828574903309345245e-03
-5.068184691481292248e-04
3.321279946248978376e-04
4.527838900685310364e-04
-1.590890227816998959e-03
-2.272959973197430372e-04
-1.025346457026898861e-03
-5.864947452209889889e-04
6.810627528466284275e-04
-6.694827461615204811e-04
2.488986356183886528e-04
-1.307800528593361378e-03
7.569808512926101685e-04
-5.202731117606163025e-04
1.148677110904827714e-04
-4.902557338937185705e-05
-7.575109484605491161e-04
-7.487236289307475090e-04
-7.239675323944538832e-05
9.832659270614385605e-04
5.145964096300303936e-04
-4.174251516815274954e-04
-1.824183418648317456e-04
-1.256106537766754627e-03
1.200219921884126961e-04
2.236930740764364600e-04
1.382782007567584515e-03
-2.144363708794116974e-03
2.839412540197372437e-03
1.091353260562755167e-04
-4.737418203148990870e-04
-6.279420631472021341e-05
-1.367692602798342705e-03
1.122965756803750992e-02
8.908120071282610297e-05
2.258708846056833863e-04
-4.407823435030877590e-04
8.792025619186460972e-04
1.102686394006013870e-03
4.416327574290335178e-04
-1.538173295557498932e-03
-9.179681073874235153e-04
-8.746997918933629990e-04
3.821470309048891068e-04
-1.361797796562314034e-03
-6.271851598285138607e-04
-1.333630789304152131e-04
1.328053418546915054e-03
1.078342029359191656e-05
-5.930833867751061916e-04
-2.316170284757390618e-04
-1.332867657765746117e-03
-1.216996111907064915e-03
1.913573942147195339e-03
1.310892868787050247e-03
3.108119708485901356e-04
8.877065265551209450e-04
-6.345590227283537388e-04
-1.529660192318260670e-03
2.006544731557369232e-03
1.364121679216623306e-03
-6.112863309681415558e-03
-8.046594448387622833e-04
-2.185718389227986336e-03
1.077922759577631950e-03
-5.382389063015580177e-04
-2.624449261929839849e-04
1.966945128515362740e-03
3.225435502827167511e-03
2.159009920433163643e-03
1.620932831428945065e-03
9.778467938303947449e-04
-4.747205821331590414e-04
3.454856050666421652e-05
1.920060894917696714e-04
-3.199276980012655258e-04
1.356696709990501404e-03
-5.381647497415542603e-04
3.344953292980790138e-04
-1.920854556374251842e-04
-1.289458945393562317e-03
-4.158306401222944260e-04
-6.426992476917803288e-04
9.406166500411927700e-04
6.289882003329694271e-05
5.698268068954348564e-04
7.257661491166800261e-05
5.652827094309031963e-04
7.602759287692606449e-04
-3.696557250805199146e-04
3.763214452192187309e-03
8.293542196042835712e-04
-4.942028783261775970e-03
2.670172543730586767e-04
3.052467654924839735e-04
-3.763371205423027277e-05
2.510331105440855026e-04
7.190617616288363934e-04
3.156216582283377647e-03
1.968501601368188858e-03
-4.333558317739516497e-04
-1.392749021761119366e-03
1.893682201625779271e-04
-1.745515735819935799e-03
-3.270042943768203259e-04
-3.295925853308290243e-04
4.744283796753734350e-04
1.292493834625929594e-04
-1.447373419068753719e-03
4.285735776647925377e-04
-1.890495652332901955e-03
1.003799261525273323e-03
7.676394307054579258e-05
6.919897859916090965e-04
-1.408413634635508060e-03
1.131606055423617363e-03
6.697292556054890156e-04
-5.961816059425473213e-04
1.012790366075932980e-03
-1.228448003530502319e-03
-3.472994547337293625e-03
9.954983834177255630e-04
-6.596688181161880493e-04
-3.793716896325349808e-04
1.608352526091039181e-03
-1.649281875870656222e-05
1.320788520388305187e-03
-2.124874386936426163e-03
-3.900318988598883152e-04
-1.278381329029798508e-03
-3.144012007396668196e-04
1.044070464558899403e-03
-1.130594639107584953e-03
-3.038463182747364044e-04
-1.250736764632165432e-03
-2.184654353186488152e-03
-6.550077232532203197e-04
1.927083940245211124e-03
-1.340077491477131844e-03
-1.504693878814578056e-03
4.183738026767969131e-03
4.526844713836908340e-04
2.546967516536824405e-05
-1.970543380593881011e-04
1.699789660051465034e-03
1.409733667969703674e-03
-2.281419001519680023e-03
6.563282222487032413e-04
1.761595020070672035e-03
1.006917678751051426e-03
4.239240079186856747e-04
7.566897547803819180e-04
1.544912345707416534e-03
-1.496348530054092407e-03
-1.840211800299584866e-03
3.469728981144726276e-04
-8.789175190031528473e-04
1.473320531658828259e-03
-1.935297972522675991e-03
3.837654076050966978e-04
8.137738332152366638e-04
-2.843301335815340281e-04
1.180378021672368050e-03
1.582644064910709858e-03
-3.007425402756780386e-04
3.063586191274225712e-04
1.075920532457530499e-03
5.297302850522100925e-04
1.162391039542853832e-03
-3.693385806400328875e-04
-3.210561408195644617e-04
2.098310797009617090e-04
-6.196839240146800876e-05
-5.698542227037250996e-04
-9.582588681951165199e-04
1.853412832133471966e-03
-9.011502261273562908e-04
-6.062115426175296307e-04
3.077276342082768679e-04
6.297038053162395954e-04
-1.701021799817681313e-03
-7.279074634425342083e-04
-2.596597885712981224e-03
4.017013907287037000e-06
6.290526944212615490e-04
1.521996222436428070e-03
9.803896537050604820e-04
-7.176945218816399574e-04
6.310291355475783348e-04
1.137616811320185661e-03
-1.051833154633641243e-03
-6.656611221842467785e-04
-2.074684161925688386e-04
-2.606946800369769335e-04
-1.065073069185018539e-03
-1.013779779896140099e-03
-1.918463094625622034e-04
1.013993984088301659e-03
-2.433868794469162822e-04
4.145486163906753063e-04
7.991950958967208862e-03
-2.662686165422201157e-03
-2.003905392484739423e-04
1.638669171370565891e-03
5.880853277631103992e-04
-3.180921776220202446e-04
1.739461877150461078e-04
1.842469326220452785e-03
1.013017259538173676e-03
5.668160156346857548e-04
-1.786876528058201075e-04
4.439682699739933014e-03
-1.980097440537065268e-04
-2.025983994826674461e-03
-1.146967755630612373e-03
-6.239151698537170887e-04
6.656633340753614902e-04
6.935005512787029147e-05
-1.713424921035766602e-03
3.267564345151185989e-03
1.013315632008016109e-03
2.646708628162741661e-03
1.144826761446893215e-03
2.246484364150092006e-04
-7.923630764707922935e-04
-2.961292339023202658e-04
-1.025740173645317554e-03
1.123770955018699169e-03
3.804286243394017220e-04
-5.123317241668701172e-04
-5.876178038306534290e-04
-2.405638340860605240e-03
-2.085236192215234041e-04
-1.482510124333202839e-03
-1.778791920514777303e-04
9.186336683342233300e-06
-8.890823810361325741e-04
9.452915983274579048e-04
9.758597589097917080e-04
-1.166060610557906330e-04
-1.109636214096099138e-04
-2.069977199425920844e-04
2.391889225691556931e-03
