-2.697835676372051239e-03
4.370151145849376917e-04
9.752016048878431320e-04
4.212567873764783144e-04
1.541092642582952976e-04
-2.264352981001138687e-03
-5.022102035582065582e-03
3.478873986750841141e-04
4.559300432447344065e-04
-3.094226820394396782e-03
-7.578636723337695003e-05
6.810546619817614555e-04
4.374947398900985718e-03
2.827744232490658760e-03
3.172148484736680984e-03
7.542278763139620423e-05
-3.693901135193300433e-06
-5.370866274461150169e-04
-5.495147779583930969e-04
3.643923846539109945e-04
-8.770552085479721427e-05
-2.227855380624532700e-03
7.904124446213245392e-03
-2.649605507031083107e-03
-5.335739479050971568e-05
-1.032146974466741085e-03
3.565227845683693886e-03
-3.209030721336603165e-03
9.596304880687966943e-05
-1.316008972935378551e-03
2.603965403977781534e-04
-4.298663698136806488e-04
-1.102165668271481991e-03
-2.203422191087156534e-04
1.528215478174388409e-03
4.526635166257619858e-04
2.692174166440963745e-03
1.734537509037181735e-04
-1.816595467971637845e-04
-2.645836677402257919e-03
7.296336116269230843e-04
2.409698674455285072e-03
2.823532791808247566e-03
-6.242444505915045738e-04
1.549686887301504612e-03
-1.853098161518573761e-03
5.850028246641159058e-03
-4.355558849056251347e-05
1.603998243808746338e-03
8.635682170279324055e-04
-1.661094021983444691e-03
5.369889084249734879e-03
-3.362381365150213242e-03
2.884384244680404663e-03
3.546056541381403804e-05
-6.166151724755764008e-03
3.838032949715852737e-03
-3.162175184115767479e-03
-2.668374916538596153e-03
-6.484357290901243687e-04
-1.021998119540512562e-03
-1.569265266880393028e-03
-3.952102269977331161e-03
1.259702723473310471e-03
-2.409420994808897376e-04
-2.425061102258041501e-04
-5.807550158351659775e-03
1.403290312737226486e-03
-2.526533535274211317e-05
4.603876441251486540e-04
9.994383435696363449e-04
-3.825288964435458183e-03
-1.816414878703653812e-04
-4.567707423120737076e-03
8.506564423441886902e-03
-5.020329728722572327e-03
2.593859564512968063e-03
2.106375992298126221e-03
4.984137922292575240e-05
1.233409420819953084e-04
2.133388625225052238e-04
4.109923262149095535e-03
-6.778987008146941662e-04
9.423280716873705387e-04
3.075566783081740141e-04
-1.283968915231525898e-03
2.070620248559862375e-04
-2.007974078878760338e-03
8.064527064561843872e-04
-1.132364850491285324e-03
7.165850838646292686e-04
-5.338534247130155563e-04
1.235809759236872196e-03
-7.372295367531478405e-04
-2.954303752630949020e-03
5.709661636501550674e-04
4.683682345785200596e-04
1.845057886384893209e-05
2.109537366777658463e-03
5.146624171175062656e-04
3.802943392656743526e-04
4.271373152732849121e-03
2.304656896740198135e-03
3.368490724824368954e-04
1.447056420147418976e-03
-7.029182743281126022e-04
6.152046844363212585e-04
3.972761798650026321e-03
2.514410298317670822e-03
-9.220276842825114727e-04
3.208462148904800415e-03
3.420996014028787613e-03
3.778781683649867773e-04
-3.101415233686566353e-03
-2.313859993591904640e-03
-4.908210248686373234e-04
-5.099690519273281097e-03
-9.295449592173099518e-03
-2.062985440716147423e-03
-2.914645010605454445e-04
-1.618149806745350361e-03
-9.107134537771344185e-04
5.890041393286082894e-06
-1.050518825650215149e-03
9.820437990128993988e-04
-4.422516096383333206e-03
1.042874250560998917e-02
8.313618018291890621e-04
3.712829784490168095e-04
1.412008074112236500e-03
1.825000072130933404e-04
6.635298486799001694e-04
-2.685921208467334509e-04
-1.951011363416910172e-03
5.488907481776550412e-05
-5.365674733184278011e-04
2.048781607300043106e-03
-1.734666409902274609e-03
1.496618206147104502e-04
4.115605843253433704e-04
9.000313584692776203e-04
-2.449986292049288750e-03
1.196675235405564308e-03
-2.982863225042819977e-04
2.733782399445772171e-03
2.104342915117740631e-03
-3.221463412046432495e-04
-8.242361946031451225e-04
-1.189573435112833977e-03
-4.010213306173682213e-04
3.192358184605836868e-03
3.963106719311326742e-04
-6.699511781334877014e-03
2.045271394308656454e-04
-9.746921714395284653e-04
1.423565990990027785e-04
-2.607733185868710279e-04
3.577893134206533432e-03
7.141594775021076202e-03
-4.907533526420593262e-03
6.066694855690002441e-03
-2.068220870569348335e-03
-1.001497730612754822e-03
1.066582044586539268e-03
2.311106072738766670e-04
-1.313399989157915115e-03
-1.523178769275546074e-03
-3.827354870736598969e-03
-1.526512096461374313e-05
3.750509640667587519e-04
3.440414729993790388e-05
-2.921562409028410912e-04
-1.343595795333385468e-04
6.006015464663505554e-04
-5.308883264660835266e-04
2.473990607541054487e-04
-1.387560740113258362e-03
-1.389822456985712051e-03
-5.073485081084072590e-04
3.897932590916752815e-03
-1.758927479386329651e-03
5.133784841746091843e-03
-1.662523252889513969e-03
-7.634981011506170034e-05
2.132653607986867428e-04
-1.375074847601354122e-03
8.725949446670711040e-04
1.679103705100715160e-03
3.507462562993168831e-03
3.060438670217990875e-03
-1.835797564126551151e-03
-6.850595818832516670e-04
-8.342334185726940632e-04
4.438426185515709221e-05
6.477388669736683369e-04
-5.326580256223678589e-03
-1.570534659549593925e-04
-3.420681925490498543e-03
7.078942726366221905e-04
1.004998630378395319e-04
1.087084412574768066e-03
3.615728346630930901e-03
-2.015173959080129862e-04
1.067338045686483383e-03
1.485496060922741890e-03
2.296676539117470384e-04
2.441174437990412116e-04
-2.064494881778955460e-03
-2.705883234739303589e-03
3.733482211828231812e-03
2.033356111496686935e-03
-7.258086698129773140e-04
7.284301682375371456e-04
-8.102152496576309204e-03
-7.447849027812480927e-03
4.252195358276367188e-03
6.059592124074697495e-04
-6.210362189449369907e-04
-1.986255228985100985e-04
7.898947224020957947e-04
6.673894822597503662e-03
-3.480688901618123055e-04
-1.924223179230466485e-04
-5.842972313985228539e-04
-2.571649150922894478e-03
-1.693160040304064751e-03
1.342690084129571915e-04
-2.617240243125706911e-04
-3.223962616175413132e-03
-1.633980136830359697e-04
1.284341706195846200e-04
5.204593762755393982e-04
-3.092881815973669291e-04
-1.351062790490686893e-03
4.729140782728791237e-04
1.495340547990053892e-04
6.120683974586427212e-05
-2.446349710226058960e-03
-2.049087779596447945e-03
2.570525277405977249e-03
-4.710240173153579235e-04
9.525470086373388767e-04
6.615619058720767498e-04
-1.947117270901799202e-03
-3.294916357845067978e-03
-4.959478392265737057e-04
-3.432371420785784721e-03
-1.438935403712093830e-03
-2.857447601854801178e-03
1.341894501820206642e-03
2.763480006251484156e-04
-1.466523390263319016e-03
-4.649999027606099844e-04
1.004352932795882225e-03
-1.314032357186079025e-03
-1.511390873929485679e-04
